{"Network":{"Layers":[{"LayerType":"conv","InputSize":{"X":40,"Y":50,"Z":1},"Parameters":{"Stride":1,"KernelSize":5},"Weights":[{"TDSize":{"X":5,"Y":5,"Z":1},"Data":[[[-0.3887161284173768,0.3179670114052906,0.11754862927995056,1.0709176847847546,0.7625469322919085],[-0.6064958730387897,-0.2219922796360598,0.30805295903734925,0.537662744445774,0.8081073158270707],[-0.7195367429193636,0.031613676098532245,-0.1029935898785585,-0.35215116320233575,0.5156913000082923],[-0.25178638891543814,-0.06004407289804653,-0.3308559962539609,-0.25600837629988665,0.46834817856281336],[-0.19539807362503628,-0.6090892072170438,-0.38414511558533115,-0.4274474548263412,-0.12988656766797274]]]},{"TDSize":{"X":5,"Y":5,"Z":1},"Data":[[[-1.5276934928400352,-1.1252215472920293,-1.437858611985185,-1.2033312741962927,-1.2432494506840974],[-1.021033479359018,-0.766410721101376,-0.7912525318378644,-0.833923932428461,-0.16703324206488254],[0.3226182251255254,0.5729367577554922,0.3411733533256883,-0.32313616872900736,-0.27448166909040944],[0.42743235538191565,0.0850994423711125,0.06876300298601498,0.26665689720418073,0.3632327665829219],[1.9837779922206118,1.9884429822443512,1.4164947788664877,1.5639789830383315,1.0357055506978772]]]},{"TDSize":{"X":5,"Y":5,"Z":1},"Data":[[[0.8214416464895317,0.011519570784029627,-0.28897086907161823,-0.5835965610012729,-0.481091246133736],[0.40617709819424863,0.3710762897651906,-0.4198801289817956,-0.8736611327081126,-0.5834874146087674],[1.2999861139673186,0.347622644613266,-0.20691625827373397,-0.07018211438778843,-0.9567112459313968],[0.9350040676485929,0.19761026293043418,0.4004980508538462,-0.42567429956471625,-0.9738102122263307],[1.493484267722301,0.4141545534301954,0.7913659297229645,-0.5098407394336012,-1.3718994269574607]]]},{"TDSize":{"X":5,"Y":5,"Z":1},"Data":[[[-0.7248764300124465,-0.640446761676125,-0.33672801905444977,-0.4862059516261378,0.5440460039910378],[-0.9288599244686911,-0.2141662566341243,-0.3728769882403052,-0.3089318138652575,0.20388469509089405],[-0.8879567792426378,-0.49312962644183617,0.47472841719506226,0.14863854125380455,0.640515494338798],[-0.5788449636439401,-0.4712898440646397,0.41860962261665663,0.9205421651836193,0.8762170448123197],[0.011429047544596819,-0.27037516303670406,0.6596883132882774,0.774714970530325,1.2273975176237422]]]}],"OutputSize":{"X":0,"Y":0,"Z":0}},{"LayerType":"relu","InputSize":{"X":36,"Y":46,"Z":4},"Parameters":{"Stride":0,"KernelSize":0},"OutputSize":{"X":0,"Y":0,"Z":0}},{"LayerType":"pool","InputSize":{"X":36,"Y":46,"Z":4},"Parameters":{"Stride":2,"KernelSize":2},"OutputSize":{"X":0,"Y":0,"Z":0}},{"LayerType":"fc","InputSize":{"X":18,"Y":23,"Z":4},"Parameters":{"Stride":0,"KernelSize":0},"Weights":[{"TDSize":{"X":1656,"Y":22,"Z":1},"Data":[[[0.3070601266295873,0.2155621976669165,0.42087787605197596,-0.135312237186888,-0.1944484329411155,-0.022947950171669097,-0.478412144469133,0.16869071579480244,0.06626129263292012,0.32192579408750666,-0.21136384851104806,-0.19474254996593016,-0.4018817301200362,-0.28729241126695326,0.4177491763930121,-0.4562696653347172,0.269689374800969,-0.42421504295442064,0.45147496436557977,0.1042800612243973,-0.4694934180473565,0.10967657314399903,0.19822879766708928,-0.04249708039118618,0.2107207262802337,-0.19832417609449582,-0.31876089930213797,-0.43435096106754295,0.40233066393068323,-0.06222519279630495,0.13075354934149186,0.5211003881819831,0.35238215370327364,-0.10424485930538367,-0.12042188269022888,-0.43228854252822535,-0.4587348049660782,0.07039558913663836,0.19900624338295955,-0.10212032617956379,-0.3721106084647122,-0.42413696692111075,0.03103831174420571,-0.3127714187988684,0.40590226503375226,0.3419203527769917,0.3936395104491099,-0.23779884515932345,-0.09060475472599568,0.40450338489312815,-0.46741741174645696,0.024525080999768255,-0.09557356961072343,0.2719855846318486,0.33496547442559094,-0.10428029548492927,-0.11285562824686388,-0.11646572342097589,0.18340924870314163,0.37368254427105185,0.10657996360406348,0.3068726686967867,-0.38121271067817114,-0.22330627052948226,-0.15117329345614033,0.4504978976373283,0.3939122934520715,0.14639945425064668,-0.3043386398695236,-0.22751904320888008,0.33655337100338645,0.04495440033322737,0.35355690610442786,-0.13498285915197133,0.12403070834639712,0.4173467995231427,-0.010615879887042545,-0.14742178112110324,0.022061345736382285,0.10910485329596321,0.2767455517726979,-0.05122746549258005,0.22851977121420988,-0.2329316892227783,0.1841823447418831,-0.09096132742985151,-0.3223746796813823,-0.2342343571626019,-0.4778855030513751,0.1935644888938724,0.40739685761963157,0.30432856173217254,0.25840842566351235,0.3278766405327772,-0.4792100102411539,0.0976614852363746,-0.025047523103639825,-0.30689303745999774,0.4494344744790734,0.2883756438539505,-0.020820636568504136,0.2359282068328486,-0.4698695338975296,0.008446609594029776,0.23651802018500992,0.3292059896064516,0.26092534268733486,0.365621616327775,0.09797206486280123,-0.4724532934390528,0.44305602058221505,-0.40128219979558405,-0.5233016045647606,0.24459679866884612,0.12554419275877204,0.3107722208727604,0.3355312520503064,-0.11653088209589453,0.2657495227726836,-0.14009993529562695,0.2280712649800948,0.04472150295598903,-0.17581263173699754,0.17283675694612197,0.24933910196979972,-0.019489738520234376,-0.4525294302612102,0.34401646282944387,-0.5078600505600854,0.26523241671098974,-0.07576058998022706,-0.3530861234383131,0.1597316570863785,0.0019610703736760784,0.1137091204894451,-0.1772054238580967,0.08840625826913741,0.46741027859110434,0.2342520171381628,0.2081255145431634,-0.13181870039646174,-0.03344250441423713,0.36532094311056273,-0.1371591569659215,-0.15712658927748352,0.2118475018445496,0.17438400183365899,-0.15668430133902284,-0.09068042609580927,-0.37056407035921574,-0.01901018974688415,0.4346834226443382,-0.2415444612355337,-0.20733381527794167,0.47140652731707183,-0.40821105490109844,-0.03694246482834714,0.15331689290275538,-0.2583324329003138,-0.22157638806974306,-0.3497083017315532,-0.3775195369468859,-0.33247122954733455,0.1359088306804694,0.025809666871179082,-0.4142686048184288,-0.013241015728927285,0.0030362825534479055,0.42434993637897406,0.10364136159279999,-0.1692429906118464,-0.14014272023636062,0.09159322183227375,-0.3227275712805725,0.01773687582487032,0.4700818830483468,-0.23967089229162303,-0.23465468703425685,-0.1642102946012692,0.09931162603406161,-0.26802668218510367,0.3156884824601725,0.18906640405306963,-0.28877510162213216,0.2576935826789012,-0.07520141523030635,-0.3702509885828914,0.19220492570272232,0.13518360581171263,0.39628410255416946,0.3760737841118734,0.33367733598010024,0.20595108330419443,0.1444764867163349,-0.3830807256218662,0.4196959237768599,0.37640213114728144,-0.39959489024524586,0.4246479840624187,0.02096459951194183,0.4500081542907174,-0.27631206643334977,0.14237791605204744,-0.03648108644601337,0.3509519584077869,-0.2855009318823996,0.21416472663829092,-0.17350446153436425,-0.4522161054880144,-0.43750373572722573,0.23372568589219456,0.23321152135059656,0.3215945569120299,-0.057332881612639726,0.032756551911522276,-0.358932773983607,0.4157326855014758,0.20594817866170884,0.11075613163824584,0.02326591771076818,0.23629693636041788,-0.28356871995861416,0.13987873488039285,-0.1684543214385399,-0.15026636818269098,0.18267646450079753,-0.10540896943374235,-0.3594942553136308,-0.3318631999195317,0.11270643509133439,0.043445272925701085,0.3626569762692225,-0.2626940426053086,-0.2909055022219277,0.09683038939393113,0.17170445284973326,-0.22934274704576352,-0.43616601135707034,0.44863611701844425,-0.042917392435649425,0.12129263922219446,-0.2197426439919685,-0.04531283642529652,-0.06177060007875439,-0.1057989843015007,0.00950969335994699,-0.3234138969448258,0.0854466495747543,0.3381739317951025,0.15683600979729834,0.24615472094302604,0.24298047599190573,0.007623749544349136,-0.18109896597791386,0.043718932284908085,0.4022374862233061,-0.4143625370927599,0.1942191996101897,-0.48543102162743795,-0.28015662324080803,-0.14554235496535534,0.29213862514728517,0.36006221009860295,-0.17628549450633896,0.45312544558014867,-0.343794468263941,-0.23140112211088557,0.12437421521190242,0.15134620950217598,0.07781129262446437,-0.3344094932550706,0.3961271141681683,-0.32516192195075955,-0.046898156415880014,0.006338361100607333,-0.33811764698820673,0.10166685085746209,-0.17508589505007727,0.155560717983997,0.2834062402305061,-0.0940952637995285,0.1572908614579105,-0.46462897090286126,-0.33897930726544706,0.2703921048715304,-0.06872354273632443,-0.3287374759484808,0.06332126634905595,-0.01725884868554382,-0.300941928278638,0.5060235968784859,-0.07508234499909344,0.04137282684815921,0.1704064445573645,0.24838080812572025,-0.3581948574451121,0.4100968157084255,0.09214624772166645,-0.2443038746318353,0.05419577448261063,-0.1553872445837313,-0.09226930581675721,0.1401581567981988,-0.38284413332196354,-0.2693236684620206,0.3391855015565519,0.07465546392914613,-0.04109532205798203,-0.08932461012310819,0.42690251361027176,-0.2403924598899409,0.43281080380108905,-0.21396841528589358,0.3482356805254935,-0.26985022573869505,-0.12625624120224485,-0.08693594547836368,0.382219753620452,-0.40973551752419396,-0.43707194875681976,0.14554068475309143,-0.3405009927821811,0.17499107055268492,-0.20305777180508525,0.06448271884039716,-0.29152600627645087,-0.057572826689329205,-0.05044471448793172,-0.10358655190003599,0.23093720708812915,0.1654182279552341,-0.4861252340475602,0.2975406327734541,0.5050302378337512,0.3372396670739052,-0.41876881244057085,-0.01701655241766931,0.23631473409399054,-0.17224997002557554,0.12448284167429942,0.0006742622434403213,0.38697400106689694,-0.03901906160912073,-0.15758382170393226,-0.1847447337944416,0.4087374966850037,-0.21092574982304962,0.04851176362184111,0.20172572416154158,0.036372815282120136,-0.19562725945029963,0.058474421012546726,-0.36747893830410505,-0.3488359349585906,0.17734274753378143,0.5305435161657468,-0.42054538252211304,-0.4516073990384297,0.2655170340554832,-0.07067764405676824,-0.17352180835805722,0.023843818140836148,0.5219683789459092,-0.31857388839352935,-0.3406106922270196,0.3012607995607452,-0.3208784364276383,0.15244197964651782,0.3694303747888938,0.3092565222611907,-0.37944942739288734,0.06091567418198128,0.09682475604722122,-0.14853479965873925,0.09079163441093022,-0.01586001184254786,0.40650469601011174,-0.14549593951548548,-0.002168244545971715,-0.42134631207472184,0.08510998514297008,0.21331844642840947,-0.0646308713643212,0.37402488754527496,-0.03502718800697193,-0.17169538473481374,0.07657338903390683,-0.07153019217246247,-0.07385696219752508,0.2803459064073311,-0.26084434528676737,-0.11334464845084435,-0.1891744462261245,0.47741052907888004,-0.36474343091623923,0.32233947398550516,0.4086540516046679,-0.4918583078075954,-0.05703033945651737,-0.04620731727325563,-0.12813029293917108,-0.4255831064983454,-0.0011532029384709807,0.3986787655987219,0.0517289020136421,0.13202726978849666,0.2873684131095972,-0.4059304984313071,-0.04454528116561605,0.045121302698080935,0.37532042431467244,0.06958152290750423,-0.24426585377127694,-0.22410036881590126,-0.37536047157269115,0.0391272904277512,-0.44254089013994347,-0.36888834680446403,-0.3235748094599478,0.47512978684720814,0.3549952988837134,0.2750684921221683,0.28432030250519463,-0.23999785308022345,0.20532274330319977,-0.33253565022145376,0.38360981239552844,-0.2880780378083129,0.36235471223148324,-0.23760961432489197,-0.15292559460642768,0.24918065165409362,-0.30494965660079165,-0.2789744272655107,0.33541321331943197,0.16640775176704542,-0.0223121406602326,-0.11153561465407842,0.044296038404019446,0.3895496198714133,0.4081022696076926,-0.2079906701460103,0.04563958253618564,-0.01143277753720252,0.2888364365083143,0.025312307174682802,-0.2910973480766764,0.13122267802350226,-0.0342023416390382,0.07953746290969362,0.03036185085737194,0.5665623181326503,0.3420978861104182,0.10629203114488443,0.056248646015122285,-0.23373807440156402,0.2759563530247731,0.13511949196540016,0.2454271791385529,0.32588957933699503,0.3749548725461894,-0.17050760232243736,-0.46629473364596646,0.4890360512764176,-0.15170953774581605,-0.11303575587300967,0.2784881309610478,-0.5078166498611019,0.04033690754939451,0.04387732592186608,0.18317230354525268,0.11056483581673124,-0.41223213604740294,0.2954340493836255,-0.2034598492772635,-0.1513793508118057,0.11581167767983738,0.02706991179114829,-0.2611245870071348,-0.002749857018740494,0.08359302597130822,-0.46094918594680806,0.3607312832736658,-0.20531790683882434,0.17208122848866064,-0.5262644983947811,0.0008328411476352371,-0.35346273163673275,0.25050148188895316,0.4039455215554182,0.5045383813048646,0.4926075143150516,0.18676914777920897,-0.11715132641007636,-0.201102345058983,-0.42550152942611913,0.3318407172243636,0.3013546496862168,-0.2390028824400713,-0.39740776253446886,-0.4095941330768795,0.1070076157923406,0.11037965610338864,-0.4294701949793906,0.41285369283743456,-0.05368994552812616,0.37356268745014304,0.4285419284424513,0.3550353618548476,0.007361195596783652,0.2979480976545973,0.3468395151525941,-0.30569615819778584,-0.5349880036414705,-0.3473614139725158,-0.24614989590667266,0.22712216289612608,-0.178955046182915,0.46121756225532357,0.09247883670407003,0.38300760836524783,-0.25964496413402377,-0.014215625469677312,-0.15412329453005194,0.3012586746646828,0.291672706424604,0.13775347403596766,0.4859710477715609,0.16393529284555627,0.4480581777453861,0.14970558606236845,0.2099213789658568,0.2111041102876142,0.128988565151037,-0.12540908045584248,-0.5079957777395547,0.2920971180005401,-0.08180839107549921,0.005073894887732105,-0.25728830458157304,0.18161365701595614,-0.07401712370851442,0.340816844026566,0.0015050362546072758,0.21718061408075037,-0.12136091131874399,0.3414384064373432,0.4939376146880118,-0.011716229936950907,0.34500999959747325,0.46666097604545814,-0.04855251826747458,-0.3333065172448615,-0.1882195948986122,0.40040046015551967,0.3606879093745703,0.2431952074132084,0.01814353410624805,0.26867739544175745,-0.3489919505690881,0.24532642595693924,-0.2856372489227588,0.2175078487264897,0.4581383791883373,-0.41831929780991023,0.15559746936998264,-0.5253290814823587,-0.4756487027295949,-0.2020011574996713,-0.4044581679141028,-0.2304350952866128,-0.1821278082448907,0.4991883125356149,0.025956445536625596,-0.14135218665728622,-0.3469391795481994,0.005266341795166639,-0.48656018340858065,0.02778527692819741,0.4319718659962819,0.27850357832103173,-0.03925439670676085,-0.1736598017685207,-0.16206671429177166,0.4304238710888341,-0.10509655728039725,0.007112200028249713,0.24138060014444568,-0.25017785002804854,0.41855722413348956,-0.2801286605034466,-0.005089950991051605,0.13754460970824178,0.24664825983670774,0.3738634007084532,-0.31978262036296934,-0.6209189259481178,0.10916034776242962,-0.3895436495087312,0.26063020208261106,-0.12947344973350544,-0.46226353819463134,-0.020730023268956246,0.23578969525965088,0.03007409901796024,-0.09085823105291459,0.3529752247245448,0.3205164150153893,0.4019146470837326,-0.07432576572624312,-0.42912051940071777,0.06303854405058514,-0.6049367209915517,-0.22425480560381988,-0.2419997802005314,-0.7394776600063987,-0.5967732211025188,-0.12886776021848678,-0.4707136695887221,-0.2899563769940919,0.10406171487618061,-0.01047887106197401,0.061642696703473145,-0.3579306709337449,0.18768724164226802,-0.3647543880917427,0.18156260339701055,0.075021927741074,0.01937766900571174,0.12324039494861126,-0.2080715051421896,-0.3091038951648851,-0.12052424422797006,-0.3243079939885256,-0.2606778474352495,0.1103476818473706,-0.1394711835164612,0.04192451718778496,0.15740690389156586,0.4045060041699298,-0.47372339409701064,-0.19355448879690787,0.43596467931980554,-0.26752626446842787,-0.3698180155293269,-0.2338964758958897,0.2357879993028276,0.14372322552246253,-0.1538345061395477,-0.3404067380538378,-0.24958589142273388,-0.3044958418117656,0.15273195813836365,-0.28734064614582355,0.2617963965949172,0.13339189776617938,0.12687265750834523,-0.13655617067649684,0.2906317320118191,0.4993487756940632,-0.28075910406060456,-0.1947550417388802,-0.2764223777579857,0.18633095174922198,0.30758810250108626,0.47748264580012006,0.12798328714703305,0.002911007599629132,-0.08031790309692727,-0.5857161912817277,-0.3787458205615991,0.13337320287223006,-0.2240466148324292,-0.3553300757125891,0.16049684376377166,0.0960695474284766,-0.4394709390306542,-0.20112258284005613,-0.4311006938709231,0.11285083185282252,-0.044682738105165085,-0.37057669856991526,0.02952560278646318,-0.10215266395788646,0.23099562651452332,0.04718977666739881,0.15890341144310385,0.23940780947704263,0.2646559155251719,0.05675607093655607,-0.29839182315718377,0.1652549902855936,-0.29963505357521086,0.3118945083185228,0.25527932753450977,0.04940447311643973,0.20098613269832064,-0.025364859139237698,0.3844041530978958,0.1317746608875901,-0.4162374830687171,0.3937512489846515,0.17937315710023116,0.11059598835501228,0.24511744390882462,-0.5424576691669186,0.24202915144887754,-0.5058831989612023,-0.39695147440022055,-0.2970259937803792,0.128792056803931,-0.4293959718020337,0.009309544079441547,-0.026162905784742,-0.5242256608453085,-0.5034956818003719,-0.13089911666868134,0.13961668690149306,0.09719382746883097,-0.32441535720346354,-0.29341346715910804,-0.5833836383754204,-0.25723326060681945,-0.3467877439499821,-0.29398183887471036,-0.10557842667134616,0.33766819924359087,-0.26948892518875744,0.2793629076515738,-0.4249818653297351,-0.22725871370711465,-0.06806721217918894,-0.24547294069091308,0.4143391663359292,-0.3655344245857922,-0.48614756371299656,0.33010181268788147,0.3628917435685183,0.10698028775953108,-0.07131487337638606,-0.075845866085084,-0.49601400821781144,0.2206461914929039,-0.33020643707448905,0.08509377559126878,0.3804074486787209,0.04693725179825785,0.17897022837683238,0.3261072380043852,-0.03016056357265423,0.3678567954688847,0.14114042561789264,-0.2499915885684616,-0.15894073256762561,0.02960324654683411,-0.03599176704357594,0.11471618426208836,-0.24851337192465664,0.455916894816862,0.23669213706156034,-0.03618023133759278,0.32972762094443125,-0.34655031669544195,0.06587729969061541,0.20439883808048825,0.4835031147965209,0.23287857378472734,0.044584010207008536,-0.19825484273894053,-0.3599491081005036,0.035941672149894785,0.4113274500069364,-0.1462525990149268,0.2318725463784037,-0.30428496007713063,0.05013021490570553,0.18187165490566135,-0.27669315675654016,0.3487851081422799,0.09485068121993122,-0.2420725269043772,0.007880794133684947,0.09698392729044704,-0.2998465097598001,-0.28043932149960404,0.09141984177099523,0.11370006838150155,-0.04531122065814423,-0.36305715802012495,0.0056504331545801575,0.1959843851917218,0.36140846482194916,-0.47339167809897165,0.4242022549992868,0.30656738306893533,-0.3950744767434464,-0.26847081316528454,0.14835434977347087,0.1324508022009621,-0.08345198315422878,0.22973321652292145,0.354296931512017,0.37585097971430537,0.0042292817648357794,0.24373918655208637,0.08066209699126028,-0.34955908973418126,-0.061247601650959146,-0.06928096177811419,0.10203064359613943,0.5308702823742534,-0.0775625036658112,0.004490366054964761,0.013791397837456858,0.3590751979367863,0.4828904649084947,0.11087079670507702,0.0378596416289635,-0.24753766914344408,0.2569430542901864,-0.015882540998518366,-0.46449091423428823,0.46285672286803553,0.4011679611606034,-0.2757003387805713,0.33871272202347574,0.43312792097876335,0.20989001900993715,-0.3718501456706506,-0.15927179443687206,0.33230113920996696,-0.3349720657309996,0.35981785646156994,-0.3712095501505576,-0.22675591093154848,0.32547293322172743,0.04579691285087759,0.09843394289243232,0.0353883728847374,-0.23673313435101478,-0.29372149919857854,0.37696971296420473,0.2442196608049505,-0.004258828736773211,-0.17913820612300158,0.3487686597185014,0.44537621249461257,0.3539669864940181,-0.15440704150922666,0.5464893320295815,0.021549480456387587,0.45366570399501727,-0.12292139241579653,0.4069807556310037,-0.4959042215845752,-0.4146774799144279,-0.49634769529319334,0.2648191104924657,-0.3427132424241795,-0.4862146304048309,0.47791500122358743,0.11658338305708656,0.12293048583224367,-0.40109326585007843,-0.39607416431933434,0.007337713734799088,0.3612089720026269,-0.07894822025012062,-0.33445099127164474,0.397378018261363,0.5051019886196877,-0.3477396691001802,-0.48250488886538706,0.12966138053540266,0.1959005241520353,-0.2230552629808988,-0.13041508853685488,0.20720520333936712,-0.3382819998774623,0.26830422571569384,-0.4485065213375222,-0.24812424181673132,0.12137685800986117,0.20474951369862435,0.43249637938847263,0.3534576547648695,-0.11604463031958409,0.480293910860272,0.16890480375878905,-0.3332777044543386,0.20804072123716164,0.3201439244073014,0.16354493798512987,0.4166552312788379,-0.3544153077403338,-0.37781028642210734,-0.2246972930284827,0.046874910068003296,-0.06120053526175052,-0.3014463775347972,-0.09580381128137398,-0.12813261698068282,0.37108695675146497,-0.04669441796385772,-0.4049713312016693,0.480270848484849,-0.45143241084828206,0.38740254432870874,-0.24498241746942953,-0.4125692449164177,0.23854858503439333,-0.4816855470370347,0.32438230140209356,0.17001285954311252,0.20790278020180655,-0.3310840553500874,-0.5087017369847603,-0.2168746391654388,-0.24721880010581543,-0.48234419987000543,-0.02475909402472558,0.2867517641867023,0.27473321768186876,0.42813992714428645,-0.188567681748637,0.472296711779927,-0.02275938802143263,-0.015048877535355954,0.3541609425697765,-0.08212247756760602,0.22882871607587998,-0.11967020593203366,-0.33276850425285975,0.02657700310117346,0.08145556107412379,-0.03254861056593147,-0.10849930154967813,-0.12728114590439144,0.3806941589126648,0.13405188275296032,0.17172153508221216,-0.09939546654437362,-0.37003713198857413,0.2314424477956884,-0.01900063496371828,0.16906603198144096,0.3490181904881409,-0.22935076850227756,0.016845370333421986,0.06466004789054461,0.18201631406736338,-0.13940107805118523,-0.09863975437568516,0.12766483282059501,0.20317090673940552,-0.40882227324224024,0.27545133645473,-0.28233616474371975,-0.23456796196830443,0.46601759956126143,0.5583240895864687,0.10779574830292858,0.2448644979891192,-0.11256761526481439,0.33425776863476536,-0.3989485857861848,-0.18931244757530283,-0.2875573579615552,-0.3112109488281696,0.271952182596654,0.0807223810514598,0.4559925009499193,-0.008698664156058081,-0.39310768471466895,-0.1557295813252111,0.16578230013890952,0.02603164284713097,0.5279989166433361,0.1879546538734468,-0.011763530548681539,-0.020002040015084415,0.24174035283242978,0.2485816453125832,0.09557139352949899,-0.09933154335444588,-0.4642674065370773,0.09916613614477442,0.05737241458275853,0.1271287927459476,0.22369133349043105,0.07457285610110805,0.4386928854389865,-0.18946284432560445,0.34863285272988315,-0.12003741811565273,0.2856299292933034,0.6005997589094935,0.03602779515510079,0.3131132136487834,-0.4198887237236354,-0.3845027541575061,0.33407425017039705,0.30920066970982335,-0.3325330939912829,-0.026463167120822667,0.25002464941895686,-0.1189245414112973,0.007497269401010928,-0.2952270197507948,-0.22586587188157836,0.15038461123093852,-0.2955942239969564,-0.42330649170825235,-0.15641023404278673,-0.19531958962504464,-0.21577669254828605,0.2364787428613972,-0.12109844639745804,-0.1761971024712406,0.1776909356503855,0.3176266416925828,0.3657447238090507,0.5049593307599882,0.5101254756373275,0.2982191027830568,-0.09988112753535514,-0.16269978194263437,-0.2522340289145133,-0.45550824183127614,-0.1588256503423675,-0.12376868624222069,0.12422403525019322,0.49766673878602274,-0.11842921652631264,0.4467127822454931,0.34071725759937865,0.2030881213254172,0.4552928932770054,0.11596886981591249,0.29344767722327647,0.18049701970061327,0.5317821735273537,0.15277297447716082,0.310248448953736,-0.28953672826093113,0.1983544351451322,-0.09190452517645492,-0.4123634643033557,0.17667206660080245,-0.4185555798218577,0.1858543443129364,0.07300614708093281,0.40788946940316423,-0.34309275581870124,0.3856383256409818,0.37425163667171363,0.11008998144675622,0.035017835229581,0.0546414205335091,-0.13122882567798827,0.4703786338228941,0.1234199458808744,0.3813993610430907,-0.08488719556922177,-0.08336235006142546,0.376526504195057,0.23436116619571296,0.19247907615991647,0.0717685326698206,-0.12547412771504923,0.1817708788093644,0.34974435928628017,0.2118901234870048,-0.07168011240543605,0.22458274169338738,-0.2545806363104318,0.49984222641904763,-0.05337800106707347,-0.23411923990838107,-0.2368396364253923,-0.13138661697070425,0.19668511994225096,0.42367352911392137,0.2025972508674181,0.37790955455886044,0.21351046403573756,-0.40433270125943094,0.009403280066511137,-0.4887024457393306,-0.14830824728356906,0.258571342253439,0.33237949742605394,0.10849647752798158,0.3283172560661737,-0.30918835038777837,0.3669342507831849,0.466728250635971,-0.30182879780056526,0.41407420203703565,0.090437750499825,-0.3875737070583301,0.0514494865035438,-0.044385959614460783,0.23201567668568238,-0.40805328514949524,-0.2790636070025144,-0.23288639399661976,-0.21872358159564553,-0.1264700409452707,-0.39160809672980323,0.1438287725430765,-0.10088901460573478,0.24634052602717188,-0.20676211358827074,0.5351629320598529,0.1480724134182561,0.6621563422109246,-0.3228166015102017,0.2709356656549852,-0.2637442342899999,0.3094101037462158,0.022493941910479584,-0.1306160501201294,-0.23796224945162642,-0.267914339110639,-0.31111821379689814,-0.16834237408710923,0.22772775429155429,-0.28891789719340766,0.01214356550683206,-0.29920398167751866,-0.3321659859543275,0.4577443071714128,0.10614623671570263,0.262974507209848,-0.19825556886776174,0.5356117359247966,0.24933962109374197,-0.34362493517984183,0.07741484456186128,-0.42641523509904744,0.061883374032512026,0.39484114471022314,0.1977812768177259,-0.09614210252232677,-0.17009646600771186,0.2865667327600234,-0.07935996046913484,0.30574655687106617,-0.05816951013274115,-0.17066203220458162,0.3201045791525066,-0.15962029313853424,0.45073522508347647,-0.2426233946345581,-0.3829577285041068,0.003579121617756486,0.40901415169046057,-0.22402555600357743,-0.026307268404306746,-0.30508771063446877,-0.0870814924563281,0.28686450216632536,-0.3082309537020694,-0.269938918289837,-0.05667383895247635,-0.36348211313849166,0.5339366031293822,-0.14529049003814243,0.3817017379479796,0.16959498133261502,0.09210888144108091,0.3998553869445252,-0.09161062275616506,-0.12423949612733404,-0.28535556844883964,0.015527327517089457,-0.2606142827895106,-0.4228430766693786,0.2839780596765778,-0.40154026942856685,-0.18973998923611426,-0.37845950952519586,-0.2302752312936478,-0.4459489999837375,-0.06347791235284032,0.08535066675042143,-0.12158116547893463,0.27518675249906177,-0.16827893471434135,0.13147995536871912,-0.29188849751926976,-0.09737991724268398,-0.5119397797294101,-0.10125041072146543,0.2733789159901133,0.01423897549794298,-0.3009153439759648,-0.3338575580922378,0.34960335046315527,-0.35454183887608753,0.33832745033272715,0.1587380357635516,0.23205330620014405,-0.38440564913997566,-0.19433089760821437,0.06361472536799993,-0.40080804574672124,0.06283183832950556,0.4382789218046601,-0.3494767888405483,-0.09340336318264256,0.3149796087324216,-0.28728501624284686,0.3852572131175046,0.2802426375480517,-0.48478054190029174,-0.02829138672691746,-0.2579388858357048,0.41267057262389933,0.1829961793524296,-0.4740798209757107,0.12880561176480113,0.2740667184746215,0.5613575200238271,0.16179674048643644,0.44085271271999704,-0.1135619284623483,0.1889865887921444,-0.11291530193917117,-0.2806764809064551,0.29545056596033775,0.3956489601807165,0.12799918734419266,-0.3146955101365196,-0.22591420874975035,-0.43998738597435155,-0.25422633472591366,-0.07908029257829224,0.43870490636401566,0.21260363949635408,0.21716280334913568,0.12512931509189784,-0.3599353704987659,0.16751596505877783,-0.3388898103941615,-0.35954602901116967,-0.05059181755997263,0.34270094293580167,-0.1570045997152939,-0.3990858294476967,0.17857040531774995,0.1900376090685295,-0.30679988714210904,-0.08489332903185509,-0.2441618175928777,0.4132436098920564,0.33637357751336366,-0.06142301751785592,-0.0295866908918587,0.4850826190544922,0.06760453064450199,-0.002662398783305124,-0.32251566808557885,-0.08235804051371988,-0.3104816420300261,0.2330512664531579,0.042653480245607764,0.44313677155567865,-0.39160024072734806,0.5409370762560971,0.00885584915937266,0.47767033593228736,0.3761565791233155,-0.04814577163750025,-0.17263700452808442,-0.3172237377968439,0.180150045607396,0.015107823237442196,0.29351795635515804,0.2452695141291107,0.2596356342852709,0.37647208182190867,0.27276991516312055,-0.03680550896492628,-0.2929826262321455,0.38901720720028476,0.08732133657067982,-0.2446487414249424,-0.341899441953056,0.1835385903946811,-0.35115466791270894,-0.19760829234392469,0.09933627750685235,0.17977929095593057,0.36978100128258234,0.19870609515021564,-0.39316880428100726,-0.3485472980763779,-0.0714967795978238,-0.40370221684343066,0.4249347199323226,-0.5361281705619566,-0.2202579755769291,-0.36548093647261365,0.2549899215845699,0.3594558234143864,0.43406466146809647,0.1588439203455894,-0.0485322806279696,0.13190184053974902,-0.012129550358495654,0.30158845081193597,-0.041824705417775575,-0.38463542009925267,0.28282926001992115,-0.48164490254625875,0.1319125407089132,0.19796964835158748,0.4094007750173125,0.04759449776088247,0.26445831616521703,-0.4198069556150658,0.42513108868687355,-0.4137982382183667,-0.047478189388850164,-0.1558752644567626,-0.31080001318294587,0.3594672243151814,0.4449727437129697,0.21891503765018866,0.20960645205772463,0.2280861121198349,0.19410601238502273,0.2246274621506331,-0.17191908476004814,-0.16883552587388861,0.10061445224201718,-0.25296489645649134,-0.39441063206275073,0.176476598208221,0.14559017726550358,-0.17745272178201169,-0.004462064850368856,0.30976375027251835,-0.0632695517973437,0.4546502456426232,-0.23222586344274865,-0.1773580582993286,0.17979259681221696,0.01659655952617752,0.20955378803497043,-0.5061345556806242,0.03481990727608972,-0.3143908801599321,0.10634322980845669,-0.4148369507184202,0.3991970806149924,-0.019597629926063644,-0.15918945111890076,0.28511165304936337,-0.002098960243136536,0.38417699481588846,-0.010166199211037116,-0.3242778260563119,0.14481786382032816,0.10525097769560499,0.10688165993808578,-0.007812396514888023,0.4193867165339042,0.15276122745095957,-0.21795136951966643,-0.09333080670398451,0.21439477600170945,0.4393896046695175,0.32873762993629696,0.41338371642837035,0.05062421015463483,-0.4459072271302926,0.05726765611269476,-0.41798631644050027,0.2700279655271588,0.33416704207856224,-0.04033375738251655,0.1839078978163947,0.03621848818507682,0.11789725968949864,-0.49696330410132644,-0.4584637118423979,-0.07719807228561582,-0.2972468547984659,0.37142995902685255,0.15983793406480706,-0.07780985022451509,-0.5056845654866338,-0.04711707306647375,0.25801250625706895,0.4040976264763494,-0.39928041315484486,0.08184971522306875,0.3923130361919836,-0.2798798189080063,0.27081225286234495,-0.07075276599693273,0.16613699508784105,-0.10154118407710336,0.48011282518030896,-0.3066570511974377,0.48856172169682704,0.291703690450121,-0.3835617807053181,0.43548897037181394,-0.26084964449916426,-0.2516279620494325,-0.4663596225744897,-0.08974076971532456,-0.04005719522437388,0.0904243069530217,0.3556745120454959,-0.1372457955401021,0.4274531988105919,0.026182706186605464,-0.3337911136445486,0.2028301179764118,-0.20810020628938894,-0.23462348601354877,0.024465521056223995,0.09564712867351725,-0.48408165180940615,0.009428242477016987,0.3244004077825389,-0.04530303202141295,-0.1680315570196095,-0.24217678250872465,-0.18451495669715762,-0.43126941168640953,0.15412512167374887,-0.3193092654118268,0.06568013598329367,0.38363906195323266,-0.5169352706654482,0.004772828497537038,0.24082946606622183,0.5087003647489573,-0.3587576153236588,-0.07008759645169846,0.10595384574493294,0.17818959666505277,-0.3118102296714251,-0.13892686993982037,0.3435136630073937,0.06767569151582568,0.300955839810725,-0.39062477854053396,-0.2495489428092913,0.061829947936257346,-0.26004192290361033,-0.034049724434391,-0.28043014861717847,0.36633922855672024,-0.16048927313201533,0.11822278244217899,-0.06445835074794695,0.17948388533858428,0.42100720492104465,0.14363758815798416,-0.4313083329225783,-0.029980299973490995,0.031146200498187893,-0.18600634923774845,-0.06667916388870256,-0.2400653691602704,-0.07557989594741055,-0.3640087722101409,-0.3369077144222353,0.21989229124279794,-0.015303309395239178,-0.4270696584525514,0.01713085580883234,-0.045148081169692995,0.31456066630750384,-0.13787264663405158,-0.3029699773545981,0.11493401364126957,-0.3223579793169067,0.587156841713696,-0.3269073179702081,0.6293860434227335,-0.35055545890676454,0.1076052260731764,-0.27303419202287893,-0.20988601048221195,0.19000622073957327,-0.4888950556452687,0.41496826435070583,-0.20506862773067355,0.5059385740014837,0.17722542794232168,0.06572015771124977,0.20565521877547152,-0.2408405795866149,0.3708326900317488,0.013947748145702722,0.05893615108128538,-0.023291569381249207,-0.009902639631618452,0.40742552220086997,0.025557933201291072,0.16136832654605227,-0.5189314399625645,0.09573501394112187,-0.042054389650011445,0.33907014535348556,0.27469394083560666,0.1316631988052036,0.4177159673107808,-0.12788101320625467,-0.04404108624223851,-0.37618401921304956,0.42629987658503515,-0.44912783310033666,0.0675025104433053,0.07238721580511352,-0.37263326547096404,0.4255706742118617,0.2996355494700848,-0.3816108590688788,0.33484443391098795,0.35886313183098345,0.08738586723532145,0.17537515288836247,0.29048303884410615,0.014789068891340238,-0.008908441352913623,-0.3557463927772184,-0.175921759335751,-0.026742412526361923,-0.44863462100311396,0.0352047189730768,0.3991479044672727,-0.40908803835194857,0.06312767315628018,0.04870632619851905,-0.1877838619982888,0.3325486503983582,0.3329432134940476,-0.14528905921063223,-0.4500999907459027,0.13065987269019266,-0.13803572174663298,0.03983273916483326,0.5326983689273013,-0.009603122091920045,0.03149868449473548,0.45118770571278527,-0.08088013189462054,-0.0739215375947285,-0.3155889139135392,0.11175739113145727,-0.12947816499167922,-0.282213341003903,0.34274625511758583,-0.25728989176813355,-0.03196561309259868,-0.24510128526331063,0.05838189749941935,-0.016911717895893803,0.27970729840771186,0.05708641052140694,-0.0643935988939702,-0.02668682969465501,0.3952033379853498,-0.027531243133148003,-0.06950194497309366,-0.33540809904736474,-0.33648766091706783,-0.4303224542609441,0.2875321245991828,0.21709365352648147,-0.3063786164240281,-0.4698061373702659,-0.4337341768562433,-0.432131329489618,-0.28919594256516085,-0.04219430764866818,-0.02621899585287495,0.4833174123689816,0.05619578992992528,-0.009915317786939883,0.19724690836361514,-0.30754941001703606,-0.3894379480425651,-0.5174723107329696,-0.3578824092869368,-0.15886317471726746,0.2938986400121747,0.14068640344383648,-0.020129647243877596,-0.14269261180064535,0.20619323404729564,-0.5193361296250024,-0.20694641765342564,0.15957808057510733,0.23364754239855628,-0.2914993803754603,-0.02504312941813821,0.2139209994952224,0.26116477967768054,-0.36778105739300393,-0.3289118109594116,0.33070531090723515,0.2111339844194417,0.3256898256037417,-0.4295911210662981,-0.40669264186734233,-0.16268750570068186,0.2193733987590987,0.003995782823752611,0.11097863448398478,-0.39051295325631474,0.05669495608507965,-0.034381737547973294,0.32108310669809925,-0.3327615958027455,-0.5003184235190549,-0.3029217375594224,-0.357537673124079,-0.5007087665156758,-0.012766959018470308,-0.476868000019028,0.2816675187536078,-0.2838432328585357,0.12400933249163938,0.42154751696783205,0.22978927843818692,0.5113782615281264,0.32914132995771844,0.1656501154075827,-0.22570635100581476,-0.04379373237002857,0.3147623286876029,-0.07799060972726002,0.2680056673020262,-0.2056170709810197,-0.30293396903895936,-0.45633315967157906,0.00427434341243791,0.010889397623437685,0.21806638965336747,0.010359196841135614,-0.1873915478544393,-0.37621665272238247,-0.19754983310267954,0.06347748803661747,0.34029986062623746,0.15493762899253566],[0.032545343791438065,-0.30802909477052676,0.3848065898883254,-0.08142926049012121,-0.3991734034274572,0.3181254489697087,-0.2663344020101116,0.2803670599804671,-0.10400106914224597,-0.40293317785721267,0.20587698836581947,0.3969563983430374,-0.4269162687363596,0.005104917318351682,-0.25800601572482157,-0.07417258702885725,-0.17652885029051069,0.2123048263016691,0.405261891773015,-0.34438623925173695,0.12775680253476557,-0.25638202106139424,-0.27463223899326644,0.12036284217379335,0.08036379378028992,0.20430990191034099,-0.4509003311864553,-0.4711039639622272,-0.20602357111059638,-0.08600208745076553,-0.003333125724468632,-0.2700598014791936,0.413747064449757,-0.3228705310244541,-0.43176195014999125,0.243964604337393,-0.4247851811779306,0.3799618707879262,0.4114397125315892,-0.3817402491190577,-0.46774892813803776,-0.49587052668477877,-0.3878004193831711,-0.2957675455898231,-0.0020479452529416414,-0.33407922052916983,-0.23491847419774903,0.18055997416541503,0.15386307447102202,-0.49414980558406246,0.12488545998280334,-0.2497194318776813,-0.06535519486676991,-0.3390447499541495,0.4556820447102958,0.09626239865084422,-0.4154645568016777,-0.2475244669538201,0.2943582483993718,-0.3875494826242992,-0.29769961813970347,0.3615775791004848,0.3774976417112091,-0.20743973992004436,0.344194970872063,-0.391503047670971,0.45012873573750434,0.1968767513374166,-0.019237166165652974,-0.04749260324365037,-0.2805333595626814,-0.36896083657155837,-0.3328549489384164,0.1002870857278011,0.2780070353839876,0.06510735208793093,-0.3610382415161287,0.18225359489494414,-0.08613933169117254,0.17171675488780588,-0.2927403163143967,-0.44025146308318003,0.1634001550103185,0.41708108903431146,0.5274572302784633,0.46384533255305926,-0.1306655081927781,-0.20257860471130656,0.40952410515690313,0.13568490363490096,0.29136347871936175,-0.2298731321945398,-0.15036941077779092,0.031927081795923,0.37742970139044285,-0.5490234621492199,0.36701167276250757,0.08840361910133952,0.2779244139417802,0.41928017483361363,0.4025643706779646,-0.09263625372708163,0.3747264055632082,-0.3105626443567751,0.3724858289127618,-0.2229165937072253,0.12708513966461177,0.28481612185969857,-0.24013464094493284,-0.4750432654272282,0.024291677579268763,-0.23988465695640937,0.30339876790283,0.3005816929270638,0.4312823258667838,0.2767271143557355,-0.38493977271836244,-0.18865619197883987,0.2795456578223498,0.28523871302655873,-0.07551386182537395,0.3817847957182794,0.4622557482733723,0.2549971770211402,0.39445546836773093,-0.4223541751510668,-0.19493165505461754,-0.2893455014972725,0.24985437292912374,-0.4376590809629106,0.13381465100361115,0.23712367598171835,-0.2360624855380787,-0.05269773134837771,0.19937818078526576,-0.32198341884414794,-0.19109473851951014,0.11404398100501824,0.46400738186221663,-0.35162023440291307,-0.11236424212626694,0.04388180907026703,0.45176007019336695,0.05980509482303078,0.4513875895013191,-0.1607738592767987,-0.10389688468454322,-0.15847321886595406,-0.4598544962618014,0.14117849596659388,-0.1823065739883814,-0.2717313742971282,-0.3499278247576879,-0.31807771297150733,0.29577089865392336,0.15598925293627872,-0.2954916192441427,-0.03167188691070387,0.09280675320089528,-0.39020277045429036,-0.31706422880628693,-0.4925082076246182,-0.13559000805787205,-0.254500963900947,-0.22274054004988011,0.17399966376755518,-0.3321847091747092,-0.038164248823941455,-0.05730544890200208,0.1568543508686206,-0.06941794558502085,0.1678618376327723,0.00270969636570119,-0.4042799788136019,0.4806870974605775,0.016572434849948487,0.42460172823042724,-0.37799414678927523,-0.35464790045094463,0.4436146534538859,0.46479541632036947,0.053780045633761944,-0.16186332992205474,0.036330250313518844,-0.03398170000841671,0.15654219072207065,0.17288658806576487,0.004280065357623558,-0.3549612715043207,0.4299941392912884,-0.048514309934013254,0.45054276602909804,0.38136513045704357,0.1657994622078977,0.37956619812486597,-0.18517668069408172,-0.18912851911709208,-0.36180696217843056,0.09207706966765619,0.48369075758551583,-0.014172946946150067,0.08431435671188259,-0.40775734738237523,-0.013895182856973427,0.1565112506570991,0.3832227384788494,0.44956008504674544,-0.3834097117229595,-0.46488732157109025,0.03487288598975444,0.12995783420717402,-0.23840347795966965,-0.21850214877656837,-0.46182682601300984,0.09870023851507102,0.19465967557580005,0.46174480709699256,0.3006523373411703,0.2706098110800227,0.13601981403757546,0.2625768118507803,-0.4254505860934845,0.43607844711882027,0.2092169689106193,0.18788771521347936,0.10534767694309093,0.03798349252413335,-0.3762368330688456,-0.05484062280691707,-0.212989586199498,0.28083738199227526,0.28642419715164347,-0.37881162576087296,0.1267807614895268,-0.10229070300901626,-0.3502813769050889,-0.21567459765897568,0.027009537685562024,-0.4759818539787818,-0.49909186969610464,-0.17776137616248205,0.2622363181337923,-0.0034925767564821745,0.04705806920385205,0.1519418132920256,-0.19484006846885735,0.449052944268392,-0.033060920507701395,-0.19480498364603613,0.30308814080311175,-0.028272193358463933,0.40132910490245544,0.49488359609361154,0.2828909744815971,0.40018050028429286,-0.03077049779027337,-0.2649169079542447,0.13831752493442034,-0.15444992478716446,-0.03819804366643531,0.37984092514238516,0.4198261344502646,0.06152505024396711,-0.09435527367008831,-0.47994163668680867,0.3415977753565246,-0.17584766551391695,-0.07969939975346547,0.39101581210870523,-0.4628995701639989,-0.027503722104567516,-0.2067329452095157,-0.14421596470926998,0.21503517742654857,-0.3086974513630153,-0.4908860333841457,0.5107980254058451,0.06883653920421988,-0.3302518577443742,-0.32954492755038056,0.29751223010512867,-0.3054402174794764,0.33599316305433763,-0.04308095597163677,0.1886772710194329,0.4254367201719202,0.4601587079359773,0.21994108442511573,-0.4210322719842342,-0.01428267349963135,0.2438456164171952,0.14114404563376634,0.3519615343929194,0.45759172981025537,0.3556024752868969,-0.3623614694653044,-0.35674234401842847,0.0853104183894878,-0.4456703137626972,-0.08144362547054669,0.19783071657889253,0.34014634374767466,-0.2749342548410499,0.15089526409997614,0.4350455366454341,-0.22253235079436126,0.34855790960212707,-0.43404063079046534,0.070572741916101,0.0398865032000943,-0.29897563220809004,0.18787970523953218,0.202409754145392,-0.43817370895847635,0.09740727450667526,-0.13888288020212092,0.46358809369866155,-0.32819800955193085,0.24937383185247902,0.2856744787773615,0.160184320524658,-0.09374953267238459,-0.04546407428932669,-0.3271470527632252,0.46970796901597817,-0.2561303312696941,0.38240867710704246,0.3258133919236409,-0.3896281474763122,-0.38456849311332375,0.373134794448115,0.4004127125224081,0.451195505987558,-0.41456513312699594,-0.05058566501669865,0.11553423685343114,0.316235741982435,-0.06018749885414893,-0.4142627972450643,0.4894139816905679,-0.2902089861476046,0.3118680485240233,-0.16971766925454312,0.2941060632160457,0.012943952857389768,-0.3596991999527095,-0.5065348799155258,-0.03727613985646334,-0.09233587065348593,-0.3413730573909875,-0.2623075863168413,-0.18002440495364275,0.49289792724669507,0.48695544222861753,0.00026739259000880844,-0.16785397120856327,-0.2611771487593555,0.40016447564338137,-0.3334883685728333,-0.09100853867915233,-0.32265476146120387,-0.4580721482712573,0.050928592603788736,-0.5006681039959214,-0.07326207942962407,-0.2411311323998507,0.2674278506212143,-0.34236842976835924,-0.050868072268720525,0.17119151770331406,-0.47487656147742896,0.2532312336526163,-0.01905851117867457,-0.39821849875854304,-0.45374703354974966,-0.49167757415173846,-0.13119812075481146,-0.12091537054301967,0.45028184984603864,0.22850774151255243,-0.14982281101761563,-0.4279022992519229,-0.061957406063696464,0.2370494923535463,-0.24075375650341926,0.342022642617465,0.25992286973791,0.05442471752412094,-0.49255317402100174,0.27866017036261737,-0.22689366413800385,0.32354977192717826,-0.24446544432295414,-0.4597669946874554,0.32042103944239925,-0.4338868136950604,-0.29283755132573586,0.04280573317572724,0.33962210929744363,-0.006428050381285586,-0.024977971519781716,-0.04126802015260975,-0.07980288776211082,-0.23819345187355684,0.34590378143961376,0.08678469224344007,-0.4103143055477682,-0.45681755375112354,0.19790877665053344,0.08257555642301694,-0.05893857780052632,-0.32478578253393725,0.16585429611107022,0.22611622898186853,-0.33409972077993183,0.3952954368632969,-0.23457311944275683,-0.48275574269844196,0.23757662083246303,0.3210646984975146,-0.03225533892561213,-0.09147949023701625,-0.4516557961406473,0.41235919772700963,-0.035450037837190286,-0.07081691594574921,0.41969723817320215,-0.21247677158733075,0.16110587556757394,0.10046671069682671,0.30315481468779365,-0.22217953874202448,-0.0703917653341688,-0.06016449007626333,0.2540573621711624,0.10450660295435948,-0.1480227681673304,-0.04361102569399242,0.22876437145883777,-0.13354109562543123,-0.1695866952526741,0.40931337402760537,-0.39990300893548913,-0.22846009539941026,0.2768156149587011,-0.0704519087096081,-0.2422101382435636,0.3656932251394074,-0.3740598600463668,-0.0727098588867162,0.29184064367174517,-0.03020789311347435,0.4497782977419396,0.171577384849734,-0.25807610869780284,0.4315327585452652,0.5296827396861267,-0.15870554670455966,-0.21055441682550666,-0.171494661969892,-0.02469098181506413,0.2499463459669462,-0.08778678221407055,-0.18666960553820633,0.14861116924674703,-0.10322826689102173,0.12548302298731695,-0.17026447739339184,0.3133353091515802,0.07262092305686484,-0.2257551215644593,0.2672378466213519,0.11218204357595912,-0.3096077212866145,0.23380082646167658,-0.5055956381754334,-0.1504220724836855,0.18252536078006917,0.027148899356182015,0.22274877999628387,0.1618509357809711,0.21966873527625055,-0.19059381752190072,-0.3744247513889277,0.32007715392696096,-0.0021924134808373667,-0.09230770667931186,-0.26890534418237366,0.361024228378831,0.06263075251075925,0.2271287245174969,0.4660953001341371,-0.24410124581936815,-0.13426168780029438,0.076455708237119,0.3778807044283576,0.041997062702611644,-0.4210730517296256,0.2255282340759265,-0.12242816216713082,0.15842792394627003,0.6061666099697341,-0.09035483991456611,-0.13801204590017166,-0.18872629187768677,-0.3356011691840766,-0.3984179522994659,0.36006673150816865,-0.15900843424240863,0.48328894295324526,0.45010547542503365,-0.20270119054081737,0.5270708413774934,0.197019136475447,-0.23050692741422235,0.3041589464426195,-0.22341177962066874,0.010562996168820659,-0.12743096630868622,0.2186087082094558,0.581996570584875,0.3921360991023253,0.19206667279002468,-0.5390705573639354,-0.14703685748840276,-0.25976219522943655,0.539880836696764,0.6570474946667738,-0.03432758636813876,0.511228679133434,0.43538960342232225,-0.004387318407154253,0.07630402411523987,0.5234266801100222,-0.23970839487892637,-0.21192317263801724,0.5228378698312857,0.5876863417580469,-0.025295333932062136,0.3522486823309039,-0.3265905401707018,-0.35600354496262265,-0.3209115371207371,0.05694297162776007,0.029387401190245098,0.32137798615417995,0.08553523774767566,0.3937720814276079,0.1632598546766394,-0.0025799037986139325,-0.12150539074059011,-0.2846080752803697,0.061101805981386884,0.11628658836362768,0.4950351149573034,-0.3790205184371948,0.5210817541063577,-0.05981567356179424,0.2002053707425453,-0.330979290283222,0.35442034653989135,0.41397087302427243,-0.346550731571559,0.03483823592007676,0.1322966828771573,0.4225460980557571,-0.06606511080839331,0.19575810312194664,0.271960316711823,0.2816827637265426,0.14031826901260258,0.13836583412901904,0.3981211094664998,0.06289519616398477,-0.40302461168054315,-0.25485566582713204,0.3496775754732754,-0.42755816754176174,-0.3443958574850041,-0.23282892142359676,-0.4874724142726452,-0.21063076009155285,0.20667689922374954,0.3213024490621751,0.2635395431277328,0.08583058553757025,-0.339751683772437,-0.09272173903170551,0.3951705630103833,-0.380453295224623,0.004085241316239173,-0.013788723483192291,-0.3081292139825672,-0.15166631095313513,0.2144361900572463,0.11676868813862455,-0.36417340534793413,-0.033240469392324466,0.2567701090263127,0.09122904517215041,-0.11717760160143445,0.05185620178331957,-0.026704842625883646,-0.1386297829087943,0.1300362930989453,0.2895137133447752,0.10535214999578987,0.3893091820165317,0.254192907165162,0.19087724355142177,-0.5320797486792811,-0.22116592906085458,0.44764215742320224,-0.035137783592116736,0.12245467891333862,0.32722877680620654,0.5046340948158898,-0.2219117768063475,-0.4039291211945538,-0.3662192448288257,-0.4614079562498274,0.23444047717307462,0.16558981640730558,0.008857879118907034,0.3693267487260613,0.2874309423180183,-0.4506806976334553,-0.4966240031946146,0.05397339454017885,0.01955626218638956,0.24605361111893803,0.32818375081498813,-0.2678108338527136,-0.1385264788578337,-0.32910464860336974,0.49762667275178624,0.04642111041854534,-0.4598572935098835,0.0024369555652891104,0.19664326446008124,-0.15535132248541317,-0.04765324964822195,-0.15757663986824846,-0.4991460771621909,0.036421568647234705,-0.2286925377536742,-0.36058833707236243,-0.3748762136033639,-0.2861120785891784,0.040692609071461106,0.15965644560014045,0.004397960137348301,0.40938071840979245,0.14578529900815818,0.38521165405209296,-0.2827845211716515,0.375110697914407,-0.4790562174396189,-0.23829223948670902,-0.2098424759350256,0.2904687461788631,-0.501776033183756,-0.13345257613413294,-0.17970300864374908,-0.46446091756609625,-0.3976590412968756,-0.18130441729205074,-0.41079378531386135,0.47552775981737316,-0.3879810966463314,0.3503965750470866,0.16794264300285938,0.18567060279562356,0.11140084335454457,-0.1372098663960906,-0.406323047138137,0.3008955509226283,-0.48970175040335984,0.1176102785609009,-0.3608489849157919,0.03677999411151881,-0.11315688431924854,-0.435243687841122,0.10005492347857686,0.36909240342734495,-0.4500200156272259,-0.19809443541918612,-0.20418496966964914,-0.5988984373081749,0.3815648955336287,0.37294990943259954,0.15476646396344962,0.22172034243290153,0.3161484548343726,0.13980150071914216,0.20532425683104244,-0.21084603463443544,-0.5403654706087366,-0.011975804267166847,-0.3457187016740929,0.1947624589866309,0.012823288792161151,-0.030002086559336665,0.015493083591166676,0.17020288889683438,-0.46910353394384474,-0.28606695412280597,-0.047856906832054597,0.2717734588603602,-0.6215424064364655,-0.19169098614209018,-0.1732173557968117,-0.10957824408557887,0.12630051900924827,-0.1467262695008579,-0.5066890723614714,-0.4596598468251251,-0.34492125452203426,0.09197849116711644,-0.4001937150819941,0.143680731803547,-0.49390651219994053,-0.3965164704268303,-0.5710356609519425,0.30195566977917626,0.1634616354666902,-0.29050508039031125,-0.15469864728093996,0.009667786808866635,0.22615781591823417,-0.444076276020909,-0.263403332934333,0.06519914173821831,0.3783826104328583,-0.3865982466277163,-0.22542137681671762,-0.08987245389457016,-0.13816290415827231,-0.35726482354775024,0.3358091933203103,0.17306979205250902,0.015466483191064289,0.1959202827284511,-0.07056409601462071,-0.28368537569875746,-0.17395860817148517,-0.45147657904167654,0.3978930382986407,0.06744011600453098,-0.0027640168777225316,0.15821033478154198,0.3801490712597727,-0.08967681032042739,-0.1681260752408966,-0.34597440926099327,-0.13343030060894556,0.14544479174404484,-0.44617812450623756,0.10958279446969588,0.039798011284022404,-0.1633826814687215,0.057094362484930716,-0.3901980518547996,0.284646993191639,-0.2580626327504916,0.18713416963565993,-0.032706737828444694,0.3575636883696687,0.6016448887939433,0.6068934238780359,0.06964198235079769,-0.24519513614093258,0.5080833787975277,0.2166507832221158,-0.16075386296145805,0.25418441380408335,0.4461370486942388,0.26565163238796663,0.3039229458900355,0.07827246454191769,0.43536838931656013,-0.17923316481338658,-0.029528234501353903,0.3484263901338319,-0.06917780101135608,-0.2856903140060781,0.26917818662579124,-0.11178655018761638,0.057225323018398104,0.22559399983648315,0.3175784277605607,0.010662364463003489,-0.49709324521340437,-0.08171818811702973,-0.391580396262144,0.2705247042848596,0.3195063762260691,0.2519867645045062,-0.300662270539529,0.40709624797085275,0.24738884243221831,-0.28371896264021984,-0.19568727971463937,-0.23467524717060326,0.26684983289306824,-0.25813919440046623,0.4534285261195375,0.10895097860197897,0.07378513365534353,-0.614150684767242,-0.10320984041764078,-0.5683629148120841,-0.005498575931571908,-0.47846898555745343,-0.2792200346668212,-0.3702725140658983,-0.5117758530830371,-0.418175606259172,-0.524873080903189,0.24278277410359417,0.33090561465145196,-0.33401419136137694,-0.34516088897829644,-0.19587664309956496,0.4465716285357348,-0.29405639411338497,-0.3477339033429236,0.25322160034631525,-0.22142414807309768,0.4907652341464442,-0.4151726656932636,0.04749066687211245,0.40187223523037374,-0.004781117971000326,-0.31244943581385276,0.16781144116134464,0.35023642009540024,-0.036114304580705095,0.2173651750106986,0.024483048581478314,-0.22813011640435707,-0.4737181128443635,0.3091163748641238,0.35230709697968565,-0.424569208091299,0.4240725136218151,0.14779874957025654,-0.022483589726227993,0.4763878056557852,-0.03430518420864062,0.26979200709245243,0.4507667135832595,0.27317199007370463,-0.42297711081867445,0.36651388663421913,-0.42951776578670814,0.16244537439494655,-0.27055968066273023,-0.06915540111706349,-0.5163625034647193,-0.43275782972418864,0.28222849839437525,0.10443108775508099,0.3016543199080049,-0.2713024501321175,0.09921111142345382,0.311561571588869,0.05155137478475068,0.0712593236638214,0.2381901712027652,0.4398557663712498,0.29447132959973293,-0.034823668032195165,0.15474961936198406,0.42044005276631946,-0.2967256806677543,-0.3021593008885837,0.37958399933373305,-0.5294777920692048,0.4565847165468994,0.15625547807604448,0.5071491339879171,0.2863437757083641,-0.5208371473840887,0.3192206558599412,0.515176410227347,0.05715179831101215,-0.09239309988913474,0.5097147770276585,0.3148374430339361,0.229788015769404,0.2642078784831276,-0.45468778050176906,0.4071594835138393,-0.1427205384917327,0.19871030590060731,-0.4615909614183411,0.1892383756950502,0.024488271843578754,-0.48558404198563193,-0.32651138539014385,-0.04784539003151124,0.14922624406719984,0.1344970696854949,-0.20512869862268546,-0.25750001916166204,0.251628996595263,0.3300808587717695,0.29930404691443696,0.19692434859722469,0.1276263446997648,-0.1471203463917109,0.4049364865835332,-0.2586434894735283,0.1858534370745542,-0.4118991110141533,0.1460505352138126,0.3593948411043907,-0.34409237510316626,-0.5916720172055662,-0.3846638393700292,0.07792019076993069,0.31332356404270295,0.11796845796781777,0.19667413565555264,0.22096556410810395,0.03621597683983505,-0.011553226269620395,0.005157383869776618,-0.4053725878370014,-0.5074631510864684,-0.32111880668836656,0.14414467760050623,0.33185765176619686,0.41810112350597645,0.06969785759770641,0.07753926405780504,-0.5690014461302186,-0.6559999067814514,-0.39766458047334613,-0.4276024289942174,-0.10379003073101646,0.2897411318104054,0.3102569798526356,-0.21648694711368122,0.26152467506074795,-0.06697094090201461,-0.25839038736721565,0.18294737513509327,-0.37850232920938603,0.4644062974531379,-0.02007419974649374,0.02670330579463815,0.25858700501544857,-0.473111089203917,0.01620871615100821,0.1198152932523934,-0.3425700739454086,-0.08403418696898017,-0.10763975711780926,0.009976833754632718,0.11610720473687737,-0.0926082032249755,-0.2332065042075951,0.14027704628293322,0.25659005955494896,-0.28334448238617405,0.4559243222396474,0.4863706849086417,-0.19681497794708797,-0.19749065839384405,-0.2529860022460979,0.15563821745444054,0.06678157381112684,0.13404415756662874,-0.3909361183180124,-0.12685970361776988,0.40628388287854467,-0.44024428668001997,0.42449538859093083,0.2761412063854934,0.5566981873608792,-0.3439254354020134,0.23216512563820071,0.3771123511137791,0.08558312425097175,0.14238641207484612,-0.4058772671037789,-0.052773104712253806,0.24157761506847833,-0.4050599127751081,-0.5407193770426278,-0.5418721472001393,0.13672655942133682,0.18592408526745896,-0.2925216155874156,0.3055390512705753,-0.35812418135103496,0.0363331373658334,0.08600893962277115,0.069796800737934,-0.11170698144803085,0.3709000764551217,-0.12930063527972452,0.35238001878530256,-0.05610299799377798,-0.07873385528612105,0.09379256783580411,0.2459595794657975,0.3060596900291759,0.0860571030144442,-0.2687191954486757,-0.028932673030455783,0.26706428270393523,0.11203251301590185,-0.09150272428993544,-0.45189798551039373,0.33935845890676264,0.26421712837393707,0.34191547632542435,0.1719743075830528,0.29879382600315507,-0.14612892338056416,0.25264989163159834,0.2501944298648908,0.5045072967240141,-0.496633486055575,-0.003274569191950752,0.17758417526278172,0.4189042450433473,-0.48113210100723797,-0.42290011330246297,-0.4442794428672858,-0.19990586453352482,0.45092500035382344,0.492142630852456,0.1607252878565451,-0.33393856990490667,0.43370812465883885,0.3253265158616249,-0.44988351894775835,0.01922331934773019,-0.06111941179621992,0.09590597345840517,-0.12890578846368073,-0.04265944956438685,0.3940181264031475,0.29363808581654205,0.07921511089975396,0.40625192664669363,-0.4087190688297471,0.11113398228775037,-0.4234195857628676,-0.14658351012082943,-0.1265708656717117,0.10373820540880503,-0.3717705348584294,-0.3533662054374818,-0.021680503641467584,-0.06463833586890681,0.1555738248189688,-0.1719742221276126,-0.17762420954871386,0.09263144514066453,0.4021938372629938,0.14656153485224854,-0.5306324262701335,0.2922935847949511,0.3435246854707669,0.002700170501288392,-0.27527455950339763,0.4166999157578377,-0.036714446764201526,-0.17737097415142541,-0.1350155913035845,-0.428859655657871,0.2337049693230003,0.2760428758166537,0.30144368822435513,-0.18457606950117686,0.17950461227099496,-0.2148451291423092,-0.463935265180448,-0.39674498586568646,0.40543076206236794,-0.1760728828510501,-0.40905691005261163,-0.3460627897160631,0.5964794104435827,-0.08069191166961218,-0.22424714229076362,0.307908183510345,-0.2919975103739696,-0.21795336399623735,-0.1586706800548384,-0.4509389565619805,0.3026030068447749,0.0035956097831520233,0.5451518759266496,-0.27921674865383356,0.44533627641127066,0.26446968431769363,0.21433264317201678,0.04688014523533313,0.01948364733755504,0.05709395474578539,0.24353537882348464,0.13990506877982098,0.13985612937990144,-0.3563889494497407,0.19299612676973318,-0.4441856665003214,0.09147895226686421,-0.047608929875415304,0.40923474046655633,-0.34026629125692737,0.34669994573109375,0.4166869855071357,-0.4956147556814965,0.06736894382488319,-0.47342406886244576,-0.31178761130503335,-0.3831282047249249,0.34185370046793767,-0.28713904883804636,0.33536146126843375,0.06666825919257213,0.19100268342372412,0.28297636863425796,-0.12226504735751978,-0.3912882101987835,0.2866289594164419,-0.3464606350408995,-0.4208327543402766,0.32700839581681707,0.39777499081831064,0.09581672944453297,-0.3453636911161367,-0.4595211538798326,-0.02833828898672299,-0.039714976361342275,0.08961231338841479,0.3627511582447402,0.3047063507161537,0.27252297908818096,0.3036314421188492,-0.09658157590016851,-0.4719094643359685,-0.22621860315402645,-0.17603587640607027,-0.20912151777066873,-0.0028284458817331485,0.22821944166003919,-0.2346742604927977,0.17647799322733698,-0.18697545870149332,-0.07194976805670622,-0.16943185392884896,-0.307426290549682,0.44608266143400993,0.37613167017696725,0.38100264913466175,0.3440955298940816,0.11155270033375438,-0.4815892283451101,0.16489428178984084,-0.46223198776882185,-0.3626734212274021,0.09043491644422309,-0.20490809825075063,-0.17300450913537838,-0.1734604452083503,0.33045374690658263,0.00020912525736135998,-0.24031983427833223,0.048429314615957356,0.011055098966656766,0.43454995959007503,0.32230013790876816,0.0327802699422901,-0.14637127807478012,0.26747096509375823,0.2276923752767933,-0.13033897541132913,-0.04897153940375372,-0.3524835786263114,0.13095281158167782,0.2980361561772032,-0.05435872866360611,0.02295385612982502,0.2043684518656755,0.43033505886880746,0.13639760407456988,-0.056547195190141675,0.5835107355681454,0.2656108919182681,0.28958046584665686,-0.2865515888636131,-0.231298909378102,0.19828254050321234,0.25901333185578773,-0.45332699276329697,0.23955995733299845,-0.23420555280086752,0.19326953804595073,-0.10498333200643928,-0.11998016158537937,-0.172466651298239,-0.4981205832586755,0.4693561626507674,-0.19142976943415832,0.13815747591230407,0.5378547408319464,0.28846718776415914,-0.06516907663533014,0.1169734253664041,0.061660065628666605,-0.23660083697360249,-0.4883608425556291,-0.19431390411997854,0.2659570236524401,-0.1259006989805786,0.4215008366931287,0.4097632727242413,0.06993639180159672,0.0665996455505171,0.3099958449100683,-0.3614032533967364,-0.0845560894348114,0.06579744692821611,0.35852715030945703,-0.05694684044285028,-0.16278093080447675,0.15065660374649917,0.2398200375420252,-0.48158906305591176,0.251012568262725,-0.2634505552450503,0.14759690129498632,-0.07034186675706454,-0.2278960382769069,-0.36587817402685746,-0.4051395139539775,0.23229710455403677,-0.2593793626113526,-0.27721768026284954,-0.1163228776561757,-0.2793627265337754,0.2561333780121663,0.42269761585109566,-0.40548858783558445,0.16106939997521535,-0.20703320064243497,0.4827683406163845,-0.3742507113011649,-0.32535814658107765,-0.22058636592695596,-0.08252539601489199,0.4371509673828376,0.016018130374542305,0.14233815721955578,-0.28511317613470233,0.40945221414500166,-0.5096256297534052,-0.4507954438208178,-0.14518931466229196,0.5523901613465685,0.19198485479514746,-0.11491888644910593,-0.25906845919433363,0.026467660133689463,0.06663039786411966,0.041601108557808075,0.16254691452938722,-0.08512266674945895,0.3408387886842647,-0.02418060645578572,0.27528633268592656,-0.38651322214147454,0.46613386774523824,-0.3912882810117902,-0.4081849886787494,0.3507680247718448,-0.05018098366683599,-0.17269306293741188,-0.128924811983089,-0.3680910612915814,-0.2742491178199656,0.3459847497783388,-0.46452718614182187,-0.3124614553948603,-0.0690992170755765,0.39486554070429686,-0.32648531283225557,-0.22386189626879963,-0.09084459553015634,0.2936279048765141,0.14193595152406166,0.3324644201249586,0.3420541967102311,-0.09895433749203301,-0.051688539515169385,0.24667340314118294,0.1204241802964915,-0.18134014209182767,0.16022204620497382,0.06131791986811178,0.1398238111497863,-0.19986482315144305,-0.46140285080740656,0.3263171552097572,0.45658949916736813,-0.37010897084588035,-0.041982657636273985,-0.26587659180091616,-0.12323155299114119,0.18652925087799688,0.4008766368471056,0.44895280330560267,-0.09987625251604636,0.0402440730627468,-0.2451700401881944,-0.3544293223307987,-0.27959567088465276,0.32798025799141034,0.15842163727859726,-0.21105937787029247,0.46771611868986596,0.17802319187864082,-0.05788109818035922,-0.3659925191627487,-0.1553749937160279,-0.29773535447077404,0.41314582803680266,0.20868557598774987,0.40063024284652526,-0.07591943856272391,0.4232189683932761,0.25588129369596385,0.07019791151723458,0.07804212864382308,0.25620827705043764,0.15300758414393004,0.0033021407616758845,-0.33625809667223844,0.17449950869491382,-0.2542917899343872,-0.327199700524527,0.09699246140805465,-0.098352071237829,-0.2104471561285258,-0.45218147218069565,0.26534166986875646,0.29259589131578945,-0.17472172361084057,0.07407538721298594,-0.14119541156667678,-0.13822080991580485,-0.5568447569189207,-0.2826756516770489,-0.2545770714689201,-0.39065502091264626,0.22521530906999507,-0.3674385450426931,0.5489982260462316,0.4830227041818313,0.3542790933589184,0.14050677932746564,0.17293742252862382,0.4245945116588321,-0.1045611843298657,-0.1773171495956758,0.5214090023623607,-0.17693764717180996,-0.23717039055078817,0.05827061014852278,-0.09603325699123369,0.26071870807120795,0.014491591644432991,0.07337425944523336,-0.24078105651515871,-0.33635811843596997,-0.3647505632600619,0.21998081505441994,0.358529828694431,-0.08491940007254177,-0.4558200703021558,0.3291616640334133,0.0025872702875446027,-0.25155320224929345,0.28967838780384925,-0.18970362971577548,-0.03309749604284466,0.10856228108418282,-0.2260798557426821,-0.16149192837313275,-0.14731065916826389,0.4211355401795942,-0.12565362459971385,0.30766678615839355,-0.036848845699339154,-0.3182167743615153,-0.16792379708933322,-0.3616338344445064,0.16278775042504548,-0.09389030177679583,0.42945377584904204,-0.009407994182622956,0.525873323719237,0.2534313532179304,-0.26805109768074836,0.17933527464363833,-0.013372956460030842,-0.24051795210608587,-0.27838904991591923,0.004884573945832113,0.32336822992328657,-0.14226513192141316,0.5015268027017211,-0.31628051599739315,-0.30195379123823546,0.12564811710220444,0.19490271169479545,0.013580256902538784,0.1121359077188989,0.2672181427912162,0.4679336809792585,-0.02634835565294953,-0.045823516492617095,0.1586246222184154,0.032630264355811484,0.5460395050211344,-0.35863369394107064,0.4797197813610821,0.06826238220892256,-0.4456476951482196,0.10753620180264874,-0.27543516298688314,-0.3683971899224031,0.3531200246246171,0.21672037782078254,0.34051489221145603,-0.5107579470299985,-0.2315548033886195,0.25254022625667333,0.026325927597662342,-0.496511936968485,0.060957816909678976,0.024137851745612754,-0.22409851373233255,0.26871760925189636,0.3487578171209193,-0.08153692234385522,-0.5250143292694052,-0.27605540404458523,0.3380875079469295,0.28946210243304615,-0.34249721209690503,-0.31888515898070485,-0.09626794552877847,0.3769247760588991,-0.1113607731365071,0.0949927757102011,-0.18988629163828835,-0.4479637721645772,0.46268706606033383,-0.15095384135090859,-0.40731428477052756,-0.012026738355885904,-0.1484263765553251,0.46122683526234604,-0.041751798247658,-0.25703822591156567,0.21870441442009525,0.128029561951719,-0.2634219541945503,0.4552400715092399,0.07494996795466995,-0.2873869252166246,0.4430013256004207,-0.4915091446797713,0.39261198597096353,-0.44839813664815686,-0.10535670397166609,0.008856213609634435,0.4217794961364159,0.23312733140815864,0.5497783905024416,0.05947593173968484,-0.1952253340770627,-0.2943288721520699,0.48835095366822795,-0.15430911628160546,-0.1882964017982485,0.12648509504495256,0.2625936388933843,0.20359290860497445,-0.14285500813657306,-0.14850546206213078,0.35020580586277994,-0.5326591533175242,0.14590214767329462,-0.22051396260631057,0.37336439071563865,-0.3162294736649383,0.39397601954816025,0.09127968630844735,0.30625031141285514,0.0528634950580081,0.08738156710900151,0.4822044091561265,0.4480554708720753,-0.02845752208344494,0.24559138364744085,0.35521852122895714,0.31673858140725525,-0.123859184194307,0.2872144554764616,0.11596109358038033,-0.14027857847626005,0.05141340662415016,-0.1075274155475186,0.44803797924968525,0.25568362996252003,-0.013120438151801797,-0.09521689602666909,0.49129176936190483,-0.0583997755105276,0.3925230213554431,-0.27690520070661595,-0.4842592359689311,-0.005654253744901143,-0.4134203852547106,-0.505288820274764,0.10456644683908457,-0.23877242652004693,-0.42541617092074685,-0.39799643569025067,-0.0030288007899899098,0.04845703057190238,-0.11795036881089582,-0.224272200610988,0.24549470143593682,-0.4560502663792625,0.09778082669452548,0.19843146461818945,0.440722317977984,0.15320750807132644,-0.21541906212608813,-0.4029579015547905,-0.15370049070968425,-0.2518017068907978,0.14068952144555052,-0.026099419645591024,-0.21699110783365647,0.047835349893215404,-0.017724050200911747,-0.27072737862514407,0.25238112884271835,0.2318130490066377,-0.4117651827123407,0.44311841516729206,0.22915023515926639,-0.3017510027467127,0.38806858480302375,0.040979884085177255,0.1656132199844698,0.0876669443119368,0.32105549240287834,-0.4196354957095274,0.22819990054987052,-0.24232218186077428,0.08777553449306925,0.00479515373967383,-0.23205846099325964,0.24530525766763922,0.3988483263672293,0.27855691020652334,-0.39419349363914885,-0.10707905407416858,-0.08934510563527802,-0.2057848697315317,-0.12590014558104387,-0.11523557798997293,0.45863467599736146,-0.4437109806081793,-0.22196303793425234,0.3844835794410551,-0.33368410427561485,0.10277018313511327,0.041348998340534036,0.2328297743256757,0.41806332850315464,-0.2820389830175704,-0.08821120077991516,0.2571868523712261,-0.30806687525412874,-0.3773013232613165,0.36137858358084607,0.019239333319727187,0.19046598653147084,-0.018299475290616145,0.26554116472095524,0.41969502900572486,0.003208400078527512,0.1687584751122214,-0.23394191481512686,-0.37941657041285654,-0.2370968860400855,-0.19928435029467984,-0.17522256113811407,0.21607504858062035,-0.3051825464458434,-0.31650884098728127,0.07590483246017923,0.08062460130537204,0.025627996386408163,0.32807777117014303,0.3261332380158114,0.25994352119196257,-0.46449907001462853,-0.21185622778416852,0.4925480708616826,-0.17455099762054405,0.18805964612617823,-0.1814934664235358,0.11937794760615246,0.5109229150121378,-0.06627014278500011,0.38724754607828094,-0.1423440991038202,0.31062209897074655,-0.12988110041284315,-0.11220503675504923,0.15358397851776284,-0.1416376433058114,0.3256288805769281,-0.5173130464889063,-0.3679800505839233,-0.4549451328388534,-0.2928101007113057,0.14152471735183958,0.2636337118979389,0.3227941660508447,-0.10297466820976604,0.41968208313634653,-0.26261765065127207,0.03556720038128974,-0.22995264717915703,0.36154307571455446,-0.10133978155029587,0.4248735276108091,-0.45423132795517107,-0.4225868248987586,0.26720833809526945,0.1535575759284066],[0.19017128358332167,-0.4505460588937694,-0.34494836625017966,-0.42877549840014434,-0.4760222561631286,0.13598306803479754,0.20990972821021542,0.3024702101404884,0.038397518599815036,-0.29316764812811574,-0.2688331810520049,0.4782501262144834,0.19603318497166725,0.10155423042113658,-0.019127648368857605,-0.27647023814305544,-0.17756966790329246,-0.0044665078612791485,-0.5017757584640937,-0.2972035921477301,0.21708157871851913,0.3576236079669921,-0.23234138027268086,-0.19131914857862964,0.2569967042213684,-0.17096902808174771,0.4721745532278036,-0.32923456907424536,-0.0023389297631791297,-0.23521590503282663,0.07066135809780541,0.2685387370739407,0.21419830868378353,0.31182744246112154,-0.17683456414619467,0.4392003543896229,0.03414340073867368,-0.22428064118675994,0.30805117618817923,0.22036577113673422,0.41251100490014675,0.4155693886624557,0.09797179914250152,-0.28799951028591186,0.4629662630368938,0.41784441579679327,0.05058081817059707,-0.3078306718868057,-0.02643555517970172,-0.441494715514821,-0.3216408877917389,0.05231215427545661,0.1903818092598148,-0.1667167844555761,0.2525431650630674,0.10587875889883917,-0.10826135514562993,-0.1191575956535676,-0.05399747834134315,0.17527499428880633,0.018101119610412924,0.050196858504722386,0.30658057913516357,0.23165328544376124,0.3561108873883929,-0.13813270734043875,-0.06950225077045234,0.038797264151168,0.29241881967238614,0.0433147017849876,0.003059857030923335,-0.2388651763491338,0.465444249924766,0.3509326402423361,0.4795712523282575,-0.21453414952421257,-0.27981901441821394,-0.01740601600090989,-0.34518972300434275,-0.0038663389522088283,0.39834424457182005,-0.14758779676586964,0.2363175338628675,0.06727993015533289,-0.2905610972446099,-0.190039428927643,-0.3016843502137491,0.1780352602636588,0.10394955532948764,-0.2244126798746286,-0.42753670866305826,-0.4732557087086764,0.3119318869231698,0.22300222111838994,-0.08583838420361681,-0.46571799729143804,0.31019983073279966,0.0224264777135198,-0.42241806760751993,-0.023716245862017225,0.32498116246619685,0.4239069843148219,-0.05501226506757523,-0.06090103428499944,-0.3325682919868462,-0.14231747025599323,0.14953958557551236,0.048060074200197415,-0.3598728025801735,-0.052032418404657596,-0.2953579599190499,-0.04682203241096747,0.19099449536692883,0.03669612110853758,-0.48299504421028616,-0.02926514669845722,0.13537236367716407,-0.40138558079539877,0.4364538660592067,-0.5015958135453187,-0.28721221026009686,0.005631024007031328,-0.37106828049877716,0.07655774644464616,-0.1171075521262013,0.16690664517966855,0.4234088402462092,-0.10118896043439556,0.26896224586698547,-0.23014349396241504,-0.08193866716499666,-0.22160640087012365,0.17011328780393517,-0.23488987556443908,-0.16222127848090379,-0.3087880148526702,0.1566128742267505,-0.20335161529057105,-0.21864320314820546,-0.09488151785401842,-0.23067940214589044,-0.2201206789701903,-0.17149777842880737,-0.053639766186673585,0.15897195756584506,0.35610186815364986,0.37572535762309284,0.29611896409701416,0.36921390216069744,-0.0014406389783432358,0.31449252669288386,0.08305966072996272,0.08289244235092368,0.49195381947103106,-0.048203948827763486,-0.19351496597921009,-0.4465527590836468,0.30571489365206367,0.13435665972330083,0.3916736008150371,0.48261726083324386,0.24354373446799327,-0.33338604641663655,0.25353930255786555,-0.22213007312745944,0.08379557697099102,0.2718387574435221,0.4696184188582662,0.02244259626303794,0.2548099921642589,0.42202227400627246,-0.3321156695930143,0.47079545996500227,-0.04277645161530403,-0.3186458258721199,-0.12957048303569535,-0.13753129929192806,0.492026315044968,-0.48820009010476373,0.44241849310924275,0.10435483079993266,0.0200525302366039,0.3684546624098997,0.41276728989981554,-0.23695576872420138,0.07757435870563165,-0.4148559381303284,0.07188521550131442,0.10434293323531735,-0.21219827407367697,0.4920609142863841,0.03420553289915216,0.33211270031342643,0.4549418576312015,-0.0006630434335627716,-0.19671236430709615,0.08358564990466949,0.2891033111523737,-0.051864490278689585,0.49893540492697,-0.2729972240423571,-0.47247196837007627,0.2552143133763367,0.09638107352879714,0.3401514813574582,-0.12673194494492748,0.3872145927848103,0.45591796908281185,-0.15711343158736904,0.4862202389586646,0.233926837913843,0.4899163716739093,0.4313242056502424,0.49457153319037805,-0.45969760648425473,0.35512963910533774,0.2561932860567797,0.11567212139288736,-0.40047554706578226,-0.3481007143044813,-0.3197599043885287,-0.4714746615173801,-0.2726716148019207,0.3421896718697249,0.3070218380562152,0.22733453949273374,-0.2806546124815245,0.30074338944068774,-0.12180822273907725,-0.26806746967126893,-0.38426932563811217,0.11939880879431401,0.012176335286991044,-0.1872318573687709,-0.2905789771038161,-0.36212996880669124,-0.3169707689913952,-0.20783911146118858,0.12114093912646254,0.3486715605924444,-0.14248691559189863,0.41042562969720786,0.2755410135314941,0.016272971209023036,-0.31657496285899983,0.13833504541844432,-0.30467987688933634,-0.42224920168394514,-0.0624483876760187,-0.4138596804124647,-0.3837054543762683,-0.47129712919775624,0.3140189986551695,0.2013410106224389,0.265725008151034,0.07955701815056991,0.3329314273536324,0.27387171957752293,-0.21939468261581535,-0.41111910644633753,0.3763279415205709,-0.279899859601891,0.3749475338109909,-0.18021536969266228,0.49760696208669536,-0.006404457316226733,-0.2550568176485979,-0.39641272335056876,0.19681860042812194,0.49746428550657534,0.07299643319755483,-0.06028258529985102,-0.44726663786176946,0.4893970705182975,-0.09879312231722526,-0.4423632846068239,0.302114670416663,-0.13090691923236383,0.16183326675244408,-0.09254850381718759,-0.22093784167358463,0.21421132175800583,0.10052471617430152,-0.09766613482216874,0.35713325275155766,-0.06220580568033536,-0.07946198698020546,0.3749156477467506,-0.2809354590733166,-0.365239482610494,-0.3853986577808025,0.2659160873397714,-0.4052998145836491,-0.1313327823323539,-0.14709139661447576,-0.12756168693672273,0.4715666050364859,0.4754082674194165,-0.015928982717291987,0.11017711124377115,0.1862095250466892,0.272014743299396,-0.19945386816901323,-0.1737650678633109,-0.004896101759265749,0.43209499443298044,-0.07420694480654075,0.27894108026582853,-0.06901255291726358,0.14748006756527257,0.08926095844655166,-0.49970718110132467,0.1735919012597464,-0.013707299017920468,0.44955148493715374,0.0343821960225685,-0.392113109828763,0.35139883512940656,0.17264006517512634,-0.28303987081064924,-0.355056500599896,0.3859005382701739,-0.16789896322550305,-0.4532845722253332,0.43999783548123095,-0.3454727770304764,-0.40961367322563885,-0.2120620672469544,-0.03866466884908498,0.36850691363751026,0.3431585955861343,0.07699291384443363,0.2522966554103114,0.021196807053713768,-0.3158847922454983,0.17916563216314332,-0.3029171390625279,0.348576728251869,-0.3173246955630727,0.44974638356657354,0.27066357737931757,-0.026651305976740768,0.4696946163212025,-0.27654517598225103,-0.4233384695440397,-0.10389795992712729,-0.20220137523221773,-0.20942451588215577,-0.394651893316297,0.03263868853474007,-0.2718159884372426,0.02270664566297088,0.09302179041772131,-0.2985639775622664,0.004859833978009123,-0.1694572603452269,0.44057435245751086,-0.3249136618273794,0.3078405855076896,-0.32279018147631783,0.10481120428600776,-0.45560554615033594,-0.4367998371221381,0.13350023084036103,-0.16981319372066134,0.45700068091369583,-0.3836465592860873,-0.33450638802873744,-0.15737653821747236,0.2711429547110357,0.13854580712969575,-0.24419404158791258,-0.3694609403809272,-0.05061099034072377,-0.11269824706064228,-0.4314561347126798,-0.29777725879536715,-0.37016769747972167,0.49526835060663466,-0.2983237047110507,-0.33632137561483183,0.10886087856597164,-0.05597759846045255,-0.23797135349963322,-0.14274896279701355,-0.25459345381467835,0.0677317461116571,0.12829283631973729,0.1534783157726884,0.25932799914205723,0.4902582522934304,0.11629458339479438,0.3111182282113174,-0.2854400228942329,0.28288181839655213,0.4037756378829932,-0.2533884756771853,-0.062075683760823896,-0.33851726002111054,-0.07664419888466249,0.17542017999881604,-0.009194331985716845,-0.42355186658524663,0.3010140293732743,-0.2538479782534313,0.3997470376396101,-0.44118081026063044,-0.4048763855491858,-0.1226419953710117,0.2938297414465055,0.2009078799093118,-0.31033218325963674,0.28500462983543645,0.3864830975739722,0.15568229741211242,-0.11931754118042925,-0.17582765250306157,0.4284375507164425,0.43244782706892887,-0.146665861450302,-0.4285874040414637,0.28849216229985614,0.4886487881199843,-0.3647689527956958,-0.20281134247651914,-0.28665758707888445,-0.24670269045547297,-0.1307288610708132,0.3937749804300453,-0.22669580030879255,0.19699936276060862,0.07706676105450548,0.24280391930119075,-0.5667512699445852,-0.5500409827369908,-0.09414129982909726,-0.00995285733161182,-0.6171824931300426,-0.005991387923805867,-0.2929839619496496,-0.2974571623700521,0.22170055276958006,0.17148127105569236,-0.295124312542812,-0.0860788299761038,0.06655477753562361,-0.22220270005762333,0.363369462904151,0.16310182254903244,0.09805523758407185,0.25511063935229417,-0.6536643733772588,-0.09625261675630782,0.13531020436032104,-0.29584494227149427,-0.5660213580261491,0.2367234046684743,0.34069469001479313,-0.07723926847168364,0.1837011387704348,-0.36541985196885196,0.06441275801676437,-0.3715159736524831,-0.07619009196493712,-0.1767411590387507,0.18114332620889817,0.23874069675364404,0.27221633009460455,-0.4569258958506244,-0.3348184643668804,-0.3703004688240584,-0.5275001698831542,-0.12277679181396693,-0.37327459945357183,0.29305854556897315,-0.18931676222875363,-0.4088730451553865,0.38252654971456906,0.34187521296562684,0.32545335832507194,-0.3668892782433929,-0.11460057311713062,0.03789315870663002,0.3489110813429657,-0.47350851243520037,-0.021819310927094947,-0.22960605174247348,-0.3260655529899049,-0.4914685269985597,-0.19275686701365194,-0.35530870107421403,-0.16264426909935792,-0.19923726658300084,0.3630382350798943,-0.4524558834007669,0.22742287818210769,-0.09218999246274762,0.100709894160168,-0.28850538552609983,-0.12001169069866927,0.3650638445924475,0.23682104552291403,-0.022950406463545868,0.2144646621673554,-0.4243919679316798,0.37049876650427804,0.3872796177145723,0.20509996244093923,-0.2542197240611243,0.18098084456224361,0.28475207364858063,0.02748292929010771,0.19833317391727395,-0.5464406448023493,-0.5619478651988502,-0.08877941261380455,0.320135350045961,0.15899224375132223,-0.3194847064987979,-0.47010643733661456,-0.4036611310176999,-0.2957287393770088,-0.15031334166580967,0.23391434273016606,0.0779517446268276,-0.37790920378740384,-0.13186143690335228,0.010439048797523548,-0.34332121650053615,0.2390233590310921,-0.46798522752143995,0.08024145705921958,-0.297735042894264,-0.4157962408302993,-0.025907457645378294,0.24543257606055274,-0.0964592984734318,-0.15240291607588705,-0.09840311819648452,0.05244872898299178,0.3035979831596078,-0.16699792663137217,0.2713464173718528,0.0036621137552088115,0.09371387170460586,-0.19067791177134943,0.0563300561078222,-0.11502816764860302,-0.4612458528999201,-0.018660162460652625,0.19019551507682506,-0.29308104547144004,0.27130046538467356,-0.5379926168531923,0.14441669966113888,-0.36454234040649175,-0.39097118436033756,-0.29350514384496795,0.16756614053146657,0.29088791295692407,-0.27326560876981026,0.01766124989031217,0.28880250427783455,-0.3045894231704396,0.32109522937607726,0.029689006633746035,0.34193886636738796,0.2055636337825717,-0.42034741704095346,0.22432947503086975,0.1906578278163492,-0.030806891100628328,0.3542205790303639,0.09716898841777823,0.5058809220015184,0.38663336380222607,0.22335318877339702,-0.29904018767923163,0.5410299298858164,0.3710884246578641,0.12151210813503224,0.2413953908505553,-0.06354577925952326,0.41272952567112287,-0.11509451986352795,-0.17583528294966053,0.381269164747455,0.4038358640279174,0.15956661221011842,-0.2320899161022679,0.3884391700256136,0.2659685150646917,0.20511962099944975,0.23290092420932168,0.20881180561828272,0.3043923150715152,0.5944372619284968,-0.2392377366975809,0.22322163328965172,-0.12898057532795615,-0.3124815061365243,0.39631345006411806,0.3153995504173357,0.4096658233672289,0.22215961431377168,0.16618660258921117,-0.14132039041770195,0.4441777545376558,0.23191058266545894,-0.20650562789203777,0.3240313822380339,-0.4189487815875591,0.0729569653931768,-0.008922133688128185,-0.13354305267885497,0.09856024702288002,-0.00893292830980683,-0.16139460322500543,-0.058640003666679756,0.542879704670021,0.42680495952606917,0.09682025704009325,0.2936999976674412,0.13649617105902323,-0.4501633996062596,0.09473591144714102,-0.21617691122069307,-0.44403808211695833,-0.4664776234650748,-0.43676283774531766,-0.09982544543064074,-0.07834628508640006,-0.1391715586400775,-0.01266712232240864,-0.38001203543323975,-0.06156692175780292,0.2352188980654869,0.21378867421215403,0.05202968063483082,0.16618712035470137,0.3208243428905779,0.02860279525510761,0.027472225044965916,-0.5259508969271456,-0.2369569443650209,0.13748022021372422,-0.5633061028561429,-0.3848593255180651,0.3953841033308548,0.13214225252506864,-0.34418754571224874,0.3848565681901189,-0.4333273152950586,0.18828569813849694,0.28911755362127134,0.39880432552608874,-0.18620643866350933,0.043397595193570726,0.3585236787047629,-0.1413189320050708,-0.524044584433347,-0.17881437730188174,-0.2716095269810854,-0.31966695119085164,0.29181318314400984,-0.38830765124542327,0.34142869134340514,-0.27632240645534656,-0.18764719492051155,-0.5312806676072694,-0.3939553306074983,0.470049314373981,0.22103561343366654,-0.4407667707590563,-0.46353496270708244,0.38131959733443127,-0.10352473594286772,0.37174374525050835,-0.23478288662533928,-0.419677293724088,0.48079063337620903,-0.17057154173516348,-0.4866087669133191,0.3493902268457917,0.1883135303481783,0.41620097806944706,-0.2447245513430517,-0.016428133806980338,0.16134460686254315,-0.49966537192726107,-0.11662091470848242,-0.5070872733580792,0.06854537720705606,-0.3260649440884661,-0.1607390470323669,-0.033763531364585916,-0.2146956089767706,-0.22810173460174005,-0.2797608885259305,-0.4417850626993716,-0.4398583294909344,-0.234240469971074,-0.17125383399539698,0.07433242984356092,-0.3652787472255271,0.3508800701533883,-0.03738498626245403,0.34077286397676293,-0.10504473194697249,-0.5328850895454016,-0.15763652603195002,0.14149104058615664,0.026940981173482054,0.29842816519373355,-0.29892801067613106,0.22236467595373333,0.1072968652611306,0.08626808966874243,0.4443962546519059,0.40384061188960363,-0.09473389046123637,0.2617255237477798,-0.3115381558687165,0.04156354161427817,-0.40559247000538795,0.001005987190600585,0.2707577713383926,-0.01185075077592298,-0.04237780213533963,0.31857566231277373,-0.11806060004856771,0.2555424333921106,-0.20249021286150212,-0.5155827962652922,0.3731436198474616,0.31296953282338436,0.07485350217008607,0.11114929733725878,0.48921120845836286,-0.040582347076473124,-0.34103167238371634,0.0484214171615314,0.030703390908374133,0.4314207430117252,-0.10987357603618655,0.2306025976409102,0.09172767428237964,-0.4154825243412633,0.12410250345232769,-0.028600038406262875,-0.10288802533049446,0.0032632150521950134,0.12798886146065733,0.3956805584857519,-0.5352341598043421,-0.28993852748223325,-0.0813335343062222,0.36862623383290277,-0.3863348011529117,0.4706858123799822,-0.1746405574895449,0.11087682289886747,0.2596546191238128,-0.1740133143303815,-0.19208088663402723,0.5969537578070346,0.4328045200718403,-0.2805399659322255,0.15602580525395426,0.21573042533033163,-0.08651556657100488,0.015547992252975906,-0.6037155016203549,0.055139821208576155,0.33389801205607156,0.586132892468132,0.01634595826080714,0.5330801985424951,-0.3881013740706726,0.49445846003338473,-0.14115933764531283,0.14805696827628095,-0.21120848838058454,-0.16493633886583906,0.18537510513821578,0.37253137405997255,-0.47135556162258707,0.08269170981319017,-0.5365121426003343,0.2594104579736502,0.17700110633357846,0.061434683820968,0.30481412440378974,-0.15698256786525747,0.39815354789254304,-0.370463956567812,-0.35591330140920696,0.1728922659623201,0.28912557330089284,-0.19545255310896276,0.0036991867423151583,0.16629727594925245,-0.423901631711169,0.16472371851623213,-0.11290373877553353,0.09857007324761813,-0.47075966078960824,0.1940554307175497,0.3907830609120788,-0.2101116120905915,0.5894329209190422,-0.151382752169453,0.48208661744481907,0.33861169693105525,-0.0327812147921533,-0.20344458136623703,0.09939746808387663,-0.1693990756229669,-0.29937498020342723,-0.19535465878321956,-0.21542152191966532,-0.43198849341304485,-0.1866817456492226,-0.10749932164596221,0.3192827027738989,0.4332587039201942,-0.23482782106583447,0.4703927157348112,-0.35823536759576546,-0.28935767060410406,0.46929432714312275,-0.04456490735697829,0.06282077149276208,0.04035294605733806,-0.14182466470937868,-0.34190575635461345,-0.1260680982583191,0.33856901232730463,-0.3489151035959125,-0.010464832614471328,-0.353414166995938,-0.06769777243117786,0.4798346698690285,0.4789359498751088,0.3205113637246211,-0.027248543729225055,0.006115628409371949,-0.15229247018477998,0.3341014921986437,-0.07795490033483245,0.16229339121635236,-0.3027803795222219,-0.047858540956411004,0.2447646810004017,0.19982021531019273,0.25732524038206583,0.45077417151227117,0.054397468502388684,-0.09379814414886065,0.2906028135260075,0.18460307953019237,-0.021769493956889496,0.35061429182728604,0.16922288789109433,0.10273429181310478,-0.46462784946950564,0.4278649673852973,0.07056474851383872,0.45467127043558236,0.4035481552835136,-0.0377423413920117,0.0963285615369455,0.23759894580025678,-0.20425413532693237,0.47085222777134506,0.060983735849413225,0.45129931815737984,-0.12873554056202055,-0.34394365361462265,-0.08392580381301704,0.4284297999486295,-0.410149961748847,-0.05749216262535644,0.19545327450684843,0.043811731415506254,-0.23674602210980633,0.39428445495711567,0.11665019574175048,-0.26993430538707286,0.434764599303803,0.04331948753887407,-0.429462683268119,-0.13141892610388783,-0.1866410023822576,-0.03952128629915123,0.5728422767430166,0.29449937671221377,-0.3312746042823291,-0.0940436827380906,-0.018306185273238542,0.12297878414559944,-0.0029479354072223835,0.006448601069650586,-0.09489269203439094,-0.012378059998195494,0.4634582514305414,-0.3503143022773488,0.3195829656790192,-0.288968478126994,-0.44705675736498773,-0.3591251789428541,-0.35582042588984947,0.20741203914450043,-0.0515699901728311,0.025957343789976835,-0.36256089091032273,0.3011611376193482,-0.38123785903147406,0.5072719811368617,0.3352732510269843,0.23295014323002178,0.41057483700417563,-0.18980504402968998,-0.10443032413769436,0.24652511685694772,0.19892430078293893,0.349619398212101,0.35599375956239787,0.2534820281525301,0.07505562634219322,-0.011709553164300258,0.2008502004203945,-0.06847681070868525,-0.5384179490910408,0.06667550020672067,0.3045830563130322,-0.17392981059522916,0.3443509812270847,0.2919770507409852,0.17862586246710113,0.3614244103125999,0.10012384412180819,0.18249605349872913,-0.21357407140942058,0.2918190805528957,0.37836091181076265,-0.4503541000445169,0.26791583532760027,-0.22477261714011043,-0.26060956644989625,0.43649323002965634,-0.40531372898777235,-0.27129526838224033,-0.30374297936358474,0.21655799117395852,-0.3337451499443619,-0.11859993929472146,0.4410274386712615,0.028191749065461687,0.4582374748306365,0.2723826660514179,-0.25575785471252294,-0.06414430148000914,-0.02078395057482263,-0.12820021869983933,-0.01564680831259663,-0.12041407991311288,-0.5484958463462488,0.03155260664129113,-0.21375232414533663,0.2704130259862771,-0.04758638486853164,0.5113480213304803,-0.3246517234967991,-0.1266253444917355,0.14342575969171736,-0.15466348265240287,0.3073459839102359,-0.3447977338630353,0.16273176869975506,-0.06799551015390382,0.4673475314295062,-0.2648591105246172,0.14510320731670392,0.27706844388215424,-0.01127852153376124,-0.5343928241788722,-0.12664476352970622,-0.13767757634439565,-0.465458688839525,0.36134676955573514,-0.17533497273801982,-0.3656378380244026,0.4618982439859174,-0.1552666301678019,0.29168265606480115,-0.21691528158302292,-0.39868809335029237,-0.31174498771486586,0.22123512552082875,0.36029627442662143,-0.194921060435808,0.21122748388411566,0.08196533497361383,-0.37936117368807726,-0.03956680747536174,-0.07485597352040041,0.09011672383058712,-0.1680050268263432,0.20547186932613906,0.018848527679308395,-0.2749290223760649,-0.18550850181364648,-0.3470323216797312,0.13449657483422797,0.38153537983016506,0.2010277593057998,-0.4138367862821476,0.438854966419783,-0.1644986635382138,0.368519608171386,-0.2937349147709165,0.2946220878912963,0.2607622101418157,-0.01766604247316544,0.15794554955395496,-0.22518739281787778,-0.3993670530868505,-0.4058319079365093,-0.2538439328193273,0.30878196614709286,-0.2192531618252514,-0.41359977202447645,-0.026075711745007363,0.3739239450517456,0.04466853501272967,0.025513296370881632,0.42197310899634743,0.10308529456820044,0.13355709199975668,-0.3235338673099364,0.26487551922944447,-0.14195518390460196,-0.3060160425405371,0.028929374157078417,0.020836734566799815,0.4142890595874689,0.39804127062536293,0.09884931805020897,-0.4470767302465045,-0.3285449295306627,-0.0278297426547842,-0.037547314705698116,-0.006251148995545966,-0.07526758143766214,0.3744160499720348,0.3781451006002399,-0.03019999083482042,0.34460411377284905,0.16841182223394177,0.06277641241580204,0.013389423007024743,0.2994144451649979,-0.05241434843453032,-0.07995853436501858,-0.4532566171039974,0.2887119616954402,0.2939825628911105,0.026668167026467172,-0.262691562208262,-0.37286980763270694,-0.3833565994306792,0.5405894283297008,-0.20919568199416563,-0.012800196051141882,-0.2347005461897582,0.5326302192766827,0.23053061990200763,0.3095549782843001,0.09988258847288878,0.293925674327767,0.018979836462353877,-0.08749493924025623,-0.4798731114233359,-0.3777821102671213,0.17070881787414022,0.0015164121257123847,-0.0482074186888446,0.06093858256565548,-0.38849167540173246,-0.1943581426703727,-0.13593773739889567,0.4739657634920712,0.3230433810490611,0.014176563808546485,0.05265533209706381,0.40214747167377396,-0.3584974716929098,-0.25719934268635003,-0.10388765033859067,0.16862598211674307,-0.28074754280798214,-0.417539796372509,-0.05723280985821479,-0.4907912455989734,0.17259803593397247,0.331795435289685,-0.2696146065772281,0.44078462243317224,0.35819066590717036,0.04694047658078626,-0.23872487694420574,-0.10918068663664338,-0.4321646469462466,-0.3301568448251273,-0.14678292740821447,0.15553214782056957,0.08016997350247593,-0.45403016993296136,-0.22569653235168693,-0.05052552372077668,0.3874359909606568,0.34152893435662707,-0.029725399005022152,0.36064904397825803,0.19504594938187406,0.36012200591274457,0.34883551578445665,0.4065287159063084,-0.19169721475671647,-0.14948881058511884,0.5162106767864048,0.4345263834394282,-0.3720148139387001,0.32676250431136356,0.37362839058532826,-0.0931717252031891,0.18084604415792493,0.21516889289701724,-0.2712102563249965,0.12172419409061559,-0.11760500244661005,0.12373228076835593,0.3388529686810359,0.4955434763420554,-0.3238823020068118,0.26870752059637404,0.23551259966806962,0.4289922859407746,0.28615181221371255,0.4174681445786158,0.3018012783043168,0.062943940865109,-0.1813202967502109,-0.03719529435684624,0.017903404430021613,-0.21115264834680797,-0.1221207517545635,0.013519506292995512,0.14852851823391408,0.060780144034174935,0.3321057591573565,-0.4049388594438665,0.11402202056482219,-0.3048621416730094,0.4276866506094935,0.5758192829453326,0.26072263168426285,0.09615670622010941,0.09409802455992357,-0.23222667407103575,-0.3757807165813656,-0.5238754880315113,-0.032957892546606436,-0.22357921973984346,0.20117386238594753,-0.33979997823367364,-0.36928798754475073,-0.11297875416967822,-0.49587773885373954,0.007028542689579629,-0.21671266734739214,-0.4618943893303548,0.29067838271485835,-0.1433739994286326,0.2936390645933188,-0.19681092201486589,-0.36396421703001797,0.3435043469286006,-0.30681632607821757,0.47250693330773275,-0.16507155606025378,-0.3516002506828118,0.13088384467362327,0.2717202973541243,0.34698733202676063,0.057687097594592875,0.11057667812772212,0.0481747561353478,0.1952512153024329,0.3217056944818524,0.03158818524386974,-0.01026017967646737,0.17095970284611567,0.4611470615464858,-0.4008931496095986,-0.14552176510043202,0.23673271157599937,0.15881797109618026,-0.349586194692868,0.2831898155078304,0.02646191056187683,-0.1989041962209617,-0.4254639087313422,-0.037608845139181384,-0.0859965692279282,0.19252906396450215,0.3204195884149401,-0.28733882278067413,0.27739976970588714,-0.054951401523319,0.27540383598852386,0.3932882480006632,-0.09687711420354386,-0.07031058867800793,0.08802164602499293,-0.389448914098055,0.07094045496205666,0.27977869738036937,-0.2995901595864184,0.039344239030861566,0.03288020385092512,0.09444307617091979,-0.32520369930584225,-0.009196154529010535,0.2211408577935337,0.28694439058587773,0.487872710118874,0.6853684128489483,0.5027525118134075,0.1556747484053935,0.3462815052742118,0.42384571793503417,0.17970488453373595,-0.19587257544581166,0.16647211200111178,0.457470259224613,-0.10036827152407497,-0.06939218301172329,-0.3336576728310214,-0.4237505780402134,0.24110854521326142,0.12139796944938963,0.07313714321379719,-0.26736828833707016,-0.2989583265928117,-0.07503060018693608,-0.4121057204007237,0.03484466044820513,-0.30909597177881315,-0.33047096982927954,-0.3267626307186063,0.4146775255078528,-0.3970178341897572,0.2604848656070127,0.37459217782807125,-0.23413208813909273,-0.09960105273219977,-0.26683687574709253,0.13982219526969808,-0.02281270886551428,-0.35151089724858475,0.4557009453606434,0.288546676773172,0.1754755177643066,-0.29010741935697787,0.23340144503570526,-0.1617284052181197,-0.06313647493216024,-0.3733587519266776,0.152943247809454,-0.1092845073114596,0.08706701261297688,0.2963264816712042,0.46056487880490493,0.0917071538028791,-0.2700578097312401,0.10040396581229473,-0.24766629530466547,0.24624470004471016,0.47707260381455086,0.14246387544206068,-0.1305844033027627,-0.21159754524124805,0.3562459121328066,0.0822545802267916,0.31267982100943653,-0.5101115368927901,0.32760536137538127,-0.38399537923526966,0.024314471713311647,0.04127093218852929,0.2890551860726213,-0.20332737822667976,0.13450536862018508,-0.20188669381228166,-0.0034489921775063045,0.3898801005614321,0.27138675869515666,0.3145057414346558,0.06343373007652997,0.34178889255879,0.08441800260292244,0.2287374783697998,0.20246830198588947,0.37622368177881577,-0.16849971881200043,-0.3236870314545126,-0.032441372746577844,0.10768762755508515,0.2938862481117972,0.5107236458171431,0.4096229504917157,0.29550116198029425,-0.48317797268914253,-0.14614766483423086,-0.1508747347256655,0.24585002567834544,0.14160778530983942,-0.390767019779804,-0.4762859765491621,0.45930240474966477,-0.25200019542819513,-0.08320722368296936,-0.3757142822070616,0.05593522810930001,0.07622729276019717,-0.49456781550581025,0.39608115348931866,-0.2780086958658234,0.39070374359522736,-0.035944447957633234,-0.4259175302118379,0.21091959635429577,0.25909198670365696,0.38026261863013483,0.20093055849963026,0.12144219756596018,0.2843571995471787,-0.04165535718402102,0.13128647619295866,-0.3422368295978406,-0.17429975547236262,0.05892803571374349,0.2973619843830676,-0.33291014104170846,0.010248292377651732,0.04747634276094663,-0.26386584453264894,-0.2966735197769288,-0.08269792166393727,0.11660598090538646,-0.0939709431473824,0.004260443756797476,-0.36858476543131585,-0.4136091427777762,0.22265739441661817,0.16612335503158623,-0.4951700974870775,0.015716996492296575,-0.16337458725429072,0.08491115240689058,0.07921600863307753,0.1443398726414325,-0.13236250230392016,0.195620537889626,-0.31262742675385174,0.019626891774309662,-0.16046335631859143,0.40384338089187544,0.4024334603961499,0.054309724851914286,0.3171729596986324,0.5817318463986025,-0.23966109628669807,-0.14838795194795515,0.4201786741204352,-0.10958056294973786,0.336672267816748,0.4311902959797857,0.44751121696878055,0.27006721496987673,-0.4228546909058123,-0.03384758483370196,0.0601146322011611,0.4439649953407426,-0.07191635457036116,0.1912344111386431,-0.1776714478743797,-0.008309373033804926,-0.43720568321329656,0.28856176773696324,-0.19553672870399433,-0.19454499851263804,0.1290896140935678,0.14906559630718713,-0.14750244543921118,-0.022167947905152807,0.18574162687277057,0.09408955986729355,-0.13425685092488487,-0.3140062210009673,0.4692270422692758,0.3053180247150588,-0.23436163061114346,0.07925095528838116,-0.3652128206367704,0.4964076904834507,0.005806988981635725,0.30215780615417315,-0.0923588177350687,-0.4026845545740969,0.4307709162472223,-0.08119111421788056,-0.3793087253280615,0.5149807472835172,0.4227977621196648,0.4942056215834076,0.18802757178943463,0.23218175002605332,0.4021513099193627,-0.06288648025876528,0.17167852264568548,0.3111251928808328,0.24075557114203225,-0.2514187059822183,0.46084018650364345,-0.25861662119410034,-0.35675916191323814,-0.23225992056086964,-0.44386815458529616,0.34655630485475597,0.1943505780360795,0.22670771173665585,-0.388193066810691,-0.3026816049202369,0.3826988273878803,-0.15252425157513635,-0.4921980456383647,-0.4392661712024412,-0.40348669036229523,-0.26435154709516123,0.046807519090270984,0.4602889171784254,0.1928009465302084,0.398871896560433,-0.5697828346534697,0.13656683691438093,0.23303327111996988,0.1551441814344162,0.3728561822393405,0.09876223474344055,0.5649023658649628,0.3929363731730476,0.257861893899518,-0.0659277917128448,-0.2492098697513715,-0.18658546034838183,-0.2632754805824895,-0.14944547725861282,-0.2207440616612716,-0.44864830427658614,0.21028222218143613,0.20711858680181808,0.3037950853144965,-0.41930656200549454,-0.15505157896438465,-0.17758767091280037,0.2428398332607309,-0.29234446351048277,-0.31037066112517975,0.08996972971654096,0.06226183907506432,0.15107311973857815,0.32881876312858027,-0.08934512096257778,-0.04476704659049151,-0.17220750160541892,0.0034078396543903234,-0.4429114461877808,-0.02291013956053036,0.21284489014637106,0.25738764667127956,-0.502441433145429,-0.30077309729088186,-0.4287153590042339,-0.08760168661345641,-0.40495511407951706,0.3416944834655214,-0.04181797560727612,0.26292964491736953,-0.3434066388179706,-0.33679611495379647,-0.2203918538570863,0.15145408360667048,0.43871786063879603,0.1589112841525083,-0.42235007562194915,-0.3193716649943585,-0.23780968071256767,-0.3093575473994377,-0.14953112775858332,0.3105934526162139,0.2898376456230841,0.24214297752047026,