{"Network":{"Layers":[{"LayerType":"conv","InputSize":{"X":10,"Y":15,"Z":1},"Parameters":{"Stride":1,"KernelSize":5},"Weights":[{"TDSize":{"X":5,"Y":5,"Z":1},"Data":[[[0.33037468834589007,-0.364437509948504,0.2564194095088088,0.178602497359167,-0.2552926814651184],[-0.005136814941289058,-0.16897138695742933,0.025513698170779423,-0.12192565663646922,-0.479225280077972],[-0.24854130055720208,0.10990458497371988,-0.31926195435166116,0.08644296718209679,-0.040918549143940004],[-0.1943245185210661,0.07413791956263746,0.2515377251120695,0.4505957976411924,0.12201010921593661],[-0.062915799074399,-0.09498643795087583,-0.43069262779235407,0.11221487923395619,-0.3034496390330931]]]},{"TDSize":{"X":5,"Y":5,"Z":1},"Data":[[[0.6899862627971365,-0.1991284873529423,-0.774130679539515,0.030208140413188173,-0.09694161257843306],[-0.3095332116950122,-0.16830945179629825,-0.3331185150718474,0.3300890362108491,1.327586034970923],[-0.3274215431654105,0.01813276113200356,-0.10521811039291638,1.0777341476971585,2.4222840121636127],[-0.724987106498774,-0.007395620145865599,0.8596136760514327,1.6795422865621834,2.931506514861695],[-0.6003133625862612,-0.19254241690464827,0.5588451078182761,1.6200428322241105,2.762029645831228]]]},{"TDSize":{"X":5,"Y":5,"Z":1},"Data":[[[0.8665364707039694,1.4569994464978169,0.7328098274592365,1.0383194007079781,0.27550696067982233],[0.9340202366995083,1.5016599964585549,1.38659248020613,0.0928306071310278,0.06308406798511312],[0.580336060216652,0.5258228228010994,1.1125170035960936,-0.25316737717199056,-0.28465082352175575],[0.41666720382563754,-0.011929017399335782,-0.06547355061182458,-0.9741702811951453,-0.45717003413642754],[-0.18521188386587104,0.061806323460713165,-0.046369991960201945,0.11971208644594408,-0.5046801856056136]]]},{"TDSize":{"X":5,"Y":5,"Z":1},"Data":[[[-0.49862662318551465,0.23179230535994425,-0.050912166037670736,0.6294767451435276,0.24510123759816585],[0.05420585184531101,-0.4304152916461171,-0.6878946815378598,-0.5809293065727926,-0.27578497373847016],[0.36915990254831715,-0.2129808694481066,0.15704085031442455,-0.8653160560110285,-0.6207288114016741],[0.7947182402013275,1.017384751728787,0.2860493424816881,-0.410129556995274,-0.3008795169944364],[1.5387112668954344,0.7091567861736594,0.3798869804028987,0.022754313497936298,0.16727395422961797]]]}],"OutputSize":{"X":0,"Y":0,"Z":0}},{"LayerType":"relu","InputSize":{"X":6,"Y":11,"Z":4},"Parameters":{"Stride":0,"KernelSize":0},"OutputSize":{"X":0,"Y":0,"Z":0}},{"LayerType":"pool","InputSize":{"X":6,"Y":11,"Z":4},"Parameters":{"Stride":2,"KernelSize":2},"OutputSize":{"X":0,"Y":0,"Z":0}},{"LayerType":"fc","InputSize":{"X":3,"Y":5,"Z":4},"Parameters":{"Stride":0,"KernelSize":0},"Weights":[{"TDSize":{"X":60,"Y":22,"Z":1},"Data":[[[0.3659295062171696,0.31141781590275486,-0.12483121178908044,-0.206383368124083,-0.3538173692500879,0.38918053124103213,0.11359448065428122,0.16914362787803586,-0.385604395558411,-0.20920161132689302,-0.30219367604738034,-0.27354820120849455,0.3821901052609392,-0.24298030315034497,0.45406948731673,0.21640487402366107,-0.6797885739297647,-0.6494308512520105,0.20359289596339755,-0.388841622341812,0.6311090017365992,-0.4068189123699551,0.03356236861100794,-0.4346587933566685,-0.2959025302988675,-0.322036746652489,0.02330734903739494,0.6082824202268282,-0.6156199200737529,0.16197550475273848,0.13136720502746216,0.5292276236686374,1.1523725746859783,0.48780888652799476,0.3392605474874085,0.02213401786057733,0.0793967606095418,-0.0999958730039269,-0.5127659148418554,-0.16529543450564071,0.5655939486015767,0.0011101045471503008,0.5618741333981314,0.3853927114061221,-0.1235947092006672,0.15481377614113856,-0.3459112496611467,-0.30392885135404485,-0.3478546019173138,-0.23685185142384468,-0.22381866005623915,0.5420791213771807,0.29417010405324345,0.019443807871691057,0.25282224979007734,-0.31638323040023264,0.15323865823590693,0.5791810417326816,0.3768064825556021,0.4563824080217699],[0.26843052852523447,-0.1855692155761311,0.3295296226953173,0.346575875365582,0.2566027424362199,0.3426366798711451,-0.48872812906482954,0.048528884579052696,0.3109981724915334,0.042357848328693715,-0.028474585793998152,0.1337172458723164,0.4058404801161221,0.22094118162856397,0.4566413207737707,0.8331524653525422,-0.43976859326221684,-0.32459377517734495,-0.3794501818536751,-0.250246137315566,-0.26146732283517515,0.022069479682800992,-0.0002706886502541529,0.0850461464203272,0.22267283050133124,-0.3713087392054538,-0.5705526121448263,0.24125007668957707,0.15848037641928078,-0.01702308267314869,-0.34165875708075755,0.6272784438906677,0.014355340543641015,-0.02461017945689805,-0.1114971085951977,0.305375745060719,-0.21813022853421152,0.2772621103911736,-0.15711182207404373,-0.14835050007018524,0.13478809987014057,0.15820345745175632,0.5998506287633201,-0.11702885604041015,0.3423426211719828,-0.4793725102931009,0.1161360837438298,0.33170978743136315,0.4607490164446401,-0.5392726634170527,-0.26731244577557417,0.2667056624159951,-0.3503513045468307,0.1329322294257499,0.10240263706955469,0.19102253450133524,0.6423334243212195,-0.17481854650159329,0.5855182650504731,-0.16895913759800177],[0.3614267148919764,0.48743035635641485,0.0710369994604111,0.46328650982739294,-0.14173658398730424,-0.29199321107402826,0.35540375809212177,-0.2972833740534461,0.16867738323837086,-0.2906654854670801,0.3783463949516572,0.23554073670386824,0.06175067441181382,-0.24849559106662047,-0.24717172502705878,-0.30653836043684424,-0.2337069993166903,-0.3079327932254153,-0.4262631839585679,0.1567741037619023,-0.5684170165107741,-0.6562763609806426,-0.12549319330327172,0.6060496931818924,0.40871122910661817,0.2681500941881586,0.15961832182676522,0.18987138058997896,0.07522629947716396,0.7011970410708458,-0.4881054374320425,-0.6176068072880545,-0.09537869844159828,-0.18365313865800084,-0.16701657477237905,-0.11409532626602623,-0.030487444615775558,0.5924137311658079,-0.27021191121507193,0.08376615921901889,0.18906380940492656,0.11065152881164217,-0.3711835410743698,-0.2398510716058193,0.002822555772498132,-0.3255513332968782,0.19179826491264143,-0.1753227269290644,0.5130429520501957,-0.01130075838635668,0.06397546851804148,-0.3375686085548565,0.23835885138481563,-0.030394644198077407,0.1583968072252056,-0.025221979813629513,-0.09310881465411035,0.4383968780333141,0.3811077933661438,0.04146515584946641],[-0.28289865662642516,0.27384966943992967,-0.2606218135684461,0.39205664636710175,-0.329126807689725,-0.11444139433341116,-0.500079397593052,0.0818385242304697,0.10986006980152317,0.2795199448146928,0.41405177044815394,0.04425132018729072,-0.11458561489692043,0.29669207362919203,-0.49452181294493336,0.5798469107998713,0.6894148715037687,-0.17931617862406374,0.22011964523925792,-0.06830548268623576,-0.4004121028583399,-0.5361794494368144,-0.15396913669024284,-0.011497073012918625,0.3040014965015895,0.7099535219734037,0.5310855614180744,-0.016637179602110242,-0.057829651949523275,0.6017817087068885,-0.4512496340222578,-0.3400829204957418,0.2955009740420801,-0.12502779148607263,0.35337167988621015,-0.3373303353091875,0.027596967686788362,0.09252147321314874,0.1894624205129395,0.13453784114340278,-0.4088391160815088,-0.6097519542249559,-0.2775056803619448,0.3726638087630266,-0.42802258642945284,0.25579387752360755,0.1362841513525945,-0.3885944046783683,0.036074271797332094,0.2877849324023756,0.23543475719155335,-0.3456197166129893,-0.13043155070528886,-0.19795393957607632,0.18279852801168325,0.18554271054114602,-0.3030382364605129,-0.43929738662289997,-0.5811987671128247,-0.10334845593266287],[0.3526001275144047,-0.1635184138530652,0.39680357297376206,0.3010158953507389,0.14654677261456028,-0.0549285719638113,-0.16806861440943482,0.409953118662519,-0.45020546811416357,-0.032453074636772786,-0.07428714769647897,0.3482422078345517,-0.1915074562918197,-0.018340664781850684,-0.15238558056165497,-0.13254074724264886,-0.08863385109767101,0.7447933390085676,0.7598222574098831,0.8681154403342068,-0.08077498075046337,0.5793691367132672,0.051667687796431286,-0.6781860820291818,-1.003665027590639,0.13803537792060455,-0.26733536145183917,-0.7075442448315363,-0.26330370220822696,0.30466153292914483,-0.3167631607389823,-0.3983341637923352,-0.46067439234655533,-0.23288733071546255,0.15100297533633736,-0.5281270922728892,-0.08260238389308268,0.10764461428426653,-0.08508102182509188,0.10066646802502749,0.45134774844461906,-0.054082813476778235,0.27931218880344644,0.2384590950282466,0.3355646187336453,0.07484990241293038,0.2307867984168217,0.16219317698659144,-0.2775864432134766,0.18054547595546422,-0.41095131803847706,0.2774868314093159,-0.7232375154351318,0.4517845047752211,0.6296649031605382,0.20538152698308815,0.08360002026729664,0.32166621393773576,0.5428661237479054,0.3286048751026917],[-0.4153993265918683,-0.4088083466893205,-0.31108420463021536,0.13353375580470944,-0.3404949916697291,0.45215184084329657,-0.35094290692223773,-0.4265424079634765,0.09178110665691637,0.26871969951859265,-0.013558217783513798,0.2780302024277371,-0.07572981484550832,0.25584840618069954,-0.42121794367458204,-0.28868960663794396,-0.6188939056790045,0.07762106810225912,0.54208523955734,-0.659909802587505,0.01581113858172689,0.10550553063628051,-0.032585767560098636,1.0201016775218976,-0.35233983199188584,0.3748195689538287,0.7711509798071858,-0.5417983289584883,-0.08733791324241066,-0.0205041867862981,0.2133184377880163,-0.12208930180276709,-0.2451382339681163,-0.18607155932911848,0.18249727745858593,-0.24323077053288947,0.2725247068420149,-0.2584829195403705,-0.3477884578893763,0.5811518410181598,0.19377259744201142,0.1948287586183203,0.029292701184438844,-0.3578478886539888,-0.11489717089514452,0.47739878157091686,0.35101874345670814,0.10647062202068,0.34441292351855035,-0.3862146284585786,0.5597102815347478,0.3428996822924581,0.12120328684095588,-0.32303512837019155,-0.393536795274898,0.2203117182893215,-0.22918086050109962,0.27646295967668066,-0.2098814157257403,-0.021262463696018023],[-0.07217937891957946,0.19071150096249997,0.09513588946894314,-0.0084958347552609,0.27202930324616015,0.037740098902927184,-0.3657941071032133,0.3681306383296042,0.09028770699482577,-0.3342046340158583,0.45167962159696234,-0.03521739216122954,0.1933860119777629,-0.08077979347619009,0.2606102865805372,-0.17643784604751206,0.5423455104792244,0.3429974619183923,-0.7831000391028097,0.27255540490819957,0.6655168791410837,-0.5529905781428697,-0.03269993664769827,0.3083358157952423,0.23438929808498127,0.29585611195232836,0.21720883672381605,0.3298744034254308,-0.45121934265640085,-0.03585843753776582,-0.07230518259941324,0.7950077058201691,0.05471452363001674,0.3426443744733876,0.414953230337114,-0.37583705717134364,-0.3690527030540805,-0.32712707605784724,0.3787776590031746,-0.38675523465417444,-0.36929801726698114,0.03659421739397515,-0.5417126327030775,-0.4300019229543281,0.1558970105428932,-0.4232434940420076,0.18871163439821448,-0.2498956792880468,-0.023933672853953914,-0.027678870512356957,-0.4135847284182539,0.2458316045950617,0.2662175575284193,0.3262000260297866,0.19618665291043003,0.3824019629931414,-0.559738874524285,-0.11527280715934209,-0.016019737302899004,0.12231136799690108],[-0.14698945054170745,0.4971545320113337,-0.12230035459142406,0.35874266658888715,-0.3177277964769188,0.24241699213179774,-0.10971822376723182,0.3096853083896599,0.08281552805675406,0.10763189618588698,-0.11208240120630276,0.2807698903949836,-0.10629625580248815,0.2956425906752597,-0.19278635085650012,-0.1831454721896462,-0.016120016939385882,-0.1370983612841057,-0.35355478284301833,-0.16879794615746524,1.0631955223283953,-0.033087826704854044,-0.6428307220990197,0.443293376902934,-0.00993461417383638,0.3260348520607979,0.6679282466396406,-0.6302289791704464,0.576933394879581,0.14706634809848623,0.08418747324416133,-0.3313101850440687,0.07964904526473844,-0.39324996517535377,0.057871591463647024,0.5420896116682618,-0.512250019071922,0.11124872414133423,-0.6824611023721384,-0.27921139141933693,0.5071629364213611,-0.17174592328675517,0.5709864479696478,-0.32270970766369267,0.29940945653130063,-0.4008007118460434,-0.1796087151062082,-0.4872915863708353,0.28369869626161376,-0.020440430175757817,-0.3047247010114553,-0.41970618523887193,0.5850107514962262,0.02786321490940685,0.20849089951682964,0.014533044166111508,-0.2729467704531489,0.14757570972672676,0.32995456730968936,-0.5637695111618823],[0.05344923287169886,0.0060626320559468705,0.30918981230715914,0.16358695376297133,0.4823992050468629,0.4605631082987366,0.09918173473736874,-0.16105648726795302,0.39763923242396065,-0.2245254568759041,0.04087095376839911,0.06812425618152947,0.18372823986202358,0.27504218206262043,-0.29863820193151575,0.1223517837896857,0.030460412144378703,-0.057288387675375876,0.049675436783290366,0.7005877745507582,-0.11633529096071303,-0.40894220631558204,0.1554979959228545,0.2177087682208944,0.7015060460878788,-0.03339225438399249,-0.45024614518350775,0.5099168489791855,-0.2543337846886656,-0.27345471769235774,0.4110889750297405,0.36109725965754613,0.242074478947469,-0.3741285224979671,0.2923614470474712,-0.20622446117110624,-0.6721105788281212,-0.14269552730563861,-0.43224873014599474,-0.2388539291167458,0.07966196621652816,-0.46875306428032776,-0.41082516591417606,0.34992197086815324,-0.10138979652276676,-0.42926903018415097,-0.432825889185463,0.026556369723730933,0.155069059268592,-0.49398547212414484,-0.3758193901722193,-0.3463310952279413,0.17695782081805947,-0.1693761762293098,0.08721582788550751,0.33795501314828985,0.20499678879686445,-0.13502142020313723,-0.07471409134218722,0.2115339674686476],[-0.20200405106784758,0.2056047050973732,0.08576842043192605,0.14988917916335048,0.0005935207181581,-0.3222339003992624,-0.2841366017866578,-0.016808434711154622,0.13084606987829372,-0.4474644504176347,-0.3594303995883048,0.37853833568077744,-0.46569107969113543,0.039844330640943074,-0.22322266102119695,0.3304641730261105,0.3081490412624677,-0.2645736217445257,-0.525848377756768,-0.38845404923994264,0.08141278732211883,0.13725229677706374,-0.05081506460114188,0.1414183264159391,-0.15730742217706298,-0.12037735140711375,-0.23848886219691198,-0.3395468157696114,0.5180725404984603,-0.035158413548584726,-0.6092887008229192,-0.3017228993642857,0.15969744860436474,-0.2549746281286943,-0.05648431953523756,-0.042346199906204834,0.1427408230231714,0.2859839360570225,0.06085580595958412,0.29642822401334307,0.22817608991708332,-0.36954527997970177,0.8248570593596464,-0.20212381674214613,-0.18247220211860424,0.42026791302738364,0.088800150958607,0.6116402007090999,0.03008565782557569,0.07876458063968969,0.18735554613470506,0.04165411573774735,0.40433858406737766,0.09481712373750938,-0.17580743415198472,0.23987340160864815,0.012470762756517718,-0.49628834983637976,-0.4965911748029054,0.4691901372196844],[-0.29064507000999246,0.3440671428673997,0.3727152086115807,0.4208522950932655,0.1120426286719683,0.1269110564500122,0.10229132408129309,0.009177318123097283,-0.3264047449012332,0.3704012726675761,-0.037875694274463294,0.027097333740110655,0.11364831279705866,-0.4845494028107126,-0.3397478222981867,0.0037349477914791437,-0.38028867815144873,-0.18251547381482786,-0.1395937706984059,0.10637326148564179,0.4912898339753022,0.23262413687097164,1.10308549459605,-0.3320909270600344,-0.6914370973872788,-1.1255602298505543,0.16906149719844454,0.712887001728095,-0.6579283291012629,0.17518993129900562,-0.1349434788415337,-0.19129773962039176,-0.1746189862579239,0.5377203224325604,-0.03177301218300292,0.3374130379984118,-0.4611258349392886,-0.16522798372196185,0.1771951466812805,-0.5363963916559495,0.521399224900606,0.1767381799691451,0.23564023367894338,0.17041987162933248,0.1994130207823968,0.389269121017396,0.07124268343308314,0.2744068333845847,0.35509197269290793,0.31902687419756576,-0.3853414485650682,0.1222089994265784,-0.3834862169347231,-0.45751694843155644,0.502259518216952,0.07109993390593718,0.09046559923099048,0.4711158972865429,0.21821358109977573,0.020793000583428],[-0.1707238207535279,-0.05004851281920146,0.031679529881755,-0.42079024322905767,0.2915828200660756,-0.185546304510577,-0.05731176972684491,0.2199592754200419,-0.1305661510129031,0.44677772421925127,0.48305004738685486,-0.005990528886255135,-0.3162533371046228,-0.009994050340727539,-0.18056434650543082,-0.11472929152966659,0.2602077732298441,-0.586020664240084,0.3454902450001385,0.021636258360394615,-0.8048961983862505,-0.06054899709092873,0.06038654448830961,0.2550688603741518,0.4134206990136916,0.21441811863001245,0.3412757325921187,-0.6675018912667747,0.30464312488237283,0.9735112839356966,0.3404931421771462,-0.901157558251095,-0.6162356988442754,-0.17965301478895318,0.01968964072006716,0.2116148080179973,-0.14650521243036985,-0.39717972563230725,-0.22366655812731387,0.03055534992399342,-0.3013100136904876,0.21938758168227426,-0.2789773373973123,0.3013490147722549,0.026875747872556636,0.5359565305738759,0.6557262758445042,0.6945509766839755,0.061724628524733496,0.28023297152209975,-0.030697799898725908,-0.38364656026833793,0.3759693382764635,-0.11264924513749128,0.41937512258102644,-0.1705618429637433,-0.3248693438392532,0.25217608183627876,-0.09361916360785973,-0.5913334910851681],[0.15098472220647646,-0.44633744475374615,-0.2325497159674682,0.3399920313485935,0.013024070179675554,0.015952325107536983,-0.31442570501054595,0.20666973575546685,0.3975698466802583,0.34265965644578217,0.1405411321159117,-0.01511543907878031,-0.12520449404224007,0.2177588374029628,0.16825467621384857,-0.17720372553779976,0.06952913537273393,-0.051370672704444995,-0.16338329775576335,-0.7469677867858522,-0.15816213313101415,0.6350572114659946,0.2598624772561783,0.2969767193975917,-0.07470876168592464,0.5220063565544424,-0.010841801667380167,0.49965143213492735,0.4664579634730224,0.08009967193908106,0.7987456325009887,0.3801203361213229,0.31736561478776504,-0.41512563044316214,-0.28916041005163096,-0.09358278987686477,-0.23320063142136263,-0.4879170881224811,0.0496355401065638,-0.296674940164408,-0.12404797946583855,-0.33799695020786513,-0.5568580302902377,0.08703588309861189,-0.0012312728738078065,0.13419854081387655,-0.16510199132100023,-0.5835774766128268,0.3371357318163829,0.41694960347168475,-0.05932685425335944,-0.4429113632030701,-0.4015397891225158,0.46956492483049606,-0.7587151091376829,-0.24789148937419722,-0.5137285968227409,-0.1339715286646345,0.27741617166882504,0.22936256859825638],[-0.3665930844503956,0.2774598723794185,0.36331167511250534,0.4086473918573068,-0.16987120736638694,-0.109449228473393,0.3331791044162041,-0.32127577198027224,-0.2622913591852677,-0.06654294891256472,-0.1695878418450081,-0.3252042510252047,0.42908850753956096,0.17055185762288472,0.20593437300612671,0.49283346334530315,0.26651250077253275,-0.14649330657287893,-0.02152180581923693,0.10987215396087101,0.1976381507647999,-0.05270892989283293,0.19339509999550394,0.5820343211145812,-0.029365818770715476,-0.29908766886044236,-0.1613062658887001,-0.029549520737351585,0.31220277274414765,0.40478108215078795,-0.26134270301143403,-0.35404562892294134,-0.03237597481363204,-0.4239823903523047,0.09160272556664496,0.5050907946006628,0.15425707201403233,0.23136233485159363,0.061122843301585066,-0.5031083164333351,-0.5187903438973163,-0.031332850152260255,-0.6515330817504273,0.18321053831220852,-0.16354714314775284,0.11668621033836603,-0.04087593759923593,0.027020799123358866,0.11737399136835616,0.4320000109093362,-0.5927737120936599,-0.34931587371182554,0.30019854646804045,-0.5128953619027745,0.19169269861622598,-0.34316759124998897,0.423205094708651,0.41569847496359635,-0.2259018327557643,0.2190678747614395],[-0.08206006857158132,-0.10921413757065863,-0.16759498067377646,-0.21180212447245764,0.02882027196700426,0.26292215621764703,0.12169296633219566,-0.33802131034351257,0.07683744956112099,-0.03198064194437989,0.14281008477886123,-0.3076283392853747,-0.42919964098741364,-0.40362475616098004,-0.4747762708029935,-0.01634720052193713,0.16932389467690984,0.9042851266866495,0.18322565357981296,0.8853836401055228,0.046801696671209564,0.30316435395869923,0.11931134277513278,-0.35637267424710467,0.39111956020780736,0.5624250898231011,-0.1449486238010631,0.15185783083885707,-0.16218222446671496,-0.5432601544230641,-0.04080845791944378,-0.4804763606543002,0.0699679032139922,-0.13046699330466016,-0.657958016521075,-0.6544258080374689,0.09286545411417484,0.5790292368840573,-0.3724759132147957,-0.39770509631361595,0.4911228838368707,0.4299850173879784,-0.5418410343166276,0.13790341668629685,0.58248440805787,0.12469306146335507,0.4388766491667514,0.24172494059723235,0.1017111197011965,-0.4849462077284535,-0.2605847575720039,0.374821052259328,-0.464707310259985,-0.320454730342478,-0.20741605859442497,-0.0930900519022215,0.4567810385210226,-0.4802345851144731,-0.4655807191101027,0.24603697890846965],[0.2739268896164466,-0.15946267563014954,0.2547774521836298,0.13193599623088692,-0.11083196502690552,-0.09110917044606313,0.4014455073640383,-0.17982241161881768,0.41586128383891574,-0.04815291090877179,0.3969030294976813,0.49441105257125234,-0.41754551910909987,0.4582139296225244,0.025356958553152766,0.47477180164683574,0.04181995079987554,0.05195196420432788,0.2866721046197244,0.8905674085050609,0.0277841849519187,-0.5763647402537898,0.14044541718124587,-0.027511254691510566,-0.041837178590969346,-0.03033706147885664,0.016502358445651885,-0.4951944112637068,0.21559972174861347,0.3961903843086666,0.2560735639967748,0.09960043723003469,-0.2749810298900719,-0.4183717210211832,0.16134076280732668,-0.4454969153235303,0.001246969712412494,0.007258780444509299,0.5463465999370268,-0.3793714145377384,0.058572076620328935,-0.6291447184631604,-0.692866303272753,-0.2118761182962087,-0.10952913415937128,-0.26260234195699006,-0.31290621169453287,0.2666841338347236,-0.053805946221101394,0.25952282129258225,-0.23506152709590758,-0.6906258096462846,-0.12833971760655563,0.429305247678554,0.21040721831960307,-0.4419545670486013,0.07794821410305168,0.3706612323482654,-0.07944539942140769,0.07447767839603578],[-0.34350393599303525,0.3089365518338969,-0.07120233499439811,-0.2986768041626821,-0.42188406080110324,-0.09060243000828855,0.3591150336309329,-0.48526510304765447,-0.007183787305385251,0.21811044955977196,0.1715504924668869,-0.2866159718892482,-0.42447712149702166,-0.17878306878212208,0.04492850005890238,0.2630720843046839,0.6885189218450246,-0.1461167764157666,-0.12937680808270038,0.10087916993578082,-0.417151605200101,-0.45110290984572826,-0.6512462030993321,-0.6957060918314006,-0.6311323042865472,-0.39692962135482557,0.6596151104098974,-0.15886270356798005,0.23359569553640505,0.7526580678599024,-0.33096546083322054,0.65850251159857,0.5104180539769514,-0.5314116355113994,-0.11240188867295611,-0.01387119014641641,-0.0653290880159891,0.44636461381057835,0.08252162475581001,-0.2543598057716713,0.27077600149913256,0.2430778249184572,0.4696676558592006,0.0920991501536662,0.08853654743964182,-0.04175536729143698,-0.6015546670611008,-0.3521363196543785,-0.3129407007003373,0.27814006484494114,0.5342806407753493,0.05850642965350502,-0.4108220861765166,-0.42481311402119404,0.0933218338938817,0.14244201038659243,0.2859869472434102,0.20500387044928342,-0.16605798688935203,0.16164900941187565],[0.20286602599849166,-0.17605542451999565,0.10881571872979626,0.3481249383761627,-0.33805459877710115,-0.3103482824366122,0.2553018959402957,-0.055407591244410984,-0.16668397000049287,0.24521287593929128,-0.3772373413447981,-0.3456754707106114,0.29750923925087713,0.4945867793358423,0.46506746181913833,-0.6443848020083022,0.08318074544091683,0.4567466009255245,-0.20246666183256404,0.6637437611858272,0.2108764054264485,-0.6515822803274792,0.4262946342187566,0.249252808976187,0.21785386083165523,-0.02306156322872616,0.47718133919273914,-0.3691453184058802,-0.14703099411433218,0.03171362745668237,0.220925463543606,-0.25837917636295793,-0.09282963389480414,-0.3868714050864482,0.11634056701608061,0.08211977308658357,0.3377227669724305,-0.4150430376193355,0.5228696467763391,-0.39322641944028874,-0.4808415732297249,-0.4292419340338861,-0.3916854958566808,0.2958024631758902,0.3587819076113015,-0.4390060851657754,0.34868577607720364,-0.01646944723418727,-0.17888274986637043,-0.3526532801700834,0.034089611140939564,0.1015111319231695,-0.03481927303401579,0.5612159837280568,0.37226444307372974,0.10092171702777743,-0.21554200749852118,-0.3188950288839862,-0.02789822874689818,-0.5799926686174081],[-0.4291374807520797,0.036043326018554624,-0.014151847282632293,0.2974571222330415,-0.4043732852157388,0.05511097487559268,-0.3652634295386336,0.4942679823519894,-0.045215841767716265,-0.06085479078168127,-0.022668711277579766,0.002254747683009323,-0.3237379674471393,0.21503091831579663,0.41889249805971507,-0.14153552403411265,-0.15115499098348642,-1.0708929220691954,-0.20727380001773296,-0.7883419524872498,-0.01617577982265467,0.6146782174311856,0.3287544371508576,0.6551543813147198,0.634087445732877,0.12736158774991702,-0.3426359709205691,-0.26325586437437365,0.14009977887058742,-0.16417337431046794,0.05667106684821309,-0.34451708534712155,0.0396493527775828,-0.12609520852067202,0.5579741794317594,0.21502835969601541,-0.1731401999806766,0.18876389513176955,-0.562017682156243,-0.20540463156357683,-0.1936288916361056,0.04565953299051185,0.331710096618137,0.5553512045641169,0.31843065551408073,-0.4395232007317211,-0.022756530991955924,0.2855355526405015,-0.4847904238853098,0.2115378464625172,-0.14252187810900313,-0.4824520453667131,-0.18509389095797543,0.015416174525556315,-0.24742541801405082,-0.16536596989870786,-0.2384175394704251,0.4222511908237313,0.2674807407688787,-0.2532389171442098],[0.22198490823857112,-0.4767637709664798,0.35405782389798574,0.32950450596323844,-0.14224443559845212,-0.3561211782347965,-0.4522454750945177,-0.19979548094161123,0.25815330784053664,-0.44789625532829047,0.08340237780274706,0.013805700290782201,-0.25801870437957225,-0.3223498922465903,-0.09415669020907046,0.09646532735900304,0.00003312049660099363,-0.9440896780278104,0.1307668090811192,0.32937189255057764,-0.9563920123877798,0.631825119067438,0.09866955983379579,0.2528704265465408,0.029878012599655463,-0.33726540609549316,0.20295661747854063,0.901490367358424,-0.16171138691835577,0.09679770951686847,0.011458197026396062,-0.08982251164127934,0.6546302422147956,-0.35156979034691754,-0.24233815164812872,-0.11201969587115385,-0.3501530592914112,-0.029209009720364682,0.32205068041272455,0.16093669255292195,0.02024991278530274,-0.29630682281123816,0.15310701017824385,-0.06233044955680031,0.24550405172896866,-0.011521011472918735,0.004108300689199329,-0.17997876674099492,-0.1408055421388705,-0.14285920233194274,0.2535273664133385,0.3125989463249108,-0.03156456864951523,-0.4154571638891992,-0.4553141812826458,-0.3929331483779726,-0.26810220121094563,-0.22360351482904348,-0.1406639044402043,-0.18091918664425927],[0.3658429937535138,-0.26747166147787044,0.009080375272465172,-0.2563935417353412,0.25275199859004294,-0.1365927380924516,-0.40085302171016196,0.21817563389400316,0.37063433248199745,-0.12032912616717426,-0.11637231833359925,-0.14058050555809426,-0.22671593156066933,-0.1332802338019006,0.011428351519218647,-0.8073290433544112,-0.1500892278725156,-0.25589927322710987,-0.6829307488295815,-0.2320802308075063,0.6103557547554366,0.49525748733768565,-0.7735295957598001,0.4802984355729189,0.24009282582203237,0.5447120945497418,1.0235160133353436,-0.45188630371952154,0.11290626986745396,0.3863011091600133,-0.23479947368327886,-0.057271782702682225,0.28002429198330187,0.31394543429760896,-0.5205283277631054,0.21947456396242715,-0.30223680150379206,0.5323901939068623,-0.5595621939753043,0.12830477759207226,0.5340685647492555,0.11963171214031945,0.3125319370170302,0.5556231755869644,0.045803489378071695,0.4745983292238279,-0.3191376507856213,-0.28806041555824585,-0.0629188298013618,0.2656016328597703,-0.241792701189145,-0.38567109208257155,0.1620654639066817,0.4696012587611633,0.22522708487776621,-0.2848163045596687,0.03139463703781669,-0.27860639912935226,-0.05684959642495891,-0.9565910525076207],[0.2697741042780683,0.3909724851695195,-0.0033634291732406382,0.44663101520353937,0.28701072070190764,-0.3928325227662836,-0.17559727546394407,0.4949208570835048,0.2854312280147962,0.36435274882047086,-0.4603163485746517,-0.30953441631248935,0.04298277309542993,-0.42377219633490437,0.06572422367538912,-0.31711424845337954,0.177250544795706,0.20054343797624563,0.4112262306039804,-0.3156620015426713,0.12805940236029834,-0.09838731526024805,0.1026033004673057,-0.06984885069952522,0.5932159833392632,0.6378098959200239,-1.0287027199611458,0.16609673917109796,-0.15495212231251085,-1.094609182653697,-0.058938604627340026,-0.3072297204966085,0.10895016913900527,0.4453512922804454,-0.1703757545366724,-0.15704706570951377,0.08357946179233601,0.6607410465812733,0.026756642954128093,0.4788686387435862,0.1117380519237813,0.3814089824758061,-0.04215616416935491,-0.2762063837185763,0.10247175715335896,-0.27468396274776047,0.015623710805258668,-0.3354774595102112,0.4159239764124428,0.27234118875434155,0.23400616616941686,-0.16278772460167715,-0.01914487357045282,0.27025685454910375,-0.4715189012742798,-0.4204584807106841,0.18771265607672813,0.042023907517590636,-0.06844458565419627,0.4504044267219237]]]}],"OutputSize":{"X":22,"Y":1,"Z":1}},{"LayerType":"fc","InputSize":{"X":22,"Y":1,"Z":1},"Parameters":{"Stride":0,"KernelSize":0},"Weights":[{"TDSize":{"X":22,"Y":44,"Z":1},"Data":[[[0.698969696429877,0.774304557192009,0.4089692765634418,-0.7204024854721137,1.3538254777325471,0.4290511526486662,-0.5918705771898963,-0.2307404502596662,-0.3609947929094475,1.2754304305239297,-0.05509857241998244,-0.30176660444873254,-0.97668026244101,0.05650476607436284,0.7071970845326423,-0.755738276666704,-0.29553433214255914,-0.15972230167015644,-0.1432171204365086,-0.6076788273348195,-0.5662311415874497,1.1136410169938509],[0.8568182066091385,0.6658371296915883,-0.6175204128700053,-0.06015491372052566,-0.9167272831425916,-0.45379786721070015,0.4571664291292008,0.8396885776156103,0.25444828288657095,0.3849765886173693,-0.7297169248695474,-1.5157024019796328,-0.47804385654141146,-0.48734835320940145,-0.20383750662970254,0.2873611108178875,0.6424338514664761,0.43545052924171035,-0.9763239332241815,-0.5401784913798142,0.7818074577358572,0.3733384331327178],[0.41926016923236464,-0.2811296921155697,0.5461799384537479,-0.19124991958531737,-0.6684801469557107,0.8457884933822556,0.5936806514946272,0.43604582827699434,-0.8772025242901395,-0.04994599986643307,0.7422252749325846,-0.3811081361750811,0.2248032120403484,-0.8060826423421955,0.2847905867604414,-0.44225381766710964,-1.0005285502804828,-0.052099684371991785,-0.15105841161219122,-0.031958665522252086,0.6168289304130994,0.08938166814725763],[-0.2785435851200442,-0.2796446096525773,-0.35315367396228803,0.40656908547366655,1.708765440932776,0.6996710451318917,0.04186342327984006,-0.17177240597162657,-0.5443423982289494,0.18807800309985148,0.07665334138607316,1.1663274740166136,-1.3177160270487565,0.28624470538293506,-0.3330493378301398,0.19561476797906546,0.4832069412607831,-0.2699799038778218,-0.361799897278649,-0.8597781205431244,-0.924917952852994,0.4588299603434133],[-0.9156761201270772,-0.5789079109201584,0.44355691835276534,-0.1325810854461721,-0.1657015158749642,-0.26775094354378726,0.48151269568647265,0.2671950076296342,0.35710915032096546,0.05480329577343945,-0.23752770693626155,0.3279396977737727,0.11885207779617457,-0.4511158981966181,1.1321060613629854,-0.26976693326118034,-0.45834917325563157,0.40685103626012564,-0.11335642136569418,0.04524098721748977,0.1083971690372462,0.592024041355829],[1.1329580788117457,-0.7524998937244274,0.18615306238327745,0.38933672189216,0.1861103512149751,-0.541370909855815,0.43169356535002307,-0.058820872971961695,0.5519691496590069,-0.8866885310018782,1.0092545327488078,0.13916156099011123,-0.090814112706133,-0.40747333661612717,-0.8614661946185987,-0.4299318224483197,1.212046972193677,0.2720678748135658,0.5508431591770533,0.24776753979072436,0.4633630061545263,-0.9975673393738534],[-0.5686810472169914,-0.9230344430097283,0.02110942468855263,-0.42939280503768396,0.43343436962246557,0.5561001721328631,1.0564927657314898,0.9291970449731253,-0.1546837881203139,-0.35718311285949134,0.12554524256238786,-0.4156213633542555,-0.30809792645167533,-0.4828569026523563,0.41316381551355874,0.5246371478037686,0.12923677032937902,1.3797119660662125,-0.7982880315799823,-0.890358574182607,0.5736716560982648,-0.48554207484862305],[-0.24456136723575417,-0.4366075667425274,-0.10015506550595538,1.1762018525063307,-0.21313329335428186,0.28394209844030194,-0.6365706060928437,0.5152922616405824,-0.0802005127525895,0.647192153696534,-0.8132178961002556,0.2279240205292662,-0.5298655457153072,0.259182140877249,-0.16696227865149968,-0.25348744252353667,0.26848340727056674,0.5490445751451535,-0.09827410084585064,-0.01607724442171798,0.3977875509563061,0.3041129277459932],[0.26274382603743324,0.41295663285216616,0.4405308471555237,0.4019984274033761,0.31038947786897325,-0.6651436353427294,0.3628095729299318,0.3298292045882804,0.08830178781722878,0.5629490095674826,0.3312403521147055,-0.49437437409935026,-1.0579350191007422,0.596790773874018,0.02126125281465314,0.16170043048649868,0.7840032959186002,0.35343059332071824,-1.1461316954422842,-0.3818350955461808,-0.9254475936333308,-0.41134170508914963],[0.6880706948334843,-0.0851706703325239,-0.033794127078865,0.3700537630316566,-0.6106465408113255,0.9265967643514901,-0.015978790378351742,-0.27415888847889425,-0.43147401377394046,0.28808805621742883,0.18762371264436176,-0.17514594827498603,-0.5471156927356926,-0.19851380100005067,-1.3640201107978445,-0.43857792483279484,-0.15903894276554625,0.25955389694555175,0.5649931119580763,-0.1428717158983657,0.6126340209336811,0.27951366271987454],[-0.2988636985421096,-0.1277674867891277,0.34570643106751314,-0.3285997269234692,0.7708438466667883,-0.24236957576944806,0.002781990311776103,-0.6794684959705996,-0.194876042272085,-0.2955985608809927,-0.13956932296695318,-0.38780405612869495,0.9177626993945439,0.42647935106461926,-0.670701505124534,-0.09277837563916094,0.17593803594050048,-0.7672767740558897,1.3381192527628556,0.8400701256091624,-0.10284151032305072,1.0918420960327968],[0.1287671010721218,0.3115541713084577,-0.45587317350029805,-0.6638165372890099,1.1318693471279424,-0.07561086713621985,-1.236665773638571,0.3516972062087421,-0.5172355301401805,0.3784225217636777,0.07927540020595973,0.4332900736450568,0.5376024480032312,-0.4642214867644164,0.5338135451771497,-0.5602399670562415,-0.06648690269070433,-0.3620981691840877,0.5325320413571645,0.03778594017077462,0.3655118865432806,-0.21971243114042355],[0.7500078719352111,0.25935630273410754,-0.3357387753491242,-0.14587146968399162,-0.2835662115709611,1.05770475118079,0.18539688148557712,0.008082743836356467,0.318518775834273,0.2523299853563537,0.47299489861765426,0.6373918317977463,-0.5697856026498103,-0.3586091274297684,-0.027272528605008613,0.15989233686824025,0.39777949852634276,0.15702552435854922,0.06089272715723551,0.4139978780200421,0.07321042472325172,-0.6669404240767297],[0.5799644560219127,0.019326247833249814,-0.533991066978955,-0.010847105981525792,-0.11584033087556073,-0.32241152444603255,-0.5849027255436072,-0.18794929993985718,-0.6090255156860315,0.48156976981838767,-0.05552500412410923,-0.5917157618645668,1.2398173556229566,-0.32898649016221193,0.24802876667724721,0.1006254751886628,0.06245044996109361,-0.5772437058266839,0.21940265352614235,-0.06446339150100851,1.3731323024132924,-0.22787969446063822],[-0.4155765743962488,-0.0937475895708919,0.4896907095470829,0.1856968327646644,-1.9435930838031925,-0.16544727814220622,1.0434236863454929,-0.6881520434344793,0.5241203904079496,0.5315854050881808,-1.350152199603723,0.6170446865971361,0.23448877185151812,-0.5029918521969043,-1.1111907440314217,0.03574701049963174,0.30918677552961177,0.3592995130175098,-0.07449531197518958,0.7589733298553081,0.22923526942593375,0.23280083635795187],[0.1372285271536026,-0.09205455000447824,0.06708665174814361,0.6703237092965649,-0.13233948460356623,-0.5085739243021633,-0.5663135819428678,0.34978054430819294,0.4322147250064716,-0.018983524134250526,-0.07968847397049093,-0.24454367186353937,-0.03192474222545383,0.32277931478617994,0.4467739751240311,0.05353460866989783,0.779114894053733,-0.5995322185452477,-0.2752019963921316,0.3275128614357673,-0.059344986282277724,-1.684696177618811],[0.4027494996167588,-0.033740382484547755,-0.2718932424864262,-0.06699002464089038,0.1721018954035571,0.8452864208558999,0.5589034997546745,0.3946828612439133,0.13428802771298842,0.36669774353627826,1.2461674920932289,-1.7135550332689247,0.32003135544515676,0.4676723488529996,0.43114210284208826,-0.17669913337805632,-1.6023320056879793,-0.33828107078087694,0.2578943530218371,-0.6058018032945917,-0.8540067481780216,0.7673432341413086],[0.018664781419797785,0.20726780881650503,0.20711935943551854,0.6017670037595626,-0.6692128843804621,0.23240722405282624,-0.6938717898522105,-0.41401594523381424,0.3707892117717208,0.8969333634478116,-0.7487332256633015,0.24288287700417754,0.10356867378745167,0.1847616200305031,-0.6860798988179057,-0.06828401430426947,1.3075656961531816,-0.9291437753267391,-0.02211343382372885,1.0369037811898423,-0.16220586750432042,0.027558587715078534],[-0.3795838997498489,-0.32049463345042006,-0.21889179014285715,-0.4663612660185628,-0.470399586590537,0.6352249727913322,-0.3377139251129357,0.20859210418071153,-0.5237289629280609,0.17983056620881577,-0.22168610668185343,0.27724617035860377,1.1898067319338548,0.46971212132855883,-0.49372014341355036,-0.22354269703639423,0.2396470275739,-0.543734708610329,0.4972250983232357,0.10877060981997565,0.8116658901543458,0.7351673155072453],[-0.5448934931443793,-0.6836295469624897,-0.49478592527220217,-0.22418354230869336,0.3108737452236427,0.26615927339749834,-1.1042569783113128,0.5870708748759611,0.026051508627248903,0.06957502468911812,-1.035861525328247,-0.2770013834473183,0.6943176728336762,0.22609451865345884,0.624357266102009,-0.709051570593197,-0.5513111658517998,-0.9492247276876912,1.0952905812777447,0.5993233853879748,1.043995875399746,0.06246263260838232],[0.06412173756044903,0.3326821146614006,-0.15533492006673877,0.0521228026086607,1.7260978442800345,0.6441455645299717,-0.6299139711226149,-0.7779160055224579,-0.21191174446020064,-0.06084818419373139,0.4102613225167253,1.4881186843496443,-0.9180578819211443,-0.7129021955118192,0.17775413637595727,-0.4885734300078417,-0.06484672793872429,0.6706297426177317,-0.5812935727939673,-0.14143136588081123,0.09812709051612244,-0.1323671325692162],[-0.359204481462762,0.5999121005786199,0.8160185990228603,0.012692463532165353,-0.6127113895298582,0.004747052554006059,0.5226796608552515,-0.13855799227569168,0.3384490242483329,0.4254605818190361,-1.018332971707711,1.177168813131297,-0.6528636809635142,0.10705312809708421,0.43808222297085836,0.4300539787926599,-1.1712766393127276,-0.011624308326602844,0.0411711047853427,-0.5226783272730365,0.031790077594828665,-0.2524305342691513],[-0.5810771996018038,-0.43229011067568657,-0.9202341002848485,-0.9944266310698315,0.5208375366051948,-0.655071634011235,0.7137249848074593,-0.3439196492542395,0.6655149360466099,-0.7361474695134544,-0.54305278874728,0.12548299615096936,0.9656067240562252,-0.7350191649564627,0.3394832140462839,0.7684721909930452,-0.08243537822485271,0.6189154308942634,-0.1819488938537078,-0.7900349726243026,-0.1660129202961957,0.933789558030454],[0.6126683909044561,0.7229320430993158,-0.3379971616517952,-0.6530976567250104,0.5162820045351321,-0.020585275428615595,-0.1357017628080045,-0.6948126532444088,0.0348526164855399,-0.344951520275837,0.44562805322417925,-1.0672179422768309,-0.08152766698130967,0.11155145802264374,0.25265057733845375,0.4293064342986945,0.3263815659983867,-0.05366469442253537,-0.33059070702333854,-0.08296523716726129,-1.1220947913028319,0.8215343366414054],[0.6500853410445766,-0.3670791772641037,0.6086083758264597,0.13106452029699633,0.08077409419330954,0.49495024836926893,0.793068513624793,-0.3002932224243608,-0.4737919999913496,-0.8186967698082138,1.290235182860885,0.16321909443476393,-0.18379964428143228,-0.2448842885354588,-0.9775790465541533,0.002883824846051864,0.6416236705165254,0.7406546157906004,-0.1947760991302614,-0.807372866692425,0.32956870372871877,-0.7736785670026096],[-0.42565358820985144,0.03494610650287922,0.584063265893665,0.2808561521631677,0.3566558918377948,-0.6687695974369978,-0.2964380023344445,-0.5009445206157594,0.19362391466114331,-0.29769795706242097,0.2721626418061352,0.03581770421027732,-0.13422510281891437,0.7610679276606299,0.15647350763340195,0.8387861133670831,0.10753466234007443,0.44072293066902063,-0.5909217003731659,-0.3804530532442137,-1.1886744936463798,0.20757460239397127],[-0.6591019273530793,-0.49933697860536863,0.2941168792872435,0.01170238806735937,0.17283207512160448,-0.022578237356410392,-0.08172831481327462,0.09439163437221125,0.3610883689699693,-0.08682499665489135,0.7818063370063117,-1.092232858296659,0.22176905052231574,0.13661645469446115,0.8580440027706012,0.9282562561271758,0.017409507046844894,-0.07156901910059144,-1.139388547707822,0.1965157112838096,0.21753772734480548,-1.3970158566408413],[-1.413127499228301,-0.7305481869250926,0.11797257349999787,-0.07992689318432163,0.8038224693553321,-0.18639578177969704,-0.21900413078889797,0.569656462290266,-0.13431911422028908,-0.32563835751833886,-0.9269103164045025,0.5862983293780897,0.40013714395602595,-0.1524685755723962,0.8927628843308377,0.0023552252322176655,-0.4553859747068001,0.5262926431047971,-0.0868953109697201,-0.16778299528196233,0.5460094154307908,-0.5691032895797196],[-0.5209815647025368,0.037036461108145124,0.5276359389868648,-0.03716721524958749,0.3667393113377804,-0.8620862378543864,-0.001929652723679239,-1.2426375107765848,0.09159379958907382,-0.5802669135957086,-0.199651707760556,0.9038742938192695,0.43575699240255633,-0.3635891587610658,0.27839694743225335,0.9528594441381809,0.8498127240483643,0.41489245823432874,-0.5131726365638523,-0.1119489439555093,-1.0453768811671464,-0.518858358379226],[1.0552606814722905,0.44575824291597876,0.24704610347903672,0.31948242206836386,-0.175232987685408,-0.8883495954313947,-0.4462604215004059,-0.15118865662808184,0.4031811468036648,-0.22942673999636104,0.6375661452612011,0.022169804601260244,0.0891139153930424,-0.2817938023599518,0.23672430331619412,-0.773046610944187,0.19894628510869963,-1.2169153632188685,0.7748080872963986,-0.1294321031644425,-0.4251582678636724,0.2270613169328551],[-0.6282891381256135,-0.5189684176603739,-0.6949904716874848,-0.001650284839723694,-0.6161197857274047,0.11982687880314757,0.13701210655612484,0.5369927332766656,-0.8469611979558709,0.39753181642418384,-0.22370656423625782,-0.6796338203789365,0.7575779837952922,0.004284581216267021,0.5924603254182849,-0.17335609787092945,-0.9445490543191238,-0.02236336355537128,-0.06377717340328341,-0.7947412818881753,0.830995123347305,1.1464374355569367],[-0.6726588096063774,0.5587206606906249,-0.20478082826446442,0.9088454918526779,-0.5454543208098412,-0.10752967401349794,-0.45981533601282076,0.2846559070697316,1.289214929398607,-0.07225614278188244,-1.3826547096062434,-0.11663547424189731,-0.18527766076598054,-0.5129749736002703,0.6319270492843849,0.8016844061759826,-0.3972562078614995,-0.5948433619243113,0.3366251334709318,0.7836488194339449,0.7456812824455304,0.23946438299582612],[0.8305564412525263,0.2767720232112995,0.17061842186750262,-0.07088405498840783,0.20167188122575702,-0.1993596716479506,-0.5414674259747335,-1.3607612098716049,0.3401114226870676,-0.3419340570453648,0.19031623673011414,0.04845785793368654,0.25594350589430087,0.5828325328896239,-0.6881569866428262,0.5726541709897173,0.569422230329886,-0.6864458340095857,0.2942611332931623,0.20220665677786598,-1.064239488904862,0.6799438008332729],[-0.40193061125083257,0.021356285849334626,0.4843718298503011,0.5063740278827297,-0.5743042694079601,-0.10967236686816653,0.6504864773836317,-0.015916582491720135,-0.3645948782546025,-0.31976297656112207,-0.08061367466882167,0.1046205722727734,0.6104849277934339,0.5091683141685303,-0.32495315200783215,-0.4808132423782749,-0.2785551378642042,0.4291999830610951,-0.490728013003544,0.42892447518334276,0.08609386531857541,-0.08890622541034798],[-0.39223150290387854,-0.44016329123699166,-0.47573472844245235,0.13539864697120987,0.4894654225166984,0.15588670431359045,0.9989003954586192,0.42151900559523203,-0.5784263390146106,0.1521719511768927,0.09788284269603575,-0.2479357376180701,0.035299457036426965,-0.10839661152477202,0.04150057093144432,-0.5314809780347801,-0.8507754915008207,0.2552383722914788,-0.14954392865651459,-1.1805904102068998,0.6089781925472043,0.3148724201416059],[1.0235978341149194,0.8677865491307503,-0.04027244875435236,-0.3243749243553733,-1.2909327356769158,0.7383167153406068,0.884136459948163,-0.07959906855015494,0.38119173785389177,-0.3798750247186202,0.049484222963260244,-1.104770646353623,0.8282650293247623,-0.3286683224312593,-0.07835880199711533,-0.526026484219413,0.34995802643707946,-0.6140609767770171,-0.12226852261357068,0.06335226977933517,-0.04072831460477792,0.2576814749995471],[0.5913208880831584,0.14362595026017222,0.0023971254655658887,0.46407062527424875,-0.46890977490770736,-0.8885790751458311,0.4253213704209065,-0.0403523736990549,0.6218531680884967,0.20139670940338375,0.8040812665245971,-0.3634157823999846,-0.19270592653619967,-0.2493797555484822,-0.04770956607056674,-0.8915402091712475,0.8942936037226181,-1.0506951065866155,0.4215964886368106,0.3904268759887149,-0.04394362598757042,-0.5675965761526689],[0.6159582802360025,-0.060085651300598675,-0.17112635282636038,0.29516081575783304,0.9135765727087644,0.38950815143485246,-0.25153731614128777,0.4737605262564935,-1.289875525073996,0.8065832341762983,-0.48245978720855265,0.4897156812593297,-0.45052516989829294,0.1092273392357168,-0.14665292943852687,-0.8577267987147743,1.056212998903649,-0.35764185849150854,-0.14230217574010046,-0.9235538224423054,0.701759461700684,0.24422105792571475],[0.6254560697044392,0.36034840496358017,-0.9137832284539296,-0.4657016835599946,0.5847811238085286,-0.846071161033884,0.6228625151052599,0.10998686150474435,0.9906478252052527,-0.9673988697880047,-0.23867984659839106,-0.7607603098722031,0.5537742790008715,0.22509882845457968,0.29027419328864473,0.4925611995794464,-0.4227039292861414,-0.24894162442396928,-0.11320691693752458,-0.26973815444937616,-0.5322918908170036,0.2791623423019159],[-0.6482869563912063,-0.32509827906017086,-0.2780230476982364,0.2640516933384019,-0.7271661284663544,-1.1164486043694517,0.1906295907355418,-0.9744733096261793,0.3436499192886656,0.44034772104760145,0.07927205836018718,-0.7771343929985804,0.8983275908393525,0.6393083502756863,-0.6984150190405033,0.38789605602880123,-0.5896097784835684,0.47155479331993716,-0.32042835571153777,-0.6676542495710436,-0.45140374438193337,0.7871894740811777],[-0.6331429499658389,-0.024759231650549676,-0.22479112466901652,0.4011708929922317,0.6666291110532522,-0.03315849550098236,-0.4444346166380354,-0.7970408284452835,-0.2774786627339153,0.7986488523494997,-0.5261934167400549,0.8210059834077752,-0.5468576864767213,0.15894220752804716,-0.39373245487841063,0.7111740458543848,-0.3350693497153868,0.5036772269494282,-0.4011604491353524,0.005378401648253948,0.06754279405262402,0.7931401080521239],[0.466928618186112,-0.39536202910880086,-0.23752109490479237,-0.050761839367089945,0.513203647665934,0.3971460704316985,-0.7664090302487537,0.2918872971224369,-0.06506396902041842,-0.6378252880984886,1.5590485182214795,-0.29534032597880805,0.46559280997596575,0.21015946485562167,-0.3683677100652246,0.2014564411444841,-0.9690838709120461,-0.06006835483155132,1.0225843627325195,0.43510241417844236,-0.1989529624434447,-0.5183523714921786],[0.5599350505625377,-0.6151188820322712,0.22885479975005646,-0.21489667905481571,-0.42780845033842435,0.561986811274595,0.029922443540290805,-0.35531885501883576,0.009806188653055447,0.36428427405980407,0.5237557148902507,0.28194834423226955,0.6132459929114511,0.33687115302796444,0.46200695503048017,0.35601067377957174,0.3666837128416393,0.24661876849956318,0.40793737620656373,0.5793395554140071,0.05319333857222439,-0.009460084393288328],[-0.5101320524200248,-0.3896795007235472,-0.20606880110923756,-0.18337842896477485,1.1335127221519956,-1.0583639872255068,-0.31072397991112294,0.03935708291176396,0.3628213319912125,-0.1753506088143666,-0.23825532389197934,0.6176605485178137,-0.5232022114002463,-0.4142805574514315,0.4954312358606701,-0.13406977720141355,0.007111482076212943,-0.2605058689469445,0.06458906465343738,0.3360305040451479,0.408597693190165,0.45450132077598815]]]}],"OutputSize":{"X":44,"Y":1,"Z":1}},{"LayerType":"fc","InputSize":{"X":44,"Y":1,"Z":1},"Parameters":{"Stride":0,"KernelSize":0},"Weights":[{"TDSize":{"X":44,"Y":22,"Z":1},"Data":[[[-0.39277187699266625,-1.123062168976185,-1.0087676345003185,0.5169665760662063,-0.704096284145288,-1.4338780797436568,-1.4924637835852215,-0.4394936415372845,-0.610161022188755,-0.7408034170971505,0.5887279807062706,0.6171604909064025,-1.2316314692489294,-0.2515590630139733,-0.9154427524833768,0.07524006654547169,0.25613512955848616,0.19229657419005708,-0.07742250201230226,0.49528735884521813,-0.11389338933181091,0.07853964297679886,0.27136605946282144,-0.07069618463762807,-0.8891751907260937,0.3183514235137297,-0.2266284517097751,0.17937740233055385,0.6187190540129243,0.7899507074926113,-0.42528115984138604,0.22917491611337215,0.6253778689681149,-0.4043751350397192,-0.5269950995325522,-0.5473951842725175,-0.32398708995835995,-1.0703984456428688,0.1438083280159627,-0.02434927831725865,0.5221700146214323,0.1112935498391721,-0.884314164666796,-0.31982942819557153],[0.14377867731245733,-0.05761343971650381,0.3258224646045611,-1.2011992104482732,-0.2227941082349511,0.05266602648941503,-1.0265422608337886,-1.44816207640673,-0.9751527292456219,-0.4018442677226772,0.6233879521010435,0.8176387474125586,-0.2808875789304204,0.3269390057551183,-0.5682544333635047,-0.7634685847617615,0.19644861014754353,-0.7134553096878959,-0.2764682513114593,0.49113063984300925,0.11509291187741857,-0.8582378981151836,0.1371402525203737,0.3112647724942199,-0.5769763431918815,-1.0350498016438625,-0.5326368803562922,-0.9847142727992658,-0.6646550263249275,1.0433125854184346,-0.15208130908482922,0.3794247804264864,0.4988547033794073,-1.1029877549923153,-0.23244951124598442,0.7037240741267757,0.3599099633203872,-1.2004929353580434,0.49862199367092724,-0.16548399442622677,-0.966314255353106,0.33846260476433077,-0.7768836552198862,0.2819316167470731],[0.1715034599616909,-0.8384206675988445,-0.8230672173492954,0.6204177335914275,-0.2515914973996768,-1.0365552180758886,0.056685944192880866,0.42226229017154976,-0.14845220450366356,-0.7208789562409262,-0.5682706410938353,0.7258891984467271,-0.051926156383546966,0.33993120130918586,-0.7745646598230622,0.8429593079074453,-1.0267358973832774,0.36104033248780454,-0.039837547601096326,0.8158670854755621,0.38394295534950584,-0.6146944549000395,-1.1752430022750788,-0.3225059846212966,-1.1905977445826588,-0.5083479042889136,0.6029812159171479,0.9094152573319194,-0.21209567314798686,-1.2648644536473486,-0.2499434876442289,0.20972836250977414,-0.9864791838066708,-0.587412531040114,-0.641054874932839,-1.156238030950234,-0.9441297503526287,1.0046971119318486,-1.4705938850549454,-0.3012670265268814,0.34850245929041274,-0.6198142072992454,-0.35912872833248144,0.0801715055250566],[1.0676491974344913,0.11304268297292068,0.6758081625368483,-0.1434814784772065,-0.3145384366472626,-1.5026909773078674,-0.8988512011680914,0.25964152720690614,-0.4573652757854827,0.46883476970181237,-0.40144386629035367,0.051586217676113905,-0.5324634716014491,-0.49227022799978926,-0.5370401285833198,-0.5746927516193048,0.7861446759174788,-0.16236606209920998,0.4034212784062993,0.6438805986324058,-0.9594273359428543,0.6308735894870554,-1.315123461436041,-0.20632809595440205,-1.147267288831327,-0.7612934181766534,-1.1149156051664981,-0.44520210209597966,-0.8874789007379186,0.3648656744311979,1.3146263630568078,0.3253701687166139,-0.28456867911246925,-0.53965599814836,0.5789432615057575,0.6532985199022493,-0.3861772947831253,0.47930657519538444,-0.6234005464006311,-0.5922035388741329,-0.09811578609698424,-0.6734818998810436,-0.7055295473898667,-0.8729569388907756],[0.48247670558162165,-0.8566800990397128,-0.4940703210028866,-0.20536952501345196,-0.3701732159226209,-0.49150851936292217,0.32757530522479644,-1.4428892441202643,0.026929964111122775,-0.3513332799116888,0.3104196171956935,0.03837966536645916,-0.6759447347748513,-0.7143077424818137,-1.210340987759019,-0.2688209994415973,0.7575313114600255,-1.6413996414104666,-0.08371590500929946,-0.7478507064180212,-0.6194110446467825,-0.20226435514802912,0.5133943437416069,1.0646614204257896,0.015230870278468046,1.0492481981821873,0.6112936554953994,-0.5290863866829647,0.700967655711266,-0.15180998702469858,0.11455978198331042,-1.6350215037481206,0.47746632125814753,-0.44139071103811056,0.31357328101822246,-0.4744914246758195,-1.0125657695707373,-1.0850971536440632,0.1704247349140329,1.3454954790601552,0.11485103510579696,0.16911131111969493,-0.7064715938330131,-0.42293744627538155],[1.5339928899064414,0.8942991027932546,-0.8168684247644825,0.5571797709805518,-0.4015956532593968,-0.8781727264123113,0.5924756255361151,0.07997079389550084,0.30933270734622853,-0.6034205886006392,-0.3449625519668277,-0.18828795171309878,-0.6520470292108208,-0.5069209589151964,-0.49010031131682824,-0.959798600803769,0.5734323831755344,-0.8366415529021509,-1.0410237973765872,-0.43452067484331225,0.27117307670474,0.2537810945270061,-0.18159293715575084,0.08972401004339396,-1.2514274453591632,-0.019648449117611298,-0.603156046649333,0.36814070968737167,-0.9557406223131505,-0.4941520974718252,0.2727266368780479,0.5214739902147616,-0.9050057702860715,-0.5476234437867783,0.8003181548120776,-0.6696849632118514,-0.185937848873406,-0.16029285281603467,0.21439520489559255,-0.2192653312931662,0.3090406126516736,-1.0957547665651952,-1.3067326888735364,0.46412391854166885],[-1.013488079686701,0.2906868353340192,-0.34497221970064773,-1.424621764569206,-0.09213237524292149,-0.9681321921406792,0.5394081216386696,0.22828086567096095,-0.40333735978637814,-0.4860832176715386,-0.4101241051377037,-0.8073520061389784,-1.582079591675281,0.4768094436303559,0.442278090310061,-0.22950580699041703,0.25563781552698206,-0.7370545643414361,0.015159614550523141,0.5394306263521624,-1.3731818954370336,-0.16602946482541353,0.7372630065252691,-0.49766180542878724,-0.9710339000778844,-0.008830154784189399,0.3737340812230321,-0.08771523558406004,-0.34401090261409245,-0.604325066320527,1.5068355623559322,0.33158190431522216,-0.9792585543033728,0.33260090598900494,0.5933270098323012,-0.23176401609423683,-0.896908271345253,-1.1620025800821452,0.05383525345886235,1.2568764648739028,-0.04951924955671931,-0.40342608498496146,-0.6336007104415129,-0.3851591997175964],[0.10778624433269911,-1.2859155259606216,-0.6470831708371741,0.224159474329521,-1.2034268124767555,0.9625620077285907,-1.2037515177911362,-0.02312739778649443,-0.4432729018760642,0.8100648542815906,0.8137415938117124,0.748267921413281,0.02277143048390818,0.2513664912799283,-0.76601932770725,0.40187641071671604,-0.7242697924804857,-0.15130194398403732,0.4355514435513687,0.4855804361718429,0.3010188601124297,-0.5460649209099181,-1.2359556282209065,-0.3468388934868446,0.11719359437267862,-0.2165188469056501,-1.442261299846015,-0.8375659571921332,-0.49220253915262663,0.010730987174226991,-0.7972249959735109,-0.8900306757700417,-0.09724101804776134,-0.7002195510793916,-0.2081786224077832,-1.0162898010114179,0.2264857574368223,0.804384044381437,-0.9867012440670883,-0.06471594646976997,-0.026777850110991507,0.8450584606290229,-0.502130965632606,-0.47140614858642543],[-0.4422470678890039,-0.9428518328630799,-0.5265817637333421,-0.4435523430110726,0.4656808401020807,-1.2729590866301475,-0.8584576145797351,0.016201583599962786,-0.5416012349202644,-0.4946999489254074,-0.001080053007415908,-1.0791287123029076,-0.2558626468654898,-0.665458882700737,1.3252684276996298,-0.37603328984074996,-0.48971713008305445,-0.30169999993196633,-0.07840516928893211,-0.7009140966994098,-0.4143462920251883,0.7929006891166575,0.569184878815313,-0.24841198097595799,-0.7798816631824538,-0.35077628128473437,-1.0022508387245994,-0.08193687493440492,0.40972634479370124,-0.05280638192864807,0.33913380897986495,0.10732079178750517,0.1239517777226666,0.3330145182341415,-0.15026980647575602,0.18596868099442534,-0.11132206533047756,-0.9362599782062699,0.10452442592820954,0.7813548372228861,0.5376608700128488,-0.431019522987924,-0.2539884731181385,-0.40697370795938737],[0.4590117699679901,-0.8393598577828797,-1.4462928864389666,0.4783742648634407,-1.0230549013440156,0.5065733216173326,-0.9243413258173685,-0.15885539804993096,0.6516648568089063,-0.9944410301661905,-0.459882273430977,-0.2720620668663343,-0.28790386315725486,-0.9587689064117604,-1.2559871238668765,0.47607700187646024,-0.34956850912714804,0.22551753872627464,-1.1583692616622572,-1.0892474302299437,1.0233780556870686,-0.9327429023782182,-0.7145747872696003,0.5768935311715957,-0.24236713656697365,0.6230388616625446,0.13108353497716388,-0.8492871856255318,1.0642203397326557,0.7056861090030174,-1.238445096406434,-0.7152938244087803,0.6575909532523446,-0.760409471616758,-0.13496461661150155,-0.4815629878461532,0.3404872499693835,-0.4217936414762075,0.08941010048863361,-1.0249181030081478,0.027465497612099425,0.018903316701836932,-0.6324383264810266,0.19279587838920928],[0.42314493983111734,-0.2980293183420051,0.9637624276799761,-0.30781057682537155,-0.101003681294634,-0.8149389547717825,0.3493402385459522,-0.9886571411678966,-1.1953745525702077,-0.053980386804628515,-0.15954084641445995,0.14398461523576392,-0.5089273764806505,0.7541696896258222,-1.1481214177058177,-1.4439069315829018,0.4483961676426618,-1.4761717711538644,0.11601734460196945,-0.2785542023800026,0.6317944636570222,-1.0252644679767229,0.8132456709594593,0.06946692659283915,0.4679200913493346,-0.8518032720734392,-0.16728639431938494,-0.1261168122411688,-0.5121482282257738,-0.6319982260254761,1.0669185181776688,-1.5269442454926845,-0.7654418874110904,-0.34860014493071856,0.7797248524924217,0.6801170269710012,-0.4367618703370883,0.3640824656962572,0.18698406469766038,-0.7337573275152522,-0.6157770905866218,-0.004879914954864697,-0.86380707698342,-0.5871475100578375],[-0.11833534970394792,-0.18423418281106874,-0.79327412850793,1.2408609545967113,0.4246555225250242,-0.7860573134638484,-0.06308170513138657,0.08613236476867142,0.640508816816788,0.09087625899670568,-0.0804458170457855,-1.033404420264475,-0.3083777901983934,-1.3698082412228225,0.6671743473518617,-0.5178724808458779,-0.977899569769805,0.22656776284001257,-0.9791249366409225,-0.9118000478382177,0.47999647376436405,0.47666682169013597,0.5640484641045272,0.3792624275352543,-0.9028384570096036,0.26171111582211926,-0.6688075964025072,-0.5925137990965041,0.8356187865220776,-0.5168855216217647,-0.7806111513599203,-0.0780171139126961,0.41700584236598975,-0.33982001888136265,-0.6734424884349921,-0.7726221548500802,-0.5458466495587736,-0.4874541882411315,-0.4705315189647677,-0.03026993964753487,0.18477139778959759,-1.1657399177958858,-0.6306295257504735,0.1284219002836863],[-1.1876163974127159,-1.5785676843910528,-0.13175374303720153,0.06076684794455823,0.12545902106678838,0.19079947326250918,1.0728963381072592,-0.2156374193458423,-1.3511248430749903,-0.02830422022516134,0.8896385782657532,-0.3749280963090992,0.45139049468780734,-0.8572114369548247,-0.2672917477758153,-0.6556333698330615,0.5821570196979582,-0.5540175596131094,0.49101212361352964,0.5855875581834598,-0.277181744369072,-0.2813167456015614,-0.18143341689186857,-0.7758928841405381,-0.43024184236560975,-0.3400476442307948,-0.46177187392217117,0.6603359231699781,-0.7535363025538329,-0.8518081937559714,0.3639089858996278,0.5197251755253397,-1.0610092408571479,0.21858968866569947,0.40528581318203327,-0.6105194486598093,-1.0707161981538302,-1.107277322242493,-0.2074513556824864,-1.2041935011595548,0.02765034967945427,0.9845328463656664,-0.5989450042566485,-0.09525632093215426],[-1.3573918039669832,0.26426399016727325,-0.47659245546559753,0.7702254440472739,-0.06883487762704896,0.6477688896984647,0.8173858019075803,-0.41704189767917443,-0.0992023786472827,-0.9276271866364515,-1.2160341721028085,-0.2165492720869702,-0.44893808246799694,-0.6431308594158245,-0.821353263824096,0.7325851613447472,-1.6378510343927766,-0.9600368639866367,-0.4118671757634023,-0.5049177004447688,0.18558497889453077,-0.3366466206206978,1.1881601685393088,-0.9623674587813041,0.4631416576758416,-0.10490194956196859,0.09969854964140912,0.7435452953369653,0.44393394810750564,-0.36942741022451275,-0.13888924670365033,0.07746581291809668,-0.8444688462925364,-0.7174624402834143,0.5490953005254587,-1.1885616764815938,-0.3020537929790772,0.5143738915102831,0.5349726741761818,-0.5956469412280447,-0.2880814408017398,-0.868659425843915,-0.769082862326932,0.368955553828086],[-0.4396545977201181,1.0289599316741067,-0.5826369318415306,-0.7430386277871008,-0.5577629000252744,0.12452274640505394,-0.7726439551889828,-0.8975857253822983,0.3899812244796366,-0.4402108413096121,0.44311297926682564,-1.2128982676080404,-0.5373151825350955,-0.12152153623507825,-0.1075863495055743,-0.15279440438837347,-0.023879526512054834,0.33626365195690805,-0.6507081382963559,-0.7725133831784479,-1.5509601936568593,-0.9427403182565668,-0.0700560333410292,0.9221977196066898,-0.75811980720926,0.4895715648471561,-0.10238750878715903,-1.2850854740684048,0.04780641471036174,0.29565125670536924,-0.6384000674235347,0.3637283614999322,0.5774755431458501,-0.08758085267797462,-0.7928902943346394,1.122628586890455,0.48353466353594576,-0.6113067680173716,0.6334308498278175,0.1187820523308745,-0.10570977150485601,-1.278834400728123,-0.1296080012845848,-0.8210535437803556],[-1.2485284261771372,0.5205211000461275,0.2870176780305611,-1.1866425102344662,-0.36474389053936396,-0.13988618688984125,0.6818793332508983,-0.32249249501511357,-0.006286846034363397,-0.22162689859524187,-1.517261435505962,-0.3971728403186044,0.488305227777399,-0.017380645978431163,-0.8427643158393983,0.5582618667187192,0.7672717736943331,-1.0192837493915807,-1.268873800963582,-0.48940530098780743,-0.6903362774692988,0.24316878890549493,-0.3223624169216578,0.13879498307512353,0.3067025302689517,-0.2072444445990123,0.9606579487109934,-0.8573051860546749,-0.8728247222516542,0.07748001543514535,-0.6549786042651278,0.388840357514128,-0.430481201780499,-0.15515732852959233,-0.4191843173779904,0.31453292612942224,-0.26182420647414906,-1.4259458680570412,0.8523351708513044,-0.17529969691187114,-1.1218869734643335,0.7771751725947932,0.12221544212404627,-1.1027413219823845],[-0.28405707282777853,-0.08965880551416648,-0.9944455964542912,-1.1611266653357797,0.12339887071031337,0.4864798025374414,-1.0674716434070988,-0.09976871819170009,-0.576617689460042,-0.7337015252067328,-0.1944520951031167,-0.13950039163436806,0.1032303814694996,0.48702992534918654,0.8917964451388054,0.7182530388948052,-0.8843636451340208,0.01474344885389834,-0.03003539104041624,0.7797116909311662,-1.2465774772360985,0.3888378842578736,-0.7667119366263091,-1.0934346195131137,-0.8934072449550661,-1.254747747521708,-0.8256503591651696,-0.3333883219370689,-0.8250341459357918,0.9817997962778693,-0.6999579138752874,-0.05016573393444348,-0.5024348632534514,0.2462985557294695,-0.18340048524410246,0.5471574750011647,1.0601834865532718,0.14649793072852904,0.4625499409325154,-0.8171128645884744,-1.0389564861926137,-0.6948923473949756,-0.5686668195586265,-0.025054499275568447],[-0.835822335138561,-0.9166676886424464,-0.8489556273460642,-0.6808840556403779,-0.19277746242595817,-0.3100442323590664,-1.1101306700917184,0.22741296576985934,-1.7486916860230755,0.07606984934327954,0.8334732907495633,0.25040832933213586,-0.500970544666559,0.6530951813681739,-0.061402732193571306,-0.41312031348693223,-1.3217475626828212,-0.6147483174572567,0.21522186988430378,0.9233228298096302,0.39771454938664,-0.16739057051511733,0.3171820387913869,-0.6961309416639373,-0.3781362359040246,-0.190114596971026,-0.3442276675432641,0.64633530579163,0.2421699167046479,-0.11705870664024591,-0.16433810624775008,-0.13263261588397632,0.33233123248774116,-0.14792852840607912,-0.18087930049540685,-0.9107151059986747,-1.19170703031119,-0.13653325801988145,0.18347497669101995,0.0933865579385199,0.753895736221328,-0.5342676659516705,-0.4646531285076066,0.36637855288234683],[-1.375269175292029,-0.38104301365077253,-0.23491147156920814,-1.0172070380500702,0.3498369054549362,0.11517853196490413,0.3971240927504226,-0.1410686641777632,0.0013964420622703578,-0.6675671399903377,-0.386175433235666,-0.8531416781230715,-0.2808150976529599,-0.7703307474931387,1.4039520957566718,0.6238405738788269,-1.0627134892067256,0.4390979638263111,-0.14590747548236035,-0.36387270874557903,-0.7263826811164464,0.23533108698761973,-0.7497904652011889,-0.9558360504760042,-0.2801794623171713,-0.06327816230575128,0.9584160335930932,0.9900546333932563,0.8886485011236939,-0.59757014943972,-0.685372628205623,0.8058168253680964,-0.81694882387962,0.2979233992943703,-0.8937542829185291,-0.10558384689785248,0.3019771108065441,-1.2714590159854549,-0.989855811209866,-1.019908168718229,-0.45996203687754994,-0.8223710303546576,-0.21258782826171013,-0.3916391735322494],[0.532803270536776,-1.7648995627775634,0.7960090971940035,0.7477883570238645,0.32001175956060696,-0.05529567775779264,0.4809645567910997,-0.11475063798764398,0.454153796759986,-0.1839215615821676,-1.10830051040626,-0.35726679175812714,-0.6035346182733005,-0.3093393655771134,-1.2360286693793272,-0.4071341053529484,0.33634688794700646,-1.3866515830095583,-1.1660197764265774,-0.8314890376228988,1.04419579687653,0.4070497161037559,-1.5630385015842132,-0.8090215246090259,0.30369015068928096,0.03230111958376076,0.142881540412534,0.2583879886474248,-0.30157819266815455,0.1975669988567228,-0.35750861387427324,-1.2398147287937886,-0.6303118743750358,0.25702859661349137,0.7343664816411223,-0.5664650730390166,-0.2364777918831092,0.13045206832938244,-0.8146508225174064,-0.809912847644658,0.07531648859828227,-0.1880199016769314,0.05591124967399453,-0.4825301827661088],[-0.49720054045717277,0.4008892703180601,0.04307627338127232,-0.20412985427013894,-1.1618708950853542,0.557119575098965,-0.4439119039491945,0.11249534070632532,0.3363275574059572,1.0331991047180995,-0.0072008193017147094,-0.8476650543121848,-0.010044200174859564,-0.03859941124387201,-0.30500177671157885,0.09049387712879554,0.8574331564632591,-0.31177416374364897,0.27025334838396325,-1.2371802944855943,-0.960770783388058,-1.8936500403372865,-1.264278557275312,-0.44968394147035845,0.9499916875250484,-0.8839111304132201,-0.00843139572501021,-1.2352559903533906,-0.7713170680207317,0.05075244453915371,0.4434324476192713,-1.6345566889064005,-0.15442081783516384,-0.017898248727003244,0.35262677135150866,0.9896352678878518,0.6688840274121749,-0.08127657223323621,-0.97931668048217,0.2054450592988506,-0.8122856876755831,-0.13535289423723026,-0.6624123495638187,-0.7007811933717171],[-0.528260548119747,0.47425666136316924,-0.28477317310214456,0.3350846923405505,-0.9880024501907614,-0.13304249211762623,0.3987223422683874,-0.2216707708857535,-0.0103495382495099,1.0216749136195695,-0.9152671538752418,-0.36060820236617,0.3002990147313661,-0.39510572843485614,1.5890621883428562,-0.5404291106075786,-1.5359631064696182,0.33671993117500715,-0.2204142435589999,-1.0156781674770563,0.37651929302501563,0.7064498710002592,-0.5240719672850997,-1.198394347039056,1.0112291134321094,-0.4601340446110471,-1.0925229865593862,-0.6811044714476892,-0.14267322016529282,-0.5208117339127111,-0.7780113597120437,-0.4188084197586864,0.3106020638082881,0.15969270490848878,-0.05724802564848924,0.09499124368677071,-0.6431348817910201,0.515007902272757,-0.9882547135551285,-0.1733191730778835,0.4834995513821393,-1.2331636066023612,-0.29106817461893875,-1.1664061343607084]]]}],"OutputSize":{"X":22,"Y":1,"Z":1}}]},"Parameters":{"LearningRate":0.01,"Momentum":0.6,"WeightDecay":0.001}}