{"Network":{"Layers":[{"LayerType":"conv","InputSize":{"X":10,"Y":15,"Z":1},"Parameters":{"Stride":1,"KernelSize":5},"Weights":[{"TDSize":{"X":5,"Y":5,"Z":1},"Data":[[[0.5776617434390993,-0.5084151381930565,0.3720133719831198,1.427196501871826,2.023099646331101],[1.1211867519714664,-0.7262328053411863,-2.6741453947170752,-0.043353343587800436,2.221486514498565],[2.219891373653802,0.5917398891303512,-1.093319813049831,-1.735084204255406,1.1466439878786543],[2.876641622717387,2.9126862748044884,-0.24917460479761375,-2.243236033358326,-1.8747660039071703],[1.5233833366275953,2.361116379905133,2.6776339916270127,-0.379308156761534,-3.6163557244036704]]]},{"TDSize":{"X":5,"Y":5,"Z":1},"Data":[[[-3.1610707201793335,-1.4208336504106047,1.514921073597806,1.1464774145628083,2.984720004984813],[-2.8405932636568956,-2.285111488969235,-0.20755208170543457,0.15055918799356038,0.7922989531734471],[0.8381218700715526,-0.322712656781665,-1.6481209324317752,-0.49865825069686226,0.9042467020959087],[1.3728676239632713,0.7667776248407542,-0.16697266538228245,0.34022344887752354,2.941200971101428],[1.2771873549303205,-0.03704534749142335,1.0961357231861795,2.1608439128462837,4.496195606973068]]]},{"TDSize":{"X":5,"Y":5,"Z":1},"Data":[[[-0.21676633153491437,-0.18531062249188923,-0.22827608138460348,0.07402450447269737,-0.11763296953542951],[0.18011364319008494,-0.19775775280456748,-0.44199567427452047,0.32734708532240187,-0.3793710942869398],[-0.43244626372243056,0.47867556977622816,-0.26871222250475135,-0.11176653279760485,0.04370828512182712],[-0.24078691909059835,-0.35490363492797194,-0.1988439290549558,-0.13988894665822438,-0.10605645796536134],[-0.1333958487766687,-0.3562801762911182,-0.24039868430968048,-0.48413798191089125,0.12791957298879586]]]},{"TDSize":{"X":5,"Y":5,"Z":1},"Data":[[[1.1157299878175686,0.7019792823122994,-1.2393916814713344,-2.9420963263281723,-2.5376960279209806],[-0.45734080701945196,-0.9703318376351074,-2.260824688884831,-1.9427924413424944,-1.1882242910491843],[0.5847643009344529,-1.6293729395461103,-0.657069504903561,0.5924979062171155,1.143120542979889],[-0.42064012750226465,-1.0236047351667932,1.5902348628208387,2.3424865826261176,3.1175309269527514],[-0.49704476495584804,-0.640740508763644,1.2307958075976004,1.818267445641333,2.939882351464281]]]}],"OutputSize":{"X":0,"Y":0,"Z":0}},{"LayerType":"relu","InputSize":{"X":6,"Y":11,"Z":4},"Parameters":{"Stride":0,"KernelSize":0},"OutputSize":{"X":0,"Y":0,"Z":0}},{"LayerType":"pool","InputSize":{"X":6,"Y":11,"Z":4},"Parameters":{"Stride":2,"KernelSize":2},"OutputSize":{"X":0,"Y":0,"Z":0}},{"LayerType":"fc","InputSize":{"X":3,"Y":5,"Z":4},"Parameters":{"Stride":0,"KernelSize":0},"Weights":[{"TDSize":{"X":60,"Y":22,"Z":1},"Data":[[[0.8867901068969783,-0.516158004018974,-0.5531268022399749,0.693128849832415,0.3029227309833183,1.6714701921502608,-0.5141486986864672,1.0545614697480394,0.3427612248214736,-1.0546568254726243,0.3668672269301332,-1.3260853438211502,-0.2593623763755221,0.6176003054002526,0.5166898126544556,-0.8981552298645074,0.008497415820704169,0.11581273962171897,-0.6540690115165945,0.4094730430522509,-0.659489540573099,-0.2574678237260834,0.5323270078513237,0.7548652889138433,-0.8248113467743182,-0.17803196706649682,-0.34177619678381954,0.45998783942657995,0.8390091007240198,-1.2954721907515856,-0.4192079578506457,0.45454837328773456,-0.3898076121473729,-0.40584795191369616,0.30178973893319927,-0.3993242162881946,-0.152898742193462,0.31823451227584854,0.2559324025179346,0.14197275117561048,-0.32302859650323723,-0.45169213260814406,-0.23057431878521883,0.10420477093369518,0.22251494881302636,-0.3702577903546022,-0.5615602680413755,-0.657700487475612,-0.3103000516614439,-0.465011637757859,0.7659490020617884,0.4216034007902115,0.5511765424934857,-0.03360309695392584,-1.0212626766896726,-0.9799219859141478,0.5964426065214621,1.1104630115002347,0.5145642904451566,-0.8576211556078338],[0.1909264578449646,-0.05830766265762525,-0.04761581582160578,0.33097913996383554,-0.39891128440422613,0.04671463626894749,0.12401719361700907,-0.331972811899092,-0.4050119326242743,0.0262869928716766,0.279556353473867,0.2825834855978118,-0.26983139801323247,-0.035470912364976216,-0.31998395156159726,0.25972860132630093,-0.08702693032615083,0.08623553174791355,-0.1435762644653252,-0.4161527938657249,-0.3222659866952314,0.08900754310401307,0.45112832958453974,-0.4462228604133302,-0.3188198202973454,-0.39737447611784926,0.22570237342822094,-0.46494001591238737,-0.25355107993351667,-0.3827173055656648,-0.09324998037653731,0.1530255139649883,-0.21839092620623907,-0.010473254477289973,0.16331303774893924,0.21147079538727054,0.24540560750604234,0.17192107846423432,-0.45140139373066107,-0.2838808986169763,0.16096187384801386,-0.43463451624994753,-0.08498982149718437,-0.1740678646416906,0.15011614605660317,0.3346473452211337,-0.2663324777535713,0.4344290095208976,0.21394941226203829,-0.11791989327791959,-0.23283579140729088,-0.18505396247517672,-0.3549112728294516,-0.16449553820892143,-0.2429223441215462,-0.31584423635162684,0.03669349183752581,0.39828163813671547,0.0793502205060448,0.23731310041783144],[-0.35513495386485294,-0.3009597542684988,-0.10561868997196842,-0.3451561981014686,0.34739779346349764,0.25601028635432066,-0.14342706044052447,0.47060947094163685,0.6958951209592686,1.1016108412895678,0.6909135233421779,0.3531676884215214,-0.8394427342181698,-0.7959714431424338,0.3572559871615607,-0.11519631498795234,-0.5790566318359059,0.1179638764377465,0.06895840699690571,-0.9312427257681122,0.1211927903516839,0.727359959005924,-0.33356579393475244,0.2773817756782443,0.14709255942330612,0.24509005935969966,-0.08077204288914087,-0.5117012667092466,-0.08736244179957238,-0.22431051208567,-0.2656890416050144,0.13621904079206337,-0.10818361836955936,0.3639704460333547,-0.26744599214867204,-0.39877205867847376,0.40576412582993626,0.019826974630715033,-0.1401940036620432,-0.3803629556562268,-0.3462351031813882,-0.17962989849578043,-0.3808660171267446,-0.394283620706032,0.43690062866666923,1.3474904696258074,-0.28291090521475376,-0.6025077308864896,0.2909139284462988,0.14355126550324757,-0.10557055650220841,-0.0656998154005762,0.7107674352667489,0.1643950529566303,-0.7515072593302046,-0.49167703145505837,-0.23883742431023838,-0.8457295464772265,0.16143858009295675,0.44557120902103214],[0.22726642082413748,-0.32630314099619667,1.4723308897033445,-0.6642883194905248,-0.6828689040267995,0.17743377272733182,0.3724365833888855,-0.286338069810313,-0.4862502412986955,0.47704076871836076,0.16207234551364438,0.033694342450337485,-0.31871917729050603,-0.35348600827839305,0.8947792866794833,0.12386246030897236,-0.7396603496662368,-0.4239392617962671,0.5311277058313608,-0.32311815597932075,-0.480335429148577,0.5162798855510191,0.41712155745456253,0.29368333682338277,-0.030079230347181622,0.537077530270643,0.4594402459616422,-0.5818037169995545,-0.7684831314552841,0.21470685361195668,-0.4972130226396103,0.27370428603647323,0.1200092708716547,-0.42613904217200954,-0.17680684467865732,-0.32968109830033054,-0.045975786602135305,-0.4234427497098298,0.2206221678829362,0.4372839455141596,0.4998217308954904,-0.3756913715913085,-0.3238890797280103,0.37601871291103006,0.3280195765839159,0.3975214748495746,-0.4019404823494615,0.1997089963454823,0.45547690995155415,-0.791416195353566,0.0030292760270500497,0.27793449769197326,-0.11178277596508379,0.537154446832318,-0.318711388308143,-0.1368288311209023,0.8678187680946201,0.018602635827981072,0.22136284961916872,-0.026693769692438748],[0.7511466486600074,0.40161425651547794,-0.0837955974468868,-0.6266551114867918,-0.3262531106375062,-0.6305391284922157,-0.6127583461225947,0.6202457759260991,-0.5259433922344797,-0.8474292401183915,-0.1029042694144596,-0.8838960409721542,0.41441596225014127,0.022920427720518312,-0.028357380188432434,-0.5933459121320284,-0.4341298739145179,-0.06208854218653405,-0.6529317168972743,0.690128200202964,-0.23206159411338587,-0.15658282283175456,0.29605659991096794,-0.9270138303685165,0.37878819875329145,0.8458688204366535,0.3180585155133195,1.3004086751763115,-0.025123983010302026,-0.28853256748146616,-0.19572493729772072,0.13048006897307363,-0.16658407296013333,-0.04008346026122567,-0.2872649625856619,0.30216090860964884,-0.39228125169842176,-0.3951705929626658,-0.36644870075463704,0.11644366601388834,-0.3132625397314672,0.11595154125444618,-0.4241479125896581,-0.4750139356749127,-0.1174627524426824,-0.10991120662786852,0.8647090436259205,-0.4633259494502042,-0.039500797704076815,-0.03333187896413179,0.24770321968446796,1.3599077068107401,-0.0597073425443909,0.003577136312831128,-0.4413164594115553,0.18631392579764147,0.2630977856882371,-0.5472993460819455,1.0526856090850545,-0.512528640172585],[-0.25067157394660194,-0.6934464717279669,-0.7742454288201451,0.37553262100774204,-0.3976464276788193,0.10831992235685727,0.338267869420191,0.9558131895352032,-1.426732113230641,-0.11113566990486036,0.6206791631011189,-1.505813968386811,0.8497188316752452,0.117599037742208,-0.6171886423227757,0.44420809398773803,-0.09033375063106154,-0.37606283427085585,0.38622833451128546,-0.3815761775820939,-0.397463250613897,-0.08537515586687329,0.4526395540517828,-0.054655277352101884,0.3645458417117042,0.7211239081598924,-0.13668336590752983,0.46775637409578324,-0.029215076828122875,0.4455279912564582,0.09921222702194343,0.09550549549461129,0.16499296742841207,-0.15563889236155598,0.4941823930980188,-0.150800167620947,-0.22448590229670662,0.029680486909186787,0.02553582534540788,0.21722248438274372,0.2017139648749101,-0.42274490126209685,-0.24898258505033272,-0.24325048616795264,0.4600482731897475,0.19746261379479155,0.6770241880014728,-0.11809733620361977,-0.08601570267611737,-0.3332077779432349,-0.1585253386153561,-0.48704877372343014,-0.25596356386253355,0.6178784010868799,-0.7953488428960938,-0.2425784917054505,0.48078004729850243,-0.014801712945407807,0.12147194132625379,0.5957793917597562],[0.08671959961182503,0.37843389970177954,-0.009446478656359633,-0.19332816628303004,-0.056272387462068287,-0.1643779901119859,-0.008077900529005042,-0.20150177708572722,-0.034561694909633955,-0.24775376067732,0.0037333953028609087,0.5985065594399701,0.6457624200184652,0.769176762113516,0.06532325547629778,-0.6514369121721661,-0.49677424787250357,0.16633739432091543,0.3738007716551858,1.010171365433262,-0.30339672074452967,0.026785061883530623,0.434582199088442,-0.7681825062276056,0.5864682317471089,-0.21073091302246652,-0.8264341624903487,0.14022488303140618,-0.731988561335319,-0.4487092811866281,0.38369148990193724,-0.49921073805766486,-0.28802351600409704,0.22455923897832353,-0.33798336862286515,-0.30273773089937805,-0.47872732792598577,-0.08626618128307073,0.4919980463947593,0.38730771392105223,-0.11241933379516528,-0.22905884889535078,0.3610748347148621,-0.1934639698377545,0.13291739404541036,-0.31461807540093356,0.4033070827821589,0.29263709583349357,-0.09920386823889389,-0.10406410852939661,-0.5004160335232374,0.33065027116498974,-0.5180179097619542,-0.16593751613486993,0.8323004180698975,-0.44939597235418594,-0.3182297259446249,0.5802924340909146,-0.12167626019942397,0.14252849547574017],[0.6839415886941247,-1.0324354290171491,1.143324865765078,-0.17835356089662446,0.04881861718041264,0.5269126863613478,-1.2249707531145424,-0.6392446665183105,-0.6934929139072348,-0.2244248923152481,-0.08658381504755809,-0.3165037519235126,0.5382048036934363,-0.22212552237054914,-1.3249351598487304,2.0073217912473984,0.3988744963865328,0.3161150236049957,1.0673097858251386,-0.8650731981897049,-0.37459326259573983,-0.004980140214252312,-1.2057436527889849,0.1931300528110671,0.29757543692528926,1.1302454599680494,-0.12086357174773305,0.39504417950964815,-0.5323216983175024,0.9678295330274176,0.37116234756168476,-0.09336830323629003,0.16065256462380195,0.01898287349551442,0.1850745099295058,0.2386679310828611,-0.33859686848814097,0.43888950407099936,0.05776624972897493,0.20388364850225837,0.3985405662967809,0.3703599933966478,0.28641388015865055,-0.02196136498047746,0.4697564259272551,-0.41751684098373615,-0.15702106908213193,0.08644290905659706,0.28911435669634095,0.38744679108755925,-1.0931630376662538,0.5483905034429679,-0.428919830599001,0.0772965572624298,-0.30425645412559327,0.35633238322283817,-0.1303940302219865,-1.281854073371908,0.6076041045424019,0.04950556586068777],[0.5089240544221678,0.05177693144838187,-0.11840381477487948,0.3812269935256895,0.6063598534621643,-0.05777402222831922,-0.4728495510189149,0.2608072778582159,0.22804456154083952,0.37547228645028347,0.35787407246936304,0.8403651247692081,-0.16600168580571922,-0.44103452922412195,-0.09139469678431121,0.017335722962327816,0.5075054027908275,0.11152754122521569,0.2176131001697573,-0.23981936605976387,0.23643911413001545,-0.021624188475427353,-0.5708107969731759,-0.04834989653477348,-1.1348763763507763,-0.05338510031534724,-0.2723462069552393,-1.1965650064950986,0.1731749370720816,0.16399347649745394,-0.39673778879794896,-0.03239888400901725,0.2902462313766432,0.32494119772609964,0.2231163410672211,0.17887676579815792,0.13327945577684663,0.43667575659147995,0.1073722546092779,0.3758113414310119,-0.36940173790009845,-0.29699585444305465,-0.10913935921297019,0.15322949785023754,-0.13199917586479248,-0.31250110574970347,0.2908035564731586,-1.325929472913592,-0.00007974350523513122,0.7318833906767531,0.3555439060639226,-0.30399387723683446,-0.08161697010261047,0.4643981393173993,-1.305676404091521,0.43965921621839976,-0.366508866656506,0.07920339049966378,-0.0884434185923335,0.38893661491041615],[-0.2935048932121506,0.5370752955989083,-0.9124646474835263,-0.32228138929010136,0.11007834171705619,0.9102336488582445,0.019743042342458533,0.8440650291690325,0.43256236636214185,-0.09810886933804877,-0.07872144779661698,0.29218006096450416,0.09310509849936388,-0.014466134357998938,0.2682520858190369,0.1962626125390917,1.4518859214919924,1.3426934919031446,-1.4846414174237152,0.9149826790529907,0.17811300934506874,-0.7377415496767368,-0.9771385536918514,0.8013827929143997,-0.6080120585811756,-0.7331614653610627,-0.08602186276673914,-1.1487928166351555,-0.9176599647637217,-0.9125604116180905,-0.03087166810886699,-0.2835533634886454,0.4038031681786678,-0.35753092667446384,0.14456666267636908,-0.4804672999607729,0.2727085691430464,0.04116998144518513,-0.48647436153099816,-0.09042685602397343,-0.12913021207269554,0.39599224075414474,0.4600251715735334,-0.43695391070217615,-0.07027582729621029,0.9066936121887508,0.6448367026386062,0.43501369831195735,0.41364827376463864,-0.02154218179630468,1.6665673946583948,-0.33480526198121435,0.6850111369843883,-0.5492785214975102,0.5367257018296148,-0.07980137736575815,-0.16036413371873887,1.2026898069872518,0.7758819022306516,0.0651495606311168],[-0.5714194630073526,1.1357293599625662,0.04519924095936525,1.3030220014545093,0.46241528544327337,-1.3296062234690489,0.20645829685410816,-0.22389758141242702,0.9023268163677177,0.1766205514995917,-0.7337631435998544,1.2124693640875608,-1.1768844680949133,0.5964070485387784,0.868694262664833,-0.4547966444539109,0.32244005724889707,1.2029107386696727,0.06822536702400948,-0.5713233263390081,0.5784245072540286,0.11246535966907945,-0.4554103324903925,-0.7539933821347452,0.22414173287669345,-1.5373299397290048,-0.9372357082763487,-0.036612577672008206,1.2184521567950302,-1.176954866133815,-0.06268353891207817,-0.3939921168553109,-0.41804916967930816,-0.26627790234619286,-0.25562149785650357,-0.3992961121244985,-0.21439343664879923,0.2815940476127502,-0.4698474708355024,-0.05573022044546766,0.4110555804503433,-0.08157915850136738,-0.024209103825566347,0.05245714561094128,-0.033828386428371604,-0.21434067108267257,0.32425685777346785,-0.6308353269493737,-0.18893265803272932,0.07923133244432715,-1.5359955898850983,0.16243209993256735,0.2705516040873987,-0.27220723238275774,0.3164689784209735,0.04878085628074049,-0.8030132984967352,0.650477771848159,-0.03945697977750458,-0.47286430421950887],[-0.5230250974646583,-0.021842152613474275,-0.7384903454545659,-0.24115634422295001,1.001810604810605,0.05987392736606121,0.7229468346489355,0.047347168620597686,0.40509802337225426,0.5987776460000012,-0.6154322146253519,-0.20584754684203072,-0.4727728839338799,-0.12025648092807681,0.3534402464291094,0.6107334407207522,0.1832072448071128,0.23859641916527197,-0.6352942972494537,0.8109378427694653,0.4739457624394273,0.2843389239448858,-0.42631747160662636,0.060628809330092084,-0.8489312726799095,0.29464213213956003,0.2729584543014232,-1.5890668575816962,0.5198396762847,0.013498727245223953,0.214479518371972,-0.021450173620693347,-0.06438423488152045,-0.018949741315053115,0.4030413268662313,0.08928312711459163,-0.0640760708117013,-0.4865837055941618,0.3350775783059372,0.2620340868461867,0.15599315157140214,-0.4686027522794264,-0.3643461352076931,0.16597496883678764,0.2728473372278789,0.569085046097128,-0.06574772116240424,-0.5067348436643359,0.03532029210251189,-0.4720557751536044,-0.32294337516378163,-0.40318822794510806,-1.065980439763428,-0.17643043967809505,1.1501602455609832,0.7353791863901329,0.26275765119636013,0.7176928267805026,-0.7500624397889293,0.18282759594157702],[-0.33514429736846774,0.6615453431844484,-0.4257684084523468,-0.5465215527511296,0.15579970347144648,-0.6624101703659386,0.10618645242845158,-0.307095366631219,0.3243614159700647,1.137384749060943,0.5784817849255586,-0.7734055329711961,0.4755211234938406,-0.2757785182647139,-1.3491481953428315,-0.5287827824619095,-0.029422062408439448,0.03989287564392142,0.6250845919189049,-0.09268474275803647,-0.00003892330691891634,-0.009619224552045834,-0.004337608374031444,0.25401854198358653,0.5993911603723987,0.849436031290534,-1.1599296601678608,0.23383226357853792,0.13154863162244188,0.9949474292373995,-0.3292099917471969,0.17383321161006093,-0.09254547181953998,-0.11447106232695625,0.060945645225930156,0.07440863056739233,-0.16060454554154557,-0.33465805514145985,-0.49514483134903,-0.4554941658673082,-0.4194282246537504,-0.02689677798939788,0.19615207218158026,0.2992834054501027,-0.48993507084836424,-0.4555909286573052,0.1563959374187827,-0.18858901300090894,0.1371251542736288,0.9226296566054066,-0.3950745446403912,1.3536315542404298,0.6559700667475787,-0.4568473101130777,-0.11647180844766702,0.36729306194950656,-0.6633040902438669,-0.866472518910164,0.1086408295931903,0.8530986855653235],[0.3172211374122821,0.8128438409621556,0.9572212292391962,-0.033296697580149005,-0.18302691074185515,-0.3051762177170431,-0.5073260819357001,-0.20231530763443975,-0.267474866610535,-1.5836591087767342,-0.2698862686227827,0.48147884746830927,0.18637293414799222,-0.22220305405510624,0.7164309104284876,-1.8576356781923142,-1.2574576956682522,-0.1903030110846013,-0.09479591427467937,-0.1509659492078965,0.7435488570377997,0.0657780442329229,0.6844583411848603,0.4330699863015142,0.21041870571759538,-0.3341478593165175,0.4740471468942617,0.5031653720713555,0.6701733340108582,-0.03647922949373726,-0.07747805959348569,-0.12724053595945306,-0.285439170190975,0.10249511551852153,-0.12568583650781762,0.23332922119494426,-0.1785577806823247,0.24467080210933478,0.10718866004085792,-0.08547674890228907,-0.4900232591747156,0.3348137814929487,0.16511735027205265,0.11040830447975769,0.37714930417273607,-0.28288451577468776,0.25390330506769077,-0.441298430555745,-0.21949507723880332,0.4583799044541511,-0.4167239722102714,0.9922446552034483,0.2740531885207609,0.322806531282388,0.18181252271057888,-0.9023924728624583,0.3269235316647208,-0.2004290456995839,0.17843463771500057,0.7477580884920436],[-0.8840770309459139,-0.48661103896791286,-0.9670920977554527,-0.26617914229522427,-0.38010414955275534,-0.9801947039552198,0.004667397213740739,-0.1708624518971235,0.5099561395475781,-0.020738513474673984,0.5669676773745932,0.3654006872836943,0.34107729065620945,-0.9929122369299145,0.24919551547682084,0.19200029621171186,1.3218113871858814,0.9035376331784741,-0.5802217896007965,0.3988210990929921,0.1736637317792091,-0.003183052012760516,-0.901036938746327,0.3760170247766903,0.1275391129677985,-0.6694472990070434,0.2920216208633106,0.4148303528900049,-0.5420549150812763,-0.3043487347409013,-0.4953463870091645,-0.10533591708450124,0.2747612399174001,-0.30655470547813035,0.38106898472452344,0.02974187594165434,0.24305882172630333,0.34550816596495904,0.2795157081216244,-0.05646619302277478,0.48321797883221806,0.07245668215681822,0.22192648145240768,-0.16886334312776685,-0.4952742533195803,-0.6624750842876536,-0.15080643627838097,1.2368950328759778,-0.018024977934645314,0.4846533807893155,1.232545770495251,0.5220055897224317,0.5797518927113409,-0.04105989373268201,0.3772035372334944,0.5664507528246175,-0.4825752342779687,0.14701349064988833,-0.9276750021628368,-0.451299540086296],[0.47833861355362933,-0.7613596749309485,-0.5695013031888791,-1.1489508922305576,-1.893931218034106,1.3297353498688715,-0.21456857989455208,0.7621103562952097,-0.37654746033234426,0.5866817174061277,-0.174943788758466,-0.7576521932922572,0.04986459957992296,0.14485520476544908,-0.3816158372824583,-0.19852241022447584,1.8999690589295046,0.3031626506326019,-1.262811357543698,1.0506721008406563,-0.606450816995662,0.5825822337952093,0.49992897095078276,-0.8078931720139001,-0.3047027282307565,1.2504487627584038,1.5473649163139467,-1.18305658574102,-1.1839208880678413,-0.6054496334578819,-0.45770181360161505,-0.30877744612636393,-0.37538005442820277,0.395664255109594,0.31851457725384935,0.42790843689662694,0.31025619019566986,0.05736211401614855,0.4829205227504306,-0.1434255423237154,-0.3570051187622081,0.16881619592143893,0.3461225504437059,-0.05986801074565112,0.10725656766213032,0.31909727243034525,-0.39619807060468326,0.3895569331510922,0.1960923269933367,-0.729366186067373,1.231195731346519,0.5477366998714195,0.009063568763420448,-0.7631066435893845,-0.21747944227927762,0.9323590421455958,0.9271148735152784,-0.2864603384994125,-0.3551453175426495,-0.6396043532880988],[-0.42699872616996626,0.1512422420311535,-2.068815977684375,-0.8376872126330093,-0.06917835894133607,-1.0289911840901158,-0.455144868368112,0.17993772754748233,0.14238679458659317,0.5181748054575613,0.33487249665818825,-0.29482084918198503,0.7954514180105998,0.5258372880961089,0.39687314744581387,0.774275088849336,-0.11962555799688576,0.25951710236357695,0.04971881413874688,-0.8262136048443304,-0.6267589772585628,0.6406897070259517,-0.2639018916575757,-0.4410961058047848,0.8080026592745966,-0.5109911638914014,0.8082249833150413,-0.4163364094698958,0.43482422313957686,-0.17429608736292881,0.2588316222571707,-0.12130935961797173,0.2874873007354717,-0.49296751927690374,0.1932240804924349,-0.14507158224760625,-0.09645956303037051,-0.323499592466722,-0.2792449602045717,-0.026576714821086256,0.3618829194791454,-0.27210117120161736,0.4831201603909654,0.18155123952871177,0.06011998226538673,0.15600576578996053,0.38785797730972604,0.5055238922603451,0.7437623631189071,-0.2473682691282846,0.7001862969824308,0.40872888196654783,0.10382184729788325,0.5378243707028956,-0.03390657219733048,0.6331741618026948,-0.18633156416445462,-0.3555494282421807,-0.1493882024310781,-0.23222319736234462],[-0.18953307465053804,0.37729285793545286,0.7599350630558764,-0.8383329825624256,1.1062294218158115,0.7559295156020515,-0.1269536346964906,-0.20461941986854873,-0.6823472304082813,0.09814172556883453,-0.3506947538640657,0.5686424494955639,0.5060743585744846,0.10907815497282458,0.20564012973998386,-1.5116270994262644,-0.39358318747412946,0.6145198433044616,-0.3996085746747707,-0.26074046052813715,-0.6647371925916895,-0.09381860308166831,-0.12528076824662487,0.4251417713875011,-0.4829436070397343,0.2940104711672863,-0.2351294785986272,-0.2644752216434511,0.598836010222364,0.07803945200877667,-0.018625848045855153,-0.34064672073406665,-0.20832028125618296,-0.25873861392054276,-0.16212692529035538,0.11550113092646064,-0.21877526841757855,-0.14019893600184702,0.06901353610645522,0.22701681442696464,0.11356957621127928,0.16446147005460798,0.467347064500123,0.07850015348243511,0.07460113804143786,1.7631612024279615,-0.33203666543215093,-0.9840986781017753,0.42171010487216076,0.8221002962479259,-1.097598122180879,0.44081655034967804,0.9432515724485427,0.1937848523648133,-0.3607247289312941,-0.3250639864123486,0.49112562534685245,0.19935677421791154,-0.46905223632985205,0.30432552845684274],[0.09019027979760459,-0.10646619606164075,-0.8914890315613546,0.12131761712431688,1.6189561903084049,-1.127451751397267,1.3837784981088899,0.10254346850246472,0.5026404398848656,0.29964608939291937,-0.0355292453426422,0.7825092364227638,-0.9073827162364924,-0.03655424602422334,-0.14135248490675825,-0.06884718799739854,-0.18089911462104477,-0.5393496021744368,0.37031787047140746,-0.5068323911908788,1.2055745571825285,1.2713894596844417,0.7018484258400305,0.18021930718774878,-1.0895744557267002,-0.7053149421697275,-0.23221909551841666,-2.150346693526987,0.7553080667183042,-0.5785483408707109,0.2069747045340048,-0.10656685682607436,0.04753347878792635,0.30869682989618574,-0.06547763779203047,-0.3127111124462246,0.3933592757625135,0.35989522697306386,0.1232359995583634,-0.2825096820287524,-0.27401063329526676,-0.12307882977113815,-0.35219173290552974,-0.007508028499676911,0.4237051217114124,-0.10788495203664852,0.2546658464484161,-0.9295750183374473,1.1420170449409999,0.18144495776772768,-0.3066791336804224,0.21541091970823004,-0.26905800108211725,1.408024030192943,-0.3443936041046012,0.23442958793999155,0.46724120654238893,0.30801604754499495,-0.569477569599151,-0.21603165047310138],[-0.048494230032892806,-0.12865673406422537,-0.8254671327571557,1.354980404203948,-0.4384597028009554,-0.5268944333432274,-0.2252486894913321,1.0266123976904487,0.3045979112381734,-0.26584123685326094,0.3415895672891084,-0.0808915468651852,0.5148060285639845,0.7551697248337034,0.6115775156635156,-0.12743441591121804,0.6702994514443105,-0.3970730530654071,-0.44891492789603865,-1.019871706589638,-0.4392109322577227,-0.09189652529379384,-0.9229437879470446,0.6500165208988995,-0.193099624473232,-0.13746575208975337,-0.5897835169167709,1.0830920449805452,0.8478249584852571,-0.004462018056178251,0.0887614419265389,0.4101410731909829,0.28439436139763985,0.4466980554205847,-0.24953305342929594,0.10120420353427595,0.30722479514280865,0.24310847598191088,-0.2447572123469185,-0.03269607046155476,0.20196956347216677,-0.4983962539741556,0.46456091008787925,-0.18885083219026566,0.23012546159029734,-0.16450547375152272,-0.41953850610421994,0.15977710818076127,-0.13063456361745698,0.07159766031350777,0.1070190115648902,0.19688403115330266,0.30008190466016443,0.36238636526599616,-1.2488220177370386,-1.3546707340798776,-0.09946495210729205,-0.7214304770115184,0.7951869294454543,-0.1830107721663174],[0.19870031151323153,0.591457473948269,0.9288766590096448,0.2948543821344288,0.42073355257152883,0.7527493553154164,-0.31142099289316133,-0.2883550698765167,1.2005752945074353,-1.0795972032775323,0.03387686084445929,0.3510480713832296,-0.46399093295614796,-1.6722055651801382,-0.7002514952424386,-1.3375138665179664,-0.17920565242618902,1.1171922023772158,-0.7717039289673199,0.5776518679313586,-0.47190765570224524,-0.1336382215583243,-0.6041788955332883,0.04098801304344827,-0.3036682333854862,-0.563264754955286,-0.23830465567313955,-0.1438202745200256,0.8579038539217412,0.19437643667620905,0.3019326418098617,-0.17894113654354749,0.21020996470172004,0.1946267002693598,0.11402772447712994,0.41638809965258183,0.18854582652250795,0.09422114124308212,-0.1586822838323667,-0.050100430336759705,-0.1316434686512189,0.01574549983063167,0.489945791852075,0.07319237363544184,-0.18252636861791677,0.5308854679957649,0.22156116738098366,0.2902382738984567,-0.19646999726514497,0.3072318002978612,-0.44558735747314326,-0.5249194204589152,0.15712358606222343,0.2895743764179888,0.502670837736426,-0.24919476644436203,0.24024968220872198,0.4132708346211112,0.5780039939174209,-0.33696513315166304],[0.3044445753545781,0.22414067549966282,-0.2556314339054567,-0.1976577851136952,-0.3274754999771921,0.02493299410851232,0.21403505540178927,-0.35467301319799865,-0.44577932422567357,-0.017129366643538528,-0.4934974862301095,-0.2962542838393188,0.34138417711250724,0.03235862741082248,-0.4530589098337641,0.15085106837351767,-0.27860765039791463,0.2102381179091716,-0.19981203143860432,0.08507685193470782,-0.028114094153707365,-0.33201851358191725,-0.45194654788240657,0.21572083512654724,0.5007434275005705,0.11131605851935536,-0.3303489787274524,0.04871824994870434,-0.3903191136641155,0.034186551308614754,0.2042015493777931,-0.10178234300762506,0.10362679030633237,-0.18389151304771828,-0.3964248756125123,0.05707279640969143,0.3059693354203603,-0.437712980837204,-0.3210326328353509,-0.293851962596793,0.3506287481802517,-0.14653301873274832,-0.1767173665696934,0.4553544384189504,0.12493773783918372,-0.4503851580335447,-0.20903743852131348,-0.23615963443043458,-0.41900054981122,-0.14180558508861452,0.040368872732089056,-0.3749013936801124,-0.32491784571277166,0.1263532683833914,0.49989814196765375,0.01554080662799139,0.05577412219192987,-0.05596797719170748,0.09330834738646265,-0.39384555927110493]]]}],"OutputSize":{"X":22,"Y":1,"Z":1}},{"LayerType":"fc","InputSize":{"X":22,"Y":1,"Z":1},"Parameters":{"Stride":0,"KernelSize":0},"Weights":[{"TDSize":{"X":22,"Y":44,"Z":1},"Data":[[[0.640365264370373,0.3143939771354222,0.8053751018615479,-1.6138794267377765,-0.511873898179381,0.16948535321303834,1.6353916864753202,-1.2813426928851135,1.50973986828671,0.4986034978268085,2.216395056656561,1.3623682288464343,0.7858654895277947,-0.24595806000580364,-0.27105024448626347,-1.5830633821763858,0.03248230803843403,0.7481139290209757,0.3398205771249125,-1.4455580307688356,-0.5157637084523631,-0.37708191142170755],[1.541098649647912,0.2442857624493089,0.044968556684236084,1.9603907020125388,-0.1889481989340407,0.4957702917768923,0.6918853088106051,1.048432594743036,-2.4909531675535184,0.6230522835738045,-1.4331495863960175,0.8378768199402509,-0.4559087399742461,-1.4209647941637027,1.087098458485559,1.0019123615398182,0.5962356290442452,-1.9259778621494623,-2.359813106631128,-1.1028766873821463,-0.5641254943381194,-0.4261485872322937],[0.6490532652214,0.3740020998883906,0.8084391763879871,-1.5306741894810867,0.806569057549263,2.769908419909266,-0.11524486298806597,-0.393816446544253,0.13876246022808814,-0.10856212464412679,-1.1556966018959138,-0.6305994181879848,1.0504380945435312,1.0121138047113156,-1.4584264278279817,-0.3044465991019092,-0.5578703380228704,0.8083056704936883,-0.5997766269966055,1.5507150761613298,-0.07586393156919286,-0.05455530764693148],[0.5916384590498796,-0.12227007252082096,-0.4292437094066312,0.1771666433459311,-0.2581051888353326,-0.5767342884134244,0.9125423514150537,-1.6357317331818961,0.32476077919887,-0.8650148854776808,1.8265133900098973,0.34165421830613296,-1.3576671959163413,0.7784991363016336,0.0460791682606589,-0.392817150788968,0.437277498446025,-1.6985090972733317,1.7110816913458957,1.7605209300279359,-0.8632748010530767,0.5178219362540504],[-0.18461831067887105,-0.06626058169826302,1.568544429185971,0.2431624532955605,1.3982416553229289,0.9818375039790762,0.34544376195037185,0.21917819154112694,-1.1017732619692138,-0.7232162768072625,-1.122037169051748,-2.1203693367542584,0.5145372866993717,0.9577293681680719,-1.9187333667404427,0.6778170037380347,0.028518195525151398,1.4150993652863972,-1.0528324237196243,-0.2874708753601799,-1.0588835508881675,0.0059091939555291],[0.6024940646198389,-0.40055898525806427,0.017750761537940394,-0.28073944282693086,-1.8474300637735928,0.08389326188337708,1.068472144164648,-1.858620354040653,-0.00017499786521290399,-1.480954580844933,1.782672970225178,1.3246312466205044,-0.9686902120170591,0.39929781876118403,-2.01615089193808,-0.19867580202076654,0.3019577450127781,-0.22710089331972433,2.4527958808681447,1.38064648765312,-1.1745609480396835,-0.5375187096359676],[2.1514887693867384,-0.34334686881301196,-0.2485538242713653,-0.8153335202341653,1.34137974191214,-0.029899682334376308,0.6618860551380509,-3.034382232012809,-0.8659537473834336,1.0479277739769093,-1.0581582527719067,-1.0648946532379215,-1.5202710028961497,1.3096504245524507,0.6522624571663758,0.8134618575886042,0.6476319383376417,0.04158653014460105,0.5198243574286344,1.4323710618877135,0.9792826620050696,-0.20461430041950804],[0.6727575808405774,-0.032714591021787254,-1.7535977715979671,0.594201746290119,-0.1835412671527817,-0.23089577060110553,-1.3892832556941626,1.8573439284429127,0.3949202836193702,0.031081361584327824,1.317212914913121,-0.26752886976898216,-0.1377933376461447,-0.987044719703136,0.43803877426895305,-1.1769565400146458,0.2971703264881671,-0.4266399113759731,-1.5055404432993869,3.390278605757273,-0.33550531548533535,-0.24101746739515495],[1.1088164618463392,-0.325999453499768,1.7732003006127437,-1.0310050779192794,-1.2776381333241076,-1.6653871801562588,-1.2638625490137434,1.0938342255604663,1.9149244004559196,1.8315855849578093,-1.6915145503105615,-0.8697199272944487,-0.1698904162263449,-2.6375892038280955,1.5207371790698883,0.83908817888259,1.575354452822813,1.3902137453558199,-1.1256730234779384,-1.1728482812516643,1.2800871735301678,0.32741987085260454],[-1.1666887067219174,0.20380555314712145,-0.579897804723268,1.0872743264202447,-0.12849472482079297,0.30391651841993594,-0.4006359422470491,1.6233674957090531,1.0665939759516854,-1.0617734923208,-1.0085929534861635,-0.32794231376609345,-0.13716925683839867,0.5856396950302759,0.4570070185912489,0.530401882176544,-1.2428410719660092,-0.5682818613359093,-0.22001898339910034,-1.336283338255438,1.8744423442997773,0.25898957993070404],[-0.6777253527849542,0.46077746932395114,1.0130613602117757,1.0858865433873512,0.9250007892400144,0.39280828622088565,1.3026825368915933,0.5506468288436995,-1.2363626413820157,-0.6157271328143489,-0.29880064379337057,0.04054839224020662,0.5390364292675321,0.15614902324978513,-0.8785414122151286,-0.2466426219759991,0.44372449424092864,2.16958052410244,-0.10297541206141823,-1.3149502464523708,0.41279179827753093,-0.20343964348568],[0.011265990959334856,0.18188183774326439,-1.2042906000532423,0.5243053767050605,1.1936565437632047,-0.7867517258055459,1.2596196084026707,0.910876743604393,-1.2571997735024527,-0.7141468237353432,0.7243549993344427,-1.3566196943074011,0.7707605787980552,-0.21774989768938888,1.7188940188604138,0.28149972240330734,1.3714241617675693,-2.509261861585267,-0.778150999542836,1.1897923599429332,-0.6083449857750589,0.15097865632950505],[-1.7908107004795653,0.16646486632271532,0.04619450431936974,1.506946358495485,-0.34247118335430293,-0.5949736301454643,0.2104310103951633,-0.3778384592366088,-1.0129009740686434,-0.3793652333406839,1.3053541692067911,1.8028161842501644,-0.5956021495171386,-0.042774392370673694,0.7477324282010662,0.4183494346264374,-0.2638764852368091,0.49600918181251513,0.554411097717294,-2.2164584766652378,-0.7908216325694228,-0.35954818638948005],[-0.5033706911297116,0.25703369801978787,0.2753214614694124,-1.8333839259562201,1.3810209428173978,1.339484378049488,-0.7796102141097406,1.8450157758661287,1.1607899322553759,0.5840126534844717,-1.0795885656033626,-1.2979894140189203,2.1591212279825696,-0.4704879859731758,0.5042041890890517,0.6438598823297811,-0.5142879317791557,0.5755925282355026,-1.5772049985395185,-0.544412159297515,1.75862414387615,-0.2595267904906448],[-1.5404116730976198,0.11074092496380261,0.08702784911785248,-1.0123866688921255,-1.8351179096623316,-1.15700112614508,0.5125062136320847,1.1006491202077935,1.1780249845810467,-0.4276128409419332,1.1294435067962434,1.6088468838230776,0.39415488783560454,-2.358592233651771,1.3926654668972052,0.7786315638752086,-0.8790328376283648,-1.275330282901441,1.0959638287205122,-0.9281316420666884,0.5303498344151988,0.3030033131210828],[0.41560931478570556,0.4793178876113116,-1.298226431011881,-1.070809889887433,1.6966654980845381,1.6286226018426353,-1.6877717373211434,-0.37289711692125577,0.7529417969306036,0.6128242044681835,-0.6131959163117692,-0.2996039936161619,-0.2136002077372244,0.3859293401033496,1.0604416140631785,1.2033007906864361,-1.233675947412466,-2.1469743097506373,0.3115024784169434,1.705306012167141,2.134708518459674,0.23268513290256196],[1.9840424547572755,-0.30035988947401965,0.803900770691198,-0.24478711694273353,-0.12574843919766587,0.09504932407463268,0.5526259016488518,0.4042917704325364,-0.7519045674967686,0.8266132574092759,0.9391183909698946,-1.5770038883704645,1.0124172026562472,-0.8365529119196187,-1.6970895998901345,-0.44606333411696253,-0.5098472606369888,1.021136555816086,-1.0059374864342443,1.6450568558766774,-0.7926282214492003,-0.3932623961305852],[0.003563583703169699,0.09163653033148972,0.3476988343667435,0.5902499264773212,-0.3000087000427119,0.6598239867662985,-0.8766404607796084,-2.192439037872666,-0.30608402499254006,0.5581362964340374,-0.6052767197546305,0.6673002173743701,-0.6798637648125995,0.48496117687941404,-0.11153648173151388,0.45043262215066965,1.9224675771037651,1.3049574576447032,0.9509237200137659,-0.3006684434406409,0.08495891685186557,0.03208094624963528],[-0.4708079819456546,0.4554179890318067,-0.11633398253004312,0.2925000477035862,-0.9069894231689632,0.49053926681504356,-0.5949764164433886,0.4467126625062224,2.117131512385268,-1.2231491150449247,0.8497427401087754,0.5991991909256305,0.535306062473879,1.4320190278238958,-2.566779502138585,-1.6311570593211662,-0.122927181887738,0.39355343260665143,2.0237902668337884,0.9313484529925731,-0.6203487965943035,0.45293173668117276],[1.152841957184399,0.2026115000747333,0.7162080861346874,0.3727848330239467,-1.5187054298053124,1.795572665298522,-1.2996257305475505,1.3261212356396448,-0.08898683940754795,0.7989642712042607,-1.5265580888962196,0.16983102079968926,-0.18602875046880932,0.26362895771053313,-2.266403630383614,0.2113422334348317,-2.1546600856319724,1.0077302235050727,-0.21292306117048665,-0.0929057395517262,1.3468325426095125,0.4471059159037558],[1.5673873816303776,-0.18279160525156843,0.8640242898744669,0.2565527452875939,-1.2632569735237136,-0.1749631927751641,0.17717488241864945,-2.8283028216170267,1.086483831303513,1.1865324993303152,-1.2804017848579548,-0.25643905361407854,0.5428089334719245,0.5880424148820358,0.2406739817697917,0.9999183341989771,0.6835321348609832,0.43914362235426757,2.4762691480784977,-0.38515053200896276,0.27560231865032975,-0.45639377479755416],[0.5848692173426508,-0.09602645984038759,0.42117743503773925,0.8595146903456555,0.47289043106195044,2.6205988863700838,-1.1290632462750747,0.269349431266642,0.03875574332297305,0.5155441226976524,-3.190802974982364,0.09170354014632458,0.5707482489934165,0.47055500503879133,-0.4968061280143441,1.1233553920424886,-0.30307556767555904,-0.6960949973901952,0.4759617593242073,-0.41877334633726526,-0.7783851476663659,0.10425423908773815],[-0.44650976789737334,-0.21759960497952438,1.6561569767778075,0.36149851719273274,-1.1200593284063385,-1.8598546485706573,0.8282040054289793,0.012793905901938782,1.3927618542209854,0.7514584594046466,1.5321520814084377,-1.289827497256149,0.7047172115959741,-0.4450620571140078,-0.39813322983658644,-0.4150888299561706,-0.4215130745978935,1.2979081008717723,0.3230325956595497,-1.0996968455801968,0.08479986145262643,-0.06933677509905756],[-1.0638385036597544,-0.2209727661086844,0.258924590452149,0.07416363720985535,-0.2061459500749033,-0.6747727457753977,1.7020312896647596,-0.6216842862293952,-0.020158977500014028,-0.9533789319046592,0.1389396864640799,1.3585938840417306,-0.30874324567455486,-0.6989737634827478,2.0244245302427903,0.3572451938219094,2.7757651290817122,-2.189059474171235,0.9215589591012702,1.0700513955314572,-1.6704582346537427,0.3258064867324088],[-0.45162159819500464,0.357340657549127,-0.0760593607931305,2.897045203685846,-2.70677373677772,-0.3480349430146107,-0.2692537300056232,0.24289057659962224,-1.0929395077713357,0.3184213173722195,0.8118721779888766,0.9835708534050205,-1.3532141365238068,-1.5557395791518838,0.18996901087616253,-0.7597687256589126,0.7010961695302743,-0.6046651015545049,0.31732828694466875,0.7695602083583597,-1.078222609645421,0.10275760716323151],[1.2776515905039956,0.4028188331048768,-2.0631359274628043,1.6379428535933969,0.5323526319749954,0.180495524476088,0.07327491506065928,0.04456232818557174,-0.897151915668718,-0.3550985073490052,0.9484791288316657,1.0264663029202201,-1.545626240649588,0.289459030974064,-0.955312506833825,-1.2570621705000071,-0.5545077313782575,-0.3422438852522864,-0.7017912876106026,1.4286137686264013,0.8246002923760029,-0.11701971677831761],[1.811844988643659,0.2752552904653069,-0.9756208354802302,0.5866063833601445,1.3282048076982635,1.2775320406330213,0.462232865953765,1.1055627344330028,0.31017660184632295,0.6580418553652515,0.039965933462982446,0.5213251673117452,-0.24795282128916096,-0.21315790204440577,-0.9378096293548751,-0.847141113982761,-1.8715315803084427,-0.6098535728465734,-1.248738316942828,-2.4285962149549793,2.0177648478079746,-0.4232132507413769],[-1.1066198694701652,-0.45400260700806355,-1.2391944263432648,1.0948009842554116,0.6418169442227952,-0.27518176386179893,0.24485241792765688,0.5671042701140439,-2.052647901218769,0.2547364233459794,-0.6193352805148588,1.084129924994632,0.1093820159871906,0.22641435752177275,0.7022730571685514,1.0394512035540404,-0.044138817603287174,-0.24316931878123058,-1.594186037165226,-0.714675720403487,0.19838724331252644,0.4644469445375172],[0.9374858318742886,-0.2903894461883613,0.7788025387025549,0.5418898760326757,0.8446246865741776,-0.21407226428366113,0.12162020899655256,-0.16049094294918206,1.465677724341456,1.1507008379862067,0.060082858398669614,-2.2761142187500867,-0.818406559329381,-1.009484517814711,1.2703411995835894,-0.009830172871823016,0.48216136223094186,-0.33504292850765915,0.4468292285825816,-0.26486554896197506,1.2210402415208914,0.30136200847509104],[-0.9525084090963266,-0.34039952197262935,1.1328527905633803,-0.28821743394175336,-0.7106460382022213,-1.2026054090547333,-0.4262549222498633,0.9458573115221687,0.6738703985101607,0.5574263584354194,1.1179374460817764,1.9212518711953992,-1.1238159070510612,-0.5545514637153325,-0.8102534726264904,0.19840796947559372,-0.9186733419597481,2.131916933453712,0.46437976366600126,-2.380600420359071,1.2166629750503746,0.34996359690955037],[-0.8516708537997599,0.06863624915536648,-1.2627469163833804,-1.2073648247301894,0.3788299427797043,-0.5131563401035277,0.443608689122396,-1.1729454258351142,-1.4543386841189876,0.09143866701072917,0.5780611389876272,0.9538543106624104,1.57289741763251,0.7821647171502497,0.7369744786492661,1.9148364387009602,0.16279508206087273,-0.044135221849053205,0.47935144427095494,0.5448707019449717,1.0774031646066486,0.02037976885644778],[-2.1449588218138156,0.32025347697431744,-1.5237779100925257,-0.3467864540381818,-0.08612569602027281,1.1089813725681252,-0.40558346328236966,2.1913763862896407,-0.8371119741179425,-1.4769428271589131,1.8092764724855461,0.05599906571378999,1.9656508780075461,-0.25070577407199224,-0.035667420329220705,-1.7630154151599757,0.1564560266820841,1.0456102937801208,-1.9625406400340244,1.1718365043347418,-0.3182429221480917,0.28820666807392004],[0.0917471346764301,0.2143238976092522,-1.0490171995332487,-0.8646198335444621,1.5137628316519858,-0.11598575115809097,0.2874813626011286,-0.046912038897839015,2.493690250948334,-1.2487296281000841,0.8955691702170138,-0.439073411893621,0.0633011750264038,0.9545012973329092,-0.9948903778653684,0.29724916156976516,-1.1236825716465848,0.43272304589295624,1.0841468627585862,-0.2654664896372559,2.2144451827734315,0.23902821957410922],[-0.17475241028960284,0.4300950973562192,-0.22399214178251972,-1.9417002470524498,-0.1807660936340177,1.3581352191726026,-0.060570927735030027,-1.2782832420076666,-0.6112399455341327,0.5445153601661571,-0.7734791631789023,1.5647577061408875,0.31285744463829734,-0.7053049509926117,1.7114187633939864,0.8474625214930092,0.15005822380997605,1.7181984362962843,0.28619470977413447,-2.76039540794819,1.5378789736338963,0.0964267237549652],[1.455962495538,0.18563647362596078,-0.9246387869238238,0.4494283689916409,1.9065286866317013,-0.7419846353067093,0.30103124076999666,-0.3506057592817273,-0.5548450231117497,0.019731165036576695,-0.11733283055096416,-0.47590341046803997,-1.9227424859492819,2.4792539346910236,0.4007972071957185,-0.4902095839186421,-0.5080854457919166,0.9961280667048221,-0.4721537628806352,0.007562906101599764,1.1589368395318203,-0.017889565093406955],[-1.738979294054099,0.23531733540682692,-0.7726306424194022,1.1911384984935967,-0.14906269948288095,-1.8242473527879224,-0.3314773152488201,1.28837797827394,0.6559198179540396,-0.8247296568674848,1.318656647149944,0.31742781033890305,0.17009991423675147,0.5819952953625389,-0.7188684078415041,-0.9499905812067856,-0.5392579130205255,-0.2870745396043224,0.1923685865989442,0.48212092761319314,-0.33851761805469044,-0.27000654544166525],[-0.7797067785792778,-0.27505087008199064,-0.1456313846415713,0.3503777787620826,0.7825116426428567,0.6367353003708399,-1.78139592870144,0.7575788336277703,2.71073150401384,-0.3283339204738426,-0.7854582553491157,-1.8025909581480302,0.799476882222649,-0.4688157243929352,0.8440275152487624,-0.20353494229930563,1.2603243137267983,-0.7912240890896904,0.2002726744567607,1.835310833408483,1.2083970560126585,-0.3536245877917924],[-1.7136333006331557,0.48508632506599475,-0.15763095310509298,1.4644793868816721,0.02989153375282526,0.5825923402657904,0.8240162702166587,-0.5012451264216142,-0.40569292886175196,-2.1730761158214733,0.9689207932460854,0.6860285137301517,1.2801833214133385,2.1660030535339616,-0.8395841377192647,-1.1478260079928242,1.4185956989484123,-0.3756988462005245,-0.6720355335436896,0.2948619526089564,-2.466728930474395,-0.18289395153792248],[-1.0740833855114307,0.13184585213459737,0.7460277909558721,2.1555321206998475,-0.9799526344695665,0.51536489524438,0.703463194331769,1.3141012692891634,-1.8843593341011007,-1.781114967636313,0.5332399159095423,-0.919850493698394,1.9668428387465977,-0.4630690097511387,0.856490892383361,-0.5223028497457608,2.0848366513317225,-2.287162658673582,-1.0988254710382133,1.1670618668102868,-2.071606002647795,0.09463116879345652],[1.3050695925561544,0.13247314188857365,0.16660570206006808,0.7711133508795229,1.4122605576735472,-1.4127173661409944,2.328070362767507,0.3063798604778864,-1.1822297085615454,0.05901491108890043,-0.28202793213269944,-1.975060149308202,0.41682044907571664,0.16339256756021536,1.4020357176311056,0.5790460501730544,0.23355311385661834,-2.258811722103481,-1.0975966417750869,-0.14583447617396264,-0.6798016685553214,0.20314699893527366],[1.2230210622695554,0.07308271659729981,-0.9545047600686557,1.2132387926793282,0.08780578189134725,1.7547560938488485,0.9018815699197615,-0.061383051189247126,-0.3468461148683407,0.17524557159829673,-1.7712440639784126,1.8976177842852657,-1.2825805186955455,-0.0425954417754519,-1.7686661390922154,1.387677543131779,-1.7217185075355115,-1.1078598038729153,0.47577424262587914,-1.629156496317738,1.5029633365526478,-0.42400930720003055],[-0.34779312515778404,0.3503068429152027,-0.46586601878176415,1.6089040301023483,-0.5636988470684033,0.8985806356299086,0.5927101045912943,-1.051311409253957,-1.401780228267474,0.40462595367016424,0.948370806755772,3.2097282216098524,-1.7186074076043492,-0.576617288038101,0.19023975064109855,-0.1928563195705444,-0.4868970463937373,-0.7984889437325954,0.19713523124632543,-2.1176630095534263,-0.4104615942281273,0.41096616788626855],[-0.9792088491612125,-0.3248340318398693,0.06479646810481224,1.0729157281211843,-0.2171684308275379,-0.24746133206864473,-0.963171252718514,0.9910366897354991,1.2167107812168885,-1.5862819593015536,2.2914408439995464,0.32477444677765893,-1.5273671029040845,1.169635318901172,-1.6950236768385194,-1.3040814190104415,0.4704762438905711,1.3404913959813674,1.1656342227856513,0.6933972607264501,-0.7451913071444328,-0.2401193751237656],[-0.44715755453610584,-0.4296992774498353,-1.1214250592247363,0.9010745826125239,0.49935536617871074,1.6629326110868408,-0.46863959355476087,1.3309433660534928,0.4679853547071195,0.04109355349711387,-0.20916757468591432,1.1214238583681202,-0.38246652252525337,-0.8449259696909729,0.09778156344201908,-0.5849567578823841,0.9082849945406402,-2.798346120162224,-0.3255292934738991,1.1499919788521655,-0.04451465438376141,-0.29215252758053567]]]}],"OutputSize":{"X":44,"Y":1,"Z":1}},{"LayerType":"fc","InputSize":{"X":44,"Y":1,"Z":1},"Parameters":{"Stride":0,"KernelSize":0},"Weights":[{"TDSize":{"X":44,"Y":22,"Z":1},"Data":[[[0.8225091049069438,-2.3382032643874266,-0.9462754250776709,-2.0593373485379107,1.4649643845335412,-2.662809499087201,-2.484237138844686,-2.1512618302476714,-2.6013958211935115,0.715235829245005,-0.2271367860318846,-0.2342422480570672,0.7066530592276838,0.714959155048003,-1.5612376144789668,-2.67680285041661,0.03436559749100738,-2.7813401542222453,-0.12176616388118819,0.2720671258260789,-2.385899649321443,-2.0125014093611986,1.0852510722667317,-2.26017588736023,-2.6163152265519916,-1.015688668555153,1.5010720418948322,-0.36381901856263077,-0.3547146449134953,0.4594773385583263,-1.4280666358132368,2.5888745501199413,0.5842832365513684,-2.4597619098373067,0.2572277450525979,2.4956026581630746,-0.8154565846674683,2.011218471166696,0.946362112688452,1.391493534474196,-1.4942631625162521,-2.1063475917320726,1.4857097695144195,-1.907425258435148],[0.06504202824606421,-2.2562778314655527,-0.2045000910613902,0.9371285839260932,1.6820939476320764,1.474892594731108,1.2937108712158591,-1.547121919194042,-2.204501243997422,-1.6652508828536214,0.6146452139386466,0.3278413303643819,-0.47660003617825897,-2.6940291250872073,-1.9866732824349034,-1.751239867961568,0.9227569468606884,0.42636124347465576,0.2976011422131112,-2.6173551097558967,-0.291674813173612,-1.2319921583842786,0.30915923961965264,0.6533711223217145,-1.3301040756565852,-1.2218100661091054,-2.170268958929451,-2.12674387122335,-0.07082893906331632,-2.5767632643544474,-0.14376041923348945,0.09878331744779051,-0.22058424671426582,-1.8237722727128625,-0.18162269218777374,-0.41122048958593427,-0.501413014336981,0.7348474002351941,1.6152768320678637,0.20784679833373707,-1.824475959707739,-1.908640438251013,1.0389521379792992,-1.8462642755275454],[-0.5396922834595215,-3.1471452339126365,-0.8863567107034974,-2.3947813416319215,-1.1296993827476232,-1.6206528128972228,-2.1638707658130696,-2.3912675463616444,1.4543245343203597,2.451235132733301,0.06616181163766262,-1.3195335141096436,0.34264268001540826,0.6714577853281476,1.7356413413409144,0.18371059160628944,-1.8933875259386437,-0.6341987905763723,1.7990921131474837,0.24015843056561828,0.6560921606235156,1.371839836494894,1.2768256706776249,-2.3950762146822804,-0.5910380695758854,-1.6113428602971533,0.5232833639875792,-1.6117829590336017,0.5722151558012842,0.019984608663692848,-2.6814513819480545,-1.2666297370398572,0.6288863515772116,0.9755994331332997,-1.9790320099134717,-0.24159856231729154,1.243194738819909,-2.0232253969203327,-3.3680028335842414,-2.0197762801731214,0.7927370930831004,-0.7148985952565156,-0.5068911236143179,-0.8807560729001104],[0.013422577223139956,-1.9358141750931883,-2.9433987065582343,1.2465261335913167,-1.3540375678786545,0.12133502877025529,-1.1304545478418873,1.7798987536285842,0.8147159710000796,-0.711290260760426,-2.421969291180662,-0.7670012993097879,0.553440080312917,-2.1711525473256006,1.6998118060233625,-0.4576853902349875,-1.2310354105592107,-0.3314872835713233,0.3601123473506772,-2.5768540692320703,-0.7182766431409394,-2.3247176826270097,1.1930091797345783,0.9705417106156191,1.0456192383834133,-0.392827984419871,-0.9910752632487203,-2.153032662046021,0.10582285918648217,0.7192282629837071,-1.8643800457729396,-1.4799186293639994,-0.34700118695888227,-2.3091486928165543,-1.436624358091446,0.7963268009385169,1.6192451113199093,-0.9884922458717738,-0.9902391475566036,-2.175347449616959,-2.281107678774821,0.499136429077962,1.0016807284139635,0.9193481740514223],[0.9613508744998774,-1.4837091793047077,-0.04611677732617979,-0.661074887755322,-0.8778061932217285,-1.6313099016315409,0.19429980296568253,1.3740076816013354,-0.6182967759966363,-1.145275523071762,-1.4198169310129798,2.0920172619112205,-1.7666965294332884,0.9966203089511776,-1.61545102367333,1.3759569494100006,1.4786748966394705,-1.6391808302710948,-1.7738083980826982,-2.0417806143836508,-0.0753667306125937,-1.4706967193839984,-0.3133068794521286,-1.3902469713719667,-1.6778879758159855,0.37823653626154785,0.9462628461576373,-0.6373082607699089,0.05715564316073917,-2.449402753703111,0.4303777352792856,0.7680604340019507,0.4411168751835635,-0.2056093294722692,-0.2457157483248042,-0.5154141814883089,-0.26543734355481174,-1.219856538721365,-1.2321441952767211,1.663662175239902,-1.4518503751886334,-1.7793551650134616,-2.5053237048068495,-0.798674082669654],[0.3578871539030533,2.1581002425122593,-1.904382261717814,-0.14783224883987797,-1.634155986952272,0.5763451652603251,-0.585177612720035,-2.2405314394848266,0.02189663034936391,-1.696660730211604,-0.2598241450539677,0.2333984330161071,0.5803050358318064,-1.9919453382723773,1.592313560344894,-1.8934872006627754,-0.3203160069884877,-0.09761012642791109,-2.85563871567858,-1.1810327664967302,0.32359246033270705,-1.4316514587162315,-0.0343466934891943,0.5199926620322707,1.8164288887322375,-1.2827822851144643,-2.1396568755984524,-0.3971640668249201,-0.19274433582123734,-0.04147081031127611,0.7769378464835662,-1.4942633355956114,-2.143163473566436,0.9377826410809303,-2.084393487110907,-1.2895847628682904,-2.629946426699628,-0.8245553797641281,1.4476884546754316,1.2349257673705025,-0.8642968990050732,0.025453199972461083,-1.2251664885401503,-0.9076028245627895],[0.8128670041979326,-1.1500456779110249,-1.606409276362113,-0.5275571112543778,-1.75399023692284,-1.1801041823061542,0.1354564018671773,-2.4307001162362547,-2.2135459996668025,0.186843989933318,-1.0337243180034756,0.41290189931042126,1.080525606843054,-0.35956157857428656,0.6125946727583262,2.3058541222870894,-2.66433692218643,-0.8470897964186526,-2.3853584089628828,-2.3049357832167727,-1.2362346172607963,-1.0047049848087735,-1.0072533385041975,1.648406632256944,-2.6614508843566718,-0.6472127126331445,0.3775854297481755,1.2513741703092773,-0.22749674182864676,0.5951365460549044,0.1629448980122991,-1.334787426208759,0.7076341532726198,0.7723722546210394,0.49495907659408156,-0.611865735346961,-1.9392800267032664,-0.5537435534505464,-3.138391373344602,0.9027110229415126,1.3758570657949143,0.9823088932390214,-1.8672392112911105,0.07700720389837169],[-0.27974773567411526,-0.899939002854543,1.0629626991585244,-2.14574077467394,0.24059683828881442,-0.6576694982044895,-2.273424531916741,2.2284838350754046,1.5646254913539661,-1.7485558589824002,1.4053039948324089,-0.8456784670837103,-1.871230469185081,0.7352865014249603,-1.0393549811409313,-2.424691656722737,1.5366374889503636,-0.21819731521536526,0.4750475939060483,1.3012384211300427,-1.5513145632667982,0.8968170186940089,0.22097872119186446,0.3601245013432329,0.15868886099741522,-1.6865451232721929,-2.517107989791958,-1.777756673528365,-0.7139017618625639,0.2472368672270159,-2.170374611186925,1.5412430611606616,-2.735516284894212,-1.7974462533794044,-1.4805010090119204,-0.6754250291631282,0.6575644285194702,-0.1124712740141665,0.507302293222711,-1.2550453387934808,-2.9215363705742363,-3.153676177732258,0.9771571035855843,0.7750883926282824],[0.46926111544724564,-2.5074440887031186,-1.315002476644214,-0.1285506362302483,-1.058733279573184,2.048204595848214,0.8744423009422493,-1.9245114650049888,-2.29515144502762,-0.3572296415277449,0.45608834670615916,-2.8409646509070368,1.2746789017717153,-3.4561811941839675,-1.6345590121321023,-2.6355629380215793,-1.735896906547236,1.2203002477256408,0.5775840689519387,0.13536555677864764,0.829401885991744,-1.2479393841345612,0.08450799992174682,-1.1454291855934464,0.42848775056676,1.2072761745244711,-1.0342263315892293,-0.26307497020608406,-2.465957704995592,0.5589412115835938,0.53847621249769,-0.6626215049143879,-0.5863860546996543,0.962759574909452,1.0432171528297516,0.4524290882481615,-2.9765172896562215,1.1682287112786234,-1.8612924636296406,-3.2724299219952377,0.16515519049677999,0.9576405628916917,0.37573548842997356,-2.2642711072214814],[0.013622835286539863,2.200520960935992,0.799463415107014,-1.8362745448775586,2.0952077087744265,-0.761665382755851,-2.3661252361666056,-1.6873959075405804,-0.8683152581577529,-1.074817667536952,-0.5165382117915047,-2.604413220141724,0.7525758242235241,0.030349775740993668,0.0817263013075798,-1.94427209358397,1.131862969870662,-0.7966361320316074,-0.8313138423515011,1.3197581980056696,-0.4922001328485104,1.057377684735678,0.6546691483202884,-1.4408222962794288,-0.060672362417686455,-2.0533002444844577,0.22608639911085085,0.6912438638205886,-1.8882137622124373,0.4666887691031146,-0.5561980580193405,0.6838550248952147,-3.417279199994098,0.06423753532361799,-2.82510577528078,-1.5281304554652706,-2.8647428653895255,0.3627273097442003,0.9617800130253082,-0.8578284721566102,0.1635583907060362,1.3086394976451001,-1.5303561706406255,-0.9488373487221151],[0.7503531818617866,-1.7895864049881165,0.3747023858538447,0.05070070958654506,-0.5058683929569567,1.4809662696777974,1.1940177531940401,-0.9870851570606521,1.468438119339606,-0.6726563713407436,-2.2956334849976723,-2.782950692332884,-2.1417817085461475,0.22270532813988148,-0.37474380667841745,-0.4147576430856503,0.3614439206270348,-0.2947810853071439,1.3241307766083077,0.30941548261099755,0.2177509737291023,-2.487403979019896,0.48312635734748094,-0.9640022410283201,-2.385633651246032,-1.5429148461963664,-1.168095762423477,-2.460756800488013,-0.326112512400886,1.5951595713126612,-0.0278010524876929,-0.9268332386787913,1.270927729236215,0.8990009189087688,0.6092906277722531,-1.0615502857602575,-0.3386344127355774,-1.7712227812575512,-2.8057744354424927,-1.7419193622907392,-2.0445214076185936,-2.313333217442957,1.0466383936960948,-2.537455716771714],[-0.04565392038072386,0.6061697118316579,-2.8843499325139748,-3.058272248466659,-1.642516166874865,-2.3184226450916157,-2.2276038917752077,0.2881170224072749,1.5751013792281947,0.5712522800318103,-0.126430769805901,-1.6466780504987424,0.4152462039543614,-0.11524064919689206,1.5284706713773648,-1.6783042746517811,0.172592550638621,-1.1098433073746659,-2.0839699330266375,0.2918203416352493,-3.015707885181038,-3.050406840437237,1.0565264339140752,-1.8175638498817241,1.1088810117632593,1.3100474864133542,0.8237485157391577,1.3642942102152162,0.1217626255378065,0.5528607660859868,-0.020031409685291126,1.6395195003151595,-0.4090058527350539,0.8662859543471797,-0.38083022910011616,0.5582356722749816,-1.7500150046144312,-3.091315567076476,-2.9640080631981385,-1.5101088799542377,-0.8550314984023167,0.3118943083797665,-0.09433690789838582,-1.2033473744071945],[-1.7451206778991593,0.514895165834386,-1.0790879207844397,-2.0418777159521637,1.877195820247232,-1.6318268741183197,0.023858000374315822,-1.6100943702596726,1.435896904218134,-0.2881243085897906,0.6491078791312814,0.9013393509320466,0.5556805206395459,0.9658763448704857,-1.9907209775406915,-1.8656987185757672,-0.8515063128371726,0.31082709244104545,-2.2224927987208942,-2.5882169837174165,-0.1720392471176706,0.4392453540083619,-0.23863026852220412,1.306895840587202,-2.0148250400835366,-2.2513485371757125,-2.692186300100231,0.5220562895002333,-0.21943390740729238,-1.2425774888757506,-0.40349430091724253,-0.5482377418261968,-1.8542340236989896,0.6668342003466702,0.9364331964908299,-0.8071297499775847,-0.4362631161644174,0.7678642613710677,1.1729484809074575,0.3706726527072312,-2.1126884293722665,-1.6838299140849948,-1.0590811888580047,-2.0047851996513097],[-2.561922325344745,0.84374070794209,-2.0986539144190224,-2.655726011704555,-2.3414417377087418,-2.5597478086895626,-1.3525153210453595,-0.08382693677285363,0.5129476707964757,1.4565368421347067,-0.4393131559183287,0.2757193116998695,0.06323062883550036,0.6842237436836418,0.9749947795841781,0.9456202329974366,-2.581918212205036,-0.938044588742175,-2.304016674830472,0.16772005278111662,-0.8563226420590164,-0.026397532190791266,-1.6674333480114525,0.872657879158486,1.4108921976641235,-1.10254470983471,0.3119064688791885,0.8700655209622383,-0.09275259328985778,-0.6170534509669015,-0.30953049161270585,-0.32601190859487894,-2.3070827720632354,0.09376422214408146,-0.9847984130393197,-1.4000442474151769,0.8288506575073641,-1.3799429023296608,0.8373569701999598,-0.8571012476598052,0.3280185142378096,0.7063767928061426,-2.560005019724735,1.1209641542514315],[-0.2941137995573295,1.9019518985744883,-1.9562722511381418,-0.7318142248316568,-1.0163805041707614,0.5074613321699402,-2.484500418667815,0.09250650303462649,-2.505611789765038,0.059346857627765134,-0.5128289215295311,1.0472335402991229,-0.19983002214551504,-2.174070397566944,0.15737281598438924,-2.0839203454144983,-1.1795139591092252,-2.2967950223972653,0.24419458480419617,-0.8812786494889616,-2.5208359906313085,-1.664673286973946,-0.6161841251928668,1.0530815487019456,0.3765831840874836,1.4300190395211916,1.4110007007016316,0.07722601040071089,-2.6322452301453936,-0.11646264022520003,-1.6670908095505053,-0.02562902008678345,-0.7666797262074216,-2.197738060466789,-0.5961714534502157,0.4974815865773178,-2.040683596813301,1.3819363059008527,1.4416569936995236,0.9222768558863721,0.23720111929520832,0.6313244374154313,0.3218240790784365,1.1491958218012357],[-2.685355712920571,1.2635902630551001,-1.5252169760251,1.029817568595703,-1.577145527230323,-1.7185846626750576,0.6096876408317412,1.3620439320003512,-0.6749133182456679,0.09195931802354419,-2.0591856633772827,1.8798321363172823,-0.738801981514978,-2.153782425669096,-2.057819272149993,0.08611969161473777,-1.1487763333335237,0.21880308107165014,-1.3658214598552252,-1.2146698408520222,-0.1995862704438718,-0.0014231295692675927,-1.7222946938284882,0.6266689560594036,1.7142803272004463,0.11084825914283308,-1.939931090195055,0.9015427882330573,-0.6830006620730986,-1.860459677215169,-0.3562445626607335,-1.6177918345203566,-2.2187102252923916,-2.2547497609300966,0.9964606081894782,-0.08806292480735081,0.7043437257358433,0.5899561675474141,0.9451932389443567,1.0007210531640076,-2.396749363967866,-1.0052544028339718,-0.9426962609707701,0.7947552751910737],[-2.6332808654610877,0.3462186233478872,0.2550572796256539,-0.04298745342537729,1.1303176847340521,0.1945229824296739,-0.03425072578589413,-0.04324085548343719,-1.8745539655789913,0.4485557624729916,-0.19164043985086418,1.2756975880060866,-2.2311343471627634,-0.9594595133683703,-1.8149009994309089,1.1027718984287211,0.7318126642547805,-2.1365625411475535,-0.08934479946413038,0.6589469135466383,-3.4140843121411164,0.451598712437535,-1.9906991555845166,-2.11445464768171,-1.0128286541417706,1.1956599979912823,0.8146639754656136,-0.44000512597087676,-0.8068916133905214,-3.1272276156772887,-2.257686151557182,0.13749569676104587,-0.13854743020278662,-2.5200975853025005,0.33672901709445485,-0.2235203953276588,-0.2526981598250999,-0.2316299299446582,0.5980318635734903,0.6816060292274625,0.7583526044677508,-1.3947999334629921,-0.09029628119636092,0.7369892412633294],[-1.8350693470814827,0.9043072347249118,-0.6098320954482399,-1.516685459510154,1.361355335655746,-0.6836109593542614,1.5247547689698218,-2.0420148847096202,2.089808108119556,0.059629731242317116,-0.5053296153832197,-1.2981696210207387,-1.4916288323202211,-0.8541637610977079,-1.6904751828319096,-1.2591544421055287,0.866988177596375,-1.2659902350118526,-2.9910462508181586,2.3757862277204347,1.132100742282097,0.5023595544544137,0.47510831169453327,-3.3304464360364983,-1.9053514117139985,-0.7861453218097033,1.4551439710450595,-0.015700699640766196,0.4851849475718756,0.305864234267295,-0.8008002170830212,-3.4480508932708496,0.552108488131618,-1.2984928513875655,0.3627150281998909,-0.9611760608972637,-1.5924308165817997,-2.5710258516460893,-2.70340040655076,2.1148146586472616,2.6279180279360754,-2.1309069173313553,-2.5479372289597086,-1.4307065936097307],[-2.5764913639843297,-0.2871975928361184,0.6501403806883757,-1.687273855391406,1.2305260393968147,-1.1946644089468808,-1.3241549369558692,-1.4543926850908555,-1.3164311976886152,0.42734602699895696,0.035334675784616736,-1.8409891706235884,0.2630852539456253,0.019181106000330125,-2.2876873375908757,1.1108918846466553,-2.2577024284519545,0.175722379375731,-1.184329033755081,0.21752874134640662,-1.804237289613274,0.6828201942727745,-3.0505251154398754,-1.6501032398259803,-2.2237396541782015,1.1621137766890952,0.6597946264400273,1.2036348637618288,-2.0414265994104213,0.6269154155527443,0.19315191799578119,0.7427478542960203,0.8138067609531555,1.0746464814248167,0.6108306699038831,-0.39184119414550017,-0.30109015434675723,0.004483139650806385,-1.9486127243555074,-2.5716213287243956,0.2722201259033886,0.8722241562683519,-0.3211866133116209,0.3677312555964387],[0.28812748597459603,-1.282112980426982,0.8566742558694872,0.040477610670261885,-0.9770089995490906,0.09700443028036952,0.30084848156173716,-0.016397719793772435,1.6749899610192758,-0.4680977804447841,-2.2990781980280306,-0.6895809509440897,-2.019609153803412,1.3906357818976578,1.3403111044165663,0.22927539185617082,-1.265595495996727,0.008825281062876852,-0.06696617946296698,-1.781852542710537,-0.18400887581687592,1.7456107232679923,-2.2435658218522536,1.0877398266094442,-0.810000852238846,-1.3157524431240069,-0.9990104914406466,-0.9724973233819231,-0.5667323736469487,-2.438806109151361,0.5386163301268966,-1.4610889700994838,-0.40983487811750685,1.4568347952826293,-2.5483883468826094,-1.5735822774524915,0.758666874480863,-0.30774815289950586,-0.5402082151765344,-1.136590913798688,-1.2097507785129191,-1.6307369551546271,-2.8036363249521727,1.1800415215681583],[0.1408419692592804,-0.8469618700869822,0.3439806216821301,0.31209427199833295,-1.6564108170169967,1.1967112635244201,0.16228701369461102,-0.06131558431150568,-2.1137677390536505,-0.816304916460852,-2.1415970603904593,-1.7372264206657841,-1.870465513663385,-2.418804667946193,-1.9821881425872858,0.31783384630021944,-0.29625907725830586,0.227576773509937,0.5731958793017393,0.932036316922477,0.31258008286282035,1.7850449169401137,-1.8547883952092192,-0.005538314723223235,1.1740280694376979,1.7251854323207074,0.5312174796783161,-1.6226197341086241,-0.14614858527896624,-1.9351495116941133,-2.467499793113768,-2.8386950198462544,-0.8413364335191936,-1.4583327725843895,0.4922977619012425,-1.2118399417916852,-0.9565020868929969,-1.0837651644425292,-1.5798911416597132,-1.3225822566248728,1.3121360451757493,1.5074700133334904,0.014431249531790107,0.7292506570202247],[-3.4953192751266227,-1.8023704191746386,0.6664794643279817,-0.04483858899383375,-1.6069754183527054,1.971705969838351,-3.5045209688672636,1.5861642251776178,-3.0429795348738993,0.8929209962039765,-1.0657562561093359,-0.2724828204736258,-1.451578490418471,-0.14469108048665322,1.1983510986391637,1.5916204972533814,-0.3522668441415791,-1.5325680329573417,0.17757025642235214,0.754241657795029,-0.6589768078827472,0.645929594905823,-2.24902031269518,0.42293209688921496,0.4792605912864616,0.5525117287127912,-2.750056416894473,-0.16276392034145307,-2.3686782586580755,-2.3390816092874944,0.5641035496520647,1.1858827223935966,-0.08347083226287207,-2.6069241947529695,-2.77355436715576,1.189543498782702,0.35082460498941814,0.671776541468353,1.162541197832795,-1.900289642845888,0.2697586569725668,-1.563573551604549,-0.5016750083828414,-0.13929740307081934]]]}],"OutputSize":{"X":22,"Y":1,"Z":1}}]},"Parameters":{"LearningRate":0.01,"Momentum":0.6,"WeightDecay":0.001}}