{"Network":{"Layers":[{"LayerType":"conv","InputSize":{"X":10,"Y":15,"Z":1},"Parameters":{"Stride":1,"KernelSize":5},"Weights":[{"TDSize":{"X":5,"Y":5,"Z":1},"Data":[[[-0.08131771917802798,0.08166591738451609,0.48087330855097377,0.8997440382401909,0.7452265478686885],[0.19210435509190973,0.3697285810700173,0.6902660525811954,-0.07606952538897654,0.44344119991881287],[1.0801942154900943,0.5894911436945136,-0.10969919149373228,-0.5864860569245447,-0.17208453798851492],[1.0578899885804165,0.034764259003392625,-0.29788366558486357,-0.7018460932896147,-0.813595608235183],[-0.06392386880931969,-0.29271626167321335,-0.1352830563135902,-0.731568176501146,-0.8708956068332381]]]},{"TDSize":{"X":5,"Y":5,"Z":1},"Data":[[[0.532214391091779,0.07340951381615048,0.03696761106457577,0.46820145392891893,1.5177157145686855],[0.6271948384646373,0.20342993538678905,0.24614703943430052,0.6239179737576933,1.5387190301435167],[-0.062341087241810804,-0.5665138778040859,-0.46228993654554623,0.5834292500202356,0.7313339190600208],[-0.9731686907946253,-1.363211760319771,-0.4335546205353087,0.8260865324545057,0.2033077602824671],[-0.652656609984646,-0.8423966671990483,0.0735720182528687,1.0555551857335925,0.33639937184909896]]]},{"TDSize":{"X":5,"Y":5,"Z":1},"Data":[[[0.663104971892476,-0.29172199864497317,-0.35251738048837256,-0.32628716313986594,0.0982112574923626],[-0.16664208253268167,-0.035447538181606585,0.09596826523543014,0.1848480608742155,-0.30409933605456],[-0.2654144114737752,0.10649416041311806,-0.07001655897997332,-0.34546552581546097,0.00783998299898301],[0.09332796348934042,-0.05462300432964459,-0.26658911946163566,0.14774915277038228,-0.08391484019874648],[0.10645146332757768,-0.06815433074625223,-0.2824594576752333,-0.07241625318481382,-0.3077119686780011]]]},{"TDSize":{"X":5,"Y":5,"Z":1},"Data":[[[0.663867286864899,0.22185509312561505,-0.22938397316401027,0.07258689369449978,0.9316684293874303],[0.5687585243264777,0.606199775405064,-0.08223511826262214,0.2546564902200521,0.5549872218261137],[-0.12193197695940294,0.05589534616141578,-0.20575653767421861,-0.43128438082116644,-0.9368918231031091],[-0.3018284560651061,-0.09810522758764709,0.044610139192569766,-0.11708887519581963,-0.5096121864037453],[-0.711852512185427,-0.17356326297400596,-0.14158265016171728,0.0623179253200152,-0.06513097610465736]]]}],"OutputSize":{"X":0,"Y":0,"Z":0}},{"LayerType":"relu","InputSize":{"X":6,"Y":11,"Z":4},"Parameters":{"Stride":0,"KernelSize":0},"OutputSize":{"X":0,"Y":0,"Z":0}},{"LayerType":"pool","InputSize":{"X":6,"Y":11,"Z":4},"Parameters":{"Stride":2,"KernelSize":2},"OutputSize":{"X":0,"Y":0,"Z":0}},{"LayerType":"fc","InputSize":{"X":3,"Y":5,"Z":4},"Parameters":{"Stride":0,"KernelSize":0},"Weights":[{"TDSize":{"X":60,"Y":22,"Z":1},"Data":[[[0.11103624805322869,0.05460329172627921,-0.17648485726539845,-0.36550351937040204,0.001667490774617188,-0.1694864558356299,0.15033605442063552,0.4067430656243458,0.00875129905793624,-0.0760208565092271,-0.22688220273578313,-0.16282392252938935,-0.03547135329313619,0.0731342588862267,-0.18578597154604962,-0.16837697957714054,-0.24421089343303337,-0.009354352794666619,-0.27266795061431165,-0.45192733559891884,0.3363540264774842,-0.2959663045174843,-0.12917729103361375,0.5572303416169492,-0.547060724340366,-0.7585634386716742,0.3260336714623071,0.03435573997946783,-0.180475123683933,-0.017349466144271387,0.2962294316081279,0.20428812699093205,0.04250838797558456,0.13452000050445112,0.0172390822311473,0.3068386407547346,0.06662281541279957,-0.3814082951382804,0.1439169494093663,0.03553142759614033,0.21715441887318115,0.1517445795226204,0.16512932681699216,0.11906947695824507,0.23028236149926853,-0.0913613320380529,0.008212170617998105,0.262716958852629,0.02122251058003028,-0.3338545661768841,-0.341520482893226,0.12573395575384838,-0.23871412703936945,-0.39687238412138337,-0.218942561933601,0.13093441146178342,-0.17152934592619343,-0.20001398117984676,0.1369087922810372,-0.12357390489818543],[0.25625289651145233,0.22088179014656834,-0.24740810321066836,-0.30252322767668877,0.1045133143825607,0.18688985579515516,-0.28185281881814916,0.015192044944345054,-0.23667542691511675,0.07806564947536432,-0.2090885211025612,-0.26272151262862864,-0.20015671523636158,-0.1362923031929819,0.15090434389996135,0.06062102328708058,-0.4704829639615705,-0.11979183628166001,0.13231299035234492,-0.01299975693281229,-0.05447206617020313,-0.15305126444017664,-0.22884133390340913,0.05292832568890247,0.022776227103013063,-0.43329602327385347,-0.13312604399075642,-0.0531283714508812,0.08614730029958752,-0.2773882261617072,0.3212260685407775,-0.03050061061473709,0.025124119182603006,0.1535843570420045,-0.06914585118293305,-0.3021321369715802,-0.020954583745996094,0.24695743171245543,-0.09667801320105165,-0.1355727069350866,-0.15365487541344708,0.11759104764889657,0.17476520216572405,-0.22176660932113734,0.25079339665374034,0.3121984086546354,-0.232902050242272,-0.29357366285058256,0.27222162906845204,0.2916609791646149,-0.052107282933826875,0.18799630606968612,-0.151739924439042,0.013052519848576943,-0.055737305978458516,-0.15199552350913084,0.1898490510713473,-0.04443104746150557,-0.32096811640730677,-0.2943191746684071],[0.170036357790602,0.3608047776158725,-0.01665277034284263,-0.1853195562416045,-0.026105447351133043,-0.41567013589033003,-0.08076743767975239,-0.34089173180880483,-0.25115383490116316,-0.3473248627204756,0.1742742686291073,0.5141157123100805,-0.05649283030557351,-0.08000599286560166,0.44475648439767856,-0.3965256259766196,-0.043330831581183255,-0.38175929062766994,0.09937080714842873,0.006041402688994349,0.4717285325482091,-0.21746382449270724,-0.20488936888813641,0.04045555079574336,0.09502278146548615,-0.1504090931507137,-0.39589611015444376,-0.09764088317062324,-0.3472985998934834,-0.20367056032798767,-0.0638181539251473,-0.22764737667741186,0.31661917916422516,-0.2660275350829113,-0.12314211551515036,0.13443736223809116,0.08045434250362359,-0.29583764249534283,0.05108467139849581,0.29443112558998125,-0.2929188094462868,0.05182815414656898,-0.1886245879237289,-0.07122859014866209,-0.03909206766759429,-0.18088850309183993,0.0660949079608099,0.19286219755727468,0.1068551735036091,0.01698768198572039,-0.3394126565453331,-0.22595132295528786,-0.2927542984334164,0.01923710370080888,0.04594737003837248,-0.3156405001035749,-0.09552887000116539,-0.2922646960077897,-0.03907630712914858,0.21325820675086163],[-0.1465166417119575,-0.4341712029684778,-0.27510438882203403,-0.0825659644240052,-0.5633839453688486,0.042903816876764776,-0.3974873895716714,-0.3612316286452676,0.40388357133226077,0.002826964157396901,0.250548753193604,-0.3589602481711396,-0.32540347699790473,-0.03076650225773234,-0.35849541108495636,0.07147501358295132,0.21540626300779764,0.2083584544982794,0.16382037431179275,0.38639525068421027,-0.1632112854130539,-0.2133818514569357,-0.059475753735695525,-0.3361034386312772,-0.26188981596390937,-0.03963515260283705,-0.012294487050779136,-0.4052564305724984,-0.12315639331583632,0.30172704435124087,-0.29840979501308085,0.29509115013943704,0.3113136749258363,0.22986152768617005,-0.2723559143167849,-0.041198213737744384,0.23821196975394088,0.14492539262685375,-0.321133177415256,-0.033560512172503304,-0.18305747123957858,0.0445354502196571,-0.10681431930057678,0.008342119739637183,-0.2695089856946575,-0.0451122074489071,-0.10978012336738853,0.11763389167816081,-0.1401101211539942,0.1257692879538461,0.20295734413438074,0.09442179003758845,-0.1521789803978131,0.07798713666350959,0.1602897093769845,-0.0073241401114263315,-0.3240558258770369,-0.26561708389186994,-0.14763782726880237,-0.04751171652731204],[0.22088850810404384,-0.2653636357673561,0.21207082472699354,-0.1460099607401108,-0.23415802491879656,-0.12282756077754456,-0.1226157612548148,-0.006385410550216075,-0.09614518667128104,-0.27429368864984827,0.23024911887865637,-0.07152394196684045,0.11495187194950338,-0.04619494175645851,-0.10570391820347498,-0.15293339332253147,-0.10553623928168615,0.06232745102243574,0.1253681465778079,0.021098616664288306,-0.1496834544662732,-0.10244191150940454,-0.3271814119486629,0.24786487561592258,0.13968079829667435,-0.04634959809341612,-0.3752666629813811,-0.04393561968942677,-0.22337046190201618,0.02018203758509652,-0.009716654108800562,0.07725060826237086,0.034110545003898686,0.08455622789425442,-0.11772523316640691,-0.07779138401395025,-0.030098188040134994,-0.10483801066830804,-0.0995020148067178,-0.1607848100398021,0.014186671010689085,-0.23560721083528938,0.02001101290376738,-0.11980317089644024,0.025329719911809146,-0.015829356573279368,-0.10366421662294024,0.029531912052462878,0.05460335382083357,0.07518198790605411,0.17399477801820876,0.2676602804692778,-0.09610123469981312,0.10492864719389777,-0.05179406435827132,-0.1757842169652308,0.1111375389910221,0.25946351896858505,-0.16728526746980182,-0.17786000103813154],[-0.1754101978212462,-0.2745824003179766,-0.18009580932019933,-0.04909780198507043,0.10267686998574452,0.02083003897460163,0.06874836569769571,0.07264447738243848,-0.19540074574283597,-0.29242382475345624,0.05378146078349903,0.1681638764707859,0.09917039173217719,0.19823504161919353,-0.33417641880998566,-0.08441755696997806,-0.06348956145951906,0.15698384078151226,-0.04831879828897048,-0.12784803444508921,-0.37055895031313696,0.11073598779772809,-0.019894952285496457,-0.3327699943657436,-0.37284846577596015,-0.34729839199905643,0.11481241694270237,-0.027461739994900675,0.022133693284140298,-0.2324176874011451,-0.20019469980277466,0.042670706253256266,0.3036426813933346,-0.25355842273432705,-0.12518317931312753,0.23649201897070796,-0.16808497734009112,-0.290307711169057,-0.04062340261505521,-0.07217654294896929,0.08960343339727082,0.26225020487918693,0.2650524118001937,-0.019488410330505884,0.04594663940466985,-0.1639966655387452,-0.10224654309599512,-0.17614294590864027,-0.22035342403448105,-0.2401140479868933,0.1732247897605501,-0.2787652741958997,-0.18768576368297224,0.09284465417950864,0.08623871427046335,0.03956673755156057,-0.23886734151610972,0.06270296535589495,0.08999732730552704,0.1480664694872068],[-0.3037347413668487,0.188482021279564,-0.10932731520414908,-0.2900231053693506,0.20450859716823083,-0.23084364356104897,0.10631299282109433,-0.22032651794999253,0.09574565143510734,-0.08180406693825151,0.31393904158888686,-0.054593428209153305,0.13066085560502103,-0.1302118055919014,0.03551102213973906,0.3192853785494877,-0.18567419121470483,-0.4397291919776138,0.019614158218754178,-0.37089621965082165,-0.2982652674202501,0.00008138905067029835,-0.3630078576058613,-0.3500249544008551,-0.3056152049214447,0.2979168966236574,0.055661593533261396,-0.36442072270104364,-0.2373199962631074,0.19281420718563672,-0.11952329267172154,-0.30616686348678307,-0.2592316097245127,0.21051746160855436,0.24164442769402283,0.1650414829685883,0.30724563383865644,0.21978431996869946,-0.16527518905030525,-0.17978382344734675,0.178852384646189,0.3044858435412704,0.017530887267788637,0.24855566347929772,-0.05657511393844189,0.25184444026870256,-0.09285767927614058,-0.026303573446810318,-0.11713063172466456,-0.014984879117276141,-0.06831452684689696,0.02438040121741769,0.19065212431209475,0.07479176047273065,-0.11386348096142951,-0.23533696699225332,0.3031551140482905,-0.13596881218357465,0.12097143656787974,-0.18198878921060735],[0.0150032851911176,0.14289408699556225,-0.223622423327293,0.12888707102176458,-0.11678734392648905,-0.10768550351077759,0.18640139971235412,0.11951236969652237,-0.1058112512995259,0.0694023890275012,0.21305843769698157,-0.31485086322332706,-0.11136980309044098,-0.047895771695237115,0.18372524780117658,-0.045631610876502866,-0.3698662965341763,-0.237689651374261,-0.14704450530101307,-0.2154417170541022,-0.05029092487573698,-0.21341592481409735,-0.00996968056134118,-0.20276438342315067,-0.4163570152367367,-0.10637836206810511,-0.29192827017404543,-0.18782612336931945,-0.36202842731341683,-0.2910339018721219,-0.044471113223570606,0.26943685547414614,-0.09681794194276547,0.09219251991288367,0.12399771116787407,-0.018439159797463158,0.16968994934194,-0.23494503793452287,-0.1655082639126464,-0.2238110065909726,0.21162470529357816,0.08294276175348565,0.11521241458536395,0.15673107284639834,0.11226628155371562,0.1305970052236422,-0.1926010224924381,0.15917923966718303,0.16590530279936164,0.06905560016693436,-0.16203848162114506,-0.005836260717577597,0.07884421012065251,0.1922447049043884,-0.09322922189948706,-0.32026450519572214,0.28201562411480724,0.259004650833751,-0.01527557170563125,0.2406354710080512],[-0.007389840241336946,-0.2009961417103672,0.12629644181824487,0.00580213896963356,-0.15834962247079984,-0.024182315364238496,0.22302304081993427,-0.04342408378374861,-0.3111239237383464,-0.28378905388625547,0.0012482804567014668,-0.09779464630479372,0.11344277005940015,-0.3330383756506965,0.28353404905325924,0.1319145240898357,0.015267629370083477,-0.3698896134984357,-0.09086770085957456,-0.3034627887146945,-0.14914242354927335,0.08186274910711942,-0.058616117375095325,0.02449502254950585,-0.39400384476691636,-0.07945243954799426,-0.211343238486154,0.152482464515727,0.0012090664334866497,-0.23767446929504596,0.14893141979546076,-0.12584551552992082,-0.12305401646039782,0.005457575307892139,-0.0227226655703128,0.23757588698008122,0.0445263325728848,-0.08671298281304742,-0.1744281456498774,0.023959210723323073,0.07953323871584116,-0.31186932068129614,0.054869204450456684,-0.2669286951575312,0.11535749570958163,-0.0595903693658813,-0.04203022988755102,0.18643071809378733,0.2219771219976173,-0.04684562040683161,-0.3014586299446213,0.303366489137147,-0.040845421771753876,-0.04684067021320944,0.0878781838420164,0.2641297869903675,0.19564134013566106,0.01610804280207491,-0.11769992034254266,0.311754052661679],[0.03493048947624227,-0.21768474470982704,-0.1048207536402931,-0.1680571425083386,-0.3253031425135462,-0.1457746837362072,0.2454156858883462,-0.23303897196499315,-0.039286309728951835,-0.24303007412732458,-0.13917765753034586,-0.2024754019787181,0.2667945272017511,0.28987649887329564,0.09332669131560982,0.14045573178819495,0.10404086193256044,-0.280983130782583,-0.006920050464241552,-0.09195830993350694,-0.3444971661147729,0.17421424035895858,0.017218588804952317,-0.20864910858119037,-0.03195827403062405,0.04372261976597751,-0.4018299070307613,-0.15602483339647366,-0.4242453999886952,-0.3195238954703932,0.2992217925232393,-0.1174476856609739,-0.17382730348151948,-0.18975713524948085,-0.21614445634324683,0.31786821183402353,0.26060776970988203,-0.26117972005799484,0.1489471386260591,-0.1778077072777503,-0.29480308193405425,-0.07753447586760384,0.22928573774196667,0.011181061603501411,0.30422201373007857,0.21222321767847319,0.29255556561736845,-0.1508832891273166,-0.13767131426762635,0.09053305192029007,-0.15129283633752136,0.26515531423071487,0.09527526508023265,-0.07478434140593358,-0.13989960728943301,-0.2113613724709196,-0.10905977253056143,0.007643487118653917,0.218472884267223,-0.2345964727305683],[-0.3309556329983984,-0.600272006637434,-0.17202061532521953,0.04836979486954499,-0.13938126402556406,-0.3445640742955692,-0.2985678084768645,0.46423949035645834,-0.12273544032640234,-0.22304454404570653,-0.14923005560757877,-0.0832197201353481,0.10435686596067896,0.2527000235430185,0.25880168283650445,0.43818963167530217,0.07808738676597851,-0.520136761218322,0.14583359907193544,0.06550512347348793,-0.08198491188214527,-0.09776259953036455,0.19720809117764776,0.041932296439359085,-0.03742175999927867,-0.15937793287216384,0.16175132592146566,-0.292663469740939,-0.38633054423256236,0.10928464205432901,0.021832561027566925,0.1390516853698457,0.15981438590731217,0.25510936948768537,-0.11636674131140003,0.14487241923014743,0.03354848766586031,0.0986518770606629,0.2848497217021015,-0.2654014245756632,0.2546293167194261,-0.04928088889334529,-0.29680256927439247,-0.1672792863187891,-0.005681028374796405,-0.201813832544832,0.20650003427459923,0.006471067012108513,0.08591496753253004,-0.1569580075475633,-0.38550357785887596,-0.12385760557650308,-0.06290772998297237,-0.1660461714167571,-0.21331441971260418,0.048078981158347765,-0.15055588094511851,-0.4039382811604817,0.22208432485307375,-0.03109174849192708],[0.01938863139830085,0.014174286260577991,-0.38218472932822606,-0.17145304780023155,-0.2156342406381158,0.040990832774124096,-0.6735491758870684,-0.0777985415221128,0.024154910397041596,-0.085382888390742,0.5108403988332928,-0.058300081767214275,-0.3914091850645797,0.09192438976242505,-0.35921598831163165,0.38876512284682724,0.26325105165723767,-0.7517362444294188,-0.40403592122253895,-0.0013510525426735775,0.3169429641073096,-0.6703960464351214,-0.8452363126015063,-0.2164092803669792,0.003260435180492929,0.22007791238208524,-0.11814579176120973,0.29188092400659643,-0.15025230686192587,0.1719844811391952,-0.27647081510488275,-0.022538502383328288,-0.15590670084445474,-0.23008024867075386,0.05383160103167781,-0.2865361762106736,-0.2321962267532189,-0.031272139068638474,0.2468212880329719,-0.04459562444708019,0.0023157468723688573,0.18803525155887504,0.16614596689853792,-0.05845638365056833,0.28760141734932176,0.27538658183413717,0.393802558768739,-0.43586872207716204,-0.0939847239311864,0.3328318558967873,0.14761319931304692,-0.18761886934672933,-0.13863332330802042,0.18674788070232132,0.0762168945375249,0.208995766864505,-0.27077480945031734,-0.020297068242912473,-0.030750844113180544,-0.014503607211176437],[0.24498198051668005,0.07158958005641657,0.16165742034172606,-0.08892881313298724,0.06231259108227193,0.029598694971727204,0.2725152666217625,0.17325196229780596,-0.06600237781601648,0.20571420076079386,-0.10511931351455321,-0.12224080888835945,-0.12252088533909525,-0.20791848800895607,-0.06482941663239958,0.23561408127603334,-0.30962117356144825,-0.07625861420499815,-0.1209126235867771,0.08278408249857538,0.20062200571263022,-0.09747270677003596,-0.02233308860148582,-0.10993625104969124,-0.11292985111273039,-0.29806390033178787,-0.523238580191216,-0.0595741642411835,-0.2006551403095477,-0.5364044363277717,-0.306040600271796,-0.04652895251982545,0.047388349898121795,0.031760215907772206,0.21886147999272793,-0.22658078180661004,0.1850104650820668,0.15374718236276116,0.09883302759409704,0.24444786919787834,0.0344951470407146,-0.09368379117789044,0.19210881417194867,-0.22394750735745766,-0.04648400380468776,-0.1441354618125523,0.28702004301858003,-0.286165729768394,-0.014342102701077119,0.28752412809245886,0.10531715239575604,-0.3037043775104338,0.04662077910110054,-0.25610490228561084,0.13756068777730326,-0.13362177207594628,-0.19860088572425133,-0.23806477061388998,0.15417424191923695,-0.04281622819350889],[0.06257300027718743,0.007113527304911064,0.013838519199699986,-0.10789480980534308,-0.02152916004238896,0.0667451890076241,-0.34069934154178694,-0.14417791007177788,-0.026175279463430408,0.2172651206403347,-0.05827446252799157,-0.029730023040400438,0.25371825621302857,0.24812035256617854,-0.07419288870887479,-0.030929320224458483,0.14666978570760159,-0.1811385137764508,-0.11029409528433362,-0.01000465827383238,-0.46340453664219217,-0.4714165167812795,-0.13948506194655744,-0.39789190330221313,0.028567939547986778,0.0464662018655854,0.12886568452841782,-0.2807366024203432,-0.34097869292561284,-0.46626047416717936,0.22965318160856923,-0.06708114203970113,0.08361287637123642,-0.20571070923322832,-0.029757221573986668,-0.24950328297236157,0.2552898802894367,-0.30818724772995,-0.14987667358859647,0.24216774834093538,-0.3127340668447783,0.030281500359432532,0.052733732034781086,-0.2112199846018497,0.28911868044100836,0.28919597886882414,0.04365162788055527,0.47557507501386076,0.023569375594475164,-0.14964812521040582,0.2372283639045058,0.14298994194574724,0.18410929819228544,-0.12294587868278552,0.12926515221857984,-0.14261420932124486,-0.012495180671194796,-0.05106423108086816,0.004858374719245539,-0.006673081975809954],[-0.4655341875196762,-0.23421128077495906,-0.09596491636804444,0.09626595608687122,-0.3024463074637179,-0.10046528122286334,-0.013066076907003198,-0.35478889493131355,-0.19212211519463693,0.1477857336740193,0.2144115481484865,0.07774370598874714,0.10484046385056782,0.14905625809038606,0.0587687190042179,-0.6191025095930581,-0.4547009768758886,0.1473268466740549,-0.3216541841185868,-0.19918853218935204,0.070040618173313,-0.04570670157273947,-0.3710587127046557,0.2553126342674043,0.0349393552089301,-0.10586383452916712,-0.036241868728397325,0.017800250457346647,0.09124662443845569,0.18015377647347056,0.007426737476881015,0.11920121615721688,0.14314173841589542,-0.20015739543067412,0.05376994560450935,0.30504421392519326,0.013005888633539818,-0.2298075941169932,-0.23896135042923333,0.29260100853891186,0.05860158929807472,0.1370325696257636,0.21363049627475458,0.04102483511452543,-0.17789080329878318,-0.02103357145931324,0.13161089767083897,-0.22342392157702573,0.25732022226415674,-0.16105885266307338,-0.25807530257503136,-0.19729785662885543,-0.23797785693828355,-0.2550853833375636,-0.29791148847426335,-0.1257180704295564,0.13802465155217136,-0.12390274568503656,0.02481092224577989,-0.2731285733652005],[-0.18439228398309107,0.02470799278558566,0.03148262129045872,-0.2197710503931675,0.051928790819878806,0.5112741667134262,-0.1636023804698882,0.052770081878223116,0.25046776402110704,0.34426496266581696,-0.1768632956388474,-0.05056589228139562,0.2634216397240843,0.20893783833344118,-0.4288672126635685,-0.49285783187046095,0.12665036511534775,-0.32368880585269144,-0.4358213502258982,0.03799960773716492,-0.3859449237928907,0.07913817981612233,0.1000839540144798,-0.30933815762730393,-0.06434169174607184,-0.23494466882491705,0.0802173919139441,-0.07275248999212341,0.0661636041683517,-0.286619066466771,-0.18296914167984768,0.2847248061675854,0.05544100084769966,-0.24613809972530296,-0.1688257538398368,0.26078961568967507,0.30613585909968455,-0.07351464054242263,-0.0713350344242781,-0.2229609273602428,0.2696073933044343,0.2827937604823332,0.31985657751937907,-0.22888606292469452,-0.3238848358563792,-0.019604232160699186,-0.17364506703243898,-0.25257756360479416,0.05390763502473263,-0.043248779799989194,-0.2719894838918181,0.08648520535386951,0.16669826320202785,-0.29964864086872595,-0.08239950476017369,-0.08204949974629905,0.05005753232896512,0.28751763884588466,0.2547168905134639,0.0714762591607406],[-0.14702544001188506,-0.20938267425616844,0.0021500821583705526,-0.3385312784727212,-0.415308153268954,-0.0905624714736855,0.27745474772846207,0.1092410469090739,0.24259829652517628,-0.07793255272734644,0.0156931864527649,0.3100566988100541,0.13608654282146743,-0.35340731687025156,-0.32811375927786784,0.009269260808147781,-0.6270228636296012,0.06846681790122953,-0.047650108182131556,-0.16483562847669764,-0.039276042720963036,-0.1988603729110762,0.5318928011328685,0.043401506211909205,0.05925353225688845,0.2715963470806585,-0.08510494434596641,-0.3581886756256391,-0.6445750693724528,-0.07352427906491452,0.11414221878857936,-0.0956832282456721,0.003101473102183079,-0.2334701636627355,0.05802553473516174,0.2483492036584235,0.11668076532202044,0.10374228172268646,-0.08000122590224563,0.15770369769424786,-0.11772444567708919,-0.11324862834482546,-0.1282470065353963,-0.17615297377239958,-0.053215850269638584,-0.08177012826846003,-0.03740024827438484,-0.09136499480932712,0.17302641582447886,0.047200338071661276,-0.31124031057535534,0.27202648788359324,0.20261424672150735,-0.1423057586897146,0.24224645759685462,-0.3139644163243395,-0.07063255681021079,0.3363879429527966,0.25040825538659456,-0.1672769646590807],[0.03481405374051051,0.19592125304673388,-0.3911970625914983,-0.13481948553509782,0.2596426567069359,0.15473000761721037,0.2414945238224873,-0.6099883543751679,-0.08256906255723608,-0.48563042499797254,-0.2636315865279114,-0.26652236143873365,-0.207930170431997,-0.26019788076149586,-0.26889415981660775,0.07176713338480864,0.2514667101632653,-0.3112977218728166,0.14705282586064375,0.16436924169531394,-0.27582138863223343,-0.19942949209007613,-0.0013643052372608534,-0.08529567869617194,-0.2349264378590743,-0.49528854634607494,-0.0017173278407764208,-0.26240081432490026,-0.13039803837260322,0.25708283647432134,-0.019058995612708875,0.14485036280830849,0.2833719829927191,0.1649737677048517,0.14337055783280883,-0.030775048670964263,-0.09832317861339211,0.37866979128633343,0.08245693592055722,0.09823392135763859,-0.19425449274324458,0.08460205403345808,-0.15716839141395672,0.2327133473220126,-0.05813121316530182,-0.374896460606244,0.29485101045271717,-0.43292198436540996,-0.29964220062422975,0.2193311177847386,-0.19630270438083064,-0.20244804403801547,-0.0032109045529359562,0.33626996644802687,0.17103015482926956,-0.1550030058194049,0.31293709909083345,0.2632940025846239,0.199590131081429,-0.32577043800395744],[0.23323491460858495,0.024880608380401646,-0.3937962147991809,0.11293416702736515,-0.13348300898652937,-0.4333061078778917,-0.267679685990292,0.3666631677818272,0.29358651750035186,0.054099574699592375,0.07354093772264164,0.2704919128307946,-0.04843962175947067,0.28458158509080606,-0.3433453031937118,-0.041574756295449086,-0.2286047377285943,-0.10269046265883121,-0.19639890175677635,-0.2677351502394659,0.33783645228394704,-0.1572662740585005,-0.3341878743377686,-0.08205831169938653,0.10975359271984401,-0.23777978577046177,-0.25585061108773377,-0.45595002929813333,-0.0015922173630041514,-0.6418614885332515,-0.20819789295767877,0.041489281488241714,0.3190152180465552,-0.026607248836516346,0.07968061131935877,-0.06660655181764681,-0.08841583084470073,-0.2595674101178854,0.20082762527010747,0.2886156176892103,0.051259109459618014,0.07172775907459725,0.04902222408182642,0.3467519134465097,-0.17306202681139493,0.11473985770652656,0.18534868659760445,-0.11101842377192958,-0.17514822598479612,-0.2101980253248109,0.2116315728875853,0.2500327115926817,-0.32645598871653025,-0.16225010905152784,-0.0406583203023806,0.26109033916117586,-0.04943808983111487,0.22793018560107525,-0.01943160329982306,0.000597304757721912],[-0.2309858503242084,-0.0949579359705273,0.1129958338735387,-0.1655684631770166,-0.12877837080572918,-0.13110156537748024,-0.2441392842009012,-0.1752329387422977,-0.22170811547120067,0.1051694544362888,-0.15588807820443806,-0.2507088824924002,-0.2839936247868744,-0.17961434843439497,0.2783930840113435,0.19100449086910945,0.23455524266507397,-0.06148950117584105,0.4158491902374746,0.2073612201485079,-0.3642885668417457,0.07801300069350169,-0.19700035333296229,-0.5920520542464276,-0.04469276930551458,0.05179665406027891,-0.3129291791666951,-0.09499476916774637,-0.10662925742992906,-0.4982059257424059,0.09779865150971957,-0.23696164991881868,0.2563423319026217,-0.18225326578503967,-0.14995383012293118,-0.16555257841519655,-0.06420498717668988,0.038565394801045316,-0.13698060106516388,-0.09939314795246795,0.18052502294526432,-0.3146695527558688,0.1932521100610513,-0.308947994027219,0.15904306092025491,-0.053610288271002705,0.14779611402387915,-0.25492628655971217,0.10820683688370297,-0.1833707073581265,0.14025362848495782,-0.2802045956609658,-0.03677263339569262,-0.061206007932067895,-0.3394910326183557,-0.23531940135677792,-0.1644336378393606,0.08184210504592454,-0.28419255191910886,-0.07085798121557914],[0.12347490713416535,0.11650133772072505,-0.21597879777908444,-0.0033581862708091373,-0.060043267719018634,-0.0629950536381896,-0.17997071984798757,-0.08676460614825439,0.29286288561527835,0.12037816796719047,-0.13882761560057685,-0.31164357615165417,0.06917127793186678,-0.14868651906632294,0.2380381997272829,-0.16979729001387184,-0.09053426967297357,-0.4259627730117558,-0.19545744885529578,-0.18310629997193356,0.01250808517898883,-0.21019017709840826,-0.2613281534262069,0.13274362771674933,-0.1336157025668674,-0.0808511645336638,-0.002895720496946672,-0.3761438680627182,0.16909477068061213,-0.2297759781478045,-0.28254045915980747,-0.05565487761964983,-0.19407727825338109,-0.09366025611470202,0.12216076158699095,-0.12410178993732754,-0.19126666762271288,0.07431372623730914,0.09771397223551889,0.08998576232017694,0.0953488735919146,-0.29516518756851484,-0.3208304780260639,-0.18123955016300627,-0.15803119594653067,-0.008613880454452631,-0.24098097714310085,0.26751474071488823,-0.3009801865710127,-0.01706038008634461,0.2055326924129478,0.12919790363766706,0.06969335251158944,-0.15264880946319545,0.0521778593077128,0.09196203318522253,0.04122153509063527,0.11206330939982566,-0.13007594158886354,0.12169861419970021],[-0.19062336554135964,-0.1876720659170779,-0.30333217511679217,-0.32613837668710544,-0.06053483523274107,-0.12033120846568267,0.014324423434895291,0.207374233441818,-0.044049157760695956,0.16535733297018834,-0.18735619047007976,0.015047625655126242,0.0032046225467697287,-0.03529878930251051,-0.24876010112641667,0.16757122425198806,-0.2044540206453912,-0.2589080337685812,-0.16617191241148513,-0.08102879156638591,-0.2476003730547003,-0.21078580852598,-0.25480275900215255,-0.025847110235598682,-0.05523367507791673,-0.007127769188659943,0.06112709662299833,0.020213206907806612,-0.3170413841456288,-0.1206439513895382,-0.08022202220050093,-0.26428226502358515,0.2213532067104906,-0.15704284733466164,0.016406069811236483,0.08020813502293617,-0.08652099866815527,0.20024831858181696,0.1769362080467939,-0.2775580972958704,0.07664088334930295,0.04742536111830329,-0.24356728007728565,0.11730762087774206,0.0527620373750163,-0.20402890536530682,0.2290049485816272,0.06884352247125496,0.3078633556888681,0.07663401447677143,0.15419460947129685,-0.12808850321814494,-0.22965087065858675,-0.13152204728450048,-0.07213511187102442,0.23705156163267832,0.08845842907908387,0.30549988137588246,-0.09570843908998532,0.27473934403715083]]]}],"OutputSize":{"X":22,"Y":1,"Z":1}}]},"Parameters":{"LearningRate":0.01,"Momentum":0.6,"WeightDecay":0.001}}