{"Network":{"Layers":[{"LayerType":"conv","InputSize":{"X":10,"Y":15,"Z":1},"Parameters":{"Stride":1,"KernelSize":5},"Weights":[{"TDSize":{"X":5,"Y":5,"Z":1},"Data":[[[0.8714524065974393,-0.04500232375973739,0.2682633872829687,-0.4642700940724898,-0.052802623486347094],[0.23377534625517854,-0.17110532789646293,-0.6184096883293179,-0.27605529780943616,0.5847487422696829],[-0.40242196004546554,-0.5151234925289502,-0.21854131328617848,0.07768730537011653,0.8890689658469872],[-0.7681867345579608,-0.3016610839139212,0.0031959598081989773,-0.25242604586491435,0.6975040062376199],[-0.13581830416817153,0.057983532836901865,-0.16108511119097962,-0.9969308324831698,-0.719052198141258]]]},{"TDSize":{"X":5,"Y":5,"Z":1},"Data":[[[0.15322752332674436,0.1962671482453452,0.2010280170391176,0.03173787302693893,0.44241178304163226],[0.013562476195503121,-0.08171681324150057,0.002954731382672876,0.024553207995774796,0.38211207059293023],[-0.025898093978122406,0.1725489252676118,-0.13459795715031597,-0.03437193349532436,0.44254221210147454],[-0.1665253038567033,-0.22302906107435713,0.08149838319675116,-0.02250526517206466,-0.06217953997312563],[-0.06865943958276179,-0.2980623420598234,-0.37334378372367943,-0.10738165109421839,-0.38736107679245524]]]},{"TDSize":{"X":5,"Y":5,"Z":1},"Data":[[[-0.9251627337687967,-0.6327785188963533,-0.480511025829208,0.15400976301787644,-0.8552170968637768],[-0.029789827764842503,-0.37330424107912413,-0.41860020424995026,-0.1201273173460168,-0.5680206208925018],[0.5594209719933212,0.36876834343060744,-0.05249119423870206,0.07012261832690839,-0.514775912682429],[0.2341137422172861,0.22404484426704974,0.11913024800839704,-0.3240823777397134,-0.5212622090220821],[0.763117469079811,0.5552133047150484,0.08742983099356917,-0.516427315353087,-0.9087510576623975]]]},{"TDSize":{"X":5,"Y":5,"Z":1},"Data":[[[0.43783044894419687,0.2968346441124879,0.42934151407276977,0.3666309863067691,-0.7669677909747413],[0.277960143083257,0.13705968552193012,-0.143777392287659,-0.11394587108438387,-0.35823998863544076],[0.454289182174929,0.21938502623568534,-0.1938343744735445,-0.3310172547563455,0.008670290001651634],[-0.055203276255092665,-0.0011150762535969225,-0.32945180908949506,-0.3645340733302406,0.11406139122927823],[-0.12812309006077074,-0.49942784966592363,-0.4536220965190533,-0.41064632545905216,-0.8404288887193532]]]}],"OutputSize":{"X":0,"Y":0,"Z":0}},{"LayerType":"relu","InputSize":{"X":6,"Y":11,"Z":4},"Parameters":{"Stride":0,"KernelSize":0},"OutputSize":{"X":0,"Y":0,"Z":0}},{"LayerType":"pool","InputSize":{"X":6,"Y":11,"Z":4},"Parameters":{"Stride":2,"KernelSize":2},"OutputSize":{"X":0,"Y":0,"Z":0}},{"LayerType":"fc","InputSize":{"X":3,"Y":5,"Z":4},"Parameters":{"Stride":0,"KernelSize":0},"Weights":[{"TDSize":{"X":60,"Y":22,"Z":1},"Data":[[[-0.0747490429953552,0.00023481987936235189,0.01557125963989759,-0.0805928307861865,-0.008490438061591266,-0.02587922150785187,-0.007469028813791604,0.08827396968633895,-0.1367844748923519,-0.1041564914923387,0.05541638950117395,-0.006063329777759266,-0.053023018795401326,-0.035682663653029495,0.053468702715978825,0.16551457105261472,-0.0047909341708720545,0.016497590856633774,0.15757432561169032,-0.18363678821089785,0.08885952675941615,0.21156194163671949,-0.2428879953296153,0.022413929853646333,0.10615648520873029,-0.11443383066031317,0.025593907868457662,0.01913516513034213,0.24202197898830338,-0.32836133901298487,0.1630034749795784,-0.18387548656497574,0.18108698064572007,0.039731522474312414,0.0005437968335678803,0.038723337648644905,0.016449497204294818,0.04535044627100839,-0.10846423564574785,-0.05469941164963472,0.11912734384421927,-0.06555775861494194,0.0048722658863286795,-0.07284739808408267,0.09692846423215336,-0.10045751053400659,-0.0331999552789917,-0.021239487065948023,0.032242418632618,0.027810549544998158,-0.049595764384035367,-0.02826564453249668,0.02309842324646165,-0.04306986286439222,0.061274998216238705,0.02594559460227385,-0.04625583110152787,-0.057782816859983495,-0.08812639278236525,0.13511136244715663],[-0.09555285702354853,-0.0752558543219869,0.12076601319984084,-0.019303121817718295,-0.021011631499762762,-0.05910823972392649,-0.026677912896398304,-0.027667024785280693,0.036391232463453764,0.046828794514721606,0.018256043107073575,-0.03939883832509381,0.02370818360475737,0.042227194350073716,-0.00023066016749400417,0.16218241298058195,-0.08224866293675523,-0.058917182580119035,-0.07966911130924632,-0.007782677877338346,0.054000187208231624,0.017413694803391614,0.046857713989175216,-0.004253625704750073,-0.06188635941470762,-0.06333041927170552,0.007832536563649059,0.013752259577864627,-0.03146929443581052,-0.005468657674838494,0.026570569807064372,-0.007306326840216631,-0.003513944817586081,0.01326491794390694,-0.008524037506506354,0.1288687007554943,-0.08111748435104102,0.09179709471772636,1.044353430213212,0.022988259542148035,-0.03261099412670198,0.027892127324432154,-0.0030728600981297224,0.017712104613705502,-0.023953254424072708,0.15007029903683264,0.17099591587932872,0.05699877344166651,-0.07777605844624316,-0.0006061399294690979,-0.012899022308410606,-0.018864058589367197,0.008201919368238296,-0.041255514039109764,-0.027025334539418234,0.01065172033053519,0.009350783267752317,-0.04167715596872426,-0.030225935296721927,0.0074528069741200565],[0.013650913292288026,-0.04327267426032942,-0.04812342318653921,-0.00013481590289586616,0.010439339942950461,-0.10209191254727565,-0.013784248898942142,0.028274382530309942,0.01621096020420663,-0.018058870911800487,-0.04539059104879028,-0.0036188832440600415,0.056595603275941625,0.6575002913553725,-0.05763169950354449,-0.015184082731886948,0.00441309746860664,0.028376531867140814,0.008953428867491056,-0.04384163324107816,0.020302312865233083,-0.07379591470002717,0.020826954155579173,0.04920475594009822,0.1957159521235014,-0.037463217828650336,-0.057850025241367634,0.11818830665795879,-0.16341706931884287,0.03417609904087225,-0.028290214772304517,-0.028802777513326657,0.0015737002449646967,0.06297342723985493,-0.04486213145365123,0.02186495186042676,-0.11161293202785195,0.008070955341824655,0.009315796086385005,-0.06230898194816143,-0.015539545508958854,-0.0018124558683945751,0.0068101340600500125,-0.0037828672461313302,-0.033917833083134105,-0.008889822416839423,-0.0037975083987782147,-0.01388475552563515,0.007044244162317222,0.013229907275832772,0.015388585999568868,0.04156450156378767,-0.025462368064348442,0.0510806387612148,-0.0819193057186081,-0.035259786916803405,-0.04679872794535475,0.3580331924436364,-0.1519828758485421,-0.0168165653957081],[-0.03645797459534759,-0.034636105897850954,0.018890273343871212,0.027566910559513876,0.0015210491073781242,0.12639916044789049,-0.02551925522985268,-0.06666374048751673,0.011393037163365432,0.018064378819299204,-0.00914613880388686,0.057157605370509325,-0.01576587996173742,0.19288962055159517,0.07085995295413218,0.052176264513259844,0.04671727375294858,0.006667934041632515,-0.171117646627595,-0.013650916959906058,-0.10848329768744547,-0.06407732424719025,0.054321001069538404,0.07771037120688896,-0.2070988499131337,0.11127929877161608,0.03163290756399986,0.39087243184913795,-0.11861737997204318,-0.10095819640844239,-0.032759396744781136,0.2866399869609495,-0.012072338804756165,-0.05456388454177613,-0.06368070594876044,-0.030584530469783502,0.06854306146900313,0.04051033176542785,0.05059010660065804,-0.00817456920611436,0.0035327281870471262,-0.1007502256924009,0.00457493407395115,0.028295648451062926,0.07675503667517736,0.03852490961623593,-0.08744857936430535,-0.035519837362956906,0.0110268295846847,0.20226974523576122,0.06241665034166801,-0.038892069468396656,0.235436429448777,-0.06782439405659861,-0.02972282731923618,-0.24859320923852882,0.06447498093987811,-0.1341009990751231,-0.0522633798717936,-0.04445846041312269],[0.03561907978358615,-0.15853895776120666,-0.22636805629895543,-0.06528907773490668,-0.19495162522379464,-0.0480996068612568,0.4891933118177486,0.021171684891579147,0.026558312292628453,0.3660883558665429,0.022304743216887066,-0.013930379748801552,0.0010389773596984934,0.07088363578033692,-0.18403348345693213,-0.021447993484743456,-0.07723123890244173,0.04204599780780804,-0.05453857702201357,0.06298929101016676,0.026138132384654185,-0.04292194155669319,0.025964206363281225,0.019042997230711733,-0.036981434000478576,0.05662241398003546,0.06398351016346084,-0.03328183796308119,0.046945012620941876,-0.05430138982366591,-0.0394337843276149,-0.03993201204976218,0.0017933202636569697,-0.0002571174710465848,0.02379681005225161,0.01198886757777627,-0.00916788257584337,0.007493918343776534,0.011096427311432313,0.031805002781773506,0.005134547162638431,-0.08216000797516021,-0.07041732865309995,-0.011808498141206668,0.11020200882703793,-0.003075131469904251,0.083249770943997,0.018002368290510985,0.12971380379784542,-0.027669389283865486,0.07068536687566382,0.05822679824802288,-0.021131782609030657,-0.05387449258668361,-0.05260361169116169,0.03269869500705273,0.08893592004386099,-0.030313500617933555,0.06737420217303758,0.0062925139621621854],[0.009291640111660733,0.11290802468474705,0.044266042230316424,0.0070070443939070845,-0.23246559907157688,-0.053141817870713745,0.176757151237208,-0.057929819759937926,-0.03274197644736712,0.005168136948968516,0.0032933671619319476,0.011644977265510729,-0.16853806583056363,0.08322342343300777,-0.053499552119125084,-0.07264120860069373,-0.13989579406892605,-0.0201857560170247,0.23630009134546334,0.09173405283279698,0.1259725856367759,-0.5946130959065168,0.1982841364178425,0.07351801013414284,0.16275499805919486,-0.08845444695349707,0.2225054281577167,0.0803136409066368,0.042921874300163206,-0.13518872028507112,-0.11685099768553699,-0.04530941845512382,-0.01881041052502037,0.04215599994025119,-0.009501820170118561,0.055968092759588105,-0.11421484548135288,-0.05007559195929392,-0.07255984548989244,0.026708518857434218,0.03989032846200711,0.1368674279198874,-0.005362775058768479,0.03721217867376511,-0.027114019333492233,0.003948910528174572,0.09117978672143368,0.036726642073124864,-0.2118798140736657,-0.09063365321711803,-0.13464946632770466,0.05050120181009292,0.023078974082034916,-0.05759039247280532,0.01603699378775706,0.027590275576133538,-0.03767910693581601,0.025270826119130087,0.06688450236750014,0.04488049403696631],[-0.05630046658638203,-0.13212254052622063,0.03704327271274307,0.1343906669971349,0.665995652376432,-0.09694684408237007,-0.14852351678774472,-0.052288202450000494,0.017191748757917066,-0.10511761145040865,0.09719007919674179,-0.006301887686639716,0.04213851741237554,0.009118672427366005,0.01807822705726685,-0.018671723565486752,0.029963309213831883,-0.09144891885247533,-0.028762024818268186,-0.02227541776792881,0.02236526551759037,0.13698843316719753,-0.09475950676688748,0.06520973950380697,0.07112905053199592,-0.003003299150285141,-0.037216779819021405,-0.07191666863921002,0.027859967674154416,-0.044580702101231454,-0.0187495240303177,0.04653115899560922,-0.019612544164854664,0.02352847641010166,-0.0083356438198351,0.011138920191689095,0.0010601617403136823,0.08140097109124964,0.0387886533654742,0.07183428241572154,-0.09066933681662942,0.06088382522569507,0.017817712862168655,0.09602473950071783,-0.043167970341175,0.0056272716401023735,-0.1695617677334812,0.06419304088476863,0.3067783345311105,-0.027189479566999412,-0.027416813289726876,-0.03231717554292257,0.061785961179342166,-0.07459973534522052,-0.01317699976373466,0.0053841943804728625,0.04322042808527099,0.005994144604483102,-0.03928787511089264,0.0004035583000266628],[0.05556020321384322,0.021392823227131357,0.029513418578004835,-0.01711549815433546,-0.05345237860245023,-0.03245425602138895,-0.03850139905882073,0.029806235627767057,-0.014982115563962011,0.028487046586145804,-0.05516904621567509,-0.04049470002072512,0.021044562908874707,-0.3401413836864055,-0.06948231483613522,-0.02549631477009338,-0.003997771815189769,-0.04057458022361496,0.06302121016602216,0.007042273590359403,0.09128368371075249,-0.011898553418360523,-0.0010645062310882458,-0.03914542099497117,0.09605476234558892,-0.03173151285920357,0.015388024707239269,-0.23819476421709285,0.08224833787663892,0.09811685185504623,-0.18791682491339665,0.2698582979519193,0.1045550544397944,-0.12484120851116735,0.1089111647361294,0.062227637314459974,0.02568908523422526,-0.10755186356192618,-0.036800876476646115,0.010690896216245468,-0.04243421705460329,0.0792114763524531,0.02416426816366671,-0.056400412382359724,-0.006510049946244232,-0.04395171618768055,0.02283947551086164,0.018693893863844423,0.039565595964279665,-0.10809849823008669,-0.04133839365723858,0.10921025194604926,-0.07633942623318432,0.012674864653452238,-0.10488403890776873,0.2918320364749768,-0.0334816070458319,0.09712990659992517,0.3627348233041801,-0.05501506665338763],[0.08356898006514307,-0.02104277251847599,-0.02466272417852808,0.09392493355227186,-0.19573516961493842,-0.15077027684287275,0.05915255983234865,0.13938317657847812,0.3976021687456764,0.010488528801704025,0.07769870543893775,0.040602106018866504,0.10965263522159119,-0.07637006283748755,-0.07523944447148943,-0.12360316675920588,-0.09031016973506918,0.17861650519005712,-0.15622220714529939,0.18650862355823922,-0.04730508138570187,0.06810531134633152,-0.21066816043406225,0.051473117551378726,-0.11793207936128929,0.04281379782887288,-0.0202247466241707,-0.08618419902019643,0.04370684731890937,0.06318272482994816,0.044851699007041536,-0.13230309878842947,0.14086380549750963,-0.0030333760488411294,0.05616725132878026,-0.06630017046429276,0.0369794044855772,-0.03523433643345473,0.10202308472063876,0.0639108806727929,-0.16899014917720973,0.04426611579846104,0.022840064165799773,0.10053276645421383,-0.14747563722509935,0.05816061302936849,0.0207412940014565,-0.07588411285163535,0.036919267325573824,0.03780007974304982,0.18029603441146203,0.003188877844946764,-0.3802260902555742,0.08327617289018874,-0.04210462584049908,0.15739023383761597,-0.006999861421375649,0.03694967009453624,-0.05606461611301492,-0.03296739872902758],[0.028979266648424276,0.011508131206379385,-0.007124575877055397,0.04155200358519022,0.12568431185427906,0.07875932166256534,-0.027592377798954477,-0.08484577385911692,-0.07268928910552315,0.06372271179396864,0.04369552915380984,0.02547431390746613,-0.013280188153351512,-0.022728176846134637,-0.0452216537607736,-0.054330535495179605,0.05965790442776456,0.04299570817750991,0.0513218095098145,-0.05995235251025301,-0.039117376352791784,-0.1184865081991315,0.075286927797867,0.02702157901852882,-0.026424170589685436,-0.0006703698408147252,-0.08923747800441596,-0.033573897293744465,0.01949461175421129,0.037695827978946064,0.050522828356603704,0.005918270596309861,0.030434805847660576,-0.017055114488880606,-0.0043812469327967375,0.018308932567765283,0.048219286262872474,-0.08735279021539748,-0.0818568021980104,-0.0787464356500735,0.23638135869809895,-0.0011857268144438973,-0.09255223896834293,0.612044406222184,-0.01810591208451228,0.020071080137831238,0.009564274303646397,0.04563754127453209,-0.059599302171575594,0.060318045035122864,-0.08812532651973631,-0.056884325417842795,-0.003288855716717548,0.16330113421290648,0.033534216399947143,0.004592768436039851,0.11919433576036949,-0.044024954239753236,-0.10103765640613226,-0.011189429857418364],[0.030059748232364545,0.48845245748802907,0.32799402885715223,0.023715673354749448,0.007388629419649809,0.026401653004395603,-0.27215851842856736,-0.004949774395783546,-0.02285603552573112,-0.03148284234445307,-0.10124803361775518,0.04554646856446911,0.07331261491919482,-0.08801632590586562,0.4593334891537319,-0.22179746410811915,0.2285930180154087,0.02338000033807877,0.02423767379717813,-0.011708393117808238,0.03392389616165595,-0.017347355027724158,0.006097582859055693,0.06451433126014489,0.2453133649206447,0.0913945004233315,0.04671988518417692,-0.02139752241552669,-0.10331482169175042,-0.024623226858497434,0.013057040508651408,0.05946316028613383,-0.003977686930080793,-0.08256670129074703,0.00036484261771255427,-0.03718257110350836,0.017095132887370405,-0.11134728072619711,-0.12481392920924078,0.0005135344329422009,0.0018478780825441435,0.03073029170616329,-0.010530486599384336,-0.030574051296313645,-0.028456056768398613,-0.020714569153788203,0.06765773800836668,-0.01850957354242946,-0.06911675228428855,-0.020572825774843897,0.003521105043037127,-0.002038617177461798,-0.036096981614931654,0.0457233584700466,0.0909966425789432,-0.09058659858324537,0.034598533251112125,0.01214505549631611,-0.05988329653173085,0.012286855024325532],[0.18578814742867714,0.013446108618634293,-0.023277326164726206,-0.273622640745517,0.06366427325933684,0.10678791662995771,0.05277319075102916,-0.005019795672589057,0.10790322161345164,0.06836582781917162,0.012709590459192932,-0.02415686717658161,-0.013829220998386354,-0.03847231870497119,0.071182150209989,-0.17530844359492714,0.13099687499682966,-0.005018466802762257,0.04006852496787501,0.003529713046292202,0.0026381348050253496,0.20867156527332673,0.15260855558781464,-0.2170935878610944,-0.2043273505501477,-0.02838482962550913,0.11624291926472066,0.10266638178491086,0.09884132385508795,-0.12730777185018716,0.011649206809006545,0.05987143238058868,-0.07437308935702874,-0.04995895454862345,0.01696472633099312,-0.08927730069156228,0.04971068604800915,0.02816657091467009,0.07752276669451008,0.02325830599218254,-0.05826380398941336,-0.0743456326079331,-0.030570982734722238,-0.1610781761913069,-0.07856667962021693,0.007480180423526053,-0.022398662722506672,0.20135322095107708,0.05326612009563554,-0.1537552260291143,-0.20646923147786395,-0.01102103660276943,-0.021432686966259395,0.3301484221975319,0.03218794695779835,-0.020143762029490735,-0.05790835811577178,-0.020733825702887832,0.04196339363062079,-0.04113497748306578],[0.016573970440125815,-0.16498528899332837,-0.009614178520008653,0.050339414112047065,0.0860309591475012,0.08026116120353408,0.01508955121047295,-0.08333613478315152,0.0037257610555968927,-0.03177653251934563,-0.03154515062397265,-0.03557551893511098,-0.08718259848145041,-0.12395961079103315,-0.1863351422971135,0.02908597096651285,-0.07091266779775078,-0.07151599855233372,-0.0102798637668384,0.013954255527340765,-0.058186617496465476,-0.04612632672501956,0.025881600725359718,-0.207969631761905,0.30968882427267636,-0.03730257524622064,0.13052535679096647,0.024968390940620498,0.12359476558290322,0.32822011295329273,-0.038079960824821533,-0.00192931679146328,-0.023870344746826436,-0.06320969623372633,0.03091062707185217,-0.0707740600956633,0.024963948113441017,-0.03571667700318941,0.1429590614282583,0.06207762721151039,0.009920004611499769,0.10455420201830792,-0.04521092057384784,0.06871344375339727,0.011979151220625444,0.3194346578872464,-0.13480737871809553,0.05068259451207374,-0.14091352588674372,0.016809149414495666,-0.06388570714508719,0.08642954953195185,0.03289927279494758,0.033310125143619286,-0.02594647152554494,0.003930908788317175,-0.16245209720471693,-0.06985216024158684,0.0519631496751039,-0.28922527852244045],[0.013995921420787538,0.012892522150647982,-0.004801587163332952,0.040981134788982104,-0.22221898131409878,-0.0185511680187357,-0.08515843945444952,-0.05153075934901422,-0.0914337267856778,0.07969987360654163,-0.01885379293687738,0.033308196005975524,0.1309844529699217,-0.10504798608847356,0.00007258644082261679,0.05330313662056965,0.016582860697283257,-0.04632621572313981,-0.15051547808104257,-0.11976417858514553,0.054728009960587014,0.2745990650369295,-0.010911230681385173,0.40073889937043705,-0.1889630228306162,0.032604612285245915,-0.4401037809675893,0.024139022963414664,-0.04405182469153906,0.26919971144003263,-0.02111509942464667,-0.027624782643076055,-0.001461703172496795,-0.03848989851907496,0.021660752575234178,0.023314540031805133,0.03597810465506817,-0.0443707929947879,-0.0116487368444458,-0.1096877134544642,0.05363664018500464,-0.10340346402983863,0.06958207472294047,-0.07829982381235817,0.0030154722019254667,-0.05120851998992053,0.07515004251372304,-0.006195864723635318,-0.045348037672948795,0.12377852892039429,0.12190464392680125,0.04066798325243607,-0.10323760263092967,-0.18985200397612356,-0.031102492701787887,0.12137611226724809,0.12222749057625697,-0.055092079893695314,-0.0031621210387257426,-0.0618287436308608],[-0.18748386679062448,0.11525034810870996,0.055018718643773216,0.03525465540164398,-0.038578455710051356,-0.046555898283034074,-0.09121942251509649,-0.08438704330397358,-0.1735058725611539,-0.07132111407674499,-0.007138926184870209,-0.01763563212747042,-0.024170326051386158,-0.0350875063335678,0.020793629672832884,0.39777125726952256,-0.13082398513858357,-0.0935365696839692,0.020178585988657037,-0.06806809115783358,0.09057849806644792,0.09931122369614923,-0.05612611408937039,-0.04165470205728597,0.14166873567986488,-0.012341008066478346,-0.002337626498786515,-0.032285254136592244,-0.029428412633508955,-0.0077555577848170765,-0.003073944011479122,0.011712337704225192,-0.1256111599479954,0.029741420789501927,0.007765136376087148,0.020967417381420658,-0.06717583800589141,0.012725681364317974,-0.06705816695154633,-0.08643075496895902,0.02445092652121138,0.12314190659269479,0.04016839013020525,-0.1932624310734477,0.21651630341268008,-0.07495979904179396,0.025665262013690963,-0.24372652798209657,-0.05938635467870187,0.10148525919376294,0.10564562094289702,0.016903189150151397,0.07635551965142123,0.13131706336944776,-0.007751862782702971,-0.07034644226788597,-0.06491845764457506,0.053128381543947424,0.010609253880534401,0.009979319408297343],[-0.04432368562681843,0.0018156736573317438,0.021700567331245577,-0.050193527864517834,0.09879471627829424,0.0012250665350483725,-0.1992243121534017,0.5339069401948745,0.01572547316662726,-0.0035996581330277264,-0.031416825312434844,-0.0237355329835935,-0.012802623788674857,-0.024909364593669873,0.010325814274536037,0.2116941885409295,-0.002929670201400288,0.0035696295413866525,0.31569138399560165,-0.20589974825929724,-0.001647537197740689,-0.0316600000117928,-0.013765390728091915,0.010509175723464386,-0.003517053282641289,-0.015018474150537801,0.10333755830080658,-0.061528204759909846,-0.034524057810271035,0.08082616349845183,-0.04758920895571151,0.00470103193968958,0.024324760392299777,0.008457016259937203,0.0038550855698529125,-0.02094354795480563,-0.10770077779647777,-0.04293172666210244,-0.005243072420819758,-0.07540618757539154,-0.02182891363080471,0.037685115908503486,0.019715446670774163,-0.01453847171476351,-0.09932685057499174,-0.019146438930948025,-0.007740391557212722,-0.1265788406574883,0.008727067180971226,0.05760372124719243,-0.09920637263751904,-0.11146623933361469,-0.03973475596955752,0.06530987276175287,-0.06703113478544397,-0.05394016680921273,0.0018583313957155005,0.09042912753468514,-0.047912397424274014,0.018722385058336035],[0.3131075867687533,0.0016838659138765954,0.024742620476471508,0.006734733818882873,0.013633024669792885,-0.10400229535525077,0.012549202044840401,0.0012086960222330518,0.004127046470212649,0.041273555934069776,-0.12327736432640955,-0.025505467033587505,0.00046486373990319545,0.10314224135604372,0.06654405860801332,0.04320202609391154,0.1308121627961575,0.018714597741690427,-0.012986415469380027,0.11531967728598895,-0.12064360988300467,-0.06274032131205678,-0.05150924809231125,0.08009949012901861,0.010349660456768712,0.07703745488086725,-0.16801522016161705,0.0472396655786222,0.0023600191989518954,-0.03773875473896256,0.0059312180383590245,0.04681391848937582,-0.02425357063442068,0.0176715807396729,0.011912446866329486,0.00672214785531819,-0.09550760671265948,-0.09139038373332908,-0.1753151897706973,-0.2840511880852095,-0.021795026822646352,-0.07710976967590936,0.03282104126397232,0.06718264750426872,0.031943838176945044,-0.0008526359713606717,-0.12132170405551275,0.4381879850019443,0.015745735289540902,-0.11515783263840021,0.13554695023676064,0.04492787482845727,0.04271443831500801,-0.08363031566803729,0.032757056396663084,-0.08801825537818414,0.03692071283534683,-0.08948587905487883,0.07611025637319631,-0.024803140833639305],[0.026394688165358192,-0.01168760592096305,-0.053871078108749866,-0.012978577954102323,0.01096245681265091,-0.03189427203533464,-0.07385748867284397,0.05971885361319592,-0.026929215421282137,-0.1067105047834022,0.026737761469885397,0.04059080400745201,-0.1368494961212483,-0.051083594130388814,-0.04335189684577005,0.04461741506618417,-0.038742268985937904,0.07784545134665982,-0.057401668006598676,-0.0006786132441268343,0.008362426756510288,0.1184961595045507,-0.048761362213472714,0.0316291721396115,0.14379919866225696,-0.07126287438966517,-0.10405126672912272,0.013027330502005422,0.040215131098321366,-0.018006207935604427,0.016235805200292008,0.0035706544944877957,-0.056128110800091516,0.05020215775058567,-0.019190473434268794,0.061817116045288834,-0.035768609669914096,0.02844841579648921,-0.15215622338268683,-0.017771371677175175,0.05018547801763338,-0.10090224074706713,-0.006658185680713743,-0.053753549134672,0.07425021529735312,-0.0869217056081639,0.048918938673126834,-0.05267791892916609,0.04965372837217429,-0.01932281931702372,0.06565840445020235,-0.030106882278273715,0.012700807950015571,-0.04025227269498892,0.02230212404340707,0.05034617827643067,0.006913741368784025,0.017170572588771957,-0.10698470570618936,0.2889953634386734],[-0.1071428122492197,0.028608299193512984,-0.04662984870727681,0.10500507511030327,0.01380258592132673,0.20509784154265637,0.00327930270126065,-0.13652613057101642,-0.07576564511679369,0.029992776960232267,-0.032547857492215324,0.005084517914033238,-0.06550816325155896,0.11063934166901668,-0.019101525636709176,-0.02164089851840348,-0.14116347684482125,0.2341830620917812,0.06140202871414429,0.19044374055327598,-0.075726359132359,0.055359281435860115,0.40278650246514636,-0.4182536514586681,-0.031095764023182936,-0.07672737090171015,0.16692087842983472,0.05001052295435628,-0.2010956655490993,-0.007203818969822217,0.019806760735983895,0.058183804992677196,0.05709089371236544,0.012591542299096144,-0.05159316566832494,0.04672568318872459,0.0715561282250516,0.07941258059265187,0.002053577657237094,-0.04688659300843927,-0.07343919418311896,-0.056031602446739465,0.004149424244840077,-0.07678956212135743,-0.006007810582441917,0.03651234582334234,-0.00936270040986046,-0.12048533473483349,-0.06088137189766048,-0.01425180969528671,0.09592697213903006,0.00956270271074913,0.17526329160157858,-0.4109415718935803,-0.03591332781610672,-0.04703441993735883,0.009594046506107462,-0.038987835623329185,0.07016113044474882,0.02406399225653848],[-0.03324499934853971,0.011078326272829104,0.030642845052490555,-0.019730413302099466,0.08033392867669546,-0.09621688684987449,0.01784911490562103,-0.019644219285017462,0.002816873060907535,0.013618131606403494,0.021606887907804274,-0.013802877946706482,-0.02659796010121424,-0.07734145690988392,-0.02214263182252791,-0.0754633363302364,0.011315562250693224,-0.016782325253913148,0.15302924478719274,-0.07110066230212758,-0.032272947288071084,-0.07238258585503761,-0.00011948601558229068,0.06520342540104565,0.03717503929936836,0.0031878176916816255,-0.006145546305994677,-0.1013703853366094,0.07354351047943936,0.026845397800692866,0.5264981545010239,-0.043374858669025206,0.0027259598864428384,0.48343321037218434,0.008174249293115391,0.008978000574415865,-0.24893467694089813,-0.07686103202366303,0.01859277790641414,0.04792418903947251,0.018539310213916686,-0.010226029182607465,0.007930720058391164,-0.025194938919865333,0.017733332771501624,0.0029247735350160847,0.03255834709828337,0.0007875265611512186,-0.04396775061413938,-0.026180563002359686,0.05253557186301189,-0.044713577609456476,-0.027636847736935092,0.002005097510195968,-0.007081266324621676,-0.009149487871801115,-0.007808141770127243,0.09968344864933394,-0.06721347894212926,-0.018183403780809154],[-0.1103899151237624,-0.09898625013522384,-0.0705064457970327,0.010563073497811198,-0.05330859142351621,0.11200197464512572,0.0656966046099264,-0.13612745653894112,-0.01558608501425329,-0.06376376849755735,0.24919969220876292,0.11504399915428697,-0.01943823167944879,-0.059689650393790566,-0.014664147242306393,0.09216286220668443,0.029634771165119617,-0.02102711365568905,-0.16507415459694016,0.16566926995760492,-0.04072605613426863,0.09728695661614133,-0.08284293348971489,-0.02714978103426259,-0.19986513150113358,0.041812820653027556,0.13528364173249682,0.03667299424803567,0.0020193695100164727,0.0325983599592605,-0.04978058406625109,-0.02646048169380872,0.0268890889191235,0.0672555518350076,-0.08592112926723201,0.013356332787964534,0.35263440158917203,0.27498002161603846,-0.13236568454784156,-0.37756132230447453,-0.05074930381367587,0.014941003900696102,-0.09718920788642206,0.015570697942234079,-0.0012407809776862476,-0.04021875186002933,0.04833965134398511,0.041180740164940104,0.030459081995458475,0.030831832786655834,-0.10723438761316854,-0.001051639279203233,0.024026172131313722,0.01773221534609692,0.0565956520538372,0.21874303933837996,0.026872384648780338,0.009533522847894094,-0.12030114150919419,0.04449366420555234],[-0.08127960549962215,0.0022597101072923845,0.05616460875985673,-0.037861534104056,0.0038145088262035508,-0.02950821838335219,-0.014538307974409385,0.01972407010819003,0.03062542650837598,0.010649038554761011,-0.03461474572250029,-0.05645749040604889,0.016979783681425095,-0.009083049276695728,0.002506278164104799,-0.02877577348159538,0.12940317345403787,-0.07716902743255578,0.002764180415057651,0.011499709153753564,-0.01332652723923369,-0.022438642994141538,0.03842158852549773,0.004734300128881608,0.08315095923137172,-0.030672299439747436,-0.020984262088607496,-0.04122376499719476,0.04965430899269717,-0.033396906059392203,0.027914831807498774,0.014014077112314477,-0.0328222005720312,-0.08539833130273505,0.03892619926308712,0.008421466486815469,0.10345653416833517,0.0384573425788993,0.016148937500906985,1.1850472090826336,0.1631115505463062,-0.06348139111440192,0.13204716035862468,-0.05958130264327945,0.002673197378979685,-0.009497132578743104,-0.04682099940187688,-0.04976388309829449,0.013203743558500153,-0.006840384078717376,0.07091588845176752,-0.005076473625319421,-0.03606522362486847,-0.022205025208899776,-0.04850212699468128,-0.08184567250373467,-0.015322443744754536,0.06512363874594183,0.002605601671363982,0.016276519404116035]]]}],"OutputSize":{"X":22,"Y":1,"Z":1}}]},"Parameters":{"LearningRate":0.01,"Momentum":0.6,"WeightDecay":0.001}}