{"Network":{"Layers":[{"LayerType":"conv","InputSize":{"X":10,"Y":15,"Z":1},"Parameters":{"Stride":1,"KernelSize":5},"Weights":[{"TDSize":{"X":5,"Y":5,"Z":1},"Data":[[[0.29263026176411805,0.8838891492647281,0.6340059839314183,1.1766753018348712,-0.23261336851506603],[1.576960084358692,1.8854964885417107,2.312300701052147,0.7863856167923096,-0.6569964100823413],[1.6327232324071452,1.1125393470457952,2.17944496200367,-0.3574218371292975,-0.030487831659193262],[0.5291832174396828,-0.10752134085851349,1.0587794202865422,-1.2030484304584068,-0.1171019287418061],[-0.058894597852251616,-1.3018444922834114,0.20601498326606482,-1.5992575197280219,-0.584517093542697]]]},{"TDSize":{"X":5,"Y":5,"Z":1},"Data":[[[3.134023417567184,1.845159243348734,-0.26323528367587495,-0.6334799982857118,-3.13702257505747],[1.3429449835844125,1.3117997440865508,0.8455836434581301,0.24667063072022138,-2.1370782795859435],[1.1934424715723655,1.9380150003596328,0.17406356742046455,0.4881875571500759,-1.0379691018120012],[0.9160207531062973,2.082687294166501,-1.2471623815836281,-2.055150154821858,-1.5305849028023595],[0.004607781231363673,-0.02607777474184099,-0.9410455533555225,-0.9893536468571851,-0.3935928057733565]]]},{"TDSize":{"X":5,"Y":5,"Z":1},"Data":[[[-0.13509433355032424,-2.067697539950086,-1.3506253001862052,-1.7447347935444926,-1.0911694819747462],[2.0175580951435172,-0.148944399413597,0.3812978362975858,-0.3824794194235556,-1.7326519421993298],[2.8200313692066485,1.0589269175094116,1.6008526176041307,1.7057479897303094,-0.20629933330621106],[1.3235233378963744,0.4176075943462746,1.14121560144228,0.847617351782157,-0.46319199377939274],[-0.07723940346117221,-1.04098652525856,0.4341618243955247,-1.5859374085640747,-2.460980180843965]]]},{"TDSize":{"X":5,"Y":5,"Z":1},"Data":[[[0.5284990203499799,-0.19326535505531636,-0.054991984790126486,1.5926543097417052,1.867130443074817],[-0.17391131552086644,-0.9157068136218304,0.8954809717546175,2.1034049180476564,3.188301526184182],[0.42807380121559035,-1.292247010802137,-0.640733695603479,0.03522109580840369,2.4976840881273192],[1.3775872947642533,-0.4045906854457135,-1.4164488728941584,-2.5429760128835652,-0.7336176166927306],[1.8051621091277863,0.5183392102406713,-0.6576446932436085,-2.7006893629779025,-2.3427672356857854]]]}],"OutputSize":{"X":0,"Y":0,"Z":0}},{"LayerType":"relu","InputSize":{"X":6,"Y":11,"Z":4},"Parameters":{"Stride":0,"KernelSize":0},"OutputSize":{"X":0,"Y":0,"Z":0}},{"LayerType":"pool","InputSize":{"X":6,"Y":11,"Z":4},"Parameters":{"Stride":2,"KernelSize":2},"OutputSize":{"X":0,"Y":0,"Z":0}},{"LayerType":"fc","InputSize":{"X":3,"Y":5,"Z":4},"Parameters":{"Stride":0,"KernelSize":0},"Weights":[{"TDSize":{"X":60,"Y":22,"Z":1},"Data":[[[-1.0137739428494705,-0.6394075490817961,-0.07943028291588815,0.7206660290698843,-0.512701221403979,-0.05366494993260548,0.7000043017056476,0.05906459023482126,-0.2155319746153257,0.09627268206742096,0.49306513963345167,0.20589653052119708,-0.7790191712477663,-0.31068727824644604,-0.8417251081046265,-0.2571034378696748,-0.29376509240602267,0.494538762604569,0.6252829293429644,0.013985443696152537,-0.2581816162520279,0.43238276991241553,0.1393909668185509,0.14349289700500506,-0.23312506915997736,0.6228069495089728,-0.21681870159326586,0.31862509880402945,0.16782013721530506,0.7011612087247291,0.10629844060137994,0.23629466888658113,0.5947448318027045,0.2906878071339744,-0.04347433136884846,0.07463955409444836,0.034625952593157316,-0.15474653879977718,-0.48730173754900913,-0.12765616535317315,-0.36135636249650865,0.35986361288682567,0.2403293410331624,-0.47471560931799556,0.5007135579792554,0.5518860262732718,-0.29967064014225986,-0.0873519155901835,-0.5612454200876101,-0.028190269116228912,0.07151315604808937,-0.4046479685539361,-0.6455033704398392,0.33016809236645484,-0.3295006062438031,0.9428189231815466,0.8005376946443056,-0.14012244379120417,0.5036495778972294,-0.2685199369795012],[-0.024191501691809243,-0.3106664146754372,-0.4155549876096226,-0.09109645575411596,0.043321579142495244,-0.27614837467041375,-0.29558661269971204,0.1695297855742501,-1.0024831940891163,0.8355928975836988,0.7322223194494123,-0.35980500459434583,0.7704797606050879,-0.13804990225243727,0.46439941013373137,-0.30990235523059534,0.4906481423740789,0.5234875174150155,0.0014426963425037875,-0.24063170117472923,-0.17964870305458724,-0.5038360528746858,-0.08156247331833415,-0.791034121697947,0.32135434082197456,1.2444391383157618,-0.1117955619194919,0.3252985857213902,-0.23982099111306068,0.24187269892232904,0.3624231782325037,-0.2610720625122469,0.6263304136541257,0.08443143040435737,0.2497306847422455,-0.0840526828652882,0.3239423382348607,0.34483136350507726,0.16864210889989434,0.3670829034025465,-0.07579510018870114,0.3797147660607846,-0.48371924984095954,-0.6593195622077491,0.24183198422406482,0.3888574310788699,0.019354813351566184,-0.4986818604320994,0.029627760111051976,0.5101164240530641,-0.49625828002703154,-0.2844341390701533,-0.0131745748471103,0.28320577776140365,0.07106391044766223,0.5128462367685062,0.44671886856281084,-0.9139112433154997,-0.8073660195751856,0.5494469589554825],[0.2103158595444288,0.36450484084249035,0.4017097991463168,0.11429891384952999,0.1957186312498043,0.2692104597221768,0.34971368181166607,0.10066898751970739,-0.4328270040043218,-0.2753389659543686,0.3287827768481312,-0.3496122611913768,0.028643988048642873,0.42699332475119073,-0.38476536613644735,0.23913169220962885,-0.3461822739272805,-0.10808608571067127,0.41073427291006415,0.008002376922901958,0.15782024148066112,0.37402525257026636,-0.04090902875229181,-0.3805166059753591,-0.26335510031108367,-0.18630158965581858,-0.18718185416195346,0.37709309812668035,-0.028103845070728984,0.03087532967901819,0.024999654275217106,0.25762735928182473,-0.1549898600872928,-0.19952920030783905,0.18947424921816525,0.15143256284730594,0.4911101132929632,0.39628853133057607,-0.14884448485037896,0.3931083872788378,0.17051377819747807,0.29055000784988755,0.04605271742892995,0.301783141231489,0.312555174531833,0.25679816213644907,-0.1332502830362331,0.2113504354590056,-0.16638247728943678,-0.0005224275471022348,0.24349762927483687,-0.20734769980827888,0.12514410779350202,0.2540057702022994,0.3998291875317809,-0.055714744845453607,-0.1812237400143096,0.5073340314252422,0.018451373579729927,-0.3847993162201452],[0.4018932266021101,-0.2114611325767549,0.04502703052418569,-0.36665719016141246,-0.2822520366140795,0.5462306487803357,-2.1219923036978745,-0.49581834329104935,-2.05193525012433,1.9619733356098912,-0.6265005310253735,1.956073373561924,0.37268008089284166,0.6336245933250721,0.7442601125874452,-1.265278079766261,0.07723670009172677,-0.0689630762338763,1.9898418874191348,-0.056137525366548625,1.3570817377007631,0.43774801122880336,-0.31204402504712103,0.19281521272139032,-1.191793707853827,0.45728457717709653,-0.3101853001437744,-0.2888078542179923,-0.21208168044248163,0.39185528264800634,-0.7821586119105194,1.3809893485800309,-0.6330411170624394,-0.13092749437068005,1.1730159186036835,0.5775932074404568,-0.2889085493272549,0.6257796299183799,0.16867466025305333,-0.10871593103173192,0.3657281719360635,-0.5921897632016203,0.6811672325440142,1.5218300945770185,-1.7766171546120457,0.2795355290771196,-0.5899324315269665,-0.31758570950773274,1.0478814578308637,-1.1915054898937179,-0.32360333268867186,0.5922030101261742,-0.05964914238300272,0.785135367679905,0.4953427203564796,-0.5670452927316902,-0.8670668938102226,-1.0148837895968281,-1.1639224387487932,-1.1958909832823719],[-0.3185542076943445,0.03226572192377974,-0.48760531787105843,-0.25570449174752946,0.23912288714852406,0.6011385676776683,0.41814172891642737,-0.32572059243518864,-0.8652125620569149,0.28486813284963847,0.7993574586529975,-0.4063805606309311,-0.047388820850968634,-0.2221597541868585,0.767723145283386,0.6070487783034476,-0.000997946360712955,-0.5286415516999272,-0.021855653632562533,-0.297264556810291,0.41945559565020485,-0.17622805334224065,-0.316454015134479,-0.5694674548767308,0.20286569455049752,0.02080801971858879,-0.2790225159312541,-1.064710134258331,-0.6000764294522822,-0.765649342050422,0.36138574143789853,0.044826451808811146,0.3388477939455666,0.3040336033291026,-0.48834486714625375,0.3792599722737952,-0.020183207343268204,-0.11783290037219306,0.2326054003227672,-0.042892200060341244,-0.46063847598330554,-0.23873636610427537,-0.8752546456558258,-0.3964709291500221,0.559695126992765,-0.1108171799194526,0.5581395542259069,0.5917428093307117,-0.10342513630205312,-0.12112735697005679,0.19490345769166123,0.40869851918710454,0.2173969269845126,-0.4954876310815907,-0.07103212838620461,-0.6021210122094767,0.46229692786280274,1.3906218290359136,0.5491877327667355,-0.08635360787210054],[0.2109538553598182,-0.6062210919736952,-0.7117099291832784,-0.8645945400650558,0.4777259253909193,0.5364992466425945,-0.7805240060390102,0.19462484342021577,0.28846165488463915,0.8390347672644737,0.20883787374234655,0.06588439854279682,0.21474998777779322,0.2418139150917018,0.05810599734265762,0.0863563601859045,-0.6987134906392198,-0.12210103289889451,-0.2286561780140797,0.03484815982151843,-0.024182578703594595,0.23483269456759004,-0.2390259892762052,-0.0029247115436223,0.2660179808609123,-0.078666570690745,0.08105236231695538,-0.4647295005938243,-0.04911991165176174,-0.7950312959001941,-0.6040158846392389,0.4530600170127547,0.6377863196498927,-0.551412956466596,0.08857518529023058,0.6678272754059877,-0.4261266203437142,0.056262269151726815,0.5138782653330977,-0.04286071573608181,-0.5846762123859458,-0.17542865863351834,0.028765230877169933,-0.08342958928583546,0.13695560576087806,-0.2161732896413102,0.7705689125522114,0.2591905634043881,0.6696515844253125,-0.07432899585311338,0.3337188489365649,-0.03804845919519806,0.127233887745719,-0.8348650479497559,-0.005823589272594382,-0.08668024640595642,-0.2200765770414705,0.3793188412452092,0.06234352032524685,-0.009010267851808463],[-0.5317956959177331,0.24921994092559566,0.00005808847638961519,-0.5869943907092331,-0.22858928775813608,0.1378120226502511,-0.1472049799545038,-0.17671653917236219,-0.18926384641392152,0.5019686600602643,-0.9685727711811716,-0.7842748121248707,0.10078073495953496,0.2943994145587634,0.14608786522122247,-0.3101845984801129,-0.27304959060694595,-0.11703196122445093,0.35095226599311086,-0.5108595509501646,0.13602998139787045,-0.44997008744783723,0.2992051681339,0.2161530700051768,0.620447210702444,-0.28537026107090324,0.13452702075725234,0.033100175399885634,-0.2587145219893595,0.16091877512201358,0.034873456367674555,-0.24306008376035534,-0.0829293057580205,-0.1808235460544354,0.21772408966640863,-0.020806597206281002,-0.38315427985848405,0.2034635916724735,0.0594945283437574,0.25879441459855984,0.5789139730348435,0.0936741959892929,-0.5844913966621073,0.5657283187533294,-0.1838719800609812,0.5152092954630846,-0.29091870282243765,-0.43004625265021307,0.8590169336610055,0.11555851762570954,-0.6389606206987478,1.1923074346403777,0.44031712106031934,-0.06828665865537885,0.1442053643166773,0.4245666987470811,1.1963967001069393,0.2452295619377345,-0.13700294223391415,-0.2432137314102988],[-0.5035952712756118,0.0600490616326886,0.8003910509413305,0.7427388732767819,-0.04533060314713489,0.4713221264073698,0.3017805387722802,-0.7144025079571477,1.2744269667605463,-1.7512282158639185,-0.4130470891876604,-0.5549419574678437,-0.7049573347195583,0.022973326132422936,-0.505815425662589,-0.33758746918204763,-0.26187157091935587,-0.3593234158592911,0.45053093144530004,-0.10427773193344117,0.24472623651430594,0.9064303560998817,-0.10356297276711382,0.2739861227901639,-0.30772358321183974,-0.41744092822055456,0.19999136758916003,0.9768515829804176,0.4021659089283319,-0.7815880786830103,0.14176382602000218,-0.418879633403237,-0.3551315280369771,-0.6340309018678303,-0.20211179089480227,0.09321106303257023,-0.9196305691604572,0.002367733505154597,0.47162263412139416,-0.4919252173353159,0.22490406113568612,0.006232608906552237,0.804505335768725,0.626785665354289,-0.5353312701942332,0.229209688736689,0.4924965651046588,-0.4150756665103186,0.044494092320273584,-0.11536666964722714,0.17107744451674717,0.18097791380792086,0.46182853822070913,0.27070894839251,-0.1535312106670135,0.06531488581549516,-0.3722358417750858,0.06531493374188169,0.5715069789845004,-0.33608169685334144],[0.701961500602663,0.48955690525822965,-0.15879093156383634,0.6759146639248601,0.49853171561869364,-0.41076075383364297,-0.4247245756894103,0.5000310937523527,0.44084440430843874,-0.3563656107243803,0.22561157834232473,0.06516161889693263,-0.30013496892370817,0.14392582793958159,0.23772018945260948,0.6835862517087202,0.16975318476503018,-0.01619685761714556,-0.17657596189138403,-0.054091726993161955,0.21916068255708623,-0.6213910293443528,0.2956668950607519,0.6482072773792186,-0.40560169449588535,-0.6363199001255111,0.0026560156152684146,-0.1220926884378694,-0.1949349238423606,0.41600393107788974,0.029375424164364415,-0.3049658564601695,-0.03750338289064534,-0.05190884530297306,0.4894839704741529,0.48951294216933583,-0.14195751990378258,0.28711364616077273,0.3176400312365055,-0.19896054850166855,-0.5043140964422035,0.5619902503551932,-0.07519087270774089,0.05670326098574864,0.49386000602375624,-0.5817629782168725,0.15489551203722013,0.43724428677127736,-0.2392351232916139,-0.5572494890365514,0.15511937230547265,-0.03015777456386388,0.2387433008854847,-0.07715627361729921,0.5795897268272436,0.16942641627745164,0.18082891761742287,0.5516209684494943,-0.24778841212592667,-0.0635852114872537],[0.41328407306002296,-0.2542760045702593,-0.4104657074574189,0.5781820196966612,-0.3108793494466257,-0.0908736795122945,-0.17773584333051123,-0.34871916641700124,-0.2651510928062388,0.12338024146462821,0.16524258932594652,0.22141384980264472,0.5854238265726115,-0.498797896415065,-0.7871232654151983,-0.23937259444677347,-0.012510498999512962,-1.036104195894757,0.028667167418502598,0.7386859848169459,0.35532204731400957,0.5015855091551825,0.03374610369401008,0.3000006087610254,-0.08404618436550497,0.7592334524243859,0.6929897641802443,-0.45223166458245617,0.1284143024653766,1.7289264958317658,0.46398946097538424,0.37387219963853,0.7928179051069648,0.16564428425237404,-0.46571990026491544,-0.6786011596338684,-0.025462163263909193,0.22762529539883616,0.21304978562481683,-0.3510659917409922,-0.27417103206137317,-0.3174775152911501,0.5000105125459555,-0.12487538870482374,0.6845787689794964,-1.1169300756456169,0.023501279955534755,0.5007295326486693,0.12465907321065642,-0.08583859576270755,1.0960974683083258,-0.0523974540293199,0.09225232613617132,0.17663096689102906,-0.3457754987056877,0.1192202731348979,0.40845556497744495,-0.11500483548396424,0.05750097129655396,-1.0187771850219995],[-0.42931903620004624,-1.0509857941393133,-0.18525239804580534,0.14684533397601673,0.015835026005351725,0.3244404618358898,-0.8803766133149331,0.4215547374378208,-0.24010450211749254,0.7275781377665593,-0.36250207859653616,0.28824534795722107,-0.01849855349847336,0.3397985091894623,-0.5541372936041083,-1.26446390458914,-0.22422628446913262,0.20312783028426395,0.3776906283699611,0.42609825020516157,-0.827053569579782,0.24142522752840592,-0.20649382262588528,-0.6015978632642083,-0.2521662834029157,-0.0582628989289394,0.7360246516545655,0.7329045655780967,0.03691970119490545,0.22704343536603974,-0.054662102783811804,0.010446219529206865,0.1450161322423929,0.5905957157745125,0.6918309864825452,0.26444503131889224,0.19503347180386793,0.5985777427793106,1.1440279601220713,0.027474572612160294,-0.2286703016568916,-0.2828111670361631,0.992870289588013,1.060964968706933,-0.34093252506501015,0.3969691625568574,-0.19706089480463415,-1.1431182606511803,0.12396782978998208,0.7770385791292818,-0.6211395535624603,0.4414965715590325,-0.00006803075863214575,0.6584435411767913,-0.39071308882305034,-0.1001153815456013,-0.47221289201706185,-0.6974088297730912,0.13917647675749228,0.04739436746846801],[0.20723805740177806,-0.4351075992666524,-0.09988498687172738,-0.08533810967409923,-0.13824620321513242,0.21487577913821573,0.08969841633476229,0.22716761121194656,0.05121006597289263,0.6117698474396789,0.09284439700452027,1.1059747599766627,0.8462082602148245,-0.29825811968039345,-1.0515331629020297,0.1856693974451779,0.13226847429988103,0.1252055491926479,-0.07116709140247386,-0.02972811817100279,-0.1915804213774995,-0.5981925675996658,-0.1193244283935815,0.4272656826051462,-0.18141121876305702,-0.23283661917053483,0.603910558722667,-0.2116910858676287,0.6252782988149154,-0.07266204511933795,0.3135237308491941,0.3845012618488365,0.02470774014721879,-0.21182100666340267,-0.678411127104921,0.10767010194147593,0.23556954387127446,-0.18334690631711287,-0.21420249500671737,0.3731650700588993,-0.03008073343867656,0.025881765858430425,0.35190450995299244,0.10282007147511477,0.22134707901434403,0.8264216037616897,0.3860996313738364,-0.09498315486436165,-0.26715780338027917,0.11932527815250647,-0.07025638181126598,-0.35924486639333136,-0.3406360350775179,-0.35904592370527977,0.7781014060464355,0.2454480445228827,-0.7427826776325718,-0.48159770681885167,0.28886198945630964,-0.19221775471621494],[-0.0022005659081235055,-0.068446563478344,-0.17630829839920747,0.44223823845139393,0.15298589133918125,0.47488143974733427,0.21009893918853692,-0.2045513912654788,0.3696200066317665,0.4306553242268326,-0.2888190055028625,-0.11897278813214583,0.11538769847599531,0.3963395812110518,-0.23991831578110254,0.2318090556143324,-0.3484497335614082,-0.20331183379381856,0.25481819727640714,0.014825985347423392,-0.3613791464134934,-0.07653939434368424,0.35300046175407807,-0.08568795998319619,0.5031904278369969,-0.2996912861347317,0.3521513799616784,0.21591482195931028,0.1478305844806632,0.34956505288517487,0.22999579932192643,-0.0822032440478736,-0.02572162301656159,0.3974032582250382,0.09976244506743852,0.09522228716322101,-0.041238725506044495,-0.09317730358239586,0.43162003515930186,0.0418182055587197,-0.32254090132244556,-0.11563933348536466,-0.19271586684994746,0.18249802387686762,0.058035844980812205,-0.3667345551616464,-0.11417065070558707,-0.2826421132042016,-0.12651525258513446,-0.37879403352629143,0.13337965625657872,0.473777498742073,-0.32319766524354687,-0.07985875034196876,0.24862536918779135,-0.3879508493031487,0.10265856142089946,-0.3012982943703429,-0.23334697847759625,0.5746471922867165],[-0.028458470997145723,-0.40430031049473153,-0.5305830941926781,0.31434412041447196,-0.0955503590712735,-0.7307443912398384,0.6966968840809111,0.43362798355870946,-0.37476271447675125,0.5243392173745075,0.23477457286758427,0.01119631106086733,-0.6905339802694747,-0.52809722758741,-0.4808930315061423,0.02000350320685957,-0.00221048438902426,-0.003177231935273055,-0.4864116448894377,-0.08905296248720895,0.5416252570434541,-0.14644747126834054,-0.2275126030704261,0.31558550210406416,-0.16155446725271233,0.26004914468032614,0.2390476812547907,0.6468565220812549,-0.07830012136071804,-0.4727107295522055,0.19329632473777544,0.059774074200433715,0.3195752097340705,0.38495628443839885,-0.3183333761719182,0.2845876952153972,0.13602865872510841,0.0817858202658703,0.13530334128595875,0.3817792920896664,-0.014015141668077132,-0.3010479555126629,-0.4635973723189728,-1.1626752666117497,-1.2931251930767176,0.20887920707953292,0.5088928739705229,0.5561874430781881,-0.00045820743339254665,-0.10499675175162043,0.4689797506629281,-0.21329191706407727,-0.03130871860166021,-0.21709367159345455,-0.6792222927290124,0.23848787157037657,-0.028040675151075636,0.04868883098251863,0.9544257008710846,0.10564859039950861],[0.2018221918046896,-0.07630190588914837,0.18540725805608907,-0.26790064728264207,-0.5792657940424072,0.48904138157543103,0.7869397597143724,-0.4532407451420778,0.4637075399862944,0.5507953299272621,0.7187511403072199,-0.014496354367383576,0.4233133560626979,-1.1644125831547334,-0.15092193872942505,-0.04163362187403794,0.42642802678069736,-0.1652193398362231,-0.8574814473298608,-0.0714697503865077,-1.1615143039175098,-0.19665355249269248,-0.399473337916068,-0.7614305527439159,-0.13484941885062482,-0.3173557592022306,-0.014465359062394509,-0.06725889753443956,0.0961595758911248,-1.1186028619087536,-0.6038607410774443,-0.2215490588014048,0.01668451966616478,-0.06648732843870012,-0.776419445756374,-0.38094575308666667,-0.7000107774159059,-0.4593537009683627,0.33359819244870537,0.11635545279054911,0.20804532591691433,0.0006371980507226659,-0.1434998030036188,0.21428369456956414,-0.36312267874910326,0.3802900440897038,0.9494618744137013,-0.4388195746410177,-0.02380878883605182,0.30998912803258566,0.9292645992515863,-0.42276875616148146,0.9486855931180939,0.8243960900665639,0.24471423395800648,0.8871263090447618,0.45564105422202894,1.3873107709907233,0.19992326470161917,0.6553663670657894],[-0.3258187699454823,0.08513452894812483,-0.5533559462378645,-0.038143458744804994,-0.19268524087428343,0.33000241495678384,-0.33287993556394235,-0.03607087943978152,0.6415953109718241,-0.8698179808482069,-0.21193391005744094,0.8785677461767099,-1.3256107736287635,-1.0054029016529673,0.29915277453207945,0.27161736620703,-0.8342562554672869,-0.0604207290636193,0.3227432127760359,0.6315848690915883,0.7456391315958829,0.42848586880098616,0.03762506777480947,0.7803694925676382,0.5427922325059106,-0.9391768816358522,0.5197669557426363,-0.32108769643163976,-1.021719395371356,0.5274131535433422,0.24841453907514197,0.526763464413244,0.18816960949366512,0.4413722064961752,-0.2082624923211878,0.512061573132846,0.38448235494105276,-1.0078536149930477,-0.4468840688395983,-0.2579903882036637,0.5696208269012599,-0.04676473463170759,0.16429689707556444,-0.10632709052871119,0.7663978528138399,-0.34760918581833755,-0.10673783738068061,-0.33848975158927647,0.14652133800412367,-0.4376636210755991,-0.7495323354685564,-0.07807114134255208,0.019404260056820086,0.006076274724659783,-0.04145405280111498,-0.26517386942805526,-0.3384779176050803,-0.17315549403389097,-0.3558454230321284,0.37742169036861956],[-0.7562135541558125,0.5156479699234999,0.9264394058059172,-0.25913469678034773,0.3527776859682262,-1.664422536698428,1.9529594722735504,0.26669501261902373,-0.2378198022321411,0.4374417259486999,-0.6537068666741733,-0.9404952884390662,-0.6269385897654118,0.7584941290518395,-1.2276754154737366,2.331857740063493,-0.12140077124431893,2.287724110177881,-1.9788101492972137,0.31595342131268495,-1.9987689004228584,-0.9510445870006238,-0.16818432176040407,1.1021320843709936,-0.30365512952156254,-0.35479382226368583,0.23933694050176196,-0.4739327067983509,-0.6857001386569508,0.40852566205027596,0.3537769484155629,-1.0903184116048077,0.030833306775053363,-0.17597959700575827,0.6297521645232828,-0.800849689596901,-0.2736843455430391,-0.8405674941151904,-0.5227262608138078,0.8953730314580094,0.6765876331536483,0.16217954910513196,-0.8823511705767615,-0.2811318177475604,1.552508452871279,-0.016510572678006083,-0.6843390545484381,0.46243294416838154,-0.4629190435703704,0.6043683817710682,-0.18402112622670402,-0.1260511991555751,-0.12281190210959013,-1.2552912980351372,0.2905288484675846,1.7284003517806232,1.0565325868672293,0.3245951390406333,0.7998003331662996,1.5681036606886711],[0.18818356171114942,0.16021508215442204,0.005919930640550265,-0.4478534881683799,-0.5001688601692105,-0.15587079376347696,0.07052189725379396,-0.35575637626541623,-1.5103417326766688,1.7754933242928732,-0.3602174367316237,-0.8759592817969607,0.060250685340280566,0.6915839895975,-0.5689946048441774,0.5603114703796999,0.00926597206567324,0.6291044879291433,0.18108580619956322,-0.18652899607911852,0.045512938159536304,-0.5158855195061872,0.4416379115332319,0.3000095474946332,-0.7967770043427441,-0.2403841037138422,-0.14946921877707003,-0.17945620314427874,-0.931264258028448,0.736901989142689,0.030655262448842795,-0.3951075140713469,0.145514274740202,0.1615318294579576,-0.17922886756971962,0.03312226985936728,-0.06012145605030117,-0.26967675670279045,-0.11133258026819706,0.11870593742143672,0.852510608593708,0.9429529883226326,-1.8977180299158278,-0.8861111876023583,0.5942026268604638,0.30416249718146227,-0.3101291529600541,-0.021832019689553315,0.19119285688872215,0.0374364527881328,0.1913805811633747,0.7265333571484192,0.2910254784745514,0.5917804026041518,-0.08801656458678368,0.8633166844011634,0.8871475749777192,-0.2269984267572104,0.10058867333179496,0.09806469616119247],[-0.5851516159547067,-0.017828484247703138,1.043917155354734,0.16537158604641994,-0.20170550711881632,-0.056299844521227556,-0.3408376053430522,-0.43913118360275544,-0.042956750700245606,0.056595721130950294,-0.6688702390733794,-0.08856894931568526,-0.4378418953354718,0.5865584419936297,-0.21228617258592955,-0.09998593181427913,0.08240337754045261,0.5088428529791464,0.014208834193938502,-0.2505032133864213,0.5009134692147219,-0.1693590998125721,0.2514598106781675,0.04072797297250534,0.07805858585200234,0.05954875064576503,-0.6152016151826291,-0.49967220070596474,-0.07561214952969914,-0.6904592560209094,0.00391693672176429,-0.7625083378733327,-0.1216553832303785,-0.029937013477933146,0.39967500139416123,0.23536812652285646,0.16102956851963468,-0.37105658858707724,0.056745236964656415,-0.0880172877002111,0.40194806460058824,0.25703508568143785,0.03453799523274152,-0.18169525525096378,-0.3077863033316597,0.684598627902967,0.20174863667168041,0.23796198428846413,0.34024404552041576,-0.10464498303312067,-0.5689166968549818,0.016687550695806082,0.1336850408333775,0.1047764409878996,-0.15960992608285823,0.18971871932766837,0.27750341550293167,-0.3056904092009733,-0.6046293642491201,0.3602790311492147],[0.1662613886111863,-0.3484748529025755,-0.46008304623365576,0.022480675894078324,-0.47740713274396956,-0.23349796945585605,-0.4926112943506453,0.1401013799559878,0.1275855169295591,0.14509061072802593,-0.4424803229172548,-0.34793956999136005,0.2393772211590612,0.2200930568374565,0.12080731757120551,-0.18616697254003323,-0.085698325826805,-0.44498749686063777,-0.3410649247305311,-0.14381356459370406,-0.5063327171322617,0.4234929118031062,-0.5053529329791187,0.3112198196297591,-0.018583374214906533,-0.28238568663056274,0.170935213309448,-0.33609945081557213,0.23403591285020048,-0.2890324452638863,-0.013769179228955281,0.13913185370903805,0.2023872550248605,0.1860147559453156,0.4123825625227772,-0.38901433360616267,-0.30253636471643713,0.43787367137110533,0.3127246851458064,0.01954925197280462,-0.3148074946934465,0.008772949437393988,-0.15072865790737683,-0.13661917492105177,-0.41497640107763345,0.44461480048016466,0.10414932121933404,-0.1793716277339484,0.25084364420932515,0.17325000963420187,0.1422377241331816,-0.3852634589148261,-0.3132130826877453,0.018663457344577916,-0.3379505378905627,0.1673211403928519,0.028877036669116948,-0.18330041351921256,0.11986736986083132,0.03729440397872547],[-0.7037731753069736,0.01617737721052988,0.40420087148481765,0.2914344910748199,0.07039644210036616,0.16130700806354,0.15830038008763808,0.3067880232753503,0.3226783745567404,-0.10637655192599083,-0.45009114734190653,-0.44178574713427804,0.7731239029216357,-0.72732333754358,-1.0418294348985417,-0.8320416078563646,0.09381923535991915,0.702790302440027,0.04637290210243288,-0.4088340890518085,-0.022083083202940522,-0.3804641244231786,0.044343261537640156,0.7698582693205694,0.18870964215807567,0.41899877350731235,0.7128773514133898,0.27119646828154964,0.7809273091399105,1.2199430720278033,0.9418294194707092,0.25500197530181296,-0.2560346444958145,0.7530246186938346,-0.5845240795338993,0.100764760754111,-0.25626637395253915,0.5360470896513014,0.3951067556356901,0.6357773796378482,-1.0209801980531727,-0.2829980938259424,0.8164419071717499,0.40963266999515874,0.019257040740453632,0.6776601887055841,0.10635434763553638,0.24089571423307687,-0.8852286546503855,-0.18257720482626436,-0.27137703395243407,0.03915752612539084,-0.21520739061710112,-0.7330468208142387,-0.755127480453998,-0.27799037446670694,-0.24724027801144435,0.4020096056706136,1.2089934339201334,-0.28472819415074024],[0.18738057234911806,-0.24509206209382778,0.04481420243001652,0.22314266803387217,0.4942668109537692,0.15317702712565454,0.13457912679407855,0.23128081292901423,0.3135266929132965,0.24584237790157154,0.507502010355736,0.38236885123497477,0.09187502044805804,-0.1831294584573492,0.2875352527572363,-0.014048913608576623,0.5296357473486404,-0.13650829487465116,0.2424347259627111,-0.40373995712610045,-0.2711491072700887,-0.22837446585222393,0.2620654197525574,0.2560897639377152,0.2640567712505928,0.02254806304788826,0.5077258832539313,0.5152315616213728,0.14966986924174586,0.14685860038432993,-0.4613442793555598,-0.22267550785307128,-0.13781077907309483,-0.061286858640723654,0.09537524049989422,0.34360980955434806,0.343435245560398,0.2408169596465686,0.13869774753467493,-0.16432094448664458,0.15671556256244484,-0.05976378224070187,0.13130512121354213,-0.12191815154429674,0.2677477069014109,-0.1559286038528058,0.06603990532673844,-0.4599630452954426,0.07793923009025505,-0.09283812275040898,-0.1973088455037822,0.060591682711636244,0.25584545050601615,-0.0627803060241773,-0.13988225700858756,-0.2682457695618073,-0.07250569727176033,0.34559846165645836,0.33567714336792476,-0.34592574455641206]]]}],"OutputSize":{"X":22,"Y":1,"Z":1}},{"LayerType":"fc","InputSize":{"X":22,"Y":1,"Z":1},"Parameters":{"Stride":0,"KernelSize":0},"Weights":[{"TDSize":{"X":22,"Y":44,"Z":1},"Data":[[[0.28366285679141423,-0.6144573137286636,-0.14544948476152686,-0.4348501256702527,1.6303111302800275,-0.13155058011535167,-0.6795308666580798,0.6101460900846039,-0.4456759415623693,1.2359096362998196,-1.1811006015582024,-0.48928100079811543,0.019041660059434723,0.5688360983721614,0.49138769800880133,1.2810820722285714,-1.7725107397787612,-1.9681794626726565,-0.9506958285933592,0.34242004192883047,0.2781539062895597,0.6782842500252514],[0.5847467577084762,-0.8098123706916308,0.02123159863411257,-0.003874648931592419,-1.462773171391785,-1.486037911580692,2.2612033791843316,2.186382004635833,-0.8141961762767852,-0.2922048252268181,2.449211516952011,-1.53331955014742,0.034781748571552404,-0.9404473538905713,1.8329488484003815,0.8551119311715176,-0.8694335022299359,-0.15429093174094133,0.18895058461470043,-0.44910376419646,0.47350624233851263,-0.03855838702378538],[0.6784585282937239,2.3845663938874035,0.18152247655175852,-0.8169938632095584,2.4273375116854634,0.5213519666639125,-0.8515365333822479,-0.5850147086349552,0.3241836212583916,-0.7913388944057475,0.49850167790328226,-0.6905268427807518,0.08536136974440894,-0.7984337217201971,0.22667897259193234,0.2368261926602987,-0.7624513528242162,-1.9691848614606198,0.22173554810976676,-0.4202844183618546,0.4413973510278842,-0.21634743746887442],[-0.18446169064000126,0.929312427564196,-0.16362736397646335,0.5877481767462497,0.5653356724107128,1.137912547766589,0.5608308246360546,0.02293359705006305,-0.08315804947031956,1.7264094209617045,1.4737021544776963,-1.134766934248148,0.16650555049885143,0.29824618389208984,-0.518760915885464,-2.091174557302791,-2.806889821319072,-0.4603925271201323,-1.0908871994033582,-0.078503978460841,1.0575190473997085,0.4160462636402908],[1.9414363644869708,-0.681494784895645,-0.28826734523861,-0.03710237706826369,-1.8087273052397932,-1.1829991312865753,-0.7454254949911086,0.16987275610184033,0.6222176862445268,0.5092207026985376,1.2424674130243911,1.2334357694009173,-0.4044609326066424,-0.21078581238370012,-2.235496050754489,0.656596544829701,2.4789280070830357,0.5549367509638657,0.9098362403882284,-0.08453462944800261,0.8664404152416132,-0.6340957000782692],[0.012238624750303226,-0.04796639285397306,-0.2946807156745809,-0.4188057643100153,-1.2287522623957314,0.24134579828938052,-0.6953161225075734,-0.20682125490550451,0.15442052799546455,0.29404230641895274,1.4084370976129381,1.2977343868228741,0.10674729820348393,-0.18795513677366904,0.21936798373693264,0.31327026101342437,0.48274400892063585,0.3824430919983848,0.13602376553429799,-0.4060710679211484,1.2049803634132399,0.25416810745594304],[-0.8590269183928035,0.5524776247133738,-0.20619766883550347,1.0911524165836535,1.0561674474768161,-0.37566587963057463,0.8067336015298759,-0.038979676840648625,-0.5627782770157304,0.31301928907010057,-0.5482994724143441,-0.9021367291650054,-0.038884714524097065,0.27522421059450436,-0.6003637642497619,-0.6991280936236831,-0.8951143447515701,1.8621639713453904,0.7622302271634442,-0.45199570449637066,0.5077151127238354,0.29123156862678873],[-0.24972670977601816,0.6755379943546557,-0.016432570898710037,-1.0502165122156564,1.8749270281157135,1.2216519842020392,0.35314976476624954,-2.812086975106361,-0.30764140094664927,-0.33147213277643073,0.2504191746719202,-0.55881142685737,-0.47809264051458994,0.5011193511044386,1.65438291899662,0.09267387641085703,1.9919349436542784,2.037734135740589,-0.7671647594056442,-0.013731523163735146,-0.9509173474381887,-0.6429159125078414],[0.06565719313270126,-1.6507141726947288,-0.2124600136480071,-0.8725421420379126,0.49010042373071155,0.7178648284535855,1.0229198434416304,1.3008505830708703,1.1818367644790515,0.2685911582122811,0.39875783176430446,-1.7122478184163596,0.7425646431367943,-2.191132402997815,0.038363170812764406,0.8582542385603573,0.15094181416026722,0.4567117629115831,-1.1847940024190609,-0.05883258340337882,0.0638726220100088,0.42926645911262157],[1.0821447312470003,0.5528816141944118,0.03866974772721291,-1.4863445434469358,-1.5987936943720413,-1.9478888828015832,0.6044305088502508,2.9550206747731735,0.9705834679428019,0.9844083737801871,0.9121916554860989,-1.022847453736758,0.376547977624226,1.6742083261831382,-0.16191733709465342,-0.48933526106779485,-0.6671677503298511,-0.8564256688706475,0.5238820190768702,0.29656822712697456,0.4237037845766099,0.39310448554326755],[0.9415851921451616,0.11923354681508316,0.4340367035157047,0.9328906627932255,0.33085781688151883,-0.7421959580120171,0.40435925890183017,-0.18154087989427645,-1.3391888824579719,-1.4526838651735,2.4353658674065666,0.23539636184030066,0.41657139967960566,0.6124227500465014,0.31178151308382734,0.22970309933711133,-1.2495925650804542,-1.2631697526439731,-0.07364700800902738,0.4555638844423765,-0.8022720799994876,0.6220452097719976],[-0.5584715006302524,-0.42560396367359804,0.4338668056502562,-0.3187852304034619,-0.25155871722012535,-1.075162277571348,0.1886277567611404,1.131220793524097,-0.5336156279675561,-1.4987790577788682,-0.3821714981893247,-0.4275413795782272,0.7712601506841482,-0.2736891456057084,1.4359888404572818,0.4703438327926717,-1.351664105809592,0.4402877901858264,1.0129054100639299,-0.3593940790994354,-0.49837132297261477,-0.09991527464547814],[0.7349824524241786,0.5842806909181857,-0.0591258305051116,1.4462034009229936,-1.0557773529091812,-0.10883832089191678,0.2948692730896854,-0.5433055365852888,0.3664284420310693,-0.7082955276536627,0.10691674256609064,0.7490729605862805,0.4059211941340977,-1.5817601968731254,-1.4470688301655512,0.5406006436634582,1.5045022705969264,0.0846675522486162,0.3688752867576514,0.2838208153979151,-1.0567344501836387,0.6340981733172921],[-0.6229165958142242,0.3109054019602831,-0.5374322198567242,0.9880357354116655,-1.1810677767469633,-0.40056589560771616,-1.4906657801272765,-0.3972386063975557,1.3910522910661416,1.537807054914601,0.26756812050467715,0.8610812941452306,-0.06150233884061383,0.17156048567285473,0.8010746748596352,-2.1000621842526344,-1.308211773386863,0.10549124649073482,-0.9488228846335793,0.2539809169740611,-0.2890956942811859,0.44635648462134275],[-0.08808974351514323,-1.8519075219501324,0.09836266269341856,0.11320336971769378,-0.27977002574382825,0.6677715045513132,0.12097041488816476,1.2440800404208279,0.7767626746689151,-0.1439490078245054,0.11702296178035297,0.5328498974616728,-0.30033057430451665,-0.015464505554176833,-1.5256719929165419,0.5756781422387132,-0.11495096996177688,-1.6842569352357644,-0.39468786630882663,-0.04372241679603769,0.41449060663990117,0.13138223668340387],[1.4607995399942169,-0.08551602842565538,-0.6814052557264807,-0.955443984176922,0.5394610434239843,-1.1627760123402775,1.5259709272666748,-0.7900660060394973,-0.21545888952108022,0.5591781916024364,-1.453701087304839,-1.1046203979944438,-0.11736310011500983,0.15957093649340282,-2.0461372165719243,1.4515277389013965,2.1654036059002375,2.7647227655598807,0.8523744698902938,0.4302710850898645,0.7469975006647604,-0.6617581809270549],[-0.9155308613570693,-1.355700685012865,-0.2057949378763947,1.21417646523954,-1.3005906322613185,0.26761257553817974,-1.2777921896594895,0.375161452610943,0.25240303029822003,1.6301528954910371,-0.9757050045436136,0.08614027971301164,0.6964658828296423,0.4167822973310951,0.3096072572292432,0.9182824981388281,-0.8119363014544408,-0.21784695352368796,-0.09951986398271119,-0.3067251725874984,0.6528882933886108,0.3922288569089147],[-1.3103405624198976,1.451647756751905,0.410288223027343,1.179757831781085,-0.6346780629731336,0.21002196392032252,-0.6166301835357175,0.6867240289627825,1.6554876723126184,0.14896382872735942,-0.27951824022750293,0.8541681161109947,-0.1479865959825835,-0.6892584247300787,0.8324706587467485,-1.3436284131073277,-0.9523401544064379,-0.12301612665247579,-0.5862167800500541,-0.39277343864065795,-2.860578939782787,0.06674818041572063],[0.8977874438083366,2.112823088777812,0.25315326063030175,-1.3825784743896672,-1.226745235012448,-1.5220031445636963,0.0582889001048174,0.7788444352417762,0.08703208433031068,1.8548454226964655,-0.11027994360078927,-0.5318613482494706,-0.006033900145988551,1.6262113059450063,-0.7430707043171577,0.13333006957627536,-0.000693843941013365,0.4909337526829293,-0.8714956448126752,0.442002260764438,0.11291652300136318,0.1255535189437056],[-0.5293075987816993,-0.10294684457467997,0.20125807134693532,2.5294472322887374,-0.3058476690712687,0.6786675281129276,0.44982227030606353,-1.9229458115047184,-0.09153472621227997,-1.2432459868765549,1.0597669779863321,1.1601318913850203,0.16259999367669006,-1.5864859978632744,-1.5568486453957417,0.21329949394618045,1.0669087498130616,1.235101024222047,1.0470106127062013,-0.024708806182592587,-0.002096047785143404,-0.4103739724191619],[-1.949583168927213,1.933449152848276,0.18108460853692884,-0.24966245397929115,-0.5090932872996579,-0.5993543844401981,0.29393433416586146,-0.48675701670187865,-0.9416085192800092,-1.0066377321651165,-2.192250360042065,0.6214648696444541,-0.4940052703735808,1.4707097402364298,0.015414576680023825,-0.004362203166227252,0.4194926979809267,0.17100677658439586,2.1422622839416365,0.03592317561368224,0.9267062874133808,0.06410427226720547],[-0.6874318971992482,0.14205262569684857,0.30933200521942267,1.7727464873853176,-1.3188812416569986,-0.7590770222509601,0.8243837806073973,0.5314403424435539,-0.19528099372380456,-1.920498917801146,-0.9340291509197229,1.573582764530731,0.2712858781082543,-0.7259604363407864,0.011028875189009987,-0.035390117063280394,0.0213421105270413,-0.7788490221923927,1.4663782656156599,0.13678141661024384,-0.28408739187901516,0.07013435161417779],[-0.14685929693302335,2.3734054375664013,0.5577213594298491,-0.014286021806358221,0.9048090794005907,0.8118844291200638,-0.29395666520811997,-1.519800030963458,-0.4329548638117739,-2.638506226435816,1.4431130200691973,0.4114336089499997,0.16753419366542968,2.359407097355162,0.6864350122136533,0.12694762963358538,-1.0567586599746523,-1.1583092779636999,1.5457072622100516,-0.019764647326191948,-1.8148039298185834,0.411258171714111],[1.2115297347786491,1.033229555356696,0.47488330294200554,-1.9336954032450349,1.5485048698584367,-0.6464690561196065,1.3998324774542086,0.5696923038332803,1.3227350410138465,-0.24091050810542222,-1.4158458594776626,-2.3793038512249707,0.2514487482954548,0.6248427095787713,-0.983577669082922,2.027207391426779,1.2007545575125824,0.36114754600337934,0.878605617478743,0.13625858661912724,-2.009740053539902,0.3948585151982293],[1.1514865551125746,-0.7170941088138565,0.08325763014803934,-0.5379869366330222,0.11003958436762758,-1.8859537608873789,-0.8053557780429351,-0.021863310441337627,-0.8165178324350663,1.7251149397209429,-1.2508779691931653,0.010582850818161033,0.5625103275354405,-0.6042858525019598,0.31926199520277765,1.4152847267924735,1.0243444205000658,1.8882704899709994,-0.2648132408239853,0.1742493420294038,0.2666591344358417,-0.13124560459440895],[0.39161077507104686,-1.0851646097816392,-0.15338778027492053,-1.636669479312032,0.9321066664745257,-0.3634516967776102,-0.42492434755879965,0.7641677816741805,0.09077676890249917,0.8031433837136205,0.06294518862354215,0.6534324889672446,0.34084682359421486,0.5868208514692355,1.1354989282309313,-0.1861252524601553,0.04851994741963823,-1.88628696600563,-1.308528069116345,-0.27861903327109855,0.218807552697078,-0.19111179083467084],[-1.0920944748493011,-0.2490443989598762,0.13516470133615924,0.9099847278930043,-1.2212171434715757,-0.05685566409908364,0.9146694785378413,0.7569409355124427,-0.8210564996461959,-2.266392340555827,1.642614730706116,0.9822558094053849,-0.2196176692389806,-0.704794337230255,2.0587059382910318,0.9171214208336371,-0.16835172161126596,-0.5093744583721185,1.6702785473345265,-0.35720501326039966,-0.03452313771872827,0.4011534647420529],[0.2187526554790126,0.4880491019131758,0.18060255251326363,-0.6281107370003457,0.4259466054059762,-0.1871615426833499,0.8340125631909919,0.7181050707992203,-0.020665290023843496,-1.2115648477568282,1.0375955118763438,-0.044090454446049546,-0.4150084935006738,0.8945810123289666,0.08393335037096394,-0.056747708388719294,0.7613388217467854,-0.7466420283197338,0.4994031963449356,-0.14359193362473932,1.221863226041663,0.31596601392986756],[0.9651462105509643,-0.6630129434388395,0.6160554613501639,0.9412006992956219,-0.524629880841397,-0.5373469674786886,1.4943904881845849,-0.426429156964171,-0.822416152862095,-0.9960264866919911,-0.3671036632055118,0.47262192618191307,0.469974584775664,1.1025192582048382,0.4347945156630842,-0.17221863216493996,-0.3157196320145678,1.5639904226832901,1.0854232305795668,-0.36595916298243997,-1.9192912625366494,0.34554738323639894],[0.3797314348228987,-0.18480601956862583,0.008602955835709445,-1.0438798147605943,-0.19050940055959512,-0.4144400002041571,-2.521047026666013,-1.505871195850234,-1.2320727046221833,0.6754576106666683,-1.6500173694797569,2.2096644698407224,0.39438832018975745,1.2219637335127174,0.8194628282397798,0.9516977401305774,1.2654457409759758,-0.6458888468118439,-0.033295399551252526,0.23425945980103013,0.9223684865964485,0.3371557250473816],[0.21092728522991946,0.8730365715757437,0.612047453061473,0.7811347868290616,0.22539106914838458,-0.7122192493637967,-1.2765195822197828,-0.42364083950104814,-0.5299883654695104,-0.8528624470357087,-0.3603681640631267,0.8261428041089346,0.29987044270889124,0.18299584606481328,0.8332253287462593,0.5486590500898716,-1.4883811858436784,-1.4458270489631213,1.088727875246234,-0.17016143611986817,-0.8891493444350466,0.8648713321459409],[-1.5819162612723476,0.31848119748236736,-0.1958399736398586,-2.3289907109204706,0.24257354855706412,-0.016442458300629237,-0.09815453304811361,-0.18885924045215588,0.574672951441478,1.0288516998727741,-0.46096883223947543,-0.1498390590307235,-0.03222883968567579,0.3721820234013452,2.4770131205988717,-0.24878097214529277,1.10524604231386,-0.3281012877041832,-0.9086434096201633,0.444235295721808,-0.23001699940946316,-0.009162382758787935],[1.3431453314433877,-0.6732916377004705,0.30578822808481054,-1.881489373690623,1.1705249466604715,-0.8555811859630322,-1.4330712833345087,-0.01599226894848084,-0.21758029930457692,-0.10080172791958476,-0.44816835989174075,0.3105248998917871,0.0832430340553373,0.1056362095565256,3.084789080692302,-1.0882174381814966,-1.1495441779173563,-0.39411181468770173,-1.501273958482569,-0.2394766543910268,-1.3044579863543388,-0.24297511842429786],[1.4879625294581607,1.1037018610791849,-0.04818641934433342,-1.139911701625394,-1.5904426524054214,-1.2615601507502499,-0.45290333690734996,0.41801750465125553,-0.3422189674451721,-0.2787183630715363,1.8480169877509838,-0.3348073770776183,0.10747001296781869,0.13804385263915864,-1.1596957190819945,1.8084020069087565,1.899315184942453,-0.1922775321440654,1.1420055176561053,0.3118351177676827,1.418628298744529,0.26697024610308395],[-0.4068489336027184,1.0489926027261294,-0.10386054806140523,-0.029882575901348365,0.45434972177558997,0.5742023317247634,-0.06458886208871432,0.9019785657443845,-0.1434361241251364,2.322518038353401,1.6596511830738403,-0.870868744352588,-0.4779231210138958,-0.17035687265399496,0.17515274737968425,-2.4647084499860235,-2.610438377842277,-0.3878809653210009,-1.935609359812129,0.24778390730438682,1.819630958450065,-0.009096142755581474],[-0.976779666483588,0.30082547286264544,-0.12989718635485023,1.6358588651638986,0.9927453532735374,1.7010793097157466,-0.7628698541685409,-1.2513670470651796,1.6106939738018393,1.4380502477620207,-1.409357324043673,-0.051148535294175776,-0.267935822754196,0.22790397228100945,-2.3628519616313457,0.033770562851112386,0.263988248556352,0.49126776302492375,-0.2895467590970689,0.29610862867776744,0.34401470363182474,-0.05381178092568237],[1.3643519398866968,0.5398969133537376,-0.323707039696262,-0.2428299037028653,-0.4682424552425639,-1.2035738561365663,-1.1906301151958156,-0.4976385683436853,-0.39563271595188415,1.6922834823156676,-0.1576554158491892,2.2841902407865917,0.012226807467639446,0.5985559314595755,-0.6488017974728494,-0.75030475817163,-0.321733404040178,0.46973784807049096,0.056856686821618964,0.4189843894694999,1.6311422408166871,0.17656807591396328],[-1.251480544207275,1.6090760882892228,0.4598394314354735,0.3044931619389548,0.10477063086343054,0.12659170920699675,-0.1596791662420684,-1.9184946241697225,0.14855986494779788,0.47743686528308,-2.295658918954581,-0.2354252275368038,-0.34489213630490273,0.4934950920790645,1.9035026742902321,-1.2712765616169077,-0.7375230991057706,2.2604165687787328,-0.31721866168166657,-0.09035929626504727,-2.592334666277908,0.25698030012916456],[-0.024510254352445967,-0.7295111752403239,-0.2742566677470406,-0.31249215626514043,1.1923737537616474,1.1364560936055819,1.9286156871159128,-0.4501341087495407,-0.5893448164075804,0.6696741390238983,0.7599013111574124,-0.20723202993506268,-0.2240440187543921,0.8300720837453456,-1.5605113805139166,0.09307024918749392,-0.2940476597939979,0.14626934886801057,0.4114690563137786,0.05221565155976203,2.5655185401522322,-0.7031128711610325],[-1.1920098351254307,-0.33061024106651676,-0.10536518007721458,1.0880293491638824,1.3278185664990285,2.152832011756982,0.6380245060627826,0.09331740562099049,0.8225001198412362,-0.6355513155137327,0.544820050143938,0.19741584496359355,-0.20064256243131118,0.6212625775411559,-0.6536413745523736,-0.4990507322492378,-1.5576496295209807,-1.568174000292157,0.5767348172647074,-0.002171607639359249,-0.22023959154708858,-0.13342213651400214],[-1.6955165820570404,-2.7396635645769063,0.4651400241541098,0.5964713406498016,-0.27606924027718927,0.5701037516955363,0.1949985728847903,2.087355962530612,0.22354169776008265,-0.040752723681635766,-1.2820859892048617,-0.13326206025259094,0.7237364204831727,-1.5929208756812216,-0.12460400568556147,1.563705301354425,0.7849093997759005,-0.5191271980046034,0.5908614271299353,0.35534559451540176,-0.4630763985767282,0.4098217032444594],[1.0428684810838,-0.5695645277464161,0.4684278348245001,-0.9583275986276047,0.19313463981952303,-0.9047216724250922,0.3801210686936203,0.1058147080540667,-0.14989850081532113,-1.1321346702254282,-0.5740837299545062,-0.9324126234303619,0.10782340427012888,1.0366126013257109,0.47949496969919425,2.444305279386936,1.8606636812914323,-0.08905886126089547,0.07890223023980286,-0.19303485363922124,-0.8688051699307834,0.4028898542214655],[-1.693986053405894,-1.4355671622844501,0.22842090336344723,-0.18528582636512417,-0.35333702561908625,0.802445216634176,-0.9088284935173802,0.18091594530699256,0.16207119755129235,-0.02025006947161067,-2.0489419329798215,0.498444107400315,0.18220914142827688,-1.0179386096466034,-0.6510245091621362,1.52587940656015,1.3455641704853512,-1.3334675570952688,0.2598243681766356,0.44950649402369364,0.5454341024020581,0.6771601634187837],[-0.5578550868852434,-1.118632666720388,0.5756383174274512,-0.010545154245944786,1.159907028530284,0.5362655998970166,-0.17647293441602224,1.0839848055640229,0.8107202467288518,1.319667346730379,-1.835282569703656,-0.27072894089358995,-0.23150155989200216,0.8612826756299665,0.11169333264389082,-0.274713668420736,-1.6643609956591512,-1.1444298389890968,-0.6930588182468581,-0.10325831466602362,-0.9549591521762747,-0.3548826962679943]]]}],"OutputSize":{"X":44,"Y":1,"Z":1}},{"LayerType":"fc","InputSize":{"X":44,"Y":1,"Z":1},"Parameters":{"Stride":0,"KernelSize":0},"Weights":[{"TDSize":{"X":44,"Y":22,"Z":1},"Data":[[[0.6525299327872564,-2.7421685925589507,0.43728543260919583,1.3670698139720097,-1.083306730954451,-0.3514265314631133,-0.4115504238505905,-1.6796242045722583,0.35976729554910114,-3.040933536714715,-1.5049762909912248,-0.3646851706276702,-1.1856222720250318,1.2754618311026502,0.4000645767461729,-2.534509638383602,0.08189064436998154,-0.5149937259484311,-2.900203083181137,0.3114765061178962,-1.8343939940911023,-0.3819823024292689,-1.8510753653234686,-3.64681835448917,0.3148534171130812,0.4687206704716146,-1.2384371783793708,-1.7073558182302735,-2.032691490226653,1.8591335708232306,0.46120275887621226,-1.32520222928712,0.5968017483378135,-3.3889173860466704,0.9110001988334469,0.4292807922561762,0.3977647539143459,-1.229884974722688,-0.07689341452986305,0.38283669684647703,1.6142032430747293,-2.1095230008611607,2.45383745976474,1.661086816944075],[-2.1957237273590624,-1.629580682864807,-1.8861316208829717,-0.33160307954464774,0.34761242348743737,-0.6303878677445217,0.4613679851501527,-0.6299447427545553,-1.2782941642300207,-1.2216371861872461,-1.5597741111855183,-0.11777671924789535,0.430736604051589,1.3645376516994685,-0.7357981800694569,-0.08877878415288885,1.0521986987746352,1.074969451118066,0.6659228820521873,1.6765961018780646,1.006538072814604,0.34113625698449923,-2.558225571730099,-2.902795443608663,1.1650510005487176,-1.4927445739447724,-1.276764957273847,-1.4445691100648592,-0.8932542681653879,0.7359832643930662,-0.5820643140733308,-0.27841444891408,-1.9071301621173553,-0.2497071070227898,0.05062077654086987,1.3565972281029246,0.510540918421969,1.0650670886430864,-1.398094635585006,-1.6139885176734954,-0.6808610152918919,-0.9873782010870035,0.5875104402607658,-1.617918461959156],[0.9266302536915236,-2.144069365718478,-0.08374634035586917,1.071543846043304,-3.038519535787821,-1.6395227284238008,-0.35719070759391636,-0.37243245934683983,-2.1800197724545467,-0.8521938400978791,-1.5280121981325256,-0.13797149291408195,-2.240490124792864,-0.22300995141908347,-1.261058556032278,-0.9794591353795732,-0.19602728600694405,0.20266749463935585,1.0862463742388004,-2.269482018371107,2.3023765060751615,-0.22946843065971612,1.2788470205551707,-0.7296853941640676,-1.7195889708030991,0.023203609671482963,-1.8867726698133875,-0.5712452926290279,-1.5486241870329747,0.6728333502034896,0.15353042280602952,1.1826635353928492,-0.18116229049389504,-1.3752158982043563,1.0291501060097494,0.6631902666388164,0.29599384784189975,1.4345171677767976,0.2656892228452335,0.9784380530435176,-2.589493577239622,-0.9460366523171847,0.2863675057918814,0.948069635214961],[-1.1443675953237988,0.8054605396743949,1.4907121265891492,0.9745675422449873,0.7752636981356436,-0.9094826804858929,-0.7396476426909254,0.27964648166347533,1.7953661186935734,-0.5990526283658312,-0.06258118023567642,-1.10161712326635,0.6176516619196671,-0.6192149234960674,-1.378823029474818,2.0807580200651388,-2.0272721778938,-1.4952474114189844,0.6330667826123059,0.3781853195155218,-1.822111889928249,-1.826191712729263,-1.9812272256015293,1.2792601464660478,0.530437771000855,-0.6743332096905863,-2.6245271116587157,-0.2206347108111303,-1.5865491381461354,-1.4362328496502015,-1.6778208525819571,-1.0372426225553448,-0.2877389357219771,1.1658515549133572,1.5092100692248556,-0.2629256922877275,0.8875503512744376,-1.6672016679008403,0.553093317950422,-1.858306164709395,-2.6355323402111743,-0.4123842176627239,-1.3720673144598579,-2.4136506645069518],[1.050900594665107,1.0336569129853972,-0.7915914492818802,-1.3191709715370599,0.4841370375643969,0.16492557485372106,-2.1861359761561796,-3.177442694544539,0.6100096616271472,0.7860925567852164,-0.2712687984465385,-0.08831286617488873,0.19512654392333573,-0.5491794980134936,0.2635857002246915,-1.9027188687384908,0.03519971828841413,0.6735635272109876,0.38945498437442294,-1.462775530703687,-1.3338226638851065,0.028196898873886746,-2.3292764067182063,0.06111804053449109,0.6023283373225171,-0.24001597137104622,0.00935114768009987,-1.8574531849017204,-0.8647867440201684,0.9157798578505257,0.7070324275253991,0.3420627425980995,0.6878520675411273,0.15563140177526247,-1.213236991210413,-2.1051341356732016,0.5320163708407903,-0.4484750693346915,-2.9657945133022947,-1.701452760004279,1.0964495026022503,-0.24246266812847822,1.0482952414833597,0.5437928490786423],[-1.5197182970145773,0.7248069424932299,0.19898984532365221,1.0574555523081655,-2.1664361651343516,-0.3241956436198842,-0.051273220225332206,1.4805491007964073,0.659041276772392,-2.017157778671809,-0.12412262674551335,-0.7872926847323025,-0.22157397915482624,1.370886872820611,-1.8409746827959586,-1.952964643457472,-0.18759707409953363,1.6306058895488165,-0.7405092314505758,0.9052241053837019,-1.7596587935745305,-1.1333436222789104,0.3929285274991155,-1.0237973110461447,-1.7181659508875342,-1.2457234014575926,1.0651968178028812,-0.9469731501569079,-0.969446085844579,-2.0007764308164906,-0.8401505387909712,0.6256970117583701,-0.44951593995430283,-1.0094044898543395,1.7143613864002074,0.4049989556429396,-1.721285135442294,2.1981868454423545,-0.28660746935945447,-0.004209285024818871,-2.094000843929641,-2.248914827099377,-2.538600406933991,-1.625822034300655],[0.308172141704817,0.9739878109991219,-1.3983002765548194,-0.5219029739281695,-2.6979058100324775,-2.3642045594685652,0.4971431318089715,-0.16145281070906647,0.547460474736976,0.9935320114246672,-1.0482263930457916,1.4513563757635841,-2.2732041105284013,-0.5576910631918381,-1.4882781384525732,0.8413357821033377,-0.3184966890369117,0.002389517535086712,1.0473816255042905,-2.226966522606122,-1.37554837189674,-1.2283212930708491,-2.324309584535636,-0.3494149670525111,0.7594633443027243,0.24799959872187116,-1.8860346752924826,-1.029723813176097,0.15703642430456316,-1.890537825210993,-1.090163445096812,0.47910618164478613,2.4157762297141665,-1.589577441365392,0.9723086182725641,-0.8371827443959374,-0.580208537762256,1.5385344380087715,-0.7574829480579653,-1.4328968898002457,0.13661418751241866,-0.057837091612681336,-2.1145171709440422,0.7163025044238837],[-0.985437142678106,-2.603534256324008,0.029209000647532662,0.47320234866949373,1.8692382899801068,-0.36824851004103454,-1.426043610041544,-2.0771196164655223,-2.240788154265221,0.2021345291293947,0.7123316228139908,-0.9508318163091397,-0.25371238339619134,1.0015355946712141,-0.09446190572308556,-1.4406870206028561,0.06713512721732295,-0.16609808150628244,0.7322391563586341,0.1384048160511035,-2.0230022915337194,-0.9163741119732884,1.9926479498501293,-1.77148755172155,-1.8032268992460785,-0.6158526076982956,-1.8995761367973332,-0.7030771712511664,-1.52073005497647,-0.0670522907112244,0.6320313876223905,-2.209646521864198,-2.173607626903504,1.0745531066152816,0.3563360272111848,1.7841649049809412,0.3447396442552821,-2.303347480479648,0.24518707922534305,1.0359656110497772,-2.6312262962546504,-1.3208438682915444,-1.5188935270943358,-0.6552895212431417],[-0.25356270218860677,-1.5708116163386467,-1.7051740483592523,0.5714860729113792,-1.8342264582528496,-1.4264020557266188,0.5263024444004611,1.5154560149532597,0.5728155189930279,-2.8658848134041737,-1.5579880280498803,-1.4932052150601258,-0.06565016835986237,-1.2421222779128074,-0.20791880765340068,2.6077830384977587,0.0017179545023989129,-0.2807050587831344,-1.4726916492457625,1.1898931814812066,-1.5936257126864721,-1.3542495058977275,-1.6624193309608306,1.0052057847715348,0.5793199587926412,-1.7922560996276893,-3.1476841421297372,-2.5075360643681437,0.8646872247308977,-0.9938167102880595,-1.101608640779235,-0.7586335307819526,-1.2943344810384199,-2.4812427453421106,-1.0021104629632611,1.1135670776860003,-1.6797202602468013,1.4516735858136525,0.5750611450768357,0.22405918693744542,0.7459883082853448,-0.38784328960921827,-0.0037119335121139335,0.7720162974942998],[-1.0894061705273153,0.8788777516594724,-3.239728331363441,0.12591274524381266,1.3922895760405454,0.12705347177876875,-1.277813104114381,-1.3840152158611985,1.0002766005731123,0.8893606684991341,-0.30071522790729,-1.287996053862129,-0.342348656536986,1.3901805277547374,1.1437849341133244,-2.063301289953614,0.06158559681445027,0.31434611251207806,-0.919556399502555,0.003917663187658305,-1.3318148754034456,0.761838610482714,-3.1346436545932685,-3.3090844084627196,-1.5615252873116,0.35282342811056594,1.2171027667749807,0.13566839230128316,-0.7943515164815722,-2.250696134148738,-2.044859383476292,-0.07283268716748716,-0.6818832133723458,-0.6979821583702872,0.9437389712625125,0.05039862882773446,0.051877040632262734,-1.3457735859422775,-0.06932911592973062,-0.40069691264851914,1.2811594594951152,-1.6541314815671997,-0.386181767572406,-0.34337300816665317],[-1.1050717904325,-2.5037829071706907,-0.7030794299879207,-2.1368452177521218,0.16771590741807257,-0.5093456846878542,-1.1610260480077574,1.0051084451991092,-1.8357920001989312,0.24428105431195607,-0.8703859614505424,-0.6825109849568732,-1.1062164383298652,0.5790603834213192,-0.5501870341924411,1.0028629542823202,-0.7700455729669109,0.04114660197073759,0.22708357540322494,-2.007561771821212,-0.31236432815098025,-1.6242926274765437,-0.3111704194068513,0.7359859842699938,1.1045865677791837,0.8413646982128115,-2.9655774454535315,-0.7474243542361012,1.0081698473373997,1.1627634517010823,-0.8255415450963703,1.23149238907843,2.1711098744604005,-0.09041930489518882,-1.3905908239945368,-0.2586720786417917,0.5992854150402533,1.5913811557355704,-2.148065433740748,-1.8871788664149776,-1.9024096371312698,0.6644423227943249,-1.8783525140783799,-1.17487211411688],[1.3385487968647012,0.7089152222794095,0.34217578565811313,1.2708375003567287,-1.0410300699220705,-1.1247831608651007,0.47408681343978404,-2.8562694326997216,-0.21867834588127166,1.667108352840018,-1.3714992090322915,-1.2044779608181242,-1.5454294199302474,-1.7432230040837535,1.0010248825692254,0.21431982605464445,0.33249978150759835,-2.2626719537104845,0.14830164416536637,-2.117170177613663,-1.085797976585963,-1.6710506242253484,-1.9411723789377668,1.6185246482634261,-0.7549416595640559,0.2673295522425664,-1.3309241287921947,0.04190397202274203,-2.6538645079981875,-1.78467743150987,-1.2561670276902877,-0.3436240890607541,-1.9751402308479569,-0.5839447083144585,1.1615705651864177,0.608941362468548,-2.3015718488681363,-2.3108555421365575,0.8894378736176578,-0.5911024884027363,0.13420801848520392,-0.8153638072918531,0.9850161279408547,0.7694960991376448],[-0.8821467891482949,-1.9281707166446251,0.146151022692186,-2.3826287417412337,-1.5906800968939043,-1.0354129609369507,-1.1873384061294248,1.285730048381476,0.4304875481580752,-2.472287876683172,-0.5880877025793229,0.007381711762489347,-0.07895464151161671,-1.0276926510617823,-0.6570437850926926,-1.808752484640391,-0.46750033439800287,0.16142787269387487,-1.9836531399215416,-0.46804644492265085,-0.32688973751536243,-0.2863913561365142,1.0789296171564486,0.38455770403432116,-0.8436505290982655,0.592615215465064,0.5345024369526931,-0.43314320561498565,-1.1480079749930916,1.2525118977024294,0.29822209943102,1.636694614052026,1.8580243676342545,-1.3849628193575507,-2.215621219476349,-0.11989124893911812,-1.8242143072296777,1.2927559894884084,-2.153263710330391,0.038813062803778935,0.8214594176081874,0.1518353956190133,1.7578266992844165,-0.7037710362675731],[0.18261550795296785,1.2543416850486448,0.5989159424716485,0.4233481853745187,-1.667761913318942,-0.9205562546283576,-1.4089035126909957,0.5278512621499971,-0.19320845827329372,0.4133330516787202,1.0045017063738644,0.5307466790997037,-2.0333386694310827,-1.6164364515456282,0.598955250581278,-2.5066856390464274,-2.343955828303799,-0.3719930981520719,-1.5084725453632624,-2.1792223471096954,-1.2940066083739752,-0.2335732376693583,1.1983359018807525,-0.15620142768406842,-1.6291613454479263,0.953656540037919,1.6011519965817225,-0.3518297945347823,-0.6556846413370858,-1.8828961573220435,-0.5981390366461075,1.52029036054474,1.0567212187068993,-0.9065535148749649,0.3132881602014353,-3.129052038208721,-1.989789219259591,-1.3781909809730462,-0.38811296160807834,0.4598341217153304,0.1262697732566701,0.19475771468416955,-0.6033386729055121,0.09124549861644922],[-1.7447932235387353,0.7494219001385088,-2.3298986099742773,-1.9590325629432,1.4431505770500666,0.36128105769296215,-0.9668738295307779,-1.3481155772058155,0.7420880938863805,0.7786824747194623,-1.5113262594874124,0.5916028782555509,-0.41478934781837495,-1.2990303203639042,0.5008292490127495,0.772189921434892,0.8388718301487493,-2.6973311653446017,-1.933520354715173,1.0576867658872116,0.3133135143039165,0.4809628053490665,-1.9275221083410248,-0.2506200585360385,-0.021716088184152774,-1.5369482590228083,0.5008218332809594,-0.42193847469043,-0.03805170604437005,-0.4923329876188502,-0.8764453128002025,-1.2139747913679015,-1.142780309295437,0.8757076081894226,-1.9312428788732887,-0.5619926859180931,-1.6871757441018538,-2.4759577691222034,0.10846759713700922,-0.49782010110844527,0.9319258240009114,0.20322720364623434,0.9153399594078905,-1.3775167803487884],[-1.958909393325468,0.4533973624514446,-0.23233497336887102,-1.6394283616750058,-0.9885346991581071,-0.9805074228042405,-0.9413509660840881,-0.37847215094527,0.26967502873668525,1.0262959858595413,-0.7203712343517608,1.1808480908924108,-0.32781049966272924,-0.08988906577602827,-0.6178580777809594,0.025573576654108327,-1.7032267122978155,1.6874132631480068,0.15774826314804366,-0.6026908224397838,1.0342285943619436,0.9081060691769491,0.3981362910600384,1.0448275445858897,-0.265566213596481,-1.6826079917384376,0.3285282533863601,-0.42534434597121146,0.11134447341761192,-2.269857781333679,0.2302003206016259,0.5109859467400419,-1.0686072466364624,0.520092303103434,-1.3323267018070557,-1.7945112478780818,-2.5861792222374547,1.7520268382401614,-3.378319938484285,-1.5348682603363968,0.6963816632680021,-0.05917837685786322,-1.1920913897313015,-1.695413305896885],[-1.2713854285086135,-2.3360176714214695,0.21599438796851636,-1.4187140767109425,0.27514841306576826,-0.6612531249170762,0.20465114412875512,0.8133258514285668,-1.6752438866497548,-1.94975912360161,-1.3898446321100806,-1.0914915277477812,0.289078234987752,-0.9329503667148891,-0.8380249753563018,1.1032768513931748,-1.9763397440405521,-0.29952169429826025,-1.5549020365544228,0.9669614238916716,1.6212511158374265,1.2755954358776054,1.1776257725808021,0.3015730759246425,-1.7402222496721056,-0.9746702668466657,0.1066861187236586,-0.22967461826607322,0.034483109961328015,-1.6502478155108458,-0.6120466734514923,-0.9452793444274011,-0.29687502751298434,-0.6569324852077123,-1.8173447181509679,1.1207548774235288,-0.1809507165637796,0.5665060429912132,0.7580011504127924,1.245512234408609,-1.0557759420738446,-1.508084031641415,-0.5160010051948383,-1.4020793487589187],[0.6600186818063087,-2.0979172328881184,0.4725379113744891,-2.659856955332903,1.2370641252957313,-0.31255811112827203,-2.0896417949003157,0.6033807498680249,-0.5291735200133785,-1.6900973491432476,-1.6159232251513715,-1.7664664324248687,-0.345909250585093,-2.5124296547494454,0.5216483873189784,0.8952385510656992,0.019059909766908977,-2.67822110286703,-0.6706248184612805,-0.1157037527564005,-0.2401043510853501,-1.7966884961118428,-1.3112137278434144,0.4104263482080053,0.3358251145163197,0.9262296793058644,-1.724775445555421,-0.32998274542656547,-2.4794272007939853,1.5576553818611334,-1.0993925267777682,0.9559009901280902,-1.5471384291671173,1.154991894272877,-2.969554363628825,0.19895422364140244,0.326500454119933,-3.1945896381243593,0.8825490205376925,-0.41420582977016984,0.5942826013786808,1.2785608421353722,0.07825641350274136,-0.5234349236228751],[0.7087887473044945,0.03932815830501079,0.0522816559291062,-0.38816877492386637,-1.7622241437730344,-2.3281393256971237,-0.6430070603403885,-2.197241260261234,0.16339448725261563,-1.1850648802057184,1.3774958170722529,0.31054790954572375,0.9711994070934609,-0.9379318480000047,1.2620883477641223,-1.4348135541238578,-0.2798846235859983,-0.14914057255911004,-2.2102622183313203,1.225500029812592,-1.5228731015995405,2.502770672949311,1.0270744686977218,0.37101203641241814,-2.4046334036155486,-0.9272360491255079,0.831154443068727,-0.44605444358181495,0.5837830946539823,-1.176485622126345,1.1859550492506903,-2.3605167445539537,-1.9922410441313878,-2.2680800022915375,-3.033318691564645,0.7104733612817665,-2.3094831627389714,-1.7563848599296923,-0.7050627732168605,-0.547724449260174,-0.35544833968616746,0.21763633365598595,0.22538917326542665,0.9669440033705943],[0.6969404660303545,1.5817060387522206,0.6464387220998498,0.18514248697985833,-0.5504282393954466,-0.6158088205095162,-1.622555952846838,-0.8400082417683912,-1.6648348308535217,-0.3068360572006709,1.6055366942789127,-0.2744717842836562,-2.055822222206475,0.4716768119506522,-1.3736381536153561,-1.7552023087804964,-0.18124229133722122,-1.3023687580811125,0.18361851790318423,-2.326358345108704,-0.9924312043253637,-0.6755844948874556,0.9170349958723466,-2.417377133466485,0.7586426806671475,0.9419902225884631,0.017479695847376374,-0.3477724186192822,-0.21284895572426055,1.258575766259664,0.978542101440591,-0.31596341595668426,1.4921376688518155,0.6126471488035331,1.1085694622068316,-3.005084741768123,-0.46459762420399664,-0.2732622972677335,-1.080270278744795,-2.0627789589169727,-2.085707231328017,-0.3395436877805508,-1.1635781528994558,-1.943110115330527],[-1.6528679410767184,0.4670233379330429,-1.6794049907561657,-1.462697487085707,0.8763369316887069,-0.2724868719557225,-0.3134472246831505,0.32622422551811614,-1.916721558438317,-1.0743455794011114,1.3425218736341111,0.006296397998112157,-0.6058951637500265,-1.712398940249393,-0.4147433360409928,1.3118869278280962,-1.9769255426303824,-3.020272057557375,0.18766041678920314,0.26148144058887174,0.9232246920536654,0.04324178317713324,0.6319435424817739,-1.068480999423402,0.43790867041496967,-0.9125368175303137,0.7636823331094275,-0.7995562441719184,0.46732841358932137,2.198114621701671,-0.002376838123972184,-0.4186764674699908,-1.396139572939962,0.1164988993511582,-2.357379081913479,-1.8795521788081353,0.868548580893937,-0.4868240780818205,0.7688861479693597,-2.4822855937525126,-2.123093457533268,0.5218026051057457,-1.2744122431355507,-1.1546649886505227],[-1.349674967706723,0.47677837428240777,-0.22283142917627674,1.35372480873154,-1.5109870925639157,-0.24766844647103745,-0.07956873395932759,-2.3542768741197047,-1.5614917342884982,-0.0039054304774263035,1.3652588107355936,1.6336049594851652,-0.6872668835665069,-0.6440443931326235,-0.78744789849056,-1.721449099240151,-0.9670564719338741,-0.3635950888253816,-1.570241627951657,0.5870315347734079,1.371150130525826,1.8062293878042892,0.5021620499192541,-1.961055275230875,-0.9973966424326456,-1.739171339208158,0.7771057961788786,-0.2411290675356199,0.4202356702826395,-1.540745639450427,1.1645820606486024,-0.9896544929851315,-0.8995289704300589,0.22279052210399306,1.1449054961349003,-2.2403062429121756,-0.40089722831586155,-0.6940039454626072,-0.7456102025521224,0.2059518795216403,-0.7408789730821673,-2.1486168790164357,-1.356308602382564,-1.3829695131504904]]]}],"OutputSize":{"X":22,"Y":1,"Z":1}}]},"Parameters":{"LearningRate":0.01,"Momentum":0.6,"WeightDecay":0.001}}