{"Network":{"Layers":[{"LayerType":"conv","InputSize":{"X":10,"Y":15,"Z":1},"Parameters":{"Stride":1,"KernelSize":5},"Weights":[{"TDSize":{"X":5,"Y":5,"Z":1},"Data":[[[-0.3309959280030066,-0.7829518254043427,-0.32451541365110104,-0.21117809315756145,1.850726726622406],[-0.35204289231262675,-0.7509157165417653,-0.727852170499857,0.19708788656821447,1.6675848736233314],[-0.14077680144523694,-0.19046686136630564,-1.0613785002613052,-0.7967203884075053,1.3489470557693768],[0.4067964542353614,1.0686210781104966,0.14177471489934773,-0.9019700696552706,-0.2541578573727207],[1.4720056452269343,1.9363596884551897,1.3163809555072206,-0.5254847604383078,-1.1150248862192709]]]},{"TDSize":{"X":5,"Y":5,"Z":1},"Data":[[[-0.17450078218523551,0.3260281055709794,0.09856149434760339,1.1011526645616876,0.781752929895459],[1.021526369333423,0.17004091591105835,0.1291203626429256,0.27363657672089614,0.4264932155080996],[0.9872925468027988,0.9658863449744713,0.9296858851481484,0.41647379620273567,0.9993023777472511],[0.5434380093259569,0.3157851366313705,0.8286487827173245,-0.000980853145859581,0.8595690065643286],[0.37140542457744463,0.5722456621243658,0.27332837340515787,0.03644603157450834,1.1425710651926084]]]},{"TDSize":{"X":5,"Y":5,"Z":1},"Data":[[[-0.6182319923212152,0.4289355201273224,0.48552554736789166,0.857627505776749,1.3660485969076683],[-1.1281825499875224,-0.9083362902972087,0.0793303279048235,-0.3680938372267501,-1.0351258581509566],[-0.6428649399723526,-0.24706414329171555,-0.8984740124688846,-0.6796203526298001,-1.3852930237862342],[-0.05373930053603098,0.388464392621049,0.6551599787858564,0.5214455700136414,0.3048363185880771],[0.10149849148188703,1.058566287395666,0.549756647944745,1.2877930898510854,0.40422065292753356]]]},{"TDSize":{"X":5,"Y":5,"Z":1},"Data":[[[-0.11132792749160057,0.37542694792320647,0.48740778445057065,-0.49411177296718695,0.287922670197941],[0.14041640244853468,-0.047525690213259135,0.42645636815523885,-0.38779384688804447,-0.09193599064176118],[-0.42361800580743664,-0.5772596189750516,0.0795799450125706,0.22304115409592545,0.11123516803249134],[-0.17417448944480882,0.19455216795194147,-0.39991838016338577,-0.25634900737407845,-0.3600161938303978],[0.4295414618897029,-0.2867445768060457,0.13745185863983017,0.09633780854671369,-0.29366983065716284]]]}],"OutputSize":{"X":0,"Y":0,"Z":0}},{"LayerType":"relu","InputSize":{"X":6,"Y":11,"Z":4},"Parameters":{"Stride":0,"KernelSize":0},"OutputSize":{"X":0,"Y":0,"Z":0}},{"LayerType":"pool","InputSize":{"X":6,"Y":11,"Z":4},"Parameters":{"Stride":2,"KernelSize":2},"OutputSize":{"X":0,"Y":0,"Z":0}},{"LayerType":"fc","InputSize":{"X":3,"Y":5,"Z":4},"Parameters":{"Stride":0,"KernelSize":0},"Weights":[{"TDSize":{"X":60,"Y":22,"Z":1},"Data":[[[0.10087615377551484,0.02142760335780953,-0.032771431956847154,-0.26248328499577084,0.17847163212881612,-0.25207518700769505,-0.22996112963494295,-0.31489037859249575,0.14403542797584432,0.4581724251075653,-0.38675247404275304,0.2210717695138531,0.47733355861360033,-0.46653729178943043,-0.22336997364263544,-0.2258645609410437,0.2772208844948293,-0.40420259560691574,0.19626525987180957,-0.3876002772897938,0.224764560210161,0.20349641223034,-0.32371317962294405,-0.08417580148404946,-0.16774313784387343,-0.502801374664796,-0.22004987703988382,-0.05987738847633583,-0.3375479391583421,0.0961934332820704,0.19380889625836473,-0.012698831140220374,-0.2741517000223127,-0.36067900873112096,0.2335993107274103,-0.16155990977989834,0.46940299886842884,-0.46818367141348133,-0.1402119850072134,0.04616469365513483,-0.1356236182644219,0.49724769308789774,0.39099966079532694,0.41331988855158847,-0.3569835527646757,-0.04810803259641808,0.030277223079949567,0.33008682926475597,0.012352169041104033,-0.4214872323931352,-0.1983177474540618,0.021548490436508846,0.39606098111700017,-0.09403418899361304,0.2393049318310988,0.4152399757183017,-0.3399585793879587,-0.46922567357923667,0.1655834748937798,-0.1647553747463348],[-0.30228546364870784,-0.03942252193778908,-0.04386063960360957,-0.37830808485355416,-0.08636411109287585,0.45319467071304936,0.5251849125417631,-0.2593114819906516,0.4660773728951045,-0.27824817257239765,-0.43201584235083273,-0.32692924910797727,-0.12450474068564966,0.11816029896441708,-0.3094015898760008,0.5205915095177285,0.21088562321612064,-0.8677182993070879,-0.5991370078739805,-0.9681935763193452,-0.5236057246138014,-0.38283368907083815,0.4771358277799949,-0.17133734106633802,0.5022680796679092,0.04847928592786662,0.11070203831583504,0.5817967005703057,0.7759680879496181,-0.5476354946087901,-0.22258758410202137,0.018571161076346803,-0.31744219725377193,-0.16398178434791838,0.22605984560122658,-0.4820769806384665,-0.15533983374171081,-0.285222905521796,-0.12462777252394901,-0.4357296219044199,0.41231379219938885,-0.5396248014844719,-0.44370114987776127,-0.36986006985994113,0.21883783087731162,0.43213064124217254,0.15116131040519168,0.04478374717538726,0.41898289522259674,0.43491525081125365,0.31386289221741176,0.39432996993750286,0.32510791536605754,-0.3238082009577087,0.15512943929363457,0.3866347890860196,-0.18445641280691227,-0.42813336690671333,-0.09967141374904322,-0.30955602511471725],[-0.25182607712930816,0.05310592625358478,0.4959454436640318,0.3108197494273159,0.28337815056442067,0.3788359958424937,0.5588459686918166,-0.08371945625534451,-0.4096237150539661,0.04936226886566598,-0.3321845304173522,0.03297919467243591,-0.9102367177015841,0.06570629145057597,0.04874499261671139,-0.1720792902441095,-0.0843889949089167,0.1582828757444797,-0.33507063933927395,0.10787583012006995,0.1476690380349817,0.6406701873839711,0.08556667763174028,-0.3542674385061154,-0.002142257241490947,0.2928498585570733,0.1375502843750717,-0.8075553283815252,-0.7512439765640752,-0.06183681627376371,-0.3621676181342283,0.10566987622679433,0.34744908436047,0.6429922836507346,0.30856273100800047,-0.19953258758245568,-0.5364218677881929,-0.5692572753584548,-0.6065530261389616,-0.005282985803054115,-0.11083207407728886,0.1036614184374924,-0.500803392784712,-0.3303975519419742,-0.09643206756966943,-0.35421195829711466,-0.3922373271705225,-0.47926661751405764,0.2052523581338573,0.014811311252768846,0.3752137599575346,-0.32976477026512624,-0.120577644195366,0.21821315386609214,0.0870494376576424,-0.05366654528178821,-0.2978503583490354,-0.23233389793860657,0.23733817874662036,0.4188729520889623],[-0.19031856564024915,0.13339756556501461,0.11802246149040461,0.1935528280624017,-0.18315375240932238,-0.5481694735171371,-0.5394812817272062,0.1632455475656872,0.2747120713595608,-0.5298867167249608,0.6600001292279238,0.8069138727274154,-0.5684268172981077,-0.5435598903666762,0.38686313470238576,0.18242660907643518,-0.45661482873892106,-0.3746934090280525,0.5924089463416152,-0.012329773092335685,-0.55555178238815,0.040462020680324576,-0.22101324694993452,-0.36440910006031246,0.6211581634648538,0.1691056444237978,-0.2590119522174111,-0.5503494955418465,0.4368865621711954,-0.9983752199732616,0.5064885324326845,0.20400018104480375,0.1323289346644336,-0.24717880126153122,0.29498757753367055,0.41012046048017886,-0.5959235708560635,-0.48461160477910914,0.11324298519039765,0.22576654439298754,0.36040665531617366,0.4914803376601442,-0.27769487087563594,-0.25780400631036904,-0.004872782008101287,0.09124426640752573,0.44456207417737353,-0.30719671064983506,0.36049703757161194,0.20135818307796366,0.248141432969582,-0.018794187632248032,-0.4979064420585266,0.333858924305537,-0.3739760270384839,0.11549922721182904,0.14695293856507077,-0.18453553838572453,0.19540161152789434,0.45169352503067034],[-0.3776414723517005,0.17205011688823357,0.2734271820521987,0.1397781817914568,-0.44466305560782515,-0.15239972780487548,0.2625466023136467,0.18072579525071372,-0.03167194165332713,-0.18810320325381577,-0.34428107222546916,0.3603151283437457,0.012391849886161396,-0.41677873811529303,-0.4634602710570679,0.4065514249425517,-0.4461400770941165,-0.3952067883518334,-0.3916728801513121,-0.1410013388275973,-0.2050439772780402,0.40439759082629706,0.07741666649999941,-0.24583898113177663,-0.15129901867465562,0.31522752468233667,-0.448786825542783,-0.4713345965330022,0.30068135360273945,-0.2158337735350963,0.2760470976358281,-0.4491435837020605,-0.141228269027762,-0.1723959991425451,0.3228673461651748,-0.014690307932018306,0.16681745211260884,0.14550373145088588,-0.10186774947391737,0.28054541629211205,0.10074596221667884,0.45859855858572685,0.3532717165404431,-0.1436461830201585,-0.429352488785227,0.2113382883543568,-0.47292876211815127,0.07399356706106983,0.0578614595135769,-0.20639318141878907,0.3534555662548952,0.2530193626691148,-0.17152936666318974,-0.49857211746258273,-0.3993557292895012,-0.4691121327863387,-0.20504299251820082,-0.013269478074333036,-0.2638138915997422,0.37325403870559215],[0.3179136536959452,-0.036552693264925815,-0.17628532861027518,0.06405926329455913,-0.2914474063238165,-0.3871930564223028,0.03690764629729141,0.20764957293806224,0.21654511367664248,0.612752590759602,-0.17915934268824715,0.6147760200436393,-0.39638634732081374,0.17475650376633578,-0.39422611332481133,-1.4248979742132208,0.32463809638564683,-0.46885321956445797,-0.6183260639379815,-0.17179247962906066,0.8552322584786046,-0.14376211766496083,-0.5317254845566083,0.21656320698729944,0.508656549746347,0.2111692870134493,-0.1890959214297071,0.11133783927144118,0.20912336822334415,-0.6691644542000927,0.44110639211460745,0.35970572165837944,0.33586703181894184,0.16358489192169334,0.32994362385969755,-0.42300568283782025,0.27808229356489395,0.38929325509795804,0.10579347253446607,-0.5226703696030313,0.03137317815606959,-0.016487923335211783,-0.2527201587654148,-0.16330614845453162,-0.0360608313129877,0.44853899895540816,-0.016259970596890303,0.3951802922600606,-0.055515300548224775,0.46494362081857216,-0.3236560002788549,0.10878149372690628,-0.3975738846337039,0.24916705709057288,-0.021771930453918266,0.2460193500668856,-0.36726919069857117,0.11206575426745802,0.4610083282420717,0.05527353303535867],[-0.02568566970237413,-0.5377987718852069,0.5011432898803522,-0.11138222119136071,0.2842336506608904,0.3089079768724521,-0.7664478474439663,0.14754186291208568,0.18465716033932267,-0.4086592521857354,0.45027539175897935,0.5500506850171021,-0.09281945712019049,-0.043688624684528506,-0.5887559631832003,0.04582906695437759,-0.5683120750358237,0.5627840460638975,0.3766744910057365,0.10679654607717667,0.4932505780633696,-0.9910811562722424,-0.026740043214944477,0.1454144321093548,-0.07451982531037685,-0.17652396154650885,-0.7219084352778649,-0.8990708678852549,0.2812939769282782,-0.0040958292512942645,-0.7791300524086057,-0.5056535089348099,-0.12068464249374877,0.13393089974900205,0.3912284842030948,0.12671261236316889,0.5002751694910961,0.402423611980918,0.12831794578645458,-0.2758090359916255,0.46060176887144505,0.18316352016079046,-0.6551180519831529,0.0532425567156732,-0.22007794374018536,0.44908732308644966,-0.2603970961886756,0.035470048421672846,0.3924641701485947,0.013245558914279294,0.18595240607897107,-0.05280938349811499,0.07764159862568305,0.48599962603517793,0.22161428836340932,0.28652535056703715,-0.42032961963597704,0.18378308114272013,-0.29055187741499167,-0.19814045828605753],[0.19518016689066034,0.3391471326546481,0.1385059922398569,-0.4937646158483223,-0.15874202281943478,0.4103470569177698,-0.4877365871246667,0.4210478783812589,0.1928711781259714,-0.023961332641450655,-0.47390280530150625,-0.41033278682761604,0.278444767644798,-0.25725930712869516,0.20378997377193672,0.0958917023267954,0.16836385308852836,0.1487499282993542,-0.3941299875837425,-0.37393923750826674,-0.4809648139614762,0.045079398140433505,-0.3946688643138466,-0.4121505072980001,-0.333043644653632,0.24942760681685677,-0.1005457840005597,-0.21713215751384077,0.03710028197083953,-0.4231230896683452,0.4512129253503652,0.4701841534447455,-0.4925453562692959,-0.2093393751731443,0.34797860615929,0.32396117185840567,-0.4788773125383986,-0.02353924766510345,0.393418566626582,-0.25408127565274846,0.24262019132887466,0.4948507604837611,0.3851401641506715,-0.19012843935642146,-0.4011216381259728,-0.028372618380358157,0.008618098088406936,0.035394484273308185,0.3194100968941619,-0.16215262668246608,-0.3172154726822689,0.10646197433854017,0.025354861333691966,-0.30858936045951,0.14000989295148378,0.4224919535235511,0.3529354280154254,0.4536842348642458,-0.4456456708525946,-0.4894079825733189],[-0.44053770168359824,-0.17371248593264516,-0.227226697732358,-0.3222223181320574,-0.36464456883691576,-0.06501659053676972,0.20664903004401453,-0.21674139137587056,0.43982684500284674,-0.41828443195141735,0.028786511428954,-0.019449924408078363,-0.10615480529465918,0.1146558280247952,0.028053555915164292,0.23709779227417593,0.25726128706012863,-0.3695679431546045,-0.4899682773047597,-0.03950620369941129,-0.45833016027917667,0.4738505659493973,0.14800335353832783,-0.23205698300167854,-0.28545819197780614,-0.10683880353013016,-0.019885022868621764,0.13174357736250436,-0.16549278455810051,-0.32329036013254,0.15795109103739374,-0.26661566276588233,-0.3271289274885553,-0.19112222681232954,0.3552646536751302,0.13979519034472998,-0.11757326759623825,0.0028537134179567303,0.2954726022455042,0.2682001886315065,-0.31840675297267174,-0.2071566969592449,-0.15432185647638308,0.31810546152140834,0.376107219013519,0.07663050122255471,-0.270935065156302,0.04463262412248679,-0.011941526558139992,-0.4802976389838274,-0.10585581127167014,-0.08043611179513589,0.001962619216736181,-0.23711186104808024,0.09828486557705708,-0.3395719887702941,-0.44050724914333056,-0.2596368675229043,-0.18790163559547587,-0.4022332032491651],[0.1785385396728626,0.08934447356286458,0.10490919954166358,0.2945637023700769,0.20348370267673208,-0.27244985568497054,0.2427724726692687,0.13094829896079627,0.28819518583258824,-0.37514267779201427,-0.3288294854770727,0.22937480695485452,0.12280640443833749,0.4872041848373192,0.3730730019894558,0.0264563175723151,-0.432465151262459,-0.573790731039101,0.1953524763608188,-0.12917907266476186,0.15277402739646745,0.057218753998803634,-0.6243905488816819,0.19443100960313894,-0.2430427654773526,-0.03348237931120315,-0.060341342366298796,-0.3640417723315892,0.10925565618494806,-0.2997736215593743,-0.35967486761171286,-0.007691499131511427,-0.07400553423962601,0.02701218911776852,-0.1425825769333805,0.08285546616007222,-0.40226674873955337,-0.16990978106617866,0.2785328727566262,-0.25818929812540886,-0.36967678863383285,-0.2980721407908734,-0.28092408604819724,-0.24822865391497853,-0.33651387862050924,-0.09396117764391082,0.4651874843870414,-0.3655361580886815,0.06002220727288086,0.28820720623859886,0.3429113484978633,0.4021317033158384,-0.33384794010359525,0.2907580854418918,-0.0925775886174159,0.09865102611293988,-0.1724119068436909,-0.49269568732358926,0.1891360450906057,-0.16344948002493082],[-0.2847522612482181,0.16319642037488033,0.5268563386847018,-0.45662533358418556,-0.202141559720187,0.7998109506313217,-0.676021413157499,-0.1662101705285834,0.7997019561940557,-0.21320031109847876,-0.21510756027841865,-0.0702071318125918,-0.5433093777710704,0.34796683208664025,0.4642243202074127,-0.2559679112688718,-0.16963407724062862,0.44680204197784584,0.23769471194783678,-0.5999118704437776,0.1872274450594345,0.5780362107887798,-0.39731290375088446,-0.25057262347181347,0.8156374148757282,0.11726802307103194,-0.25063358647363726,-0.8468273272141635,-0.40472783738196544,-0.31742086167169936,-0.37917569881438484,-0.05549711107583142,0.19001958684159134,-0.4457816690439459,0.08027126301793376,-0.31887229461593597,0.23139088455775128,-0.22656430081057644,0.0007369450885609434,-0.28021536716095735,-0.05389160764048727,-0.4827273636942064,-0.805466745743523,0.5486310317575988,0.1971409302667856,0.14549905284023815,-0.20102664333173165,0.07863755359440401,-0.4155382689653453,-0.2079546897436056,0.19249456388722402,0.3918622870772342,-0.2259259493014539,0.3210090586593482,0.3962460765965996,-0.012038273348169301,-0.11133765971343128,-0.3331676880510386,0.13350810650242273,0.5415938204224925],[-0.021835878720910258,-0.37407990847873956,-0.009788984972032969,-0.27916874943927317,-0.16497233656759644,-0.40701800526749876,-0.4549796722925586,0.1739490364980392,-0.0819100848163654,-0.23164479324958634,0.2991273257786672,-0.48506760930911874,0.3190714583193512,-0.10339660968982098,-0.14896195096206857,0.35841570113041027,0.3563331099887473,0.039902281395130405,-0.35589288610832237,0.1452317692248243,-0.3295467784012427,-0.4043808029858638,-0.23922404763982152,-0.014518855450911642,0.04273124693309654,0.05700815932096574,-0.47209667445581827,-0.39779664552110183,-0.1928035762136222,0.39954208727899354,-0.33737711267429266,-0.3168571845848449,-0.011746719317402152,0.1564992676366331,0.28758199950385976,-0.020087811409613344,0.16730787907533443,0.3278762830211709,0.10243857724152784,-0.2322864443461734,-0.3113374916748828,-0.06332468625134287,0.03766707984534581,-0.2561655058076215,-0.326709967281474,-0.3498107352550507,-0.19452560588526735,0.14153924367348103,0.10528023349072418,0.1973582547754971,0.2508279757093417,0.4109023873267639,-0.4442068434955472,0.18692966142065323,-0.40786370470885547,-0.477220469065546,-0.4768650702823287,0.4774769708153149,0.1458062742672917,-0.26461723736213333],[-0.26627816795748005,-0.28911558917442526,0.10796068196938977,-0.40345581561582766,-0.23201457225018154,-0.7056467136498941,-0.1665361972055664,0.19687552545327958,0.17149388384290634,-0.15916325491761898,-0.4880352081646741,0.7186988067131002,0.4899920705822846,-0.39050073763091,0.14775578839193557,-0.5588918658704356,-0.48635217743336145,-0.3946496610367334,-1.0044623340680667,0.14863994876662268,0.07103322253239229,-0.26139449048567415,0.4332291796426729,0.9241312971250227,-0.5381579558958413,0.3326271171998464,0.7073270256386636,-0.6068640302040943,-0.38821440104895577,0.20147079783059232,-0.08708511422531445,-0.17531671500461699,0.19342260938526745,0.561606944135866,0.4681500463932888,0.27040463120053365,-0.16138000452330045,0.1876099635643489,-0.5245833114387903,0.25969540087948617,-0.2838774146141425,0.11588474576720861,-0.3192384340942775,-0.11675184594456997,-0.14545171897236708,-0.06299875200418763,-0.008241771588765273,-0.3608313445205465,-0.25236341336840895,0.4214402678309156,-0.18647448251694082,-0.017511462362994425,0.0996645956135702,-0.36194475714633434,-0.4769726817781212,-0.13332628066752403,0.2855723141931093,-0.3554004111490376,0.08780107824256742,0.3478270900190573],[-0.17618138976867903,-0.10009644463551139,-1.0660429121921582,0.43356317055932597,0.22149703353477002,0.6013667567778899,-0.07120052388783456,-0.5824837796045248,0.46965039049005647,-0.0020828701528535862,-0.35539765318330785,-0.7074476945829046,-0.7208577767041384,-0.3034529796108989,-0.5395285053691109,-0.10548693787687195,-0.3617148861675336,-0.11889963403508112,-0.3206445496961571,0.37346282409622084,0.7738256815102988,-0.23482903797513716,0.22344187718483138,0.27653682115971073,-0.7052200618965596,-0.15226130426379655,0.12906383887537817,-0.5846219120616688,-0.769734470197206,0.7810257823786366,0.8343758882521582,0.022055507570494633,0.5756328919898447,0.1456377673539946,0.10385418952437016,-0.271892209871302,0.37207350178494275,-0.2173749502439083,0.5262803443033566,0.4614720771009998,0.7304453892871597,0.8176976573384014,-0.5568713895741112,-0.6667356101347066,-0.7235421043051858,0.060587992427249666,0.1961983564208666,0.24070088904458598,0.1595405403268232,-0.0037427066574290384,-0.13667933388994297,-0.10383459421176763,-0.46858643194729255,0.0390004953990804,0.41052863836469755,0.3662817833323354,0.06381123740719938,-0.3478563224386491,-0.4326404962817771,0.15320190165715658],[-0.15391168851408496,0.12092258952716338,-0.3325016673480633,0.24337985144910462,0.2565949763843248,-0.5227014880874269,-0.07083463874727976,-0.465752771178826,-0.3902926961003618,0.2870912052890441,-0.359431505829091,-0.02259793728920002,0.2009880125828783,-0.25114581979569356,0.30843418183384674,0.13475839774364315,1.0497240170842048,0.052820236791854554,-0.18446014162288443,0.9543397437649905,-0.28399540149939856,-0.1194874535773922,0.3122087583663908,-0.42397115348815734,-0.7941516485008242,-0.22797686503208678,-1.1851909287378564,-0.014619347314181215,0.12441518624795088,-0.2049852737707346,-0.2826364414497673,-0.4533674160297772,-0.9433474588260937,0.13198516201953145,0.34409427807929255,0.3347231621666207,0.06483728539846235,0.898779110867544,-0.07791562053447076,0.041443567124658014,0.6106901463429717,-0.14648203502187382,-0.05214211827460733,0.06640391694159345,-0.12293579831518915,0.318613974294374,0.24308180129271,-0.3211746556330635,-0.49346764202346666,-0.3362265388400291,0.4446080915330453,0.18914508572836933,-0.32558923113748456,0.5500289285226829,-0.19076525404267972,-0.4741002389330346,-0.06248524748678564,0.26875148713086017,0.234503544047715,-0.13006167969692842],[-0.4501835692381434,0.3928302136499617,-0.6074312390884792,-0.36784061362151294,-0.8145362117576217,0.34030710681681614,0.0378540410629047,0.23686810054119037,0.3889694564683969,-0.04158518574732735,0.6469453456464122,0.8959727510214454,-0.12936791262180036,0.3270005951354375,0.8183505102562214,-0.07059863204946613,0.5198858077731868,-0.43942061085190304,-0.24736855286774162,-0.18849427122110432,-0.140396544951846,-1.033071289501317,-0.09641610636028071,0.43183113883838936,-0.3417163269542657,-0.5943865554390051,-0.05370102106314679,0.11422916847648455,-0.24456298276535604,0.34057198138895867,0.35845921595147284,-0.1802904249223451,-0.25445777963929495,-0.5018781813609571,0.2971420840568637,-0.5336724735340505,-0.3227553935559801,0.09319052524930876,0.13196375421508152,0.0751011537490099,-0.11311999095191974,-0.36281046429545194,0.027795121462668042,-0.22055334991357664,-0.08083643593992362,-0.35754644227055876,0.0434863317716326,-0.448335723595938,-0.22621757435152806,-0.27899855818115615,0.46369547492321433,0.14746053150500618,0.04510261124872759,0.1109642613122781,-0.49475503066935267,0.24181485087241283,-0.06719025376137157,0.20756163235901084,-0.3476166401439005,-0.4007814590990629],[0.3278100499467079,0.3113980675233989,0.21251603108316902,-0.14429995449487548,0.2983797474247856,-0.05136217410855634,-0.27354338322330485,-0.11696186208868568,-0.027947401165260552,-0.042211154263628405,0.301672720299152,-0.22106486402227649,-0.33581160656091175,-0.1799966339966992,0.3780201097225101,0.2558988653679956,0.34603981626821717,-0.5464877923269721,-0.1313063045147063,-0.0664579205567638,-0.242808101305147,0.14042559011380937,0.1481636800453123,-0.4804589853429139,0.009934649058240562,0.19334863993244,-0.11109219659342107,-0.27066197410172027,-0.5021422491509311,-0.6054505000200088,-0.10197489792629481,0.011766112465988722,-0.18956329975005326,0.03974589671653222,-0.23965804188282985,-0.1559524598238229,0.326848170377679,-0.3988133823456983,0.2114286762765995,0.40727918577129474,-0.20686383521875654,0.004923668935796497,0.4265547412635792,0.4353593460287465,-0.2818049914030689,-0.072495153135781,0.027560918447473586,0.13531309474799397,0.28389848776097626,0.36757594464743254,0.04915238542850805,0.045612049248279773,0.3931725383134579,0.13626832199775696,0.37432830328440275,0.06682162331324239,-0.46682207966648037,0.3063438761224705,-0.34235153159379805,-0.4211672468571345],[-0.05806212806166317,0.2496111140755163,0.8526945386231544,0.16029799304424414,0.17641660912377505,1.1389348348424313,-0.6459850099655163,-0.22492690922918768,-1.50622193428968,-0.8643452942789224,0.8464152285242463,-0.11456274089069242,0.11258940417415365,0.23801723070104652,-1.1397728460401453,-0.8832383138781916,-0.7241974346654166,-0.3071022496411217,-0.037565739219174256,0.45264624261860353,-0.2598493262839275,0.9707068680563958,0.8648700777101656,0.3486634427227828,-0.4936637749892288,0.6750667723961857,-0.3896845563601633,-1.1518005234563524,0.34030984259104513,-0.5415993314365664,-0.9312480807659418,0.013164552323658098,-0.3657065854125748,0.007509443428222759,-0.6045340579787596,-0.25292335487380324,0.5519381296765681,-0.5857293932722625,0.5681860126335335,0.022231634469722938,-0.08834935700344163,0.44095023355390606,0.07748939081370226,-1.2105766745969535,0.019368739754669146,-0.47423645925129554,0.11245089134918791,0.30441757152410653,0.45038731897511036,0.39664105475169265,0.2973035371895373,-0.3187471800742767,0.45717320122003174,-0.4022100597785841,0.2627555987936531,0.1490661347699261,0.4713401327912065,-0.3110161501289281,-0.1311108733608193,0.32223190767334775],[0.12719908469249447,0.4293627281270199,0.37536860070457956,-0.17917554525394647,-0.5554621084810872,0.052628985663489704,-0.22170575779752733,-0.1203269468528631,-0.5711680333434814,-0.3745527320994346,-0.2707569484053439,-0.27921937447262385,0.17456636793495905,0.057364953750224684,0.3554966348549009,-0.22802648972162337,-0.3693669286532301,-0.371376438064028,-0.4773635643421872,0.1875709288789118,-0.13135758696495883,-0.6788225008718273,0.25349032733967103,-0.3932389135079632,-0.8233320076931779,-0.45796753535347356,0.31962701531734933,-0.2144500967656137,0.6826833411273728,1.2557911092893508,0.05780666505547351,0.04476736588692213,-0.1976414429362179,0.022211087984771186,-0.04880340405770369,-0.25559575144101415,0.4502755561016817,-0.03976310684533484,-0.1549035498336605,0.10900859845120998,0.3443108340122224,-0.4173953495007084,0.12579247437011915,0.15365815635439564,-0.0729436585676813,-0.11581550727537991,0.15653538328309408,-0.39885910246452794,0.48158010065629686,0.3850808181585371,-0.36331238446007846,-0.36365658351088564,-0.5064175293432962,-0.17082401372484177,-0.35706831106324977,-0.28347664587018423,0.4272460621486271,-0.08153081458851175,0.2478988189738786,0.19918791542677305],[0.6063302905571117,-0.08920763677862002,-0.953744174588428,-0.4115262612630426,0.12788625624468272,-0.043328989606642165,-0.4472222126513116,0.5144286365151648,0.01578135145571267,-0.5735643856967507,0.35963848943846494,-0.2704489328646646,0.11566841621012518,0.4994455867792838,-0.6454508656512613,-1.0247561075396545,-0.7913360217552882,-0.04735650283323081,0.17145072152027255,-0.13230320907924142,0.16494346192344847,0.5219288573821259,0.3002983994884482,0.2756335339041725,0.28304694357994253,-0.7738910158231809,0.31335089743054073,-0.08642511380695815,0.01756524253916066,0.214414956843973,0.19348428322210715,-0.48220197533157166,0.736783774621229,-0.43331006564589,-0.5709078223757126,-0.12329241075655807,0.3516500411433458,-0.4230916528637683,0.17035627397924646,-0.12183154817628913,-0.5207538842672002,0.03210689316253284,-0.37089195493828564,0.04162987094371026,-0.15132615459251766,0.3578783465761927,-0.4597451036525536,0.2793407588930094,-0.07515212211519878,-0.4916359665716604,-0.1680302737288593,0.28210759549526143,0.1436805969007669,0.04700204522783887,-0.005098585018524404,-0.4953463866823142,-0.23437376851573766,0.2648547415648605,0.4664544073397457,-0.31878339985110615],[0.869675662365983,-0.10265241532645832,-0.2019119930736246,0.36730417159616363,0.3418869803109996,-0.36963135750057596,-0.03510015867418433,-0.25103644625554783,-0.12050214318776799,-0.6282133877132912,0.2408398546903202,0.17546926923171205,-0.5665277468783111,0.3115646647810972,0.8101950610963625,-0.3205900667838573,0.27045810782992236,-0.2209379427705879,-0.1026278176720996,-1.0985852116814772,-0.201305065948359,0.9410692006481071,-0.15057430899831956,0.5038919329042181,-0.06754789959893351,-0.5473303397617881,-0.14117497631591475,0.09810470049867448,-0.9600835494781823,-0.2501295811308587,0.27909910260931586,-0.561014399757433,-0.407353444394852,0.357610696100777,-0.16193256204363213,-0.006894247929004682,0.40280387500187687,-0.4136879848844047,0.5679379038536936,0.24599781781546934,-0.39279006205041633,-0.41708742022746503,0.13773086889179875,0.13689643703281734,0.045793781358544686,0.08075690986934952,0.23237360270430357,-0.022492081532137796,-0.4515501732496575,-0.4288614892541414,0.43448756269955485,-0.4849435982711653,-0.3121413478797246,0.22710389861331176,-0.04277109194866334,0.36210877042135653,-0.0415090159351181,-0.0972465470087654,0.2105976328341285,0.30307145146482584],[-0.2847033428031891,-0.49728523640204997,0.0171305540659879,0.4060020800855026,0.18007628334486656,0.41567542109874367,0.0240441552498071,0.24340157620993708,-0.03346624638302684,-0.20492620883700272,-0.1725225017684453,-0.4511771351734825,0.49736154254931453,-0.16392073762426776,-0.3149082522603868,-0.1564340066643142,-0.2876184273662038,-0.46261575644233205,-0.06720818904375572,-0.15245907237383716,-0.4566668958914135,-0.3531660217653821,0.2569942195719217,-0.07473846549390946,-0.38603503198416855,-0.4701239655071629,-0.25465879244433076,-0.46438571349667834,0.16478832975344176,-0.19662964440741643,-0.17530050364518615,0.19376126868930063,0.13691642079537858,-0.020469338099710136,0.14667289542428924,-0.397814203057719,0.08950021684101887,-0.14144789598336827,-0.453282427963743,0.32221117846586306,-0.2698957227278044,-0.46921677368033166,-0.15404693006391876,-0.031890987236326086,-0.08980773317179187,-0.3516543289533213,-0.015103747836741089,0.07960069574829419,0.030969160418356415,0.13592952590312984,0.30853782298232624,0.2062252558561248,-0.07224409510836811,0.19992965781101818,0.1000765162684295,-0.36814946102236634,0.18375341281590796,0.3947679294441745,0.13109386970306294,-0.1665625323478776]]]}],"OutputSize":{"X":22,"Y":1,"Z":1}}]},"Parameters":{"LearningRate":0.01,"Momentum":0.6,"WeightDecay":0.001}}