{"Network":{"Layers":[{"LayerType":"conv","InputSize":{"X":10,"Y":15,"Z":1},"Parameters":{"Stride":1,"KernelSize":5},"Weights":[{"TDSize":{"X":5,"Y":5,"Z":1},"Data":[[[0.6297224303314055,0.9458328739651198,0.5848296904470808,-0.3149217606573657,-1.1133030155328774],[0.24063672855330095,0.3075996944740337,0.23120464847714914,-0.3342743316241876,-1.0072215395381807],[0.2863799947333909,0.22163914255391567,0.051536554930921595,-0.36629147393556394,-0.8565562294522737],[0.8058573660046143,0.6276436272228902,0.050927360001749876,-0.5995668878284492,-0.7607407298402864],[1.3588759866165825,0.6943032204114867,-0.05291739985196105,-0.6033369919040679,-0.4080429670328587]]]},{"TDSize":{"X":5,"Y":5,"Z":1},"Data":[[[-1.2893201658759603,-0.45629986366643244,0.4823123583854258,0.9450806208669066,1.17150915929962],[-0.9281626609921617,-0.6243964023182873,0.4123337098950889,0.9908408445251682,0.8618063568571802],[-0.7392856191075522,-0.7283538212238165,-0.09340069206914456,0.28566459199369726,0.17161717833549398],[-0.6785867508473578,-0.7664797697911737,0.08088174796266737,0.8081658147646966,0.8587090273898668],[-0.6818622557678563,-0.4628519902888465,0.45562344587598613,1.362843194306947,1.8860188959625823]]]},{"TDSize":{"X":5,"Y":5,"Z":1},"Data":[[[-0.2089878270530142,-0.12029819699328942,0.2988281325061883,1.0187578188011355,1.3777152580237333],[0.2591473146569617,0.07914827332186472,0.0939654717982152,0.4548542548663728,0.8589627250453336],[0.8867218295296201,0.6800365741018394,0.5396461836075825,0.1281306676592954,0.046835823473964325],[0.912577341057611,0.6951601887814729,0.7421046877860397,-0.1836909977250179,-1.0958618113479237],[-0.03028973425729545,-0.36354398267266114,-0.3123626981091332,-1.2965273289134025,-2.178624487121563]]]},{"TDSize":{"X":5,"Y":5,"Z":1},"Data":[[[1.3689768096493182,1.093298825503281,0.6752016540141307,0.48259346958634036,0.4358944927803311],[1.5865745446766404,1.5332637807097234,0.8286375973183971,0.21100662926726244,0.5531534640396489],[0.5425136256033907,0.7696533007921625,0.12223384366219935,-0.033883745356668014,0.8237625537159968],[-0.8474108948076324,-0.7043630632735146,-1.1585992904610625,-0.8891311407588084,0.49649308779902085],[-0.9175280909158071,-1.031297401378554,-0.9941595926125077,-0.7347450252487352,0.1861664987006784]]]}],"OutputSize":{"X":0,"Y":0,"Z":0}},{"LayerType":"relu","InputSize":{"X":6,"Y":11,"Z":4},"Parameters":{"Stride":0,"KernelSize":0},"OutputSize":{"X":0,"Y":0,"Z":0}},{"LayerType":"pool","InputSize":{"X":6,"Y":11,"Z":4},"Parameters":{"Stride":2,"KernelSize":2},"OutputSize":{"X":0,"Y":0,"Z":0}},{"LayerType":"fc","InputSize":{"X":3,"Y":5,"Z":4},"Parameters":{"Stride":0,"KernelSize":0},"Weights":[{"TDSize":{"X":60,"Y":22,"Z":1},"Data":[[[-0.29721487539908464,-0.010134138828544983,-0.1365435991057432,0.14408412994469708,0.0487069898985045,0.25732134882070345,-0.1888658102717017,0.09246511874866621,-0.03968053931517353,-0.19420156077938303,0.01080910082806074,-0.08050609408977959,0.020220471558379804,0.04458611666739012,0.30359751801197676,-0.36323711250145657,-0.2952476186052371,-0.00613856023814725,0.4418491472166318,0.31029504017737947,-0.14743971345821766,0.1379944783358069,0.3423765088694951,-0.39383162628256185,-0.09881140130074034,0.1406335396717677,-0.48769002103389536,0.062116329126113604,0.3455463948411801,-0.25183957088879455,-0.18435894706622535,-0.08878218901308689,0.12698545772914557,-0.4161160956307855,0.10348537073070874,-0.08429335492084805,-0.4593676469930778,-0.3585348905628682,-0.03883096390327212,0.13379931267898448,-0.12160615230572303,-0.1669921840663605,0.08303991395623125,0.19043481202438364,-0.2758065515998412,-0.3177993285080447,-0.2888543865207831,-0.2481471475821804,0.05037958709723292,-0.18585474677559619,0.3926057925122778,0.006099068839616479,-0.6058381154460065,-0.48073324066226825,-0.11843400632405628,-0.04017161112409028,0.0431982721798335,0.048798016985832596,-0.3903317500509674,-0.18161438424948717],[-0.0459455047486162,-0.02196763789281506,-0.06945998171719588,-0.015218730429598778,0.03968120686213458,0.01163722819361005,-0.11317018690909879,0.03737143295054841,0.030390929430513393,-0.05018338995761763,0.1593815508709591,0.11167845414120547,-0.04461701032648426,0.17561258876362393,0.12894091949697883,-0.06114017565914457,-0.23590904966693427,-0.06726843871530604,-0.05012056074147272,-0.17506205883112036,-0.13082296485519987,-0.005089727744597914,-0.1008721184833241,-0.1165230355504158,0.023962411191221878,-0.07276361655562319,-0.11656773311624796,-0.03632084800777909,-0.1701115853462742,-0.2179443512721848,0.29977391156492983,0.07039153686424555,-0.12373570334686626,-0.1611225665021337,-0.07746488643374194,-0.002502379968737694,-0.017753941272562433,-0.08881559870680932,-0.061117768529039794,0.03273760655292934,-0.019930744217663807,0.04489027617639306,0.14227027090969427,0.08225210895695186,0.08333026412046238,0.2565115563025816,0.16499046568730252,-0.012800575977606334,0.08724170162477671,-0.04336250673487143,-0.0922016294771671,-0.2490101792381393,-0.19185606918135403,-0.20749807789416921,0.005813569125057649,-0.0374161691366157,-0.13517106537776613,0.06049055379027433,-0.009713812078469858,-0.16070784515573136],[-0.0870170736879323,-0.11111187658477001,-0.09087715498526129,-0.16545953467488922,-0.03636931499966859,0.031184591020395957,-0.17003187294367367,-0.05122728940745648,0.05381641051532385,-0.1876896416297924,-0.23508187490240895,-0.116475192599026,-0.1708668359802179,-0.29964333012385563,-0.2580535963949728,-0.09234121734346509,-0.08643422529774412,0.17143347552322788,0.08377411401398349,-0.06751801345950376,-0.2225448314789767,-0.1248061067671225,-0.17970111626941151,-0.22715743196647703,-0.2767448075700857,-0.02505035763022127,0.004468695983771042,-0.25533888315029096,-0.08112971056166932,0.015289659292652918,-0.014165831174622183,-0.0860796507428954,0.150061152887102,-0.18210939683365363,-0.04300248171799004,0.1383561922148222,0.10382957488297884,0.03729172174860254,-0.0004295555774487416,0.1750334939791433,-0.108263076500266,-0.33244373485684775,-0.19354501506266378,-0.29091725261933254,0.23119233257915187,0.1419943191298342,-0.05025319393011855,0.0834744874502002,-0.2060753465597478,-0.11049759689473752,-0.040795690887013,-0.030318961162924363,0.0660025705588859,0.052799661293735076,0.20535658179413624,0.2773570099945698,0.013646852899018416,0.2168652109234714,0.02137203189935484,0.09045259810139153],[-0.04956766436775257,0.06368277254932947,0.04822526434353956,-0.06642665050887235,0.09228537950585242,0.017475107901647868,-0.008596555454730521,0.15870382212218018,-0.1581681704783547,-0.036424881618388444,0.018956021636949098,0.02217970046374659,-0.115310139763229,-0.1020187558735661,0.038410528369110984,-0.05913225466237528,-0.18768032846598057,-0.10995865330478088,-0.12848309420409973,-0.2243433416661458,0.03702988777410171,-0.1664786492253869,-0.23152016825513552,-0.010050609760160718,-0.01887025048033173,-0.1815193605758179,-0.1631120932065747,-0.04266719203591348,-0.17905907847751032,-0.38384048347654115,-0.106788095850133,0.012147468445151015,0.04896371383198564,0.05937409055846684,0.07463350144615861,-0.2902130902587638,0.15688507920218692,0.11187331726157176,-0.050065307643604895,-0.08715424088398084,-0.159139341687623,0.17698284543692702,-0.08411252189007003,-0.03182506413036637,0.13904914137810198,-0.2082987636697696,-0.16321774612191697,0.0011487518904961388,-0.016066452344439566,-0.02541938224795581,-0.08403046894540997,0.1131925474671255,0.007831260126223172,-0.08493185877253354,0.11699534066832769,-0.1608702935767008,-0.09525617173066869,0.2332327590570973,0.09204725466109644,-0.019110068209568235],[-0.06976343645971794,0.015100685395498222,-0.031639219864158026,-0.017984763336822203,0.09595547748969474,-0.09546970428651773,-0.12934983215345777,-0.07106246341845698,-0.1032466745754764,-0.08122265977115317,-0.00272069682861835,0.06546933613478309,-0.07106780243465788,-0.009664759125007964,0.06180939925763335,-0.1687861850078418,-0.03513838904112873,0.03736405988464159,-0.15714043391416516,0.09472360065428619,0.03630934642034931,-0.09175724780175804,0.070002020320874,0.006329332813845165,0.009070436695165846,0.002569023527120668,-0.11557171226167186,-0.18154624828084515,-0.07676324624628014,-0.19446147833357924,0.01942135181875883,0.025738453546456024,-0.09684058951822658,0.12935071459273104,-0.03645651351712741,0.12486680085574538,-0.144436845132593,0.09348397685261725,0.38781977003853435,-0.25775722644253807,0.16173878630224472,0.0952504773632216,-0.1956498647213336,-0.08106607845356309,-0.09790365728310987,-0.08627107695673623,0.03205206213625865,-0.12824252639607567,0.05990353127581973,0.1726100812536113,-0.04949273034721598,0.08357472360055253,-0.09072527914388538,-0.1008658474489081,-0.12260418694792413,-0.0075651153911680015,0.21460036186429732,-0.5417937415674627,-0.15994826041669694,-0.19924896460845995],[-0.027908522952000903,-0.07840398527324491,-0.04760076415289427,-0.019720314112196585,-0.10988616136866196,-0.22779085601701896,-0.03904316150095207,-0.027329123997093883,-0.061832724330409594,0.004028466550575038,-0.1313590273668853,-0.01301076606106788,-0.04087704721821507,0.02518486547266062,0.15665495630936666,0.159112932282124,0.12904809413706148,-0.043185349253565986,-0.008047215849410948,0.023762325188820904,0.07504999620913294,-0.03904994440682956,0.11805519084785171,0.015139985041641527,-0.2541884746725205,-0.14190534511195807,-0.15488619060014241,-0.18455142028461557,-0.09941356427871398,-0.2368564797223796,-0.20514830017612318,-0.1976329474175852,-0.3323508684245985,-0.08745213035251113,-0.10066487893397986,0.10980572680299476,-0.31285196830764217,-0.1722217440602745,0.03383023918423643,-0.09789835657706365,0.04734987834110052,0.16409529109051874,0.08335501392637866,0.04370538457414007,-0.005629237772164935,-0.16189800695077705,-0.12449180196099655,-0.15112269996531963,-0.1434194308936201,0.08002062269309741,0.17887670554571977,-0.29756680293909443,-0.04068694034865905,0.1021490244007703,-0.17944569899042975,-0.041932596236734614,-0.03343241089333175,0.4219715558871207,0.06189575862775824,-0.17222476541898737],[0.042986366274816994,-0.020742563778401512,-0.25163348467225016,0.07241734737151914,-0.09962460603240661,-0.22036182934154802,-0.024931960531523994,-0.14817722729763325,-0.20019236241073687,-0.18597426150491292,-0.24127102703920258,-0.1300520254353131,-0.18488240474664844,-0.24779650657545843,-0.09154684752518547,-0.4379794331331604,0.13432456018385264,0.15678138303232603,-0.36468900895598655,0.06795486980641677,0.31115041979082314,0.10055103186366515,-0.005839214799566681,-0.12655284562229194,0.05353289278269859,0.008133261321079782,-0.170380443971664,0.14134299196147343,0.005381189279236604,-0.36049538377881407,0.16316673302372234,-0.09692394222120068,0.006508646710677893,-0.09069766728207951,-0.08499960758984834,-0.05654069236267305,-0.13178411276847748,-0.18937690618544278,-0.1129113516810729,-0.33181327397153815,-0.3662415956433953,0.10599275099909358,-0.0764504834677281,0.04171218138084949,-0.0890374275793161,-0.1314026305538214,-0.023141335929643778,-0.08469744419578588,0.20972568793637267,-0.05346486274327699,0.06309446266710196,0.023626616342947288,-0.05325306850356604,0.11216408044011603,-0.15958637714168017,-0.3487786128974277,-0.4273933114257453,-0.17047289267727073,0.06938520810787469,0.057970246681861674],[-0.10993525879358006,0.09459853117390839,0.19356260268103856,-0.17294358279082034,0.06564444629257275,0.12354778759745128,-0.10386588655441849,0.13051520539048397,0.1446398029036395,-0.0028751722452173972,0.1961815102777249,0.1318647631072174,0.0689084654273857,0.18098270143909317,0.14006077742832432,-0.007871790610093342,-0.277093060101595,-0.2679580022575707,-0.08513385198856763,-0.2747080455424126,-0.36019313789743956,0.1171597504399305,-0.1140045727619059,-0.1376693898781752,0.12502317040356814,-0.006787351879271693,0.02680128120524275,0.014089035491557359,0.22590769472870884,0.22691731092739062,-0.24525769184982948,0.04900830851596578,-0.19156178854868247,-0.020419675603326085,0.023389595759494754,-0.08106482195655795,-0.0723643317860063,0.040677336657279226,-0.2872123570479952,0.09977912555642221,0.1452451960324317,0.0017832818234492051,0.17844841943682688,-0.08830924661117599,-0.27778925154006245,-0.58736048379553,-0.2635893021694146,-0.03880772938860932,0.09407538711356296,-0.13073554246140318,0.004092289536899832,0.02856848487884408,-0.15499060753613803,-0.06411762061989881,-0.11168632981764884,-0.03789387527652224,0.09363210230499236,-0.09683893059009635,-0.06529148149592849,-0.14242971246369576],[-0.016538858752821385,-0.06868947327956378,-0.1838942145127635,0.07803995963962665,-0.09791720693438251,0.13872080320690955,-0.0728661688532548,0.12479031408629691,0.1422022756828604,-0.09048260310044585,0.10267028717817177,-0.036984725064969,-0.042765050178670556,-0.02720556745697135,0.11877690125757503,-0.270883382242972,-0.6126523784287129,0.2108292050889779,0.002835741860286151,-0.23512054587775374,-0.13177490040644804,-0.033039723487924354,0.358086214681436,-0.35931470549858485,-0.2966871276956001,0.044732674208580875,-0.31603657574245636,0.09786305067745826,-0.011922433033964865,-0.33763397139490803,-0.288226947464285,0.0034143581545077713,0.19193084557074444,0.012212347697416638,-0.054938673181133615,-0.10000635725440234,0.27466957850756,-0.3835846712064018,-0.5291297086099607,-0.23272902876662932,-0.30186173390547594,0.30923395818952853,-0.20225474625302173,0.042748125050672166,0.21232664705620083,0.578868902364912,-0.26520906865129795,-0.20541734808037102,-0.10717383281901284,0.08263436221249013,0.19178229590641682,-0.1407426119415228,-0.0645488989557971,0.2314529124487798,0.49319012653431243,-0.2418483800205702,-0.17441045831812627,-0.2568016998262436,0.01334906646459128,-0.27298392129874777],[-0.027623498422891177,0.007840915120488085,-0.04937448460487536,-0.09369392430449239,-0.05736861727708975,0.02819103857861585,0.04138994556173013,-0.06730397009587176,0.05447989759579565,-0.02536154894867116,0.10031142754835201,0.15563460826979414,0.02892759182146956,0.18122947639576883,0.07089380271146999,-0.04071981482708674,-0.07776944036647486,-0.05058673828483453,0.1624917851544252,0.17335010839807033,-0.1343072414843575,-0.12014527072869298,0.023990456210188256,-0.1900768549852976,-0.2180432135214638,-0.059250871329703775,-0.16668195948699044,-0.3891129172159932,-0.4386118603848702,-0.0533909940512251,-0.08521541157920105,-0.12635515458022614,0.14787064972574748,-0.046801720631404344,0.0070487635008470995,-0.036364212547663845,0.0249401197274178,0.05669493768067313,0.16054357157563257,-0.15864955394844907,-0.05981960714480097,-0.09472044314722113,0.03545877066080756,0.09281291611298725,-0.24499338585909664,0.25695183517538384,-0.12356239559643087,-0.08379832847106934,-0.01069918653396708,0.041468089388170135,-0.14779202065582786,0.008674046526637818,0.2845648279624378,0.11280634547372699,-0.3472856517285484,-0.21114546136161674,0.040226247621008245,-0.07421776635173442,-0.19682290539170416,-0.002422092157951835],[0.2546856945936906,-0.05500083140914762,-0.020450773143942755,0.1724653314120298,-0.00026900036765829414,-0.06940000000157488,0.04007146335100769,-0.1617164034230291,0.008772417689958944,0.0762784933504457,-0.21187551001529661,-0.05953783164746641,-0.06221868538419576,-0.155530205695699,-0.10818166166669307,-0.03592324501565205,0.18470268117072366,0.41537338409991625,-0.06453972415494895,-0.19670430597658967,0.03136212223412915,-0.055333299107383944,-0.10620005835184465,-0.16383042165291373,-0.13949502990251997,-0.06769987049428583,-0.32851490783195747,0.04481867970029594,0.08996874747165558,-0.24224131820846426,-0.013130691693027127,0.05509666149589966,0.07455358244995718,-0.18535064978691276,-0.03821343141155486,-0.13428172758159612,0.03938678180818312,-0.31984838866150983,-0.11731947818625879,0.20477941524181467,-0.08540747946482617,-0.06765287327836286,-0.16146119302167328,-0.1781096520186051,-0.3413034523731985,-0.07912706358364273,-0.10578323591211988,0.193836406118596,-0.023033073596434,-0.40025319586842956,-0.06600480949499378,0.2025838746335003,-0.04539496438918513,-0.24520406303484238,0.14425167322422489,0.09797514542257411,0.1739479016882699,0.27411227700552143,-0.09907394180334222,0.13664974642185257],[0.10548285273986009,-0.13457326135355277,-0.19270013392226412,0.08796913439867157,-0.15697173923576618,0.09903069713638184,0.016290545248325586,-0.330044375090407,-0.146722558888992,0.0417428912687444,-0.217206749499167,-0.040852074374860964,0.026533797810410792,-0.4172094539627725,-0.1437978066507293,-0.04348765870687547,0.11815706643853545,0.04562622797101552,-0.18171399621294418,-0.041729236761169936,-0.5199440788945368,-0.015401110485444245,0.04346316727047443,-0.32325552197937135,0.20927321913797162,0.3617859372774188,-0.42039467857466917,-0.4262440250936382,-0.0922564283687835,-0.5645197863807021,-0.11307457593822545,-0.24238236155756646,0.4148509403752777,-0.028220021239062143,0.08115845480666864,-0.07461600166187984,0.05209853721193367,0.21917335175908295,0.06930440049441726,-0.28690131160947324,-0.5278413233365724,0.11832975857011069,0.13530240722128473,0.09795870791045469,-0.012391918625205747,-0.6506894989389743,-0.27259228581990047,0.08921666662451079,0.24243799403529398,-0.2197629806049197,-0.24910842745872938,0.4431522853355469,0.1792103164512293,0.07452240048498278,-0.3655845279601429,-0.26991230941228,-0.38349067648643337,-0.053933858569704944,-0.014551217327544805,0.04687951155402057],[0.024063325299407436,-0.1130097179006007,-0.08692012786248189,-0.010603911039966833,-0.06477824195015362,-0.16892511772075805,-0.054722387295476814,-0.05605852755525226,-0.2497228034165202,-0.12522039979179853,-0.05770228182474253,-0.35769091051543417,-0.07079640198519337,-0.06408905376058584,-0.32289292174889517,-0.13708177994076906,-0.057104335498922625,-0.08920633048913651,0.14679191447778875,-0.07445462106502464,0.06299919498163777,0.1497032538736135,-0.005736739344402838,0.11600344136494595,0.20475039461765215,0.06603755201155356,0.1210614001924009,-0.08997057673077037,0.038000360319495524,-0.06200848114373894,-0.1199683435745219,-0.17848822944417211,-0.254549708155664,-0.2660003057142559,-0.1654869897016599,-0.31518434991423183,-0.22601410445891096,-0.03154231881508431,-0.12462793964651527,-0.20523315808595466,-0.07145180799385178,0.008274344881760522,-0.0795306374042565,-0.06815780610951812,0.23425579742587038,0.16301167174331266,-0.07200473589981697,-0.1746736775506886,-0.02507611564831056,-0.23003450619637228,-0.09636455341897573,-0.22091348855589515,-0.15009121365444275,0.05861420095932116,-0.13137486840150225,0.08650516774229434,0.1699010362033693,-0.0641926548691286,0.12037778660574129,0.15616914293093717],[-0.11973094244411793,-0.026197307137710523,-0.14662859752462984,-0.03208613203341223,-0.12707844408967808,-0.34669857927255504,-0.08309706211009231,-0.12972050439289745,-0.2884345664554011,-0.08936122554895162,-0.06837483259194213,-0.23902169899282105,0.015880534652140163,-0.15798434398045252,-0.38783357919889283,0.08161680801943759,-0.03430410307669024,-0.029730253438272337,0.0974900059779127,-0.09204213986709611,0.04803904394562524,0.018936910351369504,0.035818184994167675,0.14359090314332945,0.013756337253943944,0.11522575393309963,0.09575955958994137,-0.20649107225646127,-0.15567303852017145,-0.0064354376275425245,-0.0855256499378913,-0.13238472947842284,-0.6293557715773858,-0.04147766295460575,0.022804427699323716,0.2307114969438317,-0.02190220469657747,-0.0976303987661479,0.24247427014515807,-0.1806332668199632,-0.28481322185028946,-0.5360524369868166,-0.13690497008990615,0.033864129402024816,0.11437301204951626,-0.1436218348559197,-0.04973014166442866,-0.10307413005191082,-0.1116199538399264,-0.05098648057205986,0.09766840620284384,0.032370144767351915,-0.041808170912554295,0.026615572137004714,-0.01847718634866581,-0.24801921592907764,-0.16931629984687085,-0.23025045042537925,0.09135996328852768,0.37147185558132595],[-0.22988149938139144,-0.0679710352686659,0.1910809563618854,-0.12920737457181716,-0.07130472892369395,0.11285960579123501,-0.09032116083886657,-0.09228027190156747,0.14845755069517988,-0.13235173523363272,-0.07232244942689374,0.06077124998030702,-0.1300351461249379,0.028460229182623347,0.06625422849773202,0.29170778087658966,0.22798274331744636,-0.18037014697598758,0.051465504680104884,-0.06964734594716589,-0.06696227523797277,0.019750123603054576,-0.07785900734550898,-0.2926148373277386,-0.20662889427688336,-0.14060117696843397,-0.5365931816732569,0.02757869732091252,0.11165891088800511,-0.508236833851781,-0.10008139179167728,0.06911473389026691,-0.15719091461439078,-0.010730406279751777,0.038055478124676696,-0.016597926640436928,-0.034604795776382986,0.016963854934258348,0.10561832145345197,-0.09252042747906856,-0.00043056480368016347,-0.04419237415779822,-0.34035504980752834,-0.326338002884848,-0.29414568919005873,-0.23139123101484627,0.1470912055571888,0.2038001344762692,-0.10226368087618443,0.06956053255477075,-0.027017266875495896,0.06075526958808053,0.193673629593655,0.1167238254444866,-0.048376887381522925,-0.026838506904731583,-0.06924641311354054,-0.1900059544285354,-0.31547511625911384,-0.09071567407988133],[-0.09383961531728202,0.04841020621883474,0.07416234345765452,-0.12978168480206076,-0.03884867018830049,-0.03420106314462956,-0.08086663974776608,-0.10210891403328753,-0.13876981893425971,-0.07125426803286584,-0.19222649776396486,-0.09218282895190649,-0.07245970474542407,-0.039068028924833666,-0.05862711799122384,-0.05865522259916924,-0.2142020054698312,-0.08113894425399025,0.04587966141053857,-0.13815464769360308,0.24824948915228615,-0.1497695326353532,-0.056129964611311575,0.24572983055791497,0.015884796858794143,-0.13703991718148395,0.20042992572941504,0.13725324688156726,0.10966094935778362,-0.17561578655592516,-0.002748901904178779,0.08247471816971588,-0.06004641451391606,-0.06435086344773742,-0.09660705959611313,-0.21065913430630503,-0.08645037808524213,-0.31716688037195995,-0.17072070098507772,-0.28961574825183795,0.07764175250449658,0.04548877390917763,-0.18353776486586032,0.012588020504540097,0.19060418874133997,-0.07739180813378321,-0.028020931712372393,0.07616061288327423,-0.0005024199383045805,0.022556491546512396,-0.029663792110763428,-0.046264279032993225,0.1139747444500839,-0.1003474166675036,-0.25463826693753616,-0.223043742852898,0.12744893681088357,-0.07520807157774495,-0.36977412710717017,-0.15167947059374187],[0.015169205119836337,-0.13131899861803897,0.19831678031039549,-0.1011998858234963,0.05195659913845853,0.0483282844765373,-0.09231554184848241,0.07281509722913829,-0.15494936372861037,-0.15178685837624026,-0.06745918108436699,-0.057611412041371074,-0.0902714272700303,-0.08317060842214713,0.05543056277760817,0.1362665664878744,0.156217109306167,-0.09747966918242996,-0.027964684702846996,0.09588011305276208,-0.21583198549937244,-0.15966131389011878,-0.18614092516870648,-0.13766873437585592,0.046309870088461554,-0.23485045123931794,0.042176506503486665,0.18282521460778614,-0.08727052807857884,-0.034022746339952385,-0.02612799785109125,0.1724906108238399,0.23171662905523258,-0.1294587352234416,-0.01695293226640284,-0.02013026887974385,-0.11362117935318888,-0.17041741872878508,-0.24861029433887827,-0.15839631654451305,-0.12516419702949796,0.06913052623285675,-0.09556077161222705,-0.03907534391154098,0.09577487765197061,0.12059545444537494,0.06384276882422078,0.07647221417809164,-0.0834176680709921,-0.10991327761218472,0.08669185846082697,-0.21225370725575546,-0.2272584049680418,-0.2735622544282519,-0.02429516171976904,0.04520076188844596,-0.2172347204922362,-0.09594539204887051,-0.0055732853398966515,-0.09461057674018462],[0.2044422640956622,-0.07787765472302656,-0.08001266624201994,-0.21829051683853207,-0.061311289224159946,-0.1459193543416183,-0.10421230398832819,-0.2682356731213275,0.36785164482290134,-0.1622704335036052,-0.4864242170097985,0.5013079436270002,-0.18965023342989415,-0.42854023997416435,0.0026327294233934096,0.266124953421747,0.11471138557515254,0.07232696807800347,-0.3822109216157101,-0.26980082210526257,-0.42573768440893506,0.031633342645045553,-0.3073796156274595,-0.16346450477555516,0.243240279160672,-0.11875773251870728,-0.19335192511796961,-0.29432651918563635,-0.5356466043301296,-0.3610179972070674,-0.1942902809528509,-0.3170971416622358,0.10298776867091779,0.07512767037420538,-0.48699278751337866,0.31957880355070134,0.23068156225354441,-0.07289720978033569,0.114076416893078,-0.2787917633615905,0.22649447310707418,0.16608741652351872,-0.44596721570043923,-0.08220589208674996,0.2537978238539149,0.24148388160043072,-0.20738393758209464,-0.027469229333728733,-0.2724966436248608,-0.1594465356534489,-0.749945592280324,0.1256744312044034,0.4118111709944437,-0.12032615847853487,0.10547911914388934,0.03183053103354685,-0.19738998631209187,-0.15558518595457183,0.4465469948260223,0.4103507226318518],[0.009745084166457392,-0.0036045104628758345,0.02885338198533684,0.05958525649368182,-0.045491701445621646,0.09952633551162353,-0.04861445517184388,-0.005343679381384466,0.08118048163381297,-0.03272092680982718,-0.15480311320286474,-0.10819014993982806,-0.04391023871310244,-0.0352831028590738,-0.28413075469977733,-0.13219160872747102,0.008392242271550884,-0.06577643635501641,-0.23160637966713382,-0.18787393601359992,-0.3430461236123854,0.13527523580432863,0.14044792454742056,-0.1212946978940019,0.07347607203689763,0.20621005047804816,0.13256367762373766,0.3406190168474803,0.25730331079276003,0.4110000995363216,-0.12340729864113484,-0.3038199639814324,0.2620567110563205,-0.11536314898064366,-0.12117284228247757,0.015249290321580563,-0.019609403549856744,-0.008154842507452197,-0.32427812635046954,-0.14400213005596565,-0.1842419073167766,-0.33521228907520245,-0.2619537801741076,-0.2522727219840953,-0.1424606533952033,-0.06696756033468068,-0.133935310420526,-0.1106089896330216,-0.03745777753020825,-0.04774137071799335,-0.13939728904570095,-0.004525018188041898,0.08279638547590727,0.04149767600604694,-0.11476562966573918,-0.17197358885769576,-0.1390428383449865,-0.19410842613371676,-0.18555894996325784,0.0534576560154262],[-0.032879411207011384,0.05930738298493341,-0.1656100582224088,0.11415884471402075,0.01636833530124839,-0.13581597260825248,0.15266482158542552,0.0062737066596673455,-0.07195028914739433,0.10389147757372558,0.052667217743202425,-0.11669125336694026,0.04428203314760259,0.14482009340106314,-0.05781310080736997,-0.19568068105711586,0.07771706466677936,-0.09406827359230106,-0.21145352656307756,0.025818404386069,0.2063221957568788,-0.2265783437830654,0.027158278659767488,0.21259178432095185,-0.13223386005730942,0.059682572666250246,0.07600864122939667,-0.09569225687049303,-0.126100561714629,0.17027328331276884,-0.07910229306021861,-0.24270987922001575,-0.2773687539651839,-0.13383583228263068,-0.15336748832382358,-0.13813196740485092,-0.011736624165077704,-0.13900938367789767,0.09850666653164566,0.0648560835238541,-0.03029991009779977,0.07892132053096737,-0.04644291448700687,0.08460781463825234,-0.15202902588121311,-0.23822672760260297,-0.09472433260346817,-0.2858272379500183,-0.2293834405204568,-0.1389493833406047,-0.29033383631723647,-0.03470057152418794,0.03040064469515219,-0.21767444352014664,0.03778097903208248,0.15207705478027558,-0.16753357980892322,-0.200223475424623,0.01330220849997719,0.005328208063894849],[-0.11074014262076175,-0.10389508324625767,-0.036731025281520134,-0.041320884574745344,0.060678480724449375,-0.0646600726108566,-0.00391668208412231,-0.0692958071037829,-0.1343201275119939,0.09600248706895928,-0.09341534896502966,-0.1289157732415743,-0.10217545794676287,-0.17011962547102144,-0.09269346019746717,0.20677219154527263,-0.04701949452445101,-0.2966515182637094,-0.1725907586034628,0.0389407294718346,0.0008171233481425335,-0.19552659925608332,-0.04014267622169444,0.20738615489851012,-0.1957832145185562,-0.14496190357286604,0.08484207507329351,-0.31985022345917,-0.4614993706370148,-0.2301747983351927,0.07398709545082488,0.13669971901456346,0.12873213497044617,0.011173845499862741,-0.15345550692017446,-0.3312833344660323,-0.03867083894638996,-0.05042046335502246,-0.19852976124426353,0.1480117993832388,0.0888442888910428,0.004245090032753803,-0.28321679170836483,-0.20242790061156632,0.18492204244001606,-0.21178317828460283,0.18736743575237905,0.22917313877058748,-0.3047992435265913,-0.08444167636644395,0.03491030260830924,-0.18795118036274708,-0.2234982348711309,-0.3305680998858663,0.29396213926023224,0.2615994193011575,0.21744105239423417,0.09754440986604632,-0.2780807587312382,0.016921360006995522],[-0.06691408684244207,-0.02776351583536269,0.14020528133119814,0.02931179171485612,-0.16207319950510257,-0.00013632008659670623,0.09040595434302069,-0.08108380553325614,-0.061766507043230036,0.08609666534751995,-0.002783585727676769,-0.050983206061003324,0.127574770393372,0.14585210306666777,-0.17198767805661527,0.2314555412730526,0.11482647337556992,-0.2414628926999799,-0.061158616463365366,0.07069918187645903,-0.1695945424956339,-0.25532808864423223,-0.16721601074217782,-0.06688194515743211,-0.19044601692119428,0.01861849475499707,0.030686257728910715,-0.20428108807753492,0.1774084819207924,0.3477533620976574,-0.03556852970021223,0.056891362922699244,-0.1217360778616087,0.025821294142383523,-0.07775092437431047,-0.02893905769191286,0.004624015497057983,-0.07383253009637045,-0.17648512826059842,-0.12179581946696637,-0.17333435403895997,-0.28813233630328083,0.09462668423680207,-0.15141075267253482,-0.3589919531538315,-0.09402537604052853,0.06221359738514213,-0.003104170461185906,-0.040440873928349635,-0.07449096687019173,0.08600515171561364,-0.13497629929216268,-0.07636329344284437,0.18670090713897736,-0.25374465243162614,-0.4325702753957445,-0.32561819884320575,-0.017647667781706008,-0.0034277670326849125,-0.21421912982383104]]]}],"OutputSize":{"X":22,"Y":1,"Z":1}}]},"Parameters":{"LearningRate":0.01,"Momentum":0.6,"WeightDecay":0.001}}