{"Network":{"Layers":[{"LayerType":"conv","InputSize":{"X":10,"Y":15,"Z":1},"Parameters":{"Stride":1,"KernelSize":5},"Weights":[{"TDSize":{"X":5,"Y":5,"Z":1},"Data":[[[0.3347277913551847,0.22594006775079237,0.41927460439308684,0.4205243245138288,-0.42287372180869487],[-0.3542775113494066,0.04127121647013957,-0.03750971319229487,-0.41926355270963206,-0.2543689842763727],[0.20272146466178181,-0.49920512327281885,-0.1976758286826116,-0.1836090761969586,-0.06708551237215067],[0.4695061315835656,0.14343380757219945,-0.026158391341397882,-0.0826021745178567,-0.0962095494189003],[0.34763057214476073,0.15616762131111994,0.2239923026853013,-0.30819480666142446,-1.3126342475242765]]]},{"TDSize":{"X":5,"Y":5,"Z":1},"Data":[[[-0.15165538338943402,-0.29115835553477265,0.055841019535223566,0.38527221657001604,0.3080025922249591],[-0.19842733530965131,-0.1609087650233768,0.2099304119190063,0.0985799666118648,0.2440379882384036],[0.06225667772059283,0.1429715022899503,0.17686501539134,0.24033431878304784,0.10083671332115908],[-0.14184701297316366,-0.27571063985046207,0.002020549239589282,0.08868539244815925,-0.13432038958528475],[-0.060318803712813805,-0.7450166310066985,-0.37666149041639346,-0.02673770229548239,-0.21264392104399782]]]},{"TDSize":{"X":5,"Y":5,"Z":1},"Data":[[[0.020722973608837472,-0.02342294008656931,0.005932333091783956,-0.04750688278522079,-0.0362614883387008],[-0.045079915396818396,-0.028650522616258788,0.014854226269035875,-0.020649989697849532,0.023551181879202743],[0.030254200093597472,-0.005506203951509976,-0.012177630141838047,0.010579143484700924,-0.03670803522402044],[-0.06019126703567361,-0.06200239874701224,-0.014938735984914684,-0.014444740314438162,0.025339541409818523],[-0.061487058364255796,0.03397727907281671,-0.029739855799139108,-0.04435349949796799,-0.0022938660140266183]]]},{"TDSize":{"X":5,"Y":5,"Z":1},"Data":[[[-0.06019579910880828,-0.04086791041956186,1.056549662166681,1.0689952944202712,0.4011741149584861],[0.513965472787395,-0.2753542639780149,0.044206541001684356,-0.09677420466760256,-1.0461634588172828],[0.9523570624449631,-0.2486071837566768,-0.16485786960414683,-0.10205205923040048,-0.5497041770773117],[-0.07187331558450137,-0.6131222307402056,-0.12764292130840105,-0.10998183107266334,-0.10567738935907074],[-0.38989487213962476,-0.9353360899278605,-0.4893696178553676,-0.48214965623581996,-1.3894510606587518]]]}],"OutputSize":{"X":0,"Y":0,"Z":0}},{"LayerType":"relu","InputSize":{"X":6,"Y":11,"Z":4},"Parameters":{"Stride":0,"KernelSize":0},"OutputSize":{"X":0,"Y":0,"Z":0}},{"LayerType":"pool","InputSize":{"X":6,"Y":11,"Z":4},"Parameters":{"Stride":2,"KernelSize":2},"OutputSize":{"X":0,"Y":0,"Z":0}},{"LayerType":"fc","InputSize":{"X":3,"Y":5,"Z":4},"Parameters":{"Stride":0,"KernelSize":0},"Weights":[{"TDSize":{"X":60,"Y":22,"Z":1},"Data":[[[0.028661972474615344,-0.11282578211879665,0.08974493083188224,0.05762778711486533,-0.04821119982588516,0.11279079279929624,0.02268715001999787,-0.043006213775202244,0.017702844481052655,0.057953552829150885,0.01013936923783865,-0.014161636883573718,0.006675232377611281,-0.06859502642345502,0.12302526397186785,-0.16603102320144827,0.09483601804024196,-0.11496076968183759,0.15893172421786547,-0.15106183612706814,0.04248757155970943,-0.04116276124478252,0.018249213357674113,0.049056347560121845,0.25863092746241095,-0.16019951848342584,0.07807339693295294,-0.09672087417352355,0.17561316429065243,-0.13873365983858266,-0.0013190975575726172,-0.025341156700252585,0.013791293520462202,-0.04810446888958307,0.04668779096208779,0.05103434629340678,0.04904315453573816,0.0016484417467320348,-0.005103832624823682,-0.00693597215685492,0.02721232511005928,-0.01079270470859692,-0.027932815281184128,0.05092483778086245,0.04254374931252768,-0.008137917848259244,0.004192170467690578,-0.08786233094407839,-0.0049245531339519154,0.022141504415153314,0.005905519129115273,-0.01245928915185096,0.04035785627280482,-0.05031055780486703,-0.01446006872584408,-0.029323800362100874,-0.062286172308930646,-0.020027112064100322,0.08174059084276972,-0.1885464875087002],[-0.0798553219903675,0.0806605954749202,-0.028901642604041565,-0.12381351792471368,0.016886740949910564,-0.011178960662675439,0.0657257620873527,-0.09277807211805802,0.08876730434044713,-0.10842058092349978,0.02897824906399664,0.026577499581410414,0.06055006946863089,0.12139291160520423,0.2279207712833007,0.015617052252948146,-0.14366055876513142,-0.07067801885951824,-0.08121454721944033,0.07002396939435115,-0.021421984035544902,0.03648066634062724,-0.012146226680429442,-0.002622789144572428,-0.0896819498546226,-0.06015059915453239,-0.006207863539057152,-0.039780668558044414,-0.00046271169995582484,0.07641823115982949,0.016133388722516035,0.02141341371287567,-0.05363514787298425,0.01914480889297555,0.01852078728717862,0.009440675305659464,0.050294523636649886,0.02867243515436911,-0.031654309947136514,0.0002288208696878939,0.02013532057835037,0.03571901742187742,0.015383632084858429,0.024760404606996196,0.018965884628735663,0.2771952029747755,0.28578933210190416,0.20023509721947494,-0.05721492694470078,-0.02165241733377156,-0.058513981938566266,0.032780902599982294,0.10663442433078028,-0.11204806514616289,-0.07207218263317221,-0.008104170877284498,-0.08896762445048513,-0.002304298109507002,0.07483121698017721,-0.06534441118025734],[-0.0258639032833313,-0.03276930006032893,0.04797568081998612,0.01867316351149038,-0.014222279626006999,0.01396470918341888,-0.0017253266340882892,-0.01637903058344072,-0.009774844171200373,-0.05472276153443735,-0.01991636635575168,0.017405791266660024,0.03888864409218206,-0.023241505554293888,0.020776230771721887,-0.02232082582457721,0.011053575655933153,0.029273588129437707,-0.01317521745512943,0.0022148856126990536,-0.01989957222357002,-0.0033004658512572763,-0.021440615810439725,0.017461530203455793,-0.04320899478562952,0.010971803590979578,-0.05923084074043209,-0.020463439460391912,0.014772592828399999,0.11504663222734521,0.01601541726511603,-0.03958739301570727,0.014992478347865958,0.02517723990711941,-0.019394801369150474,0.02402563561129704,0.030792035540595036,0.04101352046434113,-0.0284297020569802,0.035209543501228485,-0.0314377101991866,-0.030162079694244247,0.04523692569496871,-0.04145763548052499,-0.024769064324133214,-0.010714699708508217,0.015008550263293495,-0.02908363733514371,0.03939490348167227,-0.027619175530337877,0.01293368647631245,-0.008769003442313851,0.04301119777190835,-0.031010509642250123,0.15176593685818007,0.08696302009317514,0.006371357048228023,0.9548373101856872,-0.11333424604288729,-0.026886536552176356],[-0.06659061922634059,0.3882662504754003,0.045143328199224106,0.052517598721173446,0.17905477647634863,0.001789835120377573,0.22007203285653815,0.243044875554844,-0.0981014065110698,-0.3572385359677001,-0.10121641823873559,0.09338718545785628,-0.09746106323520079,-0.12545720014413544,0.004864330125032053,-0.013060983444410314,0.047155788782868774,-0.04073187318426574,0.001961937631265501,-0.06716002494732771,-0.02579633417730757,-0.0020725768425184296,-0.009569326554246554,0.033228534860199145,-0.10231699213679596,0.08951996206747959,-0.0881085419521703,0.06962508334694759,-0.005826578140906335,0.03312232778580459,-0.011216022611949636,0.013572481130134373,-0.04274063291182649,0.018407943827403492,0.016919933017727488,-0.004112036688868081,-0.04460807952679053,0.023484586368537615,0.014174685430097644,-0.02056039895597963,-0.05136173958761561,0.008912443675255502,-0.02914702644881235,-0.03895901888448364,0.019817456828343263,0.04725147658550184,-0.1590702073782294,-0.01654855995796836,0.005615195831529542,0.07171617597790356,-0.032374276407923334,-0.07619756888052959,0.004550656724022633,-0.00600724909850598,-0.0742594334721479,0.08275164863663206,-0.04296349029929403,-0.039173202944078424,-0.013030333816928545,-0.01886425088157241],[0.05344542028579411,-0.06212573262350027,0.001881221962295837,-0.005664988664413474,0.010767320505372643,-0.0354780750573336,-0.07590766642001491,0.054774159043662715,-0.05869727067007018,-0.003711008094492468,-0.05315643729901349,0.01350616300606541,0.056220325279614826,0.023821271518128295,0.0948425193705478,-0.09107616501460745,0.07920034202896585,-0.2045028910736217,0.05111102494679782,-0.08354812928053225,-0.021679082907484503,-0.13697832745398078,0.15739402920814272,0.021813600336847917,0.015855896196252016,0.029424704602917007,0.045602030795396195,0.04124426395770576,-0.01667641011622262,-0.019135227067682992,-0.040322712261227675,0.03779222470308539,-0.016484555687166776,-0.03272237044074648,0.012109701595413056,0.020295368217942877,0.04696948947595711,0.018710497709772376,-0.0009164137005283517,0.02731924955076921,0.05130687666202307,0.04383583077609288,-0.014950823433912313,-0.0427205063294672,0.012311387085660363,0.029686325486723977,-0.012756838082720495,-0.032062667013653755,0.011814316229896989,0.02004192444670319,0.04663794125611965,0.0033288291870427283,0.004360456632879237,0.004142382607816914,0.06874175709536824,-0.1677707578484382,0.7264305649769928,0.026308154289455515,-0.04191884469980254,0.020007378561033618],[-0.04022643801513818,-0.0426178508537581,-0.11118026633777335,-0.1616277106707341,0.10107309093296911,-0.03884146449875072,-0.04985398147630742,0.12656852875111915,-0.00876198777531559,0.14874278253424045,-0.10162966197249886,0.2045327938824557,-0.046717961757512555,0.048217688951307444,-0.024643063199684564,-0.20894335420016508,-0.049835203090261536,-0.1320215238058329,0.41768190299042035,0.16639300766753173,0.1586700125859573,-0.31608220235243323,-0.18663501291026305,0.12498333658730415,0.23535700560913392,0.12638532320142182,-0.04962833966304603,-0.158366407606277,-0.00594793880766883,0.01965423452212966,0.025643257639964737,0.029307220251348173,-0.022887812365752186,-0.004632529163495178,0.0008779428634816923,0.04391439900212824,0.03752929604386641,-0.02885295141544011,-0.04916495045300124,0.02398249490162612,-0.0330380836157447,0.013570936609966612,0.04529307612165247,-0.03096199000472536,-0.018001078141918363,0.003956700651857027,0.023285891691614564,-0.007263675441747314,-0.039232765387006374,-0.09309454663839939,-0.06284282726158902,-0.05690602280806032,0.006868136244076951,-0.04620580179689014,-0.0006197813716216508,-0.024815755106931018,-0.004730803569752467,0.05197060921176373,0.1526818271821112,0.007610767231781317],[-0.0591415550243763,0.02332817559668752,0.02347929851751674,0.23419010794078113,-0.03924299605896009,0.0408014625672533,-0.0982117683508347,-0.08331715128784234,-0.08148807122193807,-0.07626203363291872,0.07944451529365172,0.07737143753967808,0.06276828964284033,-0.05036244527345575,-0.03790688266879479,0.15126912629894482,-0.0987415341361286,-0.19024061245572377,-0.4017838158088548,0.20737901080908172,0.36861454125910875,0.11610262944833771,0.04669021958221131,-0.05788690837484664,-0.06375980794794579,-0.011715160863205811,0.023369674255371498,0.09177771652885756,-0.056304515311611396,-0.0749943741939645,0.0537819942508222,0.003353424744956387,0.0042830923005668904,0.031400971158680235,0.046499959200971955,-0.025147093480321472,0.04066475799733306,0.054847879022745495,0.03596594237301628,0.05155722483041086,0.03206258711757233,-0.04335492913740958,-0.0351468874624823,-0.021794925266834363,-0.04176247987627693,-0.018845745335232752,-0.0368960882470395,0.030570636203660947,0.05987740535124845,0.024064132362634407,-0.02423216540326675,0.1037870280974882,-0.015230435685107508,-0.09937738414479115,0.10743933082751468,0.033252529576397814,-0.04760060377675278,-0.00015730912836049008,-0.11387932384997097,0.04047972685368001],[-0.12302412899961229,0.07518133775818175,0.1626294957638161,-0.11342881583590325,0.12599782042708219,0.05033387992696424,-0.326055978161861,0.11288308894583421,0.054756017056145634,0.39154553880458437,0.07951652257750587,-0.1273579892571157,0.20398563588861274,0.1624238386973858,-0.04450532683077971,-0.04956192827976609,0.041389409467950715,0.019113742816298757,-0.06299308624190073,-0.014725326339454198,0.05530988165638466,-0.08971452775369998,0.07366782324113831,0.1421845301256312,0.016829299170985537,0.028209546462069034,-0.14449969755158845,0.016316706835135423,-0.001528345828452915,-0.11233843895033045,-0.009896526635897868,0.03706260589762114,-0.018668393750058267,0.02858277113892352,-0.00947165325665264,0.027344432815333556,0.04493252607397122,0.05346653421730496,-0.00464675155887857,0.006024396212248039,-0.021695186589145807,-0.04153313545020451,-0.022566492443569883,0.03881250573007063,-0.008250527658840767,-0.0013249150818948176,0.02284730409725707,-0.12013749350188237,0.15399316754215595,-0.07226352101862946,0.06052395490729477,0.15066595917258,-0.1659019836337628,0.02165400657207356,0.00700729168209801,-0.08735755477037725,-0.010414645148527498,-0.12290743214316706,-0.04285967266645255,0.06277025766875462],[0.010470533753669848,0.048939624909569,0.002175683678063464,0.03662143964216861,-0.023137921114008277,-0.1812791150992422,0.08268555760750221,-0.11087916475562717,0.4386315162828026,-0.12443605625806715,0.07280907418964148,-0.22264078542474833,-0.009256880399687946,-0.010989520974348056,-0.015378096424194158,-0.03059516702393748,-0.1318157108199375,0.2818719508493815,-0.03955390009436452,0.16201654774629656,-0.4141663249962361,-0.1238666903925266,0.1300028825861687,0.03409001233521767,-0.12388469765413584,-0.026236500910333825,0.12070032379904766,0.1755301661240822,0.006306482449248573,-0.01590830831448329,-0.05349873189844433,0.020936663953771514,0.03999615641687673,0.00684279006064242,-0.036087850502617126,0.04307309953444425,-0.02015041945322682,-0.041693037042959055,0.037211549433300566,-0.03736755166102058,0.007609367703748567,0.01142992046299584,-0.007368682438728938,0.047476064511561986,-0.009968010957598151,0.0630162403411281,-0.08704017378105611,0.050861698729552374,-0.00706696795489776,0.04926285367581151,0.10457047762198136,-0.0993739602789838,-0.010167365646667464,-0.10164992509802724,0.03419725592047147,0.06132484727390737,0.010515371163302312,0.01990085848958254,-0.10144421925236821,-0.013659671142712814],[-0.01757783308871704,0.051509448173693614,0.024563090910682827,0.11104010109379198,-0.13254156787405894,0.03471184888781426,0.10270823899217325,-0.14056449594426432,-0.07990188854004306,-0.13854449497831953,0.6409953738065707,0.06628560637937042,-0.1495205149589869,-0.23840206477393358,-0.04728709002383249,-0.11052893637714566,0.013308431844882895,0.044238730853539104,0.12384026407465198,-0.00912818664445188,-0.0076319074512844675,-0.04827993516251823,-0.011608680463073265,-0.0889164707752454,0.06181842560972805,0.008984043104319056,0.049847377661611215,-0.13708859343166213,0.0599955954266887,0.013205555743616003,0.031513625700150795,-0.05108132899045247,-0.01410270766641772,-0.007616659160251148,0.0029860577322619727,-0.02461061208481854,0.011022062641776518,-0.03157728019631425,0.03391170347943164,0.025971762741457696,0.0074295328889285,-0.018348060230218056,0.03590742581910454,0.05119127048682233,0.012917835758643118,-0.011072609897543887,-0.11056346470042584,0.0726945377280114,0.01626762560837748,0.08682081266086308,-0.146029439388758,-0.08045873374218054,-0.09377420227013403,0.14888069555071098,0.03002061346282485,-0.005202612846419941,0.006873089264760763,0.060021936298849714,0.03378541055855191,-0.006381742956797853],[0.0758866854124467,0.06629559545731853,0.04078136876842403,0.028723169728071974,-0.04758460618410659,-0.020136374106276236,-0.05467161863713816,-0.0536438597844279,0.041844338178871676,0.14743508127330884,0.025251873414617623,-0.055117947320470824,-0.12915616130319724,-0.060162353785212515,0.0501630294714115,0.0020554394241502974,0.010055577498525514,0.8774103010398897,0.04534556975740933,0.0011700975338823551,0.04158587915760553,-0.0011527805064755737,-0.049084316626852295,-0.007804466829939735,-0.0542698013728718,0.33304709543586714,-0.05541257119059603,-0.004910156002375569,0.0036548438458082707,-0.046426492725633726,-0.006618062725480163,0.031168513624762813,-0.02616040019549354,0.0052440489564552694,-0.033241996493516876,-0.048585507930916295,0.04874141949445139,-0.0033305944300120963,-0.0132853964677085,-0.007067954990045709,0.021477737310336316,0.04143530107315104,-0.04149927987090844,0.02042482780817876,-0.03671988399857157,-0.11005393733535306,0.05278051796300915,-0.06627188549240505,-0.006466385202053986,-0.0065325247599716625,-0.0679490361054831,-0.009272321159296616,0.01496525379724435,0.05278540883112607,-0.11114134404307267,0.1818226273853292,-0.2309656262371481,0.013948656422195714,-0.038200436235414546,0.014332616077864473],[-0.0005684130446765803,-0.02352870669320031,0.056368211490783124,-0.03349386230110883,0.14917374706913664,-0.25696438620956763,0.05161227278043643,-0.08842738452094033,0.05925238184220673,0.021241853145881565,-0.23793114199093654,0.10210189059873227,0.08433381913589844,0.18272367709793408,-0.14715303562918658,-0.180317076256868,0.3185223567800329,0.0408000677919761,0.15451628132179746,-0.14325488637085315,0.02799467481101495,0.04115523777260044,-0.00683817640396893,-0.1264435287750868,-0.18070463947670812,0.06529263382539723,0.07285512178093921,0.16392083337241148,0.0360565470630686,-0.05908059438203922,0.0509708168193894,-0.04031923411754492,-0.05383802138128563,-0.03124857343175943,0.001566989216254097,0.011249008801166156,-0.040070342392976216,0.034200984599774324,0.021698878551010926,-0.022210332701225827,-0.0049728794375011685,-0.034341032678976896,-0.007401366016275753,-0.041645241064508544,-0.04999645460065504,0.050085648451141704,-0.01500091668817839,0.11186813013118861,-0.006226129061308153,-0.1283403584236717,-0.14913435427972968,0.10587118736940901,0.10257329212848382,0.2519888202850546,-0.11080707928565578,-0.005680945469704621,-0.02100409659583605,0.017758438392115772,-0.05312696364410531,-0.03862749691719176],[-0.11945908670569086,0.05504918983925192,-0.0835360538583046,-0.010228772191809734,0.03136314232217666,-0.04110045846663255,0.04547835671603992,0.05556351218030523,-0.09488658723557672,-0.006135203866300127,0.05183843789780625,-0.0296499124723536,-0.09405751887529473,0.032295074889276576,-0.10330710002043998,0.05795438987511247,-0.08687533683009606,-0.08454104716704175,-0.057061858259049615,0.09300907196130244,-0.0410879064723657,0.01603888793728572,-0.04565691772394399,-0.04608324226112863,0.31297992170844163,0.25302305715358714,-0.09770217180455654,0.0879666328409155,-0.05494349166113015,0.30278988877471713,0.0038712073360274444,0.033104052033531825,0.037354075552452855,-0.055575097390192466,-0.023007508493015003,0.043058670447648245,0.043513275342980835,0.02946620634537723,0.012268306433028944,-0.006187524266383411,0.02824812937380559,-0.03309979794413731,-0.015645036735102206,-0.05321846194624523,-0.046111285454425596,0.20194858388912587,-0.07537554968667333,0.0640923695577296,-0.011311802182941042,-0.024239183686676886,0.05577807391134805,0.04067103252658195,-0.06782086334523381,0.07533458827596402,-0.02701330205758299,-0.09866060748060479,-0.05852734899412216,-0.01579239384376729,-0.03771703593866018,0.13356008004275502],[-0.031955990839403495,0.023865849624298503,-0.13174161578484958,-0.09923177279624226,-0.06116178430438062,0.15561319351412461,-0.05586271021246374,0.06271511867059343,0.03437644905375395,0.09971937198002029,0.09842452198706586,-0.2469408951166673,-0.05692968572483279,-0.0929203624809807,0.18605352643905232,-0.03552984192787709,0.12731273893772652,-0.0338914533782608,0.062374636575804894,-0.1642351133703874,0.045062551469854044,0.1630582749794555,0.1029789596303952,0.2656444515562578,-0.24862765210681514,-0.06642883977656536,-0.31192279494219216,0.06646587248877231,0.12864132950734977,0.1611816248160297,0.054467830458679686,-0.019067671066056335,-0.00353299394155614,0.011764270797252395,0.04189021534380281,-0.025065396830782946,-0.001454257492909249,0.051135849968873055,0.0497499507778008,0.052485233804633054,0.02809987222769936,-0.033306696890341395,-0.02270659359981684,-0.03713422400897088,-0.02774964576478104,-0.00387883012005064,0.028238308763385678,0.01776337193267241,-0.058444087964534486,0.06487775636286061,-0.04857257277584575,-0.060197994777020605,-0.02060351479489518,-0.01307687109789665,-0.03459319195882345,0.011037022397740077,0.04057336977169253,-0.05585273185261119,0.04179002487184455,-0.09834854499254088],[0.053597447776765346,0.00027642547731439017,-0.08924102982398063,-0.03998075143775307,-0.02160141615047298,0.2832479995754006,-0.1139430450003555,0.19157751736455075,-0.08986469809364206,0.06411853152531899,-0.22776540727804895,0.14104378977528018,0.0024871217432673345,-0.029395047093747424,-0.04216443112668779,0.44181632734029846,-0.3260930229073067,0.054900070307674985,-0.18365686822582034,0.023081240180674464,0.09848797892209858,0.18644014775509055,0.003668947336581322,-0.06787405548515359,-0.005318095907780675,-0.025349005460411658,-0.031260863241108744,-0.11227829595361041,-0.0657401503161002,0.0654100942319645,0.025329118596821996,-0.027681211826766132,0.05358434783934668,-0.02715909129176892,0.030136064665137668,-0.04757282436895536,0.017982269918590216,-0.0033096317295511954,0.028926885398155768,-0.05552644674867917,0.0209448515422337,0.04329658875037968,-0.026383221192412175,-0.044607959798994797,0.0409921116717516,-0.07059996377904354,0.10080044280983597,-0.19726622237427932,-0.05218751170693638,0.04870376304862765,0.2695246768203862,0.01779497434774624,-0.022120164524888117,0.06665105086915854,0.0041447787119212156,-0.06820698219434837,0.04468912360139773,-0.05526684760015781,0.03406193394088122,0.032725240447594554],[-0.04232653636019133,0.04926765187231339,0.015752283165429416,-0.042181888874400095,-0.030940975170494968,-0.07720567941290199,0.01762975313074905,-0.07397859287730837,0.09517502998801908,-0.13447465762842933,0.09004778411253714,-0.03965612487786546,0.039815748924583526,-0.014888206995873064,-0.001319412194929476,0.16166142029860134,-0.08968782201292595,0.06745110308911782,0.049225240296224985,-0.015272407250232746,-0.06303938943843446,-0.0032519168700951145,-0.040704459465080216,0.08197520524014427,0.015822462986568895,-0.013630424904489713,0.1978013171681969,-0.03646599941813069,0.025869255208630818,-0.053352816121786335,0.00011732819358821192,0.028286225380159485,0.05295355268217643,0.022647128108085002,0.038022818140244524,-0.03774603455676592,0.054445366916950226,-0.030288069042748854,0.03590956856760607,-0.03683320692483229,0.018688562003346936,-0.015310997044222514,-0.014743203428597635,-0.022382652990964178,0.008973174541882557,-0.0008936122976697925,-0.05334643192248755,-0.016322067573692242,0.46373286353937704,-0.004132203963873933,-0.10569242593386209,0.24114793424788047,-0.054114842398596465,-0.06304714256731869,0.02912065131839616,0.11093579459061283,-0.16706969603979463,0.0027182863062703263,-0.0064283487559748925,0.015767964914602556],[0.11480096194845305,0.039266213161938415,0.09089704772268753,0.09303953357547133,-0.07630469284640426,0.04310470446460645,-0.05937448893033094,-0.0267050615354225,-0.11099349766663481,-0.11063545474967908,0.06753646741246523,-0.0733156094405907,-0.02872148129125991,0.00906203664586416,0.05151278392468488,0.09511921237649387,0.3829628699310464,-0.07897863494111182,0.1159171196267816,0.02450490679801933,-0.04989029567733239,-0.10521964841909946,-0.11794617122648705,0.08360040435329462,-0.03450315052752929,0.06700100132098581,-0.1596624509636053,0.07032996009999536,0.019484899772361893,0.006765918107647393,0.05161656648524357,-0.042249894552399546,0.01129340676822142,0.00854631330958234,-0.025227084194871748,-0.020085143080657876,-0.008365243991626034,0.01159180257302336,0.03055325914522897,-0.039065352968126715,-0.03946389921177677,-0.010984166134356202,0.014483713801257304,-0.016674042228193357,-0.03079082061200731,0.026336437458918553,-0.20605264785193794,0.31590846149854696,-0.12493032880698657,-0.19444727189787123,0.14190296459243165,0.010204413154930661,-0.060382930878573056,0.06939544240102773,0.01992251018189631,0.005032001632418771,0.01847969867498602,-0.022090533019373217,-0.006795193676148914,0.0059435095024906424],[0.040128236823745174,-0.04093859669949089,0.04090826772213593,-0.06197029775656427,-0.06611219623116044,-0.04723966467526492,0.020328807285327332,-0.03969927569782214,0.017744827793956,0.09231965777853583,-0.021927455998992235,0.15640124921791662,0.017239287938980566,-0.00026190553054609734,0.016834188461257817,0.003486264173717606,0.06342837487716514,-0.006061178712110537,-0.1279567648134172,-0.05075234261070129,-0.015030503966255843,0.1683795419265082,-0.11016254824041276,0.01601101479054918,0.18581011859482,-0.19239556082784837,-0.0007902271879453,-0.0082713705437288,0.04794580916521428,-0.11962954471936753,0.04015685359451858,0.021330502919719857,-0.02223913835979117,-0.04219059494198846,-0.01388913167661627,-0.048065386295387764,-0.0022429802864476333,0.02544392818159859,-0.018880634164806082,-0.010772169253161787,0.010787093992804288,-0.019958554837954126,0.02006767103902173,-0.004971406197931613,-0.028842351076698976,-0.14643262840980012,0.06924219212911059,-0.04339696128644479,0.058871761931979065,-0.026726684179983664,0.02351116148556597,0.0006263547526115762,0.04724116093612455,-0.13601710953151844,0.03186500701499166,0.032840737903261585,0.07006313934959109,0.003359460029897814,-0.06425528403388696,0.223084766383609],[0.0595517012375249,-0.1398521964503725,0.2873681932730337,0.12576279317699238,0.08135844484595425,-0.04985548255349426,0.11092117208651696,0.03186482192049294,-0.24173580321000418,-0.09065594358358968,-0.126085722275282,-0.055123076983711036,0.002299503273266716,0.1077015780404295,0.022981958139088494,-0.23133657336821556,-0.1706372706300216,-0.01775087973427789,0.06280666642386268,0.22042952469832658,-0.0334686917686247,0.22528282487803694,0.07265184755152268,-0.17670352837003228,0.16531543228859835,-0.11780786790190446,0.15222142808750366,-0.10082025455916525,-0.1592101073092717,-0.06866938092872592,0.05376480166057984,-0.026810070852871803,0.01432033117387152,0.03257513301095989,-0.039230254198760486,-0.008290082127873683,0.03088115119755617,0.02542360556250758,-0.04320886657614784,-0.010192223018693857,-0.020674924173250134,0.0526813535929612,-0.016415920283042233,-0.0016722547926407677,0.00784990525253635,-0.04885245470129241,0.15169711445858877,-0.09226883807297513,0.06387176970773893,-0.09254956033823775,0.056786579016670544,-0.002611833477527562,-0.01872527097067729,-0.17956957871316387,0.059189968168538366,0.0057518661768610115,0.0014400830835701478,-0.007020988491639188,0.10775288160230738,0.051052961527166506],[0.4928864127964771,0.1316516588787,-0.04873832723834817,-0.06439243792512246,-0.16771382456805814,0.023383821969266857,0.10088058333188611,-0.1254432535189742,0.0019547418925245606,0.003300216287439105,-0.07306836122517943,0.03307280156584137,0.20522181801770434,0.23217475845581026,-0.0466782740706168,0.0022828256373115382,-0.17138198098870108,-0.32482355465733415,0.0629964812094278,0.027099080014913186,-0.01630460489741412,-0.0014024394455075062,-0.07904438975464755,0.038471948821636855,0.1064149497729413,-0.13889114946185732,0.16314915618126655,0.014016247425406038,-0.037763694881978095,0.061918684383131306,-0.03303732839762765,-0.03414012112321099,0.0028829823940101184,0.023102966359024334,0.03758080098110273,0.022099477025025915,0.019719191315391935,0.037236625675152436,0.05451946247744395,-0.04752226826024788,0.002656119399770429,-0.03356183560530145,0.04862862570978083,-0.010477313678458156,-0.004294068066507112,-0.04241942342993706,-0.13827023932927615,0.12355009086530039,-0.07390008888954284,-0.01901157538051882,0.04013566949092122,-0.08388325131804114,0.02492915530350043,0.03411926807300289,-0.057160542516328426,-0.03875910497684176,-0.0885673407223693,-0.07350115424195905,0.00626844746067866,-0.013406828299682615],[-0.041754195904534976,-0.23766206509923113,0.00785730345602057,0.03983294750452998,0.3017825739319844,-0.06049028102267793,-0.06670790954990265,0.13466565051268256,0.023915148731593828,0.1289831305389656,-0.022231438724451928,-0.03532575293222183,-0.21893925565300051,-0.11540978257483159,0.0041531920816260766,0.01129221536896978,0.09217335664748393,-0.04396211643581353,-0.08835190006339366,0.012085712793613843,0.007727206937152364,0.08847676958879715,-0.001968283121563902,-0.02320710015369521,0.016478808289479428,-0.046175846962054436,0.3605779830717546,-0.04840350358764457,0.019860168899068175,0.037275148921389833,0.04493209588130502,-0.016523615698008958,-0.040970171656717805,0.0006263524911615438,0.025296466492999298,-0.035222626359271376,-0.018180062786043664,0.05133861561082107,-0.014163921196900976,0.02441950592654827,0.02881326742913033,-0.04945888621078267,-0.022349358290444588,0.05231933285415886,-0.04055455388143103,-0.10059507815239861,0.2235525307509841,-0.04856894512834491,-0.13534653178391542,-0.04277934904401844,0.016365146754217356,-0.061919688670228866,-0.11563630720780957,0.10597235243586178,-0.0037115292417517595,0.03082626731528037,-0.09456271662692581,0.04137372675937081,-0.009788013267134545,0.004360141816476895],[-0.19323669043085764,-0.043415423660581036,-0.0560950310662071,0.0364131463264185,-0.18613803244482613,-0.036906036620270526,0.26056225626514545,-0.022331100913593353,-0.00842847672774427,0.1278307193720226,-0.0005550262300615949,0.057474074860757236,0.2113024770703349,0.028735189170310108,0.010162261880368428,0.14932460723445584,0.0766966755047561,0.09075121587314967,-0.023532833379616116,0.0499973668953752,-0.023038435449118586,-0.008650897302251244,0.04961162398202056,-0.0976362260565306,0.03447261345936497,-0.02352780542462314,-0.23065895975245607,0.0510074377848774,-0.060210385952995146,-0.007181309358802955,0.03286912078964324,0.023409968224245674,-0.0354991165134335,-0.01743378294115284,-0.01502702728795008,-0.010291933110914326,0.02773682028691944,-0.03253187915115423,-0.02948068110363536,0.010821886861397496,-0.04725170060357368,0.05420817378361728,-0.031068225177646264,0.03811514808900362,0.009344814886766485,0.08137625622295316,0.014149061324099706,-0.09656498455605327,-0.0005845434065490425,0.17277267968627386,-0.15871582936151402,-0.06417997985308686,0.2446845962644015,-0.15447574882501672,-0.03503324623118519,-0.08101605386687805,0.1612225506439331,-0.0501506890215457,0.015455595287625766,-0.03115083278050294]]]}],"OutputSize":{"X":22,"Y":1,"Z":1}}]},"Parameters":{"LearningRate":0.01,"Momentum":0.6,"WeightDecay":0.001}}