{"Network":{"Layers":[{"LayerType":"conv","InputSize":{"X":10,"Y":15,"Z":1},"Parameters":{"Stride":1,"KernelSize":5},"Weights":[{"TDSize":{"X":5,"Y":5,"Z":1},"Data":[[[-0.000622481027628684,0.019737024311452897,-0.010777889523835042,0.003230740986227164,0.25096946466675235],[-0.04905611187700727,-0.0038954532943115635,0.032071406822595266,0.005732959024529455,0.11331338160364893],[-0.11427534003249624,0.015654635971471327,0.011245229147532497,-0.03754278188878983,-0.36107264486501567],[-0.18207349802372155,-0.004900708504289223,0.014614631743285261,0.0019479539505179158,-0.40516854010887277],[0.028830790815493983,-0.08093578114641611,-0.017192362267233842,0.004225821046283998,0.4003524236173267]]]},{"TDSize":{"X":5,"Y":5,"Z":1},"Data":[[[1.5684680698381483,0.6640779134771093,0.5980912089777201,0.4206566116318411,0.5032864438965201],[1.2625004457041382,0.8722180246052569,-0.30865719831772975,-0.24845855108980383,-0.26440533198834654],[0.633429574663237,0.5411847092036192,-0.20786678660882255,-0.7839268712608131,-0.6204364542216463],[0.6050816993626789,0.053657175817526055,-0.5044033105577045,-0.8846015845148757,-1.0860814485970545],[-0.1668457699977348,-0.15993888406619328,-0.6024095106155761,-1.0288685660946484,-1.3526506541065575]]]},{"TDSize":{"X":5,"Y":5,"Z":1},"Data":[[[0.39635101333971934,0.6120184198231459,0.2107384731458219,0.4211598296541751,-1.1927222816170189],[1.0965470933907717,1.3558963265539632,1.2015750094346447,1.067718634541694,-0.11001282838326075],[-0.5341589894611495,-0.18417319283096728,-0.230113359911808,0.8046991600189545,0.49027631036747965],[-0.7815693121520079,-0.4272376172775835,-1.3152004530797452,0.7983387027064314,0.9221058770201952],[-0.8678945252799093,-1.4831486742318747,-1.4515216757868854,-0.16574439789227244,1.816112029886916]]]},{"TDSize":{"X":5,"Y":5,"Z":1},"Data":[[[-0.8932868346743363,-0.43219851297205836,0.21689347713995355,1.1107557942854358,0.18378663283039037],[-1.9245292550284976,-0.7433511043750772,0.1476054772783674,0.26845908065758345,0.22640838321105894],[-0.40862827397922097,0.324979034941933,0.04535980381554561,0.4904663676235619,0.6721327265399493],[1.2315340877005476,0.7382712878908856,-0.10911567005748883,-0.14975058233490648,1.584988305326567],[1.504362200173343,0.16851575323484166,-0.20327020803758175,-0.20459073578403608,0.8858071795583542]]]}],"OutputSize":{"X":0,"Y":0,"Z":0}},{"LayerType":"relu","InputSize":{"X":6,"Y":11,"Z":4},"Parameters":{"Stride":0,"KernelSize":0},"OutputSize":{"X":0,"Y":0,"Z":0}},{"LayerType":"pool","InputSize":{"X":6,"Y":11,"Z":4},"Parameters":{"Stride":2,"KernelSize":2},"OutputSize":{"X":0,"Y":0,"Z":0}},{"LayerType":"fc","InputSize":{"X":3,"Y":5,"Z":4},"Parameters":{"Stride":0,"KernelSize":0},"Weights":[{"TDSize":{"X":60,"Y":22,"Z":1},"Data":[[[0.0008381198786778038,0.0017826971975455456,0.03163881296137328,-0.021396442433981713,-0.08701895277370271,-0.019820977038435515,-0.00558481043787063,0.019868828872361737,-0.21342584999264383,-0.009508881138784106,0.06393250451442609,-0.0370316782021932,-0.0015646917019794464,-0.1099792234064197,-0.026650464974804364,-0.2746566154651373,0.17575442228341542,0.10933670060894463,-0.2210055991059276,0.2238408357094434,-0.4083244739005211,0.08809684724096657,0.49272658740076025,-0.08135402599327875,0.1344237133090872,0.09394259072945535,-0.2286545747090664,0.12389117663932796,0.07553668916762203,-0.10152483474001417,-0.25010355045879124,-0.15286546260256165,0.30061577692882646,-0.5706628966576559,0.0798866751754634,-0.11135144358069769,-0.25023154395889213,-0.009159642156164507,0.706774115977766,-0.2589441578394151,-0.13169121745002407,0.05921022616632713,-0.5891036039700699,-0.17887094566251738,-0.11930733237318505,-0.22291316537210887,-0.3484587456919677,-0.3740300268852663,-0.30905097618970667,-0.18466752186401808,-0.1023696904446154,-0.6031939695655802,-0.3972631930693916,0.02259617354464094,-0.1504032531756009,0.2626504122625562,0.37984646477641837,-0.5749834951671535,-0.3949787203686013,-0.15279942289334325],[-0.0033875705253816318,-0.004582994206065607,-0.005039203909961034,-0.0024818006672230166,-0.0036799240278728262,-0.005115574638739408,-0.004231477863029352,-0.008749156920408042,-0.01075786769130256,-0.0011815283212949458,-0.000554489192892754,-0.014962912616322613,0.0038137239034804495,-0.014149548139620558,-0.022460501407617038,-0.15044646612292117,-0.2387557207251942,-0.11687244746322599,-0.05401515431025305,-0.08733075654082054,-0.15499829309627677,0.08248761264431749,-0.005128989112154083,-0.12638439065032733,-0.06502929658539178,-0.12043887284320282,-0.09618899632915405,-0.21602122654704645,-0.22796517762932483,-0.19109277310062986,-0.22960312132667793,-0.06422856876952461,-0.11713213838395316,-0.05560159564323959,-0.011319227671751017,0.03381635945707467,0.0429478306215435,0.02891962856065686,0.031547514757071585,-0.08796055667954644,0.03385600394341827,0.0330961822727151,-0.13132196695779008,0.005456711998195827,0.02199207169565534,0.12309531862584247,0.17180297549837725,0.19940984626050562,0.1114800252819915,0.09365019491143838,-0.12330220657291399,-0.15085688593844954,0.029232214585290055,-0.11953554545898173,-0.17255519556492582,-0.026295107582577908,-0.036034498453849866,-0.29040056684199567,-0.11190786553648163,-0.018503975050544432],[-0.0033348235091244147,-0.0020773790157232073,0.0019210782970597103,-0.011403419462446895,0.03188082078920689,-0.007023816779127992,0.0026716262953878746,0.03277846437997171,-0.007541593645148865,0.0359201588566692,-0.0002853148315790674,0.0017881084397489424,0.022763494150656302,0.015988802066643475,0.007778087543301369,-0.22158552260975206,-0.0018661377169126802,-0.01177098374099089,-0.0188386983373401,0.10046675369257822,-0.2191273252277282,0.014607272475778416,-0.18620080830967004,-0.1364108686515821,-0.289559690811855,-0.05657602157981656,0.0843850223941707,-0.28028540446354594,0.0628740034418182,0.20039961231780182,-0.3147233421137389,-0.08217081426323612,0.06569597961257054,-0.04009460190631849,-0.08339074111950658,0.09245882782747557,-0.07467504857275321,-0.04675663659691803,-0.09903897364052862,-0.13455954461087638,-0.29663514460554236,-0.04097357612857646,-0.3087764750559448,-0.2136214174604803,-0.0460353015397896,0.2728354763605151,-0.04237680431190979,-0.16354414247337745,-0.2019165004958563,-0.10390002906271543,-0.13142098176575503,-0.26947758624833024,-0.03423543825749275,-0.03887500511952822,0.07615982441986137,0.15075330460560082,0.07429713112082535,0.415182538333111,0.12022550164761465,-0.16887537258036042],[0.01770736429747155,0.006688458859074894,-0.0007155222832207589,0.01645001936817214,-0.006075675146198843,0.01200165397276157,0.005261891569467219,0.0027520887272135287,0.010919841044199994,0.009282436050244031,0.0025914223598908007,0.006866860062831584,0.02128678401804153,0.02619856305965953,-0.01065045909630369,-0.15012430475631924,-0.14380773123940843,-0.09786971369876984,-0.19755529344008638,-0.2258666241983634,-0.00042242153652236557,-0.11343104003915476,-0.015262831603736758,0.09001420101632676,-0.258751980185901,-0.1621131973062373,-0.11158888322215335,-0.18993667710935713,-0.2411133713426382,-0.2572250855048881,0.19569131827696706,0.24431171116432784,0.015135483690164823,-0.09439524349574642,-0.022575427845827136,-0.13897679307688987,-0.13842359410290578,-0.12030644515476303,0.01706844078049998,-0.10619200859531422,0.14281284355076845,0.3270873456732159,-0.15546072955690154,-0.026572555235545543,0.11346148016167176,-0.01659947021188905,-0.23512672172729204,-0.08423728217860366,-0.11249179632464591,-0.09523856379299653,-0.12144159644272408,-0.06723652461325727,0.0021931145716806337,0.012715640889389033,0.07256616779316051,-0.0005552053873341003,-0.14760540439319297,0.06415045092219408,-0.033694540655006475,0.05790039116155647],[0.0026269619682227742,-0.0045705150194257065,-0.0022315591777724813,-0.011270893235345667,0.00591737004769811,0.008320271139577088,-0.000029414495525050846,-0.0037695950542613707,0.003151716114801015,-0.0006765548659205393,0.0017049835784740245,-0.012011349129244816,-0.0008535738663048758,-0.003013308488212992,-0.005589823624763076,-0.12513063445213368,0.0038236916562949426,0.20496854094353906,-0.1852277933449538,-0.003914020667950797,0.11500802977237361,-0.14516703259682323,0.06090728891364002,-0.025813355330569623,-0.12463078022021887,-0.1404268310177861,-0.2166561042740211,0.020602660956512107,-0.05738921666371798,-0.09298026624572878,0.002615474272106285,-0.17051182677114196,-0.16742624451870106,-0.09895414885016883,-0.2528150005220536,-0.01222397771881627,-0.1250907077411079,-0.14177074744115992,-0.055874189942047736,0.030930872269965222,-0.01150785660800602,-0.15229396633870718,0.26327790766992587,0.11949936632142832,0.029922332884642206,-0.07759567001937948,-0.08958781791830889,0.03602598957488892,0.1252403999967773,-0.06453563831975022,-0.08994530960279522,0.14726840214199025,-0.07646898982278198,0.007971824094525078,0.04166933583301239,-0.1502692101165884,0.28423526793390363,-0.284147112133388,-0.21070305425459177,-0.08568410483821508],[-0.011467796546092212,0.006485004803067281,0.008298546503572212,-0.00017870800497594213,-0.006471380005763882,0.0031915529269801357,0.0027465237072235365,-0.0013817351397085828,-0.001380216114640501,0.019272865939555555,0.007675025625341744,0.002088798436083607,-0.006554153137715056,0.004862632262007062,-0.0047847930724815675,0.12241507116386967,0.09317132202894428,0.1991731943568899,0.06543984190532803,0.023420439156316728,0.12527393959670857,-0.010669040241339883,-0.0041894562786750295,-0.12163145969247582,-0.10339292517919756,0.02786143095444933,-0.08784953539250329,-0.329221583595746,-0.10121314030845077,-0.08401909480598725,-0.1618174143846813,-0.1317574153268691,-0.11584986250384287,0.08885924063932145,-0.11165202752525324,-0.17584045169343698,0.25284441163787535,0.19386496605573242,0.10967481116767917,0.2529743067510508,0.04648295737926773,0.15526638486054797,-0.14650792566425494,-0.07350316187049294,0.02528855047430313,-0.10754467550754856,-0.15285848744209857,-0.17016460940019973,-0.14349803603556627,-0.1043088916617515,-0.20554164210542022,-0.11574259857487125,-0.16140363315315587,-0.13969713305929227,-0.1982954448157104,-0.17788211585946714,-0.07247232200880487,0.0013780460208684688,-0.0339586015432354,-0.01942424911693863],[0.007555842188565553,0.0024451222730409432,-0.013385838148778244,0.03212430880752309,-0.002886120060618492,-0.015186917814246189,-0.006273910284529317,0.004139076892573007,0.0015843804062215373,-0.008816412347639427,-0.0038454980900009456,-0.0022686010644797265,-0.01209494501675014,-0.0008987382043953822,-0.002102316460466851,-0.23973193847847057,-0.01250929248740151,0.2340208138727135,-0.2694823829731251,0.005026820893408945,-0.09835937828553938,-0.0310446104625723,-0.12634620602190977,-0.2145925656827877,0.0700370614075048,0.0711959275894641,-0.13580907888796362,0.18860342413087397,0.05412913835502725,-0.060670890918197884,-0.04685110599742267,-0.2052260147706511,-0.27803082331735945,-0.19908453684536503,-0.21748612605917483,-0.13080071276343522,-0.1341852857281642,-0.045485454727617246,-0.022597267688275014,-0.25329189506475924,-0.07811775850988245,0.24722141018638397,-0.1329768533676556,-0.20345997424977552,-0.007868861328885784,0.0005467649329853609,0.06515568137708064,-0.15282926557077373,0.149807907834459,-0.04710590184620405,-0.1812807284168341,0.17805843565619298,-0.08102935923961216,-0.12831856506432254,0.11179925123102243,-0.12016759296352254,-0.17284403961824202,-0.009606754820214105,-0.022469274171914844,0.12455934914608337],[0.014810555890072763,0.0021836611087177734,-0.006243479375482312,0.05990738063568099,-0.0030000064272293746,-0.003954573322625786,-0.003019340493680678,-0.007364381893310673,-0.006267416991141643,-0.00911528366815407,-0.006574811458513869,-0.009112200409741221,-0.018087281789147806,-0.03154441751537402,0.000658382572900003,0.09228340618560281,-0.1815033283121528,-0.24200090346782957,0.08436448750721405,-0.21495183519757044,-0.15795009788148537,0.04131012307845237,-0.02204182645207035,0.1521113288337247,-0.10845151472965432,-0.11143964021143307,-0.02564161807307605,-0.16097791587041316,0.06384503727754301,0.16263954277036574,0.383384666724186,0.2754001806697143,-0.14629098988758646,-0.17777162904756827,0.26924080582326243,0.0630313032444145,-0.1605353329147268,-0.047681134891094684,-0.04708815507519749,-0.0885364589084453,-0.0025476530405584264,-0.45842389982193443,0.05748898916805167,-0.07741222640606722,-0.25963039199453375,-0.2404833211725794,-0.16083216883119625,-0.08416958935528988,-0.11574045813694082,0.006825429101795154,0.13763958795118986,-0.24965535769398772,0.18960220610266346,0.29659153495393237,-0.20303683255165494,0.02606892203752076,0.09106767170144339,-0.4532044762710606,-0.11477913411385554,0.086274049657363],[-0.009653266897277146,-0.03518263260447011,0.0038328943478577603,0.01948421632644648,0.036122312543237854,-0.02469971722452968,-0.008029063807536659,-0.009353590823380267,0.00937351188447167,0.004152170183282006,0.001561243515761717,0.028551596285638137,-0.011625668932087559,0.005979163660295504,0.11481463725197154,-0.6535285397621184,-0.16592787826132036,-0.4357678264411641,-0.23777223037135617,-0.23011949600505832,-0.3670242224605211,-0.2015037202104129,0.036262136995097394,-0.2769548618352387,-0.19093477965318717,0.14992747976097054,0.0010957070815537176,0.18041510388050763,-0.1540032347871153,-0.08442693832318532,-0.419632677736005,0.24988858335140465,0.45937975272253745,0.1115592835472631,-0.22836778131041638,-0.1036429699922823,0.10949607480169109,-0.0212979212402118,-0.02806130626906594,-0.2335382527327714,-0.10567279830373785,0.21566775264100949,0.0189571487246563,-0.23338395040208038,0.11855456770398923,0.3175185305142614,-0.021109722138844995,-0.23319684222462014,-0.2840755085137029,0.3065456834312039,-0.20535327439161913,-0.28710744307461894,0.045687071409434656,-0.18116718965235085,0.5202945156133258,-0.5625393411090711,0.0014594500007899895,-0.03219199673634755,-0.36049591080142185,0.012816073378008231],[-0.0008292289544320297,-0.003498123049414705,0.00008047229034193432,-0.01471515226765202,0.0042125656770990155,0.0012964915535985217,0.0051651909567357514,0.00047093209831410677,-0.0025290796248427488,-0.002673042355789424,-0.006643065224964386,-0.004846448835386172,0.012186121556844133,0.005755056373558003,0.008373073279180996,-0.11113247312345373,-0.05645582979277962,-0.18619954692646645,0.026820435468628803,0.06435311587512454,-0.11713715477125798,-0.1481709748123798,-0.06741715751277506,-0.0363611130525142,-0.19441446206249327,-0.16120339346070972,-0.1711762808535565,-0.17017536035789077,-0.2629816807115176,-0.11949498866481104,-0.21789395798820768,-0.04273156839218262,0.11828805631606269,-0.14043750627479154,-0.14887819248515796,0.14179589235703272,0.12082615118512696,-0.1271792383142753,-0.19834829078044755,0.2983688264039215,0.20866146844521402,-0.038699056669426156,-0.019923828017351895,0.20355467474545916,-0.039911632464409055,0.09144980798882883,-0.016753468188123875,-0.08778122059578596,-0.1345951040583332,-0.0847408310108726,0.05302644102901293,-0.13874532132560535,-0.0010255812625258622,0.10892565276046523,-0.02639050122428375,-0.16302408695663262,-0.020908583014361624,-0.1230155839670004,-0.12399940070541929,-0.12199110470807908],[-0.021685273358803464,-0.02130235014404357,0.0005064965284936502,-0.03109735264435898,-0.005845640608829182,-0.022918608583543575,-0.004083436344339009,-0.011357539582399058,0.018744276852936146,0.03755128502034144,0.0015803531942608698,-0.0034628424215378995,-0.0222921245741337,-0.0450196479775108,-0.011752271404520561,-0.2321166005143212,-0.08771937901182832,-0.05374776225540585,-0.23111086868755973,-0.2660179109385446,-0.17079355903468815,-0.13414797646950616,-0.13097455443496028,-0.045513851733517255,-0.09256693922686547,0.034927447051542264,-0.3146624417838345,-0.20111151771718883,0.20945887942640265,-0.14121535562701884,-0.15567666929968696,-0.013380192822451495,-0.30381219436342827,-0.11326344683792015,0.06606326034350961,0.11528357669967171,-0.021072509039609187,-0.1595173589239017,0.1772156462826397,-0.1231512759637133,-0.25519004025310327,-0.09356507357754175,-0.33185818315820975,-0.01711709142282635,0.12345283760302743,0.17480111667447268,-0.03417195837542945,-0.37547543942925243,-0.03918294133844023,0.03500871787673883,-0.23877088258786053,-0.1502738513945915,0.055045663644393394,-0.015874150960834426,0.08967285060574677,0.0651421180527457,0.27183198414779375,0.3673673551247325,0.03163216165546852,0.28274307891688205],[0.013460108199793179,-0.006239112504473679,-0.002910045051380024,0.05786969817163018,0.07868990820997653,0.15833324459614412,-0.0043529568079351075,-0.019995717428131395,0.01007628472320434,0.012677510113609404,-0.008862662245566278,0.0028371498982225087,0.039997488406801354,0.06541467427077248,0.10083146328209876,-0.2234826952162247,0.16298688650115178,0.226794950267839,-0.31156304273153224,0.02849756103052346,-0.3974241504408531,-0.3862146283188982,-0.5204651355292894,-0.12021580482875358,-0.037326756047855306,0.32546158665867514,0.08331437676537468,-0.35294942649309236,0.29634354022593146,-0.19910162650493501,0.030851147181216756,0.06955678702457926,0.6243677945802699,-0.42813723621849137,0.1261334883918219,0.2842719847802657,-0.41336261547346387,-0.5659182466142415,-0.35846654778051884,0.2976623963775492,-0.2228089815872635,0.4286878916816912,-0.05195958133268013,-0.048107277635082664,-0.0311693925002651,-0.3065600177093754,-0.4182403265608953,-0.17240511333278818,-0.14422508138884022,-0.25858849210259616,-0.20048988470019094,0.1702323105149037,0.12749259157236678,-0.39596726584757685,-0.3575421735667141,-0.4002408117140266,-0.04723661022401997,-0.15908372285695158,-0.0046510938048141565,0.3714143749522158],[-0.00951796724699225,-0.0042122866994078354,0.0017294474337330127,0.00001498652066153838,-0.008553265320654178,0.01627256886098313,-0.004774402030099518,0.0078830597026993,-0.019893621298076758,-0.0005807542783750319,0.005520051719138433,0.015384090113838685,-0.007307647437146405,0.007717188203754206,0.01042819170148319,-0.06351579910986599,-0.08200878016243288,-0.008957857496080331,0.1278424296414176,0.07763848241202771,0.06853055174873916,0.1247860794665374,0.1784383261342557,-0.028029346230392924,0.06271488616617381,0.08550047612993353,-0.13526607354597447,0.015316054392545402,0.049071622111022756,-0.10856142357930978,-0.10003642984692739,-0.040331926061392256,-0.005931167939244856,-0.10496128200053956,0.05061775321628417,-0.13067056006885294,-0.1019142426777914,-0.06030142049255262,-0.28745348337800014,-0.010671858359029042,-0.09344667858034736,-0.2129104796450124,0.09742963306497651,-0.07667039685914234,-0.1094901719791606,0.11580144046986214,0.14289379989737153,0.004675780611606861,0.037238930869374465,0.02054736913289091,-0.27715052182374317,-0.018975944616450382,-0.050997997565031046,-0.3567112044067513,-0.12996735836895873,-0.043028358115292584,-0.3117721585235957,-0.09228493572469995,0.031121561717183208,-0.04692957617010562],[0.013083254305007248,-0.0005590512661178401,0.005449766864055546,0.034787842701954966,0.01661240559004081,0.017810607978905227,0.0015494503323863116,0.000021114600937513806,-0.003777475446098687,0.009429251815055582,-0.007972222989659413,0.006809319738940085,0.046249648377879246,-0.00011417835542333877,0.002074451537839551,0.01132542054688648,0.04650601597950315,0.20316611928379585,0.1400665609723827,-0.02386304273949835,0.2731222702585182,-0.11626109330744394,-0.16195868011276873,-0.10922143487306642,0.04095972127425758,0.24877092549388632,0.37578705936752754,-0.15303709275980915,0.0230857328910041,0.0162552723322752,-0.24541739170388935,-0.10990497705689697,-0.20918057820816452,-0.23837588225964287,-0.09956715980383868,-0.19197689914726293,-0.005665195538843155,-0.1674244824741292,-0.029807889382932946,-0.02467141873017256,-0.003805021890832555,0.06272788193395303,0.11943494088547645,-0.2076213679861194,-0.5640716993872111,-0.014773231867758,-0.10581567207813061,-0.23279634611375155,-0.13742982559969644,-0.04023648801098001,-0.3595871438831405,-0.022376550320322926,0.03638113874487156,0.11461025231317225,-0.03128403886933433,-0.18759349763157382,-0.25648451183718024,0.17606622168741265,-0.021997739515287926,-0.1062514142717627],[-0.02123037344935773,-0.018239149822613925,0.01223378041544104,0.007143116404337089,-0.02320903182500605,0.0005747713629568524,-0.0034551699688802847,0.000026003683384612616,-0.019506552195976697,-0.0008022845954420614,-0.005850585080074227,-0.008248227347148933,-0.00006957012771473505,-0.03404774378284517,-0.007726880308215838,0.05206796049690231,-0.07229722971514006,-0.1994219629157299,0.07586559751501358,-0.01953619437616062,-0.16625518774217166,-0.05886108619337359,-0.14710502542534207,-0.28227838318381815,0.01644811795148124,0.030429473931991333,-0.31355712322964413,0.10207451735151107,0.10797636406663506,-0.08360117034363151,-0.3016761515008055,-0.389787766485226,-0.286951214949514,-0.093572872657794,-0.17544539719566812,-0.1315703733053614,-0.05363273235969768,-0.05825316229444461,-0.04532804932256136,-0.15897332104717732,0.00869743684266007,0.03316849159057348,0.00712170171353627,0.015428834155946921,0.05205153706758958,-0.2767255440815539,-0.24756748056551287,0.10446998214350835,-0.20067756597714922,0.04544893753958022,0.10706820648848783,-0.07839307836959758,0.04409622894419913,0.3385350707043328,-0.03562359402301283,0.15783684576316287,0.06667977233695097,0.010268090406583526,-0.0077951873795164195,0.0360854664803597],[-0.0021456935672589587,0.00474613498695113,0.012134851811237418,-0.007701726863979259,0.0007878364584671744,-0.0044618857754893425,0.0007226614447464815,-0.0036699915700175367,-0.004165339094466526,0.0070353211304115155,-0.006115404922592223,0.008140659072662322,0.00699906937959813,-0.004974494097633813,0.007396232254849256,-0.04225644601458063,-0.10501861929553753,-0.04444979894477255,-0.13389645869508152,-0.2709092192791044,0.10648380627366971,-0.017781845451271934,-0.015885199985610877,0.20855586499379392,0.047558902225916674,-0.12050260528316746,0.057436233266545254,0.1740874922363248,0.19090275602311538,-0.05515123633565751,-0.2581631275812915,-0.04786236403443867,-0.22893613101226876,-0.10496228384875865,-0.23343668429183084,-0.09250719211441115,-0.07576536803249938,-0.08321888818693927,-0.1319846993350613,-0.019025492827598144,0.17515284371745807,-0.030262013346838902,-0.14972236251698823,0.175855172050285,0.15645385096292613,0.1263690438588655,0.024757606378480353,0.19963435950917247,-0.11611692785969034,-0.05836115852981315,-0.02756982621788237,-0.05685033268190226,-0.04151977927609786,-0.34277351260091543,-0.19983056630429671,-0.0431564446891482,-0.22735059192295173,-0.19146964752000317,-0.08535668757463599,-0.07500061911205383],[-0.001999987751333082,0.003979381577871476,-0.002916744952311828,-0.012324651310191974,-0.014288400031804073,-0.010217538397051786,-0.0014974354735253648,0.005163654265061859,-0.006907518698663956,0.009375615974946079,0.009275340106809624,0.009498248664247942,-0.003063485455056709,-0.004496982185620055,-0.013691929757589014,-0.11312990481618078,-0.08146703503954907,-0.13812072573210302,-0.16657985420237525,-0.19041346589750033,-0.12889791112935775,0.07250426416191731,0.08160031031641182,0.10053029973683832,0.052980183748416884,-0.08077168794686784,0.0970294037497897,0.0967482575557323,-0.13401264235248828,-0.10750544697699567,-0.07621386356477233,-0.14127068882135826,-0.10382436296994041,0.07699947750166346,-0.08053181586975859,-0.2080459497574491,0.21889397293552507,-0.015276768540831171,0.21608523182372924,-0.05752235184578255,-0.07353301881832934,0.008269056692848461,-0.1867079893181183,-0.10716007329911688,-0.03129550242278901,-0.13564296002316792,0.031231294092880266,0.03531788525830796,0.015364224650297293,-0.21614567921441658,0.23070225000652364,0.06350513401764435,-0.35639076742726244,0.1895483449969278,-0.0006070978364280295,-0.22738732489158145,-0.07596271265093289,-0.14535634590999863,-0.19017585277524282,-0.1159579226636743],[-0.0010831010083143786,-0.008566325862634921,-0.01796262796408835,0.009341177657500905,0.02569283586531729,0.010222290328253504,-0.010228143852900948,-0.022104042135199394,0.21417239025802504,-0.014653155744360364,-0.06565487616197634,0.02915438615225566,0.0354694230146637,0.10136732812833481,-0.03237214178854283,-0.186839362925517,-0.3268502864729971,-0.35514807581461966,0.08468555737364061,-0.08927751834997576,0.16825193820187637,-0.013770591081133548,-0.5115296934420483,-0.2350422085764079,-0.24110379069296187,-0.7051113813056544,-0.46069055116094487,-0.021670595362392308,-0.21775086180041964,-0.4229337194296267,-0.24188185513661317,0.12174920105313082,0.11649724223856942,0.15639311946811657,-0.3847296047772905,0.7104320231826342,-0.26876754529086583,-0.33637080394558366,-0.32261582236673725,-0.30325392587604805,-0.43626697759522937,-0.2228965052622519,0.45587924617395836,-0.11864282476026003,-0.20735585355359706,-0.1744025385815552,0.15660278585183587,-0.13066262472736515,0.2506042146150954,-0.6456886867176793,0.4113384557823386,0.3347465569463618,-0.2857364062278401,0.27015058093590705,-0.3259634152270894,-0.37142451149659717,0.00942777905345204,0.13532476827670184,0.14166002158526733,0.017632510995470183],[-0.010895806969300937,-0.006182142781168231,-0.0038175752376283885,-0.003687393807003189,-0.015939249401689417,-0.022088121383193163,-0.010956580243715677,-0.011400181256579373,-0.011026765687888011,-0.005776845102533827,-0.006065063009763255,-0.0028731999076427065,-0.02433147988909696,-0.02482958517410224,-0.03360861908484249,-0.057840476007036935,0.008171183834154709,-0.22308097789942402,-0.19997118090598556,0.07375579739231615,-0.21587312532178404,-0.21838108510494264,-0.00534114201793838,-0.08277826515979857,-0.027168559686107128,0.10198694801270819,0.11262866246483268,0.061586511672627985,0.16643770411539732,0.12446469840045862,-0.12929052855313064,-0.06436404945674733,0.3283114585820944,-0.12129565009561606,-0.02403011515499901,0.23898714576035576,0.04709970119569736,-0.006081460953614852,-0.037702883686331366,-0.21540988500054203,-0.023012359091785065,-0.3242816287049253,-0.04863250786266717,0.025811042630503836,-0.19184814412309795,0.015613663055583827,-0.12330359815228081,-0.12048008650175066,-0.011161473743466377,0.05706375077130595,0.21800611496543693,-0.03269994308460513,-0.08544826943237128,0.0527060535300309,-0.01063821620226511,-0.13730544348906037,-0.2813841804993576,-0.14050877429060984,-0.45467745303940255,-0.5839144130640067],[-0.016415280929731345,-0.00011890779374885003,-0.004555637441891968,-0.023519008178496274,0.005015355486688701,-0.003849324440610816,0.00004726959212159429,-0.0014313224976419028,0.0008194433848567317,-0.0038269249574422797,-0.0028209598714640815,-0.009286435794384562,-0.0010914784962982194,-0.014609966357962634,-0.0082484201938583,-0.10097867553896454,-0.05823859776987439,0.20353709922361382,-0.12483162519403428,0.008302587236179904,0.20332159608345962,-0.05806500906568146,-0.01990706147970631,0.02306453206821133,-0.06568884718506411,-0.1069931519251352,-0.04956442255697957,-0.05158591302087009,-0.13225807580006407,0.06171834699574913,0.21343046042457062,0.04563877996652344,-0.08593215336691282,0.27384142706986075,0.10839631109658367,-0.06150395285040279,-0.003528742251816916,0.01481582199037092,-0.024088237889941667,-0.03644206703941405,0.009644538174755973,-0.11745883674316217,0.061348873385254445,-0.015745560890749927,-0.332058015876094,-0.05560305071992151,-0.1027566588755475,0.019873291378364823,-0.045596256292936434,-0.11007599222554854,-0.28488678943637286,0.014310925443276447,-0.03803040145682505,-0.28350352654921707,-0.03702567902078104,-0.09285782883168421,-0.11808375308308616,-0.16304670282469036,-0.11041118685662273,-0.22344190442422923],[-0.00781904672015252,-0.0023967216647568664,-0.000060528859134497845,-0.006590869589463536,-0.008553666093328487,-0.005549470411889285,0.0032582019102062603,0.008891538128109406,-0.0033124571960023307,-0.010010859591559076,0.0035122141289424254,0.0027656083706630906,-0.013082385413887588,-0.007852061521103494,-0.003802220565385049,-0.04964445559204952,-0.14578219900546896,-0.3055972206373998,-0.14966729698543083,-0.1263238106697825,-0.00918321326674368,-0.05401868963643449,0.018529633314047098,0.13147920184487635,-0.17397320739126376,-0.06432548536527,-0.005534771681510806,-0.2212122436013465,-0.3758333016792383,-0.2562924772077514,0.07794912258934433,-0.288731001072579,-0.2826478499428966,0.030201634332538127,-0.0635839435037582,-0.22772075276274745,0.04533215091251426,-0.06046907281893278,-0.14500664739413327,-0.06254794260607043,-0.2822131420586619,-0.06323240008273578,-0.05460741226681048,0.09324118537352223,0.2126919263154893,-0.29758487180690785,0.04721309849108212,0.16757308490998787,-0.09200527921745154,0.02409466824201459,-0.1694414367442487,-0.013907009614466935,-0.2209238314569909,-0.21794219948441065,0.010130865773475196,0.1669808116004186,-0.078568352892762,0.3126967128449432,0.20722180998352485,0.038484810847951544],[0.0055474691688207865,-0.005741113288402323,-0.004474200246102201,-0.016237437302289298,-0.008898950783405886,-0.007379723798752625,-0.0030641981895897278,-0.002323466908314049,-0.0018227437194710868,-0.0069346447207636235,-0.014006175562030581,0.0010153739901609601,0.011277263378811384,-0.006364552563893738,-0.0038766074684287942,0.08022342134498527,-0.017995040713052357,-0.19666219158253756,-0.12647186694817616,-0.16958201642003312,-0.31906466887213114,-0.05695786380173724,-0.15458200387962262,-0.1690653254088929,-0.16914764439438193,-0.09683997735395178,0.024599977056286308,-0.25086568774690793,0.226235329496668,0.3237955803607017,0.013979591183771801,-0.19406604481313913,-0.17525697685866645,0.09363047678917945,-0.2749538690465365,-0.09065564133484572,0.13250424384313594,0.07488919831789671,-0.2138935272261432,0.09311341975291265,0.05024736349234878,-0.27617555896038415,0.1635377115245001,-0.05026046880530012,-0.28843114892468297,0.002375234011827492,-0.04343926218565795,0.23656434862870906,0.005467540238954148,-0.003406636566804438,0.1414847640185375,-0.07744860102706072,0.07509083451265358,-0.023704667053121017,-0.05714501068084569,-0.1244889566949579,-0.045043912680775886,-0.08779352383080187,-0.3623842151484538,-0.16725289409877758]]]}],"OutputSize":{"X":22,"Y":1,"Z":1}}]},"Parameters":{"LearningRate":0.01,"Momentum":0.6,"WeightDecay":0.001}}