{"Network":{"Layers":[{"LayerType":"conv","InputSize":{"X":10,"Y":15,"Z":1},"Parameters":{"Stride":1,"KernelSize":5},"Weights":[{"TDSize":{"X":5,"Y":5,"Z":1},"Data":[[[0.30169748548854136,-0.2116038671067581,0.053492575318512994,-0.2634720623590931,0.648723650755222],[0.6441267725473102,0.7235201791820225,0.25959010015445083,-0.11569624329189218,0.288031435490717],[-0.17345602183736342,0.3855214582867527,0.2179911776878313,0.1895098199348784,-0.31700992636682007],[-0.37518749604841534,-0.2606616188912073,-0.6554205338967192,0.07624642437414801,-0.13077990323949534],[-0.17659471082118866,0.24761174018095664,-0.7376466134431496,-0.6538456650059962,0.21494469865941015]]]},{"TDSize":{"X":5,"Y":5,"Z":1},"Data":[[[-1.4584749856732306,0.31017919481266387,2.2531235564345997,1.639817340720545,0.9381358636246323],[-1.0853993727583673,-0.2449197981353653,1.8328966434462202,1.7087684595166144,0.9053932525431243],[-0.7413481496911343,-0.2915307353799104,0.9704133019239524,0.7926383094652516,0.35603050952759296],[-0.6148257579962856,-0.9882153471707757,-0.5185194281723103,-0.18852952506626325,0.3282956106703459],[0.3867565451493929,-0.4581318365595322,-1.2552917355288296,-0.5891393648874921,0.778759765735167]]]},{"TDSize":{"X":5,"Y":5,"Z":1},"Data":[[[0.5952014903449627,0.7039735839598574,1.2109694613611095,0.9486768238410151,0.4886374821267586],[0.5995794409927592,0.7283677840125692,0.46187349620433127,0.12864772552841752,1.188660089290798],[0.8161557268396951,0.3753636508003578,-0.5181823817922868,-0.07050635125571479,1.5422600484371203],[0.906735835482474,0.5870118443554329,0.3135114137168501,-0.19200917082304472,1.0683781807817356],[0.14573871803247895,0.4879915560999106,0.5597760743680041,0.18155933569962177,0.601705643591126]]]},{"TDSize":{"X":5,"Y":5,"Z":1},"Data":[[[-1.2040880693418918,-0.160489501383412,0.9597808269711168,0.8753220151664076,0.9424382865885185],[-0.9874232780836653,-0.17442879133942749,0.5215025123900042,1.0048652196013832,0.5393224233926355],[-0.4998397339167465,0.3031350158510923,0.216188003933849,-0.256268918785164,0.9429975152841906],[-0.5427318463694121,-0.17487248189542523,-0.7241785131023784,-0.07229594576664052,0.8108048561114397],[-0.11297817015736059,-0.09415606200747423,-1.4592850100328034,-1.4624789249647046,-0.6954432537734482]]]}],"OutputSize":{"X":0,"Y":0,"Z":0}},{"LayerType":"relu","InputSize":{"X":6,"Y":11,"Z":4},"Parameters":{"Stride":0,"KernelSize":0},"OutputSize":{"X":0,"Y":0,"Z":0}},{"LayerType":"pool","InputSize":{"X":6,"Y":11,"Z":4},"Parameters":{"Stride":2,"KernelSize":2},"OutputSize":{"X":0,"Y":0,"Z":0}},{"LayerType":"fc","InputSize":{"X":3,"Y":5,"Z":4},"Parameters":{"Stride":0,"KernelSize":0},"Weights":[{"TDSize":{"X":60,"Y":22,"Z":1},"Data":[[[-0.2351759207892672,0.4522216240939506,-0.033470643191223455,0.09045850615865615,-0.024739512895096304,0.1812197180793777,0.22261856965650334,-0.4037061756365181,-0.2152976862281603,0.037491050059704566,0.26799694003162644,0.31064892925963045,0.6754582394866705,-0.3306763797698751,-0.6975206556724433,0.541728570849063,-1.225912857597656,-0.05876061032113269,0.48606256887741844,1.2598620300560588,0.0364607103701027,-0.573911992888829,-0.30169330040534464,-1.1350681832022906,0.16893974725393893,1.4887912674307835,-0.9876426285481942,-0.3702894013578438,0.17035536577666047,-0.6828526840639543,-0.5543495500104048,-0.28418599734633665,-0.22685014329739442,0.03470377565447239,0.6552283400579513,0.7206369974853615,-0.49087708145762665,0.04905883748370784,-0.5360837320110811,-0.42359084968509914,0.05384811528521868,0.02441118667743085,-0.6158901344937243,1.015618557144681,-0.29380300267869536,-0.003442052309208517,0.32474186277977807,-0.4080208371527085,-0.18960225888187196,-1.0711259188839808,-0.3818963228745563,-0.41683210527356224,-0.5875004795923802,0.373561436923893,-0.9237928125426271,0.4078457022903996,-0.5133047066279905,0.31476349845909346,0.34324509224446176,0.18725174314048398],[-0.30948258695818404,-0.2803278965416417,-0.12889679354376596,0.008793468164405396,-0.28868989898500413,-0.5053157022174231,-0.4227325609431102,0.3468225579324239,-0.43092209974123036,-0.1073863777735647,0.2916181037321963,-0.28160601350083825,-0.26281216521133677,-0.45891582216470445,-0.15988907746256856,0.790272209834849,-0.1533434671712378,-0.35229251130724193,0.1237640809878011,-1.0127463195848434,0.13278119559106688,-0.6306972579238006,0.008323499515821543,0.12071615403739093,-0.13844174827202985,0.12536187473589255,-0.11768704404395319,-0.13317914201548267,-0.17960541993231102,-0.5232715556843145,0.20861047838595909,-0.04481486127498622,0.0004693393720399068,-0.41279936241321874,-0.5297404978633136,-0.9182549091584006,-0.5638008705361881,0.18873856787943716,-0.40574363713799344,0.7574513054975937,0.547651783125268,0.2327900173894119,0.2506178780850649,0.6430564172299245,-0.6148907602289749,0.2634693387831035,0.19165599784070322,-0.1209221144481978,0.25019743396603156,-0.04461050919269708,0.05134151047686543,-0.12602516242652312,-0.5415339310357835,0.2141566825681864,-0.06331188088041137,0.05323882075964442,-0.4894800642413858,-0.08005506644263638,-0.2868242552628939,-0.16971752724699923],[0.33080791574263024,-0.16039192626023657,0.22984965069198046,-0.07000563751084593,-0.054680753062831745,0.4576084061753925,0.08109829385198147,0.48493600832806094,0.3129241147805484,0.49443549715802443,-0.14446699458553536,0.25553497514375,0.701737787917956,0.16522970919896898,0.28996447865004304,0.11481723071503656,-0.06624350540114061,0.481032562126128,0.07330588647681051,0.0022717378881933967,-0.09609847706609179,-0.25670859759602055,0.09296235715226366,0.3526195734305537,0.27616694804536807,0.15238838625549797,-0.9687965516245065,-0.12494601140755185,-0.18214500905579442,0.139213110741734,-0.15317289097668832,-0.32463616287425706,0.15036023153342234,-0.26287156946703194,0.6912155811942728,-0.4227392307544014,-0.10080697529168227,0.5868373397197159,0.10236521134362268,0.5507008315457559,0.07587226017945838,-0.4694888195381076,-1.0295362738720386,-0.8704255281373091,0.6318952507235767,0.3394425034252995,-0.17964913543370203,0.22233704568335952,-0.3463867625689955,-0.11599062983899483,-0.3658552407059455,-0.3332805212158278,-0.12845029293912175,-0.6991409214526157,-0.5747215191609518,-0.648001921190342,-0.07431273607138741,-0.3551988331658857,-0.1528685590148254,0.7029502003420091],[0.4385716770556643,0.2549527429780809,0.2046857046210681,-0.06580232468958386,0.1623067714384589,-0.3411934120638503,-0.38575776405959533,-0.02819083630398261,0.03300572097631389,-0.3076612199521562,0.05434000113542565,0.4880418256462781,-0.1925435926061776,-0.4304645226619514,0.44419010717652296,-0.02202391416336013,-0.29860085232795286,-0.0854034632863289,-0.3323815245710499,0.12663240090938874,-0.3066849154582535,-0.4771304636979983,-0.3853331111470689,0.039983698997477626,-0.2774420585911936,0.3432244722255044,-0.010328139683523387,0.27281382451995645,0.30963526299269445,0.4559253271105585,-0.44946882436563274,0.23075831585138518,0.041089560356941564,0.30033535433695435,-0.10257044733740589,-0.10397045003502192,-0.04222233195177697,-0.44751499816848167,-0.0677173164531434,-0.4043253796858567,-0.5245537920996743,0.034777914369461385,-0.31534049808270437,0.21662931749606446,-0.011474701899381361,0.39511226698781293,-0.05332121465107741,-0.44043959171906644,0.3016196242876356,-0.35612320686148996,-0.1479159270857579,0.05140636995016014,-0.35927815128973223,-0.18732972977007123,-0.2926312767346578,-0.18161389109451354,0.466736470138921,0.22205555877881422,-0.3946146673305706,0.4417733204936745],[0.35613315959086805,-0.3092905491592856,0.009337964236498625,-0.40647704988779626,-0.4213015313261368,0.5011677260241757,0.5157331956784601,0.35435100982138823,0.44600996129293785,-0.4180265034614436,-0.09473607488633433,0.12787963586121082,-0.30930336762705085,-0.323309650952173,0.11681864064250327,0.1340882237184062,-0.26316548261796374,-0.3936979563429718,0.1647608251711321,-0.5927538774271408,0.4298729368840242,-0.47233749174303974,-0.12773673055605514,0.3751074233197679,0.6106799704127149,1.0634555917981503,0.2062139690760394,-0.6198193772932585,-0.34810319629162645,-0.17761020215747636,0.10198975292241927,0.09392654747806098,-0.06845974248912655,-0.16167033135353198,-0.017257429418908253,0.15513158685289957,-0.08933152944506076,0.37186838306279324,0.11790993126112144,-1.15186208942529,-0.25228632248471355,-0.4245370078339961,-0.2584986209079694,0.5723770842526146,-0.3634597851688109,-0.23675085567762522,-0.3078415760327185,-0.5106016964459827,-0.046510661221651296,-0.2755491143528794,0.32707376116667397,-0.6119894169198924,-0.2121215855238813,0.2808499599262629,-0.13735660751931306,0.4088096209580477,0.08338186650176269,0.1329241130119321,0.2673026878890192,-0.47548198990536894],[-0.07577067191384759,-0.13349542693522637,0.020487560930295887,0.4366749435838614,-0.47093447032633984,0.27305104122331536,0.17971791716700078,-0.04471019655690465,0.12653355084134946,0.2881972796696536,-0.2777747424747702,0.4883245898973778,0.47370395062193577,0.3474814193185405,0.29795447028320554,0.3680761593072331,0.05849994426914224,0.3922013205663928,0.3675855857172996,0.3888503394687621,0.15037888339832864,0.04473132230985045,-0.17704920228386728,-0.4566401479010169,-0.30641980276033504,0.2732631565450047,-0.012688430811893725,-0.3039168045517846,0.3254872677530173,0.06031263558193406,0.1952024838688161,0.022891812845629838,-0.5482281492552008,-0.5828377643540555,0.1644613023699864,0.19454258051831014,0.35472970104370005,-0.39750455360675635,-0.43446577990561563,-0.4597210237442607,-0.4503389333005794,-0.47740889023689637,-0.03333537512803717,0.24125362691954055,-0.5340789398244424,0.31099616142915165,-0.3853962211419333,0.32887106717176084,-0.013211967326182945,0.450067788309231,0.2272740382911314,-0.29410242651283136,0.12569909491542908,-0.42057799681138097,0.43211885946951645,0.2441704170128868,-0.21893828773356416,0.24142423679686495,0.3533605481424766,-0.14266587744457634],[-0.14282038114442924,-0.44607171610397334,-0.10890136908762629,-0.41466060021476475,-0.03892807981631935,0.19362003518529652,0.09430812250782211,-0.47910456465555695,0.4174807760084489,0.2674542669213355,0.03574773924374466,0.33646811956516853,0.2351311568241656,-0.13122366791849605,-0.17347621122214532,-0.07753889935807748,-0.11933113490828352,0.3541887396260651,-0.45764286013426253,0.05717287328981798,0.22818873818021826,-0.3671557965155437,0.3130168120676618,0.5501521314147552,-0.023602213262041063,-0.7937508227399678,0.3310705883850494,0.9311534103292255,0.07382577175422467,-0.06597318373940946,0.45107661125432796,-0.11633029312966267,-0.08089164132910957,0.41035924148427166,-0.26268169566765776,0.7652869768793924,-0.7589829929614351,-0.7576596983504311,-0.0693448520152605,-0.6561857115114877,-0.08025101536226435,-0.040686427441579597,-1.1127536302486962,0.5176878230922575,-0.44986196128424016,-0.5006366870853706,-0.4136186738708622,-0.34052485722695125,0.10843934668547009,-0.3996607894443772,0.41128796532270273,0.045001112669485276,0.5122199152780547,-0.17561405766795166,-0.4550771792554895,0.09608941099782338,-0.38271895303879083,-0.07962836037994768,0.1623736196081308,-0.06322239888456853],[0.22479928121751716,0.22501708491525277,0.24649426479292788,-0.32808638516658317,-0.13967107205040577,-0.4066895355482739,0.086274168605351,-0.454264053807522,0.14985915422044369,0.48277464058495934,-0.35846174835610245,-0.14357981219825794,0.39826263307386855,0.39897756983055105,-0.3509842400451144,-0.02398257899154698,-0.3342759948671239,0.07253182796290118,0.29361284364477735,0.29974132027318223,-0.41160431243590007,0.3256949819736695,0.19667699611136288,0.32312165350117406,-0.24641408900140002,0.35006397990166477,-0.44478224511871844,-0.4609019518344278,-0.4933804939368157,-0.26651935645070685,-0.5316055879536804,-0.5459244839218158,-0.1185425471212254,-0.38145865824869324,0.32832056283134026,-0.040726912064154484,-0.233941933773544,-0.1834890366888728,0.10208944722397031,-0.38220672648178416,-0.3681643173979236,0.060555905526332166,-0.10467585394612797,0.05117156252116965,0.22261333501841565,0.19347380797386454,-0.07050215382519581,0.021918816192757637,0.40925287004644284,0.07148739914540439,-0.37833527646377224,-0.19548290149665065,0.28776136761110593,0.4134473973690847,0.0926713847879897,0.07616014432657507,-0.13499111679339384,0.2806076383417235,0.19331334589159352,-0.08663771686000167],[-0.11564046776706872,-0.5022668100670212,0.1595196972880426,-0.17649204901741483,-0.2720273422793139,0.20862561343373012,-0.15510886536632035,-0.2550797319030153,-0.000868229432039456,-0.2785975832224953,0.17203698096770778,-0.17185052901394732,-0.05533644271238915,-0.013131132838459288,0.3456867800460065,0.3074458699362153,-0.8345758630943567,0.6137078710317188,0.4826656515834098,0.2925497396832672,0.19066890367269698,-0.06730878549408296,0.3021114977632859,-0.7301655195162678,-1.0116178511652387,-0.4631213115880887,-0.5776856482871788,0.5090942394186484,0.1021216214957863,-0.031833002184231816,1.1139181129750644,-0.5097797989026878,-0.7485487483791387,-0.18217260011334982,-0.3299857436157239,0.5359190873861563,0.146080335186872,-0.5830600487125205,0.3187201673350809,0.4860316533563673,0.1563452978258734,-0.7107471383687779,-1.1534924684837433,0.6898354891734261,-0.18617277839076876,-0.47493058244412634,-0.05403496867854586,0.4818398301794813,-0.07155239004828813,0.2270302200791387,-0.6121173855013081,-0.35197040385400324,-1.063850744987895,-0.49737002451806744,-0.10373147167444831,-0.35558130512854436,-0.1708682986675233,0.4405066788892171,-0.2869173308152225,0.3068371111743817],[0.025175145839378372,-0.4770500388828616,0.016490467920163676,-0.3015782573269657,0.27657370954087657,-0.28216131848241044,0.17422540816613474,0.32465520708544854,0.4182412903533921,0.18744334702038307,-0.1514440387994986,0.24846329477329482,0.2374983399439075,0.4261542518838037,-0.21486259818426426,-0.4231205486592771,0.052569676102508435,0.22536954215641483,-0.04670008556524141,-0.20281439049876837,-0.09453077090784862,0.590946223889584,0.8092748682557114,0.28996911006386555,-0.4857073077460314,0.4017681812857887,-0.23816015966686707,-0.421948995766311,-0.5327782070917774,-0.18792558226486056,-0.16587038990423705,0.2660375617720176,-0.46666910093824715,-0.4329893603293561,-0.09416924271750375,-0.17815300284461646,-0.18779814555493393,0.05403836559575519,-0.49157128629071506,0.09523732109126423,0.08978780542736424,-0.600981761722457,1.371693873708575,-0.4648627257617424,-0.5691655279414783,-0.11203052056210527,-0.1603151670473369,-0.1581549129955876,-0.03103450542176313,-0.12239031853561061,0.10533908914979903,0.27475968883264884,0.3877632608661747,-0.30934667323736026,-0.24092013027468706,-0.11489446565035033,-0.4197966841308982,-0.37507647598798055,0.16521842591259817,0.07401521019616708],[-0.2210517145710975,0.35720216358092305,0.3900673333316238,-0.5919406716612738,-0.00922904595971733,-0.4470534765321195,0.20106490949731298,-0.49853980920821206,0.21748090695499256,-0.027813622227985106,0.33787425579150937,0.36837856702160904,0.5293530074792122,0.333385121861536,-0.047431078535895066,-0.6053791643682002,0.10677696671266826,0.36855741897639294,-0.3791534931843497,-0.5107274278696697,-0.09581370359914257,-0.11966076390980412,-0.25241568259265657,-0.44785617674477596,-0.14174690252644045,0.6073936905515835,0.3213699470846241,-0.6938310357611998,0.8220566474705622,-0.32851039533983295,0.20828801381628795,0.20271077287324105,0.30334198543745317,0.22329075404610585,-0.41366247989999655,-0.5606314257949578,0.24176552675635557,-0.05946742832097491,-0.15918153904623117,0.3648894085028079,-0.01849067579285791,0.012849733012081982,-0.4977607159464678,-0.592805678136361,-0.25342421907341156,-0.4645056681943062,0.6495333170623397,0.7315522148996202,0.46897333437165417,0.3253151983098147,0.6135400544856197,0.40524674495563134,-0.2830043261018785,-0.05470217404555672,0.31963003472758356,-0.2676800250647447,0.2800228694136167,-0.34778816631022647,-0.09102360799564192,-0.790545008136197],[0.32234096418762137,-0.056317882273390504,0.31668388915690326,0.497754910800225,0.05110284805961471,0.25991206535548705,0.13748468456870364,0.08504988299807856,0.4958904842463126,0.11729227931910836,0.0655965859769704,0.09676989651673873,0.15739367802125442,0.3667692072105302,0.26966046246013775,-0.3672358162502036,0.4279673956633318,0.2797708029436642,-0.16714129709159606,-0.03906775687006104,-0.043045350402114595,-0.1673453302254646,-0.3991418938914676,-0.05735460156812579,0.3566507399806132,0.2161984771391281,-0.4289200479537721,0.040536296738518926,0.3723632147350141,0.4195203341745666,0.21526174628846395,0.13540761341192353,0.1925725346504852,-0.22593738316581,-0.5499910835098928,0.04554582854233364,-0.36585686843124315,0.03951261330562376,-0.11083640890409124,-0.24737371744743009,0.23964858999674213,-0.36612882254615153,-0.6557871119646563,-0.0030030194214070043,-0.49609346003814386,-0.48459539842053634,0.3698041614350892,0.05485945212400697,-0.41463216172323436,0.10220406246459895,-0.2086303135816583,0.41356326406563826,0.2318160762789771,0.4303563864985477,-0.4041106248355144,0.09628343909425349,0.0005341165179614888,0.1177213237767499,-0.2755537067077859,-0.34674280227051685],[0.4066544868375611,0.009213969763229609,0.33735908303588363,-0.34142418841984923,-0.06789948381940929,0.17735125664444498,0.028175694436724522,0.22404451453598945,0.4826862104748794,-0.450550234720654,0.4009807877692176,-0.2915226230269114,-0.34663730039404506,0.38599121116727386,0.09172470334382865,-0.2293715290207204,-0.20151773903015285,-0.32130892145538303,-0.12726788221794466,-0.5204531236400665,-0.21547631395357522,0.3422255330998594,-0.6252868425678839,0.5589282731742122,0.06219063105476722,-0.16512551421783161,-0.25350492630939947,0.5434546537623107,0.30863921413670303,0.3191594097980069,-0.2285885236262557,-0.12772481180752523,-0.2969054362334891,-0.7165239799453771,-0.6009689369000799,0.1789272917389735,-0.8674864404562426,-0.062481823798816186,1.0248441950559917,-0.3015219462409082,0.3483201319217253,1.0755820443009472,-1.0951855331645524,-0.21654206570621226,0.05624683680994192,-0.019004239812847795,0.21646512808168838,0.12100582033317302,-0.3930228046736837,-0.43917582900732305,-0.30392466811654845,0.4304198547257829,-0.08965965238571881,0.07716447568616853,0.38208716629070866,0.21972061583915356,0.06727727967808673,-0.2518074510462242,0.1742132693103024,0.6644359334204134],[0.11439190376313287,-0.3606303922201242,-0.23871688333073993,0.024172742222157585,0.20803747646561443,-0.009179215240202147,-0.0877490668981374,0.27966831499457434,0.16833419525960616,0.06405655103990408,-0.3141322118185295,-0.1832059887948734,0.351799655726674,-0.4339202155856314,0.04536278690083989,0.2150298533361362,0.24682318347620952,0.2866392772807699,-0.32854447975892276,0.2660912204560668,-0.023819330589439452,-0.4923994056356027,-0.17842785185515372,-0.21669606557091728,0.25214676532940417,-0.27336399541739104,-0.4339231429929422,0.1884462595552972,-0.29386357379300077,-0.06196289553789865,-0.47691374366205164,-0.23465738559063568,0.042045473867936244,-0.5248029591969909,0.2551061292671968,-0.20316516877012247,-0.37691398790899316,-0.5370736536547764,-0.4378767451160611,-0.1296223729585856,0.22443652593344454,-0.16187701132769278,-0.35523562948104953,0.37523797281419347,0.37612224479112194,-0.13775435134717356,-0.4011782395597259,-0.14642373334247363,0.3337447814008429,0.4679235701724005,-0.07577227522955543,0.3362965968745154,0.4489512276468019,-0.4030917619502922,0.4429202257423009,0.1970769654855079,0.41676408441850693,0.18867550348479684,-0.1093391063955548,-0.10644077390207284],[0.009019379825883762,-0.19350675472527565,0.45274188704594404,0.4502448527201011,-0.18922436677635063,-0.34311390612393294,-0.5124083409241169,-0.39207461218459666,0.5041852180849605,0.44563196797059274,0.4050006914700841,0.24874477664949252,-0.20403730577938975,0.4123216580113069,0.10633856378028644,0.5074504003074115,0.7368050250637743,-0.5936441188266868,0.30877014991858615,0.06835589519433505,-0.2858070173422518,0.43180162733224475,0.14381053143004777,-0.06454928226225913,0.01403000496330967,-0.058779107945780264,-0.26927177170482375,-0.30811433525846393,0.3169499638891302,-0.7111214089505197,-0.09836580380665282,0.6507864213127332,0.28568264486300377,0.09879668052945499,0.3780652116703371,0.268668010605031,-0.0526197338994059,-0.013799459282661746,-0.5104061529630677,-0.9143188329314811,-0.39908677368306267,-0.8300919796771945,-0.4664265292235871,0.05102293241133217,-0.18303435590526493,-0.5576947352581004,-0.42330801430746784,0.20357280072732362,-0.2928276126200631,0.1505004618887954,-0.5620815121531026,0.2606979257723526,0.10122557697575729,0.011393077659549354,0.527501771094439,-0.13458757000576607,0.11034214927712414,0.1438612275234967,-0.3541092705643273,-0.17256034594413483],[0.3902255642231581,0.2911933127978825,-0.3972750940494386,0.43220852255345077,-0.16614778548507347,0.27572683560765876,-0.46520840154386994,0.15557086424211097,-0.10365459928447028,-0.3169639401075077,-0.3675961436248984,-0.11749950727728109,-0.5279799302010109,-0.33955297988536653,-0.39136464385857583,-0.05562802637733304,-0.23751782733707089,-0.4620892898038433,0.14877066651736062,0.05801237733002203,-0.449744553687764,0.6044909250631466,-0.5581610352384193,0.6000628927059348,-0.11585907507000105,-0.18834979604950897,0.9272483319477252,-0.09262048925636907,0.181063081261657,-0.366791138677289,0.07733712925093526,-0.24954475507260315,0.2225875232648426,-0.43091441775236683,0.2471389282705071,-0.11605389372479077,-1.1363958190100871,-0.35109972221309627,-0.08492016495609539,-0.48161609034794517,-0.2603716927371519,0.5051938119050472,0.33413991855608305,-0.06351308102203462,0.2091353543152255,-0.1980848724667142,-0.4726614607848478,0.3309140473177341,-0.19254454416671385,-0.005882177184705637,0.02925593649891041,-0.05148968007617876,-0.28994179560398375,0.5005401857111137,-0.34182966646780166,0.13067436335310462,0.5178763813328656,0.000938649078704967,0.2221424227815315,0.6048735119038493],[0.1297778316502589,0.2792781563181578,0.26474269873991235,-0.27918297709491174,0.10907603692197228,0.36217365936170776,0.37747945332809285,-0.07727652802065237,0.22321929991520997,0.2807055235969504,0.2982126135578661,-0.34247991444574244,-0.3009029603896472,-0.03957542337116608,-0.09534903364749651,0.28799721514918974,0.39879316543834625,0.5285437762572546,0.07015986983926652,0.7155424455487374,-0.33581406710358014,-0.4460822822599116,0.32931222816996264,-0.39920427779165535,0.46928810239859453,-0.3108285905353185,0.009587169413109326,0.44970932789362056,-0.3061661080478854,-0.4753752160113727,-0.23501538280284312,-0.1543970797991313,0.08624026071373657,-0.1226993054346832,-0.3936221884490871,-0.6034618977374212,-0.7955561600792737,-0.11357590160536332,-0.3880104454135861,-0.1302564075226528,0.42378659302992855,-0.22503391223526717,-0.009415385594404774,0.30050686712848773,0.18478279971681094,0.04643919568625452,0.10118591232660126,-0.27833530129533335,-0.4464724730679406,0.09604032721535263,0.032143664208889415,-0.12835153549975098,-0.1220972723426062,-0.18383607324931361,-0.21999511875569117,-0.3412191672779094,-0.09145091887309588,0.41735713584105477,-0.18963528685097658,0.2673392553537428],[0.32572534428476946,0.20798631009290355,-0.17286761488711883,0.44142824805279957,0.3638098581064681,-0.3403379695008071,-0.11211317964745446,-0.5744771305747309,-0.5916674021408492,-0.31440404090418417,0.22197438541342054,-0.4290560934211519,0.15296725658528637,0.1257902035534195,0.38897643873660676,-0.9999044110743371,0.26297414579838085,0.10740421096258161,-0.27515666075488865,0.12566807250980724,-1.0342322321341322,0.4475783735473765,0.5562748311347351,0.05690365733942367,-0.3953707995595634,-0.9788880437779052,0.26138789035474574,0.6501624192568255,0.11622947716805429,0.4871346875429691,0.08075822582340766,-0.717018883346783,-0.05368061269502966,-0.7742524571407102,0.26141606329901784,-0.7551884876287209,0.49691336002079134,1.7509172547392604,-0.0717208570273262,0.12223218916987166,1.3395218633722794,-0.3524436007232876,-1.6009810470482781,-0.29259013851914184,-1.4227109174897103,0.03411874378591632,-0.3203568693633429,0.5386521244511818,-0.46975500714315804,-0.0439782797171872,-0.10245595936946882,0.026251667439404193,0.0035276266773422954,0.11357445336511506,0.05050147424026974,-0.8822292769021741,0.006495141363383832,0.48727863387916465,-0.5007482034918338,-0.6647573248491234],[0.060768195516791364,0.2568469860113609,-0.5056723414625521,-0.012851710999188904,-0.3713118072895193,-0.1030724661024849,-0.03222781635191118,-0.5169408182544742,-0.10321019279261892,0.3938659374429761,0.029410115099968662,-0.14625946666147424,-0.25979295921044826,-0.2734188673287014,0.08217443725241041,0.23554277051270964,-0.41761972519283547,0.02301230135503141,0.11665080001231763,0.2581604694431613,-0.3186610165620365,0.4718026063254683,0.7498201408040197,0.3299475802846025,0.14637836943104143,0.37224575219662054,-0.3127664560369108,-0.5731028767214951,-0.090656943419613,-0.09261378299425854,-0.5453737474347718,-0.39700386084163586,-0.23540854457958307,0.16950477204375178,-0.5974013683612368,-0.9795021711019871,-0.7642742983508636,-0.12323312376342883,-0.23769762643091102,-1.3976838145260158,0.10281685478329249,0.5600549225702425,-0.009897158821031218,0.6673176563339122,1.2565546660558804,0.2987334435416063,0.03150729640079538,-0.0920763331052704,0.28495501986775557,0.16214369020131497,-0.040551178733485495,-0.27051671075831957,0.3876486484971968,0.26105162426593126,-0.07635744943694152,-0.3453981874597919,-0.1975883335644701,-0.3683197441490895,0.09860486259954111,-0.17976036446865667],[-0.01799519308788289,-0.5070114552294017,-0.08136150504797166,0.2708317823393789,-0.3339679444546528,-0.01379866096748284,-0.1121973343414085,0.22314439904319908,-0.06879028430676923,-0.1958947630029857,-0.13975629086894664,0.2576483951111326,-0.026056863562761916,-0.2901775275020042,-0.5190501799638215,-0.24638340880641788,0.10790308617948069,-0.6643003494086628,-0.8691208848426855,-0.06900263995465404,0.47996086939390487,0.3360348681188138,-0.25675771933805785,0.5766295696863565,0.03593187229451128,-0.17292796759654028,0.45383065871660205,0.021630673836913625,-0.45296594268267437,0.4448213370909492,-0.6223883573847819,-0.4507974756939598,-0.4989509076700307,-0.25313883398952314,-0.3550045951494483,-0.0032707078390812024,0.41152157808082757,0.1552251598172904,0.4450743513130687,-0.3940887380833771,0.3084479939654231,0.45029435709443166,-0.07135100965084942,-0.3171276182706239,-0.08460783577857757,0.014219357168678344,0.04256895344062333,-0.5799710121504009,-0.04271958294817923,-0.5893454920862322,-0.062463583675736144,0.1049385012929149,-0.4522987471202593,0.31089203418376055,-0.4346500370286899,-0.5449754356664609,0.03635665569952968,-0.04692482574986611,-0.34231805610228516,-0.20745886887600587],[0.3509450290774984,0.5998698175462144,0.1428374523440075,-0.1959194945695493,0.10324232715695807,0.12030946986150831,0.38546727084005084,0.4159112556724279,-0.005407503712937995,0.20558226930845347,-0.030809327294625325,0.47692240891716375,0.40386552046607915,-0.14970314332530818,0.2806341330954321,0.40402689399654196,0.04070251664170155,-0.20678084145835673,-0.3580730335845789,0.45497847614874437,0.004957325842230167,-0.5015758486509867,-0.6946254313730561,-0.3017006403770443,0.5412393110746008,-0.4274867459736525,0.974519564399792,-0.07613255891945937,-0.41551884779487225,0.24308288606451925,-0.18535148872451043,0.25867402299620706,-0.5303920143551609,-0.002545107454262496,-0.39014909582382096,-0.24378217824796655,0.42857113149360493,-0.2610412382137833,0.047769458173403945,0.5549783264114525,-0.16971417525472235,-0.2077714441535338,-0.27585732627074433,-0.7780385364871634,-0.6183623131316562,0.4124173889341155,0.36224999138131764,0.2765472707331867,-0.09696567890402669,0.02139874634852636,-0.3949973180389228,0.21420349177318165,0.09940748672687054,0.4430308683751493,-0.3020114023625175,0.47014616479177274,0.5910532726646961,0.09285814809090315,0.0411700225637279,0.4960287840147911],[-0.20852877854627683,-0.5157965940867074,-0.3267923235439226,-0.2714185998640643,-0.12337649112754615,0.32187933711145095,0.1302451685319608,-0.4029031153570455,0.06218214293074254,0.2650106690335382,-0.1723138265006463,-0.18544571422878406,-0.17135126065823336,0.5050277955901824,-0.4776916406806094,0.523648245528356,0.4532126662476286,-0.43382081999067995,-0.047147590277797,-0.07895309118315899,-0.4015943942461257,-0.2301156806528559,0.32939572620395563,-0.16054256273335654,-0.756614881808998,0.09887056293038858,-0.551029223209552,-0.1410920661538597,-0.5809664536675169,0.5509804062497483,-0.3685415842134197,0.03800057752452542,-0.1305270122600861,-0.6066029345312934,-0.09825314622378006,0.147136612428151,0.5833898917322358,-0.5217496497276767,-0.13901980431956285,0.458959289077194,-1.0537233240705468,0.107975112031655,0.3371795612687718,-0.8173333629732908,1.1772326747687583,0.19761487977427322,-0.6578490543203911,-0.13718607748062028,-0.17124131704258,0.45764960515288383,-0.483077454011887,-0.6117430459013272,0.164736424768362,-0.2886672579979759,0.37168445783880805,0.10928540702188941,-0.9012986255113783,0.23711458806740915,-0.5649412833443103,-0.7930622359086184]]]}],"OutputSize":{"X":22,"Y":1,"Z":1}}]},"Parameters":{"LearningRate":0.01,"Momentum":0.6,"WeightDecay":0.001}}