{"Network":{"Layers":[{"LayerType":"conv","InputSize":{"X":10,"Y":15,"Z":1},"Parameters":{"Stride":1,"KernelSize":5},"Weights":[{"TDSize":{"X":5,"Y":5,"Z":1},"Data":[[[-0.27915441189435997,-0.20961988695335113,-0.32904972156588735,-0.31070954877591495,0.6093568220447791],[-0.15462641010019404,-0.16279679385075288,-0.24169654433214585,-0.26550394199400335,0.5796584419773424],[-0.14884459721282578,-0.12005673261653374,-0.16156655702440834,-0.14911468529936958,0.32619104852495634],[-0.19729748105875838,-0.1405643225942253,-0.16830302373999304,-0.1359252005657617,0.2889527296323394],[-0.17752342768237767,-0.2313407902920826,-0.21466748821586545,-0.3204708878597885,0.5437843754226586]]]},{"TDSize":{"X":5,"Y":5,"Z":1},"Data":[[[0.8554014171252793,-0.020070524565818704,0.9495742115689376,0.0628438978132652,-0.41052666222942497],[1.0156769231383393,0.6784147402197772,0.49363331706176383,0.9886739504397016,0.8219389417070597],[0.24069295145369032,-0.2894482938482858,-0.3035686737333493,0.3072655188636758,0.9625028506210693],[-0.3943442623495892,-1.0157823917217232,-1.1842612371094243,-0.9019935268981973,1.224978990060553],[-0.8772398514643129,-0.9605232749331846,-1.3959213471736536,-0.33448550057465515,1.1243964530030108]]]},{"TDSize":{"X":5,"Y":5,"Z":1},"Data":[[[-0.6784535726461732,-0.1382560251157643,-0.3830345315439206,0.5369904235936367,0.6650183680031689],[0.009689256353189407,0.5433405738241768,-0.8664784713038376,0.3023692127898198,1.2175200502236097],[0.5352487552373829,0.7631274560633211,-0.5495515275216739,0.479387222839653,1.2502835358376203],[0.5763701013460987,0.6851171714437408,0.8723451129378839,0.659042442708956,0.21670055828509283],[-0.6062294819937186,0.4553213340626362,0.3067970884740148,1.0365205805727915,-0.7477964588388254]]]},{"TDSize":{"X":5,"Y":5,"Z":1},"Data":[[[-0.7122336174835511,-0.5914871708652092,-0.19370876720154656,0.7324573584262543,-0.8006964329698193],[-0.8829286940098833,-1.753276397494781,-1.2358607987096812,0.19333102060969046,-0.1208933870851187],[-1.2494839322629083,-1.4179305701447322,0.5658379960275473,0.7699909994070935,-0.1343343800442832],[-0.09573819539765584,0.8042136985819788,0.744869250909567,1.0412132004307986,0.30312643220280666],[0.32322069971604467,1.7097345044245633,0.5808626604053708,1.415809200760465,-0.18784710318243406]]]}],"OutputSize":{"X":0,"Y":0,"Z":0}},{"LayerType":"relu","InputSize":{"X":6,"Y":11,"Z":4},"Parameters":{"Stride":0,"KernelSize":0},"OutputSize":{"X":0,"Y":0,"Z":0}},{"LayerType":"pool","InputSize":{"X":6,"Y":11,"Z":4},"Parameters":{"Stride":2,"KernelSize":2},"OutputSize":{"X":0,"Y":0,"Z":0}},{"LayerType":"fc","InputSize":{"X":3,"Y":5,"Z":4},"Parameters":{"Stride":0,"KernelSize":0},"Weights":[{"TDSize":{"X":60,"Y":22,"Z":1},"Data":[[[0.007206788997388262,0.012778895431563691,-0.05993180738538886,0.02339591856381477,-0.04486395083089808,0.22267994181081088,-0.005143247853218395,0.09408387630232934,0.10604823607220533,0.007768442379994368,0.08991047640708742,0.2665497749792313,-0.002596788498626752,-0.07054926259173877,0.1816782676213566,0.010825968530938342,0.04332910000601332,0.13504344034285953,-0.5970212667560222,0.3169873440056981,-0.018721734257372228,-0.32828199512277084,0.22016645640806493,0.07158167395054905,-0.19840089514692485,-0.08149173704027966,-0.10824137488666923,-0.21989859738480394,-0.11151590525773794,-0.08440053154954333,0.03814021934244574,-0.4156375295551113,0.33434226333872774,0.204273899070046,-0.37592356112567377,-0.022790134635884553,-0.3030228861994982,-0.2300826416665931,0.009098673961426102,0.08315063863870654,-0.6296191819025261,0.32837886987188314,-0.3360447027720002,-0.10503225539431525,-0.1667267886459925,-0.1814603390952502,-0.18739584273324272,-0.11007449661791004,0.25963016477527595,-0.40802830747306834,0.6146110683828909,0.023075289675063716,-0.36260005719830424,0.043053875275068265,0.15076037335186357,-0.277038003366805,0.32444525309353445,0.2386048290514737,-0.4665161991686639,0.07129996816579004],[0.013389633128830698,0.0006953798755456715,-0.02203413685147244,0.021198005735940845,0.005278052647570929,-0.016623196899572083,0.014827359358628068,0.047923327830705756,-0.0026672569526342083,0.03296347489292351,0.08461983632849186,-0.02626581468011508,0.024358334090607614,0.09146486555627181,-0.025323390310694183,-0.12318411441900837,-0.0666859180233437,-0.19554608739519508,0.04725812166032408,0.029901027957198244,-0.03048810339034273,0.12399497140234059,0.17889234461359255,0.02041562729986445,-0.03408140690394204,0.09347341624799185,-0.03333590724626461,-0.11075007422470444,0.03519696255477748,-0.09319002013097925,-0.1691775101682735,-0.016189512346552477,0.06647198253386341,-0.003939443217122912,-0.037936110149066074,0.0348378087463473,-0.19793457705397685,-0.08041649291422696,0.09328439950848523,-0.28556630860330723,-0.07949759119540539,0.011139881562259153,-0.38555470127698765,-0.03301594124246513,-0.037588177481440097,0.32296491357061974,0.260922424764239,-0.05935500467742516,0.06264105858072085,0.07008786267522953,-0.1892105619108545,-0.10606169432223246,-0.06417851904232957,-0.10050022551208099,-0.12643325882902565,-0.05063508966315691,0.0105129353828151,-0.11996594512260782,-0.11781942117918462,-0.05090265117441763],[0.029844905331145144,0.02267226484989591,-0.0017914337630413784,0.009900247630648739,0.01801607331772448,-0.005665132163797547,-0.02973745720971386,0.003495546005451914,-0.0027726456948423206,-0.06332552847178265,-0.01871961204841981,-0.015775289459158612,-0.05976770751771154,-0.005049996970186902,-0.04873864818105579,-0.26640369928425583,-0.09061514208180935,-0.009923982668240072,0.0422998381482171,0.06580478880856197,0.17304664841465925,0.02631651220427799,-0.11621945838875232,-0.011516221789371778,-0.1010374204821833,-0.2845617973321202,-0.02371303380066494,-0.25999925134400786,-0.223887331078583,-0.17081277991261368,-0.08531566270900717,-0.0905890850023272,-0.301110939668323,-0.08202056733793579,-0.14634482161989992,-0.10563688890383924,-0.30241357926134177,-0.029679429097272916,0.14060872920498105,-0.07807381449887836,0.20614770454547054,-0.08938583235167664,0.06884442565945695,-0.10913051230782224,-0.22222029980105573,0.0450794228738022,0.012501902778907233,0.053515744734007595,-0.06915063283553297,-0.08005264208782982,-0.037478976983145465,0.06340492086781434,0.08938754708585009,0.16530892203158778,0.3612674159267201,0.21734834072271378,0.0726819905628981,0.2992053635363143,-0.1376628660655791,-0.019972983642463138],[0.04067308048879755,-0.0006826636709607166,-0.01609693449103447,0.0710663572207388,0.044206491219354986,-0.01498830079559363,0.11063790300433719,0.04893088411012033,-0.02774042468160028,0.10246971438537482,0.03369172798346596,-0.028745913546212167,-0.025946826985221015,-0.01356215296443469,-0.049916679773867094,0.26763501614293866,0.22497176715290235,-0.14000925115903448,0.11241024195951245,0.1595630109670426,-0.2258087767146723,-0.09583912812526284,-0.115666967207555,-0.08500578436121263,-0.11184357789941912,0.05977047441025155,0.27544494083300275,-0.08112483194240648,0.14945946835135696,0.07397199016425841,-0.42082841962223594,-0.07712363268445017,0.17192435250299953,-0.34962939238106894,0.06272489092316327,0.09682527485602667,-0.30850452813435586,-0.01637654530104448,-0.08198073702519355,-0.19068905349480736,-0.09709443941629471,-0.12648035681879072,-0.17842192086611686,-0.12237032006516953,0.08046979031356458,0.006695922175724393,-0.0661038563293377,0.01162379449189629,-0.007143068004852559,0.07419119073339253,-0.19010687585172176,-0.02122203014534426,0.13815037438749508,-0.2208938299508826,-0.04268364039444238,-0.172475207091097,-0.15049575917704144,0.22136422472183157,-0.031154055204533303,0.14844305743517797],[0.03754982150371022,0.012281789063788727,-0.02952144617659428,0.04455194534649909,0.0009664406765934434,-0.03307263053954695,0.002742669213532878,-0.012205245855397343,-0.035799282199186405,-0.008842320787055555,0.0001700185211084223,-0.025767784317941043,-0.007071264989598985,-0.013198759046558754,-0.03998699637262963,-0.010505127288240382,-0.2198165872055761,-0.15255476481583388,0.02414786638705778,-0.26126718585498154,-0.007040956415253755,-0.12687548620343905,-0.2030233101345993,0.007196010920329649,0.014679700391476962,-0.19355017959723833,-0.0613550366641791,0.3682256161107638,0.07221436423127629,-0.07397165087672306,-0.12888701128506505,0.05639676387838731,-0.16305377097591894,0.033945188881846736,-0.07618018386898388,-0.21250121303698463,0.056525556811268626,-0.12908487024042128,-0.15005767434380357,0.01876848324802957,-0.04630926811669406,0.11915421601635293,-0.2113488752292039,-0.048605493847720206,-0.01660842006962306,0.04892846411507821,0.07970088573698797,-0.03757920347320847,0.27396675589226377,0.03566307119736587,-0.04174993313724995,0.12845949600560075,-0.10291264607607208,0.1415783148468306,-0.12333638206470894,-0.06446733519759205,0.24266470007501517,-0.19205716617802615,-0.026924440218117112,-0.18786884476309415],[-0.01394929101740783,0.0020891818706227647,-0.011713319176525142,-0.03353319797999257,-0.024609722787848346,-0.03846670416936036,-0.027359733347213675,-0.024329263780531976,-0.022126471112754627,-0.017161731055483753,-0.004895528544271732,0.0009292945263963937,-0.010207214787163459,0.03081667012133588,0.015036062238724644,-0.15984482194190988,-0.04928385567239149,0.05141480955401286,0.009873039122376966,-0.14887207354661455,-0.20636648673707275,0.2636460407738829,0.205760294625241,0.007199795691444099,0.23492577593626338,0.14135369345728774,0.18465524974624525,-0.08897653194740753,0.04790401611380832,0.061350054866435785,0.10403602019515151,0.006657270179845184,-0.013312047452992979,0.01245697227224848,-0.12961752348728037,-0.3534974521731175,-0.17259595535383873,-0.08603659691057972,-0.17492093408368625,-0.3220751147970451,-0.09206948981335643,-0.09923212315087784,-0.22794566394133564,-0.0073189126469124415,0.15212728906496553,-0.21539083263121958,-0.13898481758388334,-0.14208506508618446,-0.0902032057647994,-0.08566010819054826,0.017445219897370905,-0.06937772099131839,-0.051710386451533606,0.02134405100864922,-0.02454045672425809,-0.013610295904941309,0.01815005244493196,0.36205470779509036,-0.05650935498653054,0.0086075994226816],[0.011540526680966527,-0.00601642463848094,-0.02476315227014756,0.011304843212427263,-0.008861915347593187,-0.02809183979804513,-0.002691596808483549,-0.0073314821412549264,-0.012861320452871416,-0.0095393225623669,-0.008395833267368067,-0.002863933686653238,-0.007640169035153617,-0.003510042038825321,0.024035851822746288,-0.04047437736164938,-0.27944415721190474,-0.22652044995722448,-0.041431217789915105,-0.19706269816309707,-0.14279599516637945,-0.05663844711943207,-0.0600771298958138,-0.05637659589395366,-0.13539228232622985,0.1339468349215747,0.29510194367769443,-0.15183263213026124,-0.1027888518431619,0.1236558332167435,0.03299592267989617,-0.09516796722912793,-0.3367210588387336,-0.0030483243812016434,-0.11121411985521183,-0.2415695384859622,0.048781296405190966,-0.09617662424651884,-0.12394899802453112,0.07319554310297521,-0.11513217746259612,-0.18741392187327366,0.01690542118690372,-0.11807545787676177,0.02971070004232091,0.2475673296038047,0.07671578885341257,-0.11997353260061944,0.2768205566224807,-0.08108433515865907,-0.03130683402209277,0.16347741883806907,-0.024538186072684886,-0.08147298168996896,0.004756258004176938,-0.080901227985665,-0.23609071093808995,-0.21935541723833413,0.042575260137175025,0.0651107673293938],[-0.0006387949009706975,-0.024848639084442545,-0.030965668357522822,-0.04366627936025164,-0.05050919319527749,-0.02489093640722937,-0.04656174211386179,0.05629653234392811,-0.01525137552882072,-0.013215263758864379,0.07120513762468321,-0.0019039032488166706,0.00523012678704411,0.04675704572137534,-0.02757238161534551,0.2047159085137077,0.16842571614190527,-0.18310124530929378,0.03435740478388007,0.3279792841002979,-0.052815751154206295,-0.12667666513947948,-0.1329703281832945,0.1557586994207362,-0.105289814912829,-0.2990780035485269,-0.32426081694189973,0.08465621459185112,-0.2883868977040183,-0.1756899828090388,-0.2577029550356179,-0.12120365797279374,0.36805774877113373,-0.32084873931091396,-0.051689380779773926,0.15256791131618555,-0.13146361804906173,-0.11708856541779905,0.20469935290200558,-0.40443001384828636,0.09976411927435459,0.1673032622891299,-0.18369944519573586,0.1861852209048458,-0.1449468172681978,-0.2705469119229701,-0.10750369521567998,-0.16107658698883015,-0.21156591624007604,0.29487472161965467,0.06130791119735124,-0.07664370047245482,0.27586860068990876,-0.14138529350261003,-0.2766997329099494,0.034643961319332874,-0.03641389100496826,-0.2039786513549737,0.07228799362376148,-0.2551372891592271],[-0.0010853179075963582,-0.05773166010916075,-0.07864192987171226,-0.006156938067301037,-0.08863458742723572,-0.0735065192469706,0.0024422243836316753,-0.03302470517609525,-0.06652096933494042,-0.004054371298154063,-0.059272486991580296,-0.13851214406021145,0.021210915602194125,-0.04575819739762817,-0.030179615996517067,-0.35654532268697187,0.17349511874002277,0.013664607215659595,-0.1314856789736041,-0.013133552330037825,0.06980141297409807,-0.2511658799690528,0.0933456865976795,0.005396549518953048,-0.1625493071658601,0.14775091985600763,-0.0009493436754230729,0.11051563981766872,0.0035612539434475617,0.3468325480499768,-0.4781038420614423,-0.06659476560313896,-0.4169772847993231,-0.027486637961314973,0.18415061351545844,0.3065140970529275,-0.4056825723884226,0.33406704777696405,-0.1292564355556482,-0.45155133542036396,-0.025707805559874446,-0.37840781742977253,-0.09464093934905202,-0.19055371291507853,0.00734048803797533,0.3115063035255856,-0.02744181904086523,-0.29943433824568977,-0.137142654636475,0.0998829343254428,0.30103633111676914,0.25162364159144246,-0.26771644836938346,-0.04476525617003994,0.6234400927312981,-0.1598880520473456,-0.2712884627500596,-0.2753070426255714,0.08177362126873988,-0.10584547963945179],[-0.006901696927891124,-0.0062376946403976605,-0.050953902818914695,-0.009493353780645614,-0.025678861779742646,-0.030759937477751485,-0.015991621747146616,-0.04823226543323768,-0.031187826033974228,-0.012428296087374316,-0.03071014511848167,-0.04798174627295286,0.05925981924231669,0.004610235689719981,-0.10210587773506001,-0.23134305825491164,0.060831661147035615,0.04159826319145513,-0.19611394679839278,0.053130242422063934,0.16846480899724992,0.26959351190345565,-0.26733968333974006,-0.19390934957051725,0.31087069003130713,0.08617049517390495,-0.2264552836049268,0.04545076821448908,0.26814863323813776,-0.06492335287677854,-0.1645173267523217,-0.13786976151325092,-0.23650867628842054,-0.1434848860733879,-0.23725186111765714,0.0006323814204522592,-0.1739002577049292,-0.009021444357403974,-0.04482294291529688,-0.3542765701057126,0.0753118794199017,0.21681527029932207,-0.2558098126807052,0.20298980381016074,0.05396645652219058,0.11285749085689174,-0.10151379571501218,-0.1452726267176663,-0.12497513929969105,-0.07615309416453422,-0.03462785311506345,-0.18668951364018288,0.1321857255342229,-0.023528942524057662,-0.09398969944152114,-0.15640321180414246,-0.12264398739960079,-0.21939075632904445,-0.04056910764083065,-0.0633619102202327],[0.1110293982787206,0.0033934549115194937,-0.02722352422238943,0.02961804733396813,-0.036512169910476164,-0.020243110724028658,0.04753115013244403,-0.015121621487718553,0.0020433633137078057,0.0017139291126445162,-0.027597759044972976,-0.011195307872508312,-0.02014696082301069,-0.02688715169124653,-0.016381791976626828,-0.07132128374489012,-0.0009554084741225667,-0.3782432532716435,-0.09645418154075232,0.11604185028872988,-0.029371326129499938,-0.1334294604565439,0.07173790742924165,0.16647051116273726,-0.08100217265638844,-0.10124060946964134,0.05339615763878506,-0.4430536191554279,-0.035644150443343056,0.08833255976682777,-0.06842937077386477,-0.23729667526581885,-0.2889678608643617,0.029941149857745042,-0.08205156667311343,-0.04244205466265208,-0.04986527712977181,0.049484035356510594,-0.0354904037302962,-0.16810637628563443,0.15878756909292532,0.20501180957651963,0.09522227708922705,0.03805356985276372,0.18927402067533913,-0.023703095973863907,-0.17859029861090944,-0.3002891204466538,-0.10001817280741486,-0.042268676213773525,-0.3784368624796078,0.1529942675941091,0.04502257058406645,-0.29387520699803504,0.40015115143860724,-0.14211621607103636,0.23610448156497085,0.2575018876667194,-0.20191671815446974,-0.01911864321250011],[-0.025308791223796406,-0.005623149505492728,-0.20711631135432496,-0.02270299982303262,0.00475024940163654,-0.17462489691983768,-0.024396021054253442,-0.01001625269722499,-0.08405902224351788,-0.03588373589918716,0.02535921432614426,-0.10276032133959823,-0.05109335982168529,-0.04396125402197956,-0.17918520235997662,0.10173503946227552,0.10077869056916576,0.1287218039676882,-0.20067948736495034,0.19901818805539725,0.660518213665149,-0.48806194843284406,-0.45094994923320275,-0.224832500977053,-0.030785720212777083,-0.025381663717752558,0.2912036467584557,0.08659226234013774,-0.036243157236385624,0.16265836350991272,-0.48166393038393085,-0.07130087718988068,-0.5404277259166701,-0.3378690370679952,-0.5068294934400234,0.01308522690758918,0.009107160134842345,-0.1815001772381805,-0.03179207042153725,-0.12742076535142052,0.031730046242293496,-0.37066011333139043,-0.5096617380284338,-0.2696636551004285,0.0867664096674085,-0.17479487585301162,-0.0371570938986234,-0.25015439051299504,0.3427835252866527,-0.0999606043497526,-0.04331189695520424,0.22366474014719337,0.1330044178312223,0.131351342810819,-0.3408815133010803,-0.18087951733550367,-0.3098608366443577,0.4762138899312463,-0.10856579264349166,0.41073787532656814],[0.008875927518173761,0.003781992901132386,-0.0025028918281235464,-0.011541414058095356,-0.0010849305047677155,-0.023567666909854467,-0.007952295284004015,-0.007996795971810754,-0.08521036363783374,-0.006684412691290055,0.008082252990787435,-0.07239496260160201,-0.0034975491246564657,0.000018877167536141165,-0.07723071527155934,-0.09580725320346889,-0.07409319677105049,0.016387221870052756,-0.10670843982129445,0.07804096895281658,0.016989372930018235,-0.12123502938480131,-0.04489837301991622,-0.3285442051924516,-0.0565190202066797,-0.016295721365581346,-0.2642065340014528,0.05064790637308168,-0.09482453981294449,-0.058665282937294526,0.18361438399581523,0.03974679444515328,0.11454381314625292,0.12258499409450428,0.015918380715583096,-0.0813977899109627,-0.04174000059421251,-0.12091658166983436,-0.2198480413726623,-0.02763754836896638,-0.0732048435774391,-0.392634504872377,-0.015966646167323382,-0.013905907952650152,-0.21190656318947748,0.1424345993744647,0.029553861280361485,0.008955974256037199,0.049393638874489,-0.08191571151966451,-0.08454481309385901,-0.08550734857145818,-0.023324637434025026,-0.05792303850386718,-0.10596125464106639,-0.02337551954199411,-0.01732049191623345,-0.07589045423421943,0.028555593867084048,0.22564302362007416],[-0.03867907836277995,-0.009166972130327713,-0.030437562405648478,-0.039730262038226466,-0.025686998026829378,-0.1123167989087804,-0.038670048964035544,-0.010351143691792018,-0.030371086310110935,-0.032101202579589136,0.0005965236264274907,-0.01945017310929045,-0.021732036194460784,-0.015267024147396703,-0.08805125506546119,-0.06862312800289427,-0.11340693709344028,-0.15266595395198435,-0.14565138970451244,-0.06569969632130038,-0.26439001726428535,-0.189147205790401,-0.12434693941665162,0.017893127634151216,0.08408899823260547,-0.016547982402988205,0.07788724229181436,-0.061437520095426856,-0.2063544138749671,-0.49105732622065373,0.007783114208944412,0.07807637650099733,0.08313516784319859,0.1022067607065897,-0.34172093099256273,-0.6025301693123623,0.1198721662417662,0.18096687779994702,0.008800608106242674,0.0719305896520082,0.11256814903344353,-0.020801077126053988,0.01572678222274931,-0.055865845477714754,-0.4914386631151162,-0.04969840916355493,-0.07032031186443016,-0.096941709342061,-0.10277923644987873,0.0032734019951890757,0.12097363546023057,0.06294937327785036,0.1802928015447754,0.09341844285344883,0.13023593977298611,-0.17744301050185796,-0.047344339012324606,0.12623456742465256,0.07312143065629828,0.17404102169486055],[-0.01133766539962181,0.10883026387380612,0.13210148512821845,-0.017884421495912337,0.05104035475825232,0.01898546591405898,-0.008800758864412013,-0.015716583772664817,0.0028449656015047974,-0.009672484490657414,-0.012254147938314131,-0.03354006557120595,-0.006536919064800046,0.060887617333312376,-0.0008151166140147822,-0.3005805620196198,-0.3130501907079422,-0.23907874527375786,-0.2024129284229805,-0.0881381033451932,-0.1531496402786502,-0.20816880454606904,-0.09066677906106657,-0.05591676811826255,-0.2888335790940773,0.11057411621513542,0.1397959876871522,-0.10019108409259893,0.2189591600110899,0.030527575729418884,-0.2738780154612053,-0.33120134083944214,0.152708752840066,-0.1703182117698257,-0.08063347699023342,0.01461350557948566,-0.04933857320473276,-0.1157896241985171,0.18225294757880126,0.041456948155529826,-0.08614179446889315,0.13542784890140708,-0.09374096194911594,0.06386311514626208,0.17061044886285842,-0.1905740681023554,-0.376803641816705,0.14423976378403655,-0.11455212153443714,0.06712536740920304,0.06580194464158785,-0.02938098993745591,0.07754980745833966,0.11492946198087514,-0.09613646541623691,-0.09791720827564274,-0.011585149293346605,-0.04820087138136936,-0.12739764445236412,-0.0097846571600237],[-0.02748753611706092,-0.0026648053167492624,-0.015191839913657449,-0.025459197623137014,0.01206804726923303,-0.0090619668562444,-0.027421534954831215,-0.00744349683683279,-0.006995779651866748,-0.041600981811922406,-0.007780112548130401,-0.014910719582923301,-0.011162949322891944,-0.015376603447955684,-0.030717459891408602,-0.12579328688944327,-0.04495693563085623,-0.22322795487178024,-0.13753213259344346,-0.21201236995944914,-0.1203288785964204,-0.11885017179965426,-0.09689778630898992,-0.08822810786891847,-0.04615864761637785,0.227804913812845,-0.2214706533825609,-0.24909225665119,0.2729026181583121,0.21872493415712757,-0.13289367356913426,0.08774398176791096,0.0644113742175117,0.012027802240933758,0.0496352916609615,-0.14028436745580455,0.18383944182950238,0.007115310966404961,-0.20559452101045728,0.11001194483490592,-0.017790346366121403,-0.06902132703240006,0.022189434731678257,0.030222593114818348,-0.236333797792425,0.03044258509941602,0.005289195455674169,0.06588828001917826,-0.11068609804083612,0.06384973854811833,-0.16533245233235025,-0.1312261617233486,-0.11580764884992872,-0.29652212279145396,-0.26224691532861827,-0.18317798214383352,-0.1597787169449576,-0.11380368970588312,-0.1626709438651912,-0.1793846313722288],[-0.007774659098762313,0.021227973713399042,0.02029971155644662,-0.005167302445121055,-0.003056840441923795,-0.019073197614335652,-0.013531357505903799,-0.004168071527722788,-0.009769161772780387,-0.015507047486813367,-0.02233875725342168,0.03003487942453006,-0.017598215044000276,-0.04033777235248492,0.054671548351539694,-0.09156122242039366,-0.15392411525488708,-0.08678189588944353,-0.011268318909959982,-0.12788302835916476,-0.1247181810522709,0.15154146299620513,0.0015170770021574916,0.2212261624445589,0.08747234644978771,-0.10856783994762358,0.13078854266900977,-0.05383088633798764,-0.13026112064621076,0.066294292913432,-0.061141490021544544,-0.1727115727338073,0.02486445775310008,-0.11131409260727217,0.16918880113433812,0.0000033877104272022956,-0.09480535028631372,0.10912557050259776,-0.03984931842582972,-0.02174079150122236,-0.16843075449815334,0.029684848224333267,-0.07026520423729113,-0.23362033729802154,-0.13485087837369744,0.039507406137925596,-0.09514026650686316,0.22171184826964188,-0.05404382274169704,-0.15624858470820624,0.15058091186621983,-0.10863871885416834,-0.18712776141208617,-0.2009080407163335,-0.08644091630787641,-0.052088896337272456,-0.09909999943404804,-0.17802634364412678,-0.08188338090953112,-0.15558849795512372],[-0.0004905991590276959,-0.022380971305710328,0.010369666337989324,-0.011844849013393107,0.07813786666716231,-0.10910269950058214,-0.009552864250063934,-0.05135206979814053,0.15736206764199206,-0.011807121787966335,-0.06817196885849164,0.08051724720730347,-0.005815005547344085,0.026822675240824805,0.008946316738469505,-0.28893966981182806,0.19885942214992575,-0.10119821392908174,0.4070777255389652,-0.10875365796884738,0.3691525532654318,0.15569090064916308,-0.29246388306507776,0.4834183390755532,-0.06530182516996837,-0.5543354030918142,0.15746538468647664,0.11110761563798625,-0.19527110762198008,-0.3314404969030602,-0.3191749453472444,0.13684555004704507,-0.8628251887871813,-0.502636365493098,0.18355582900554246,-0.2640810576855517,0.06450432976772105,-0.4320066111139911,-0.0208553718275528,-0.23776465213833547,-0.09509799802191983,0.23178963725071935,0.2408651829853547,-0.05006479464625254,0.30107366279924264,0.3054342362765378,-0.2015504269364548,-0.06437575889474888,-0.28382852363010225,-0.07303677542141386,-0.6114655704008469,-0.11800338581049459,-0.1260700651081354,-0.2811636296008008,-0.10031372957141997,-0.07356815241597017,-0.2095773295344699,-0.16175366446262257,0.4048035475804738,-0.12776693574102596],[0.0009301429836782481,-0.023141748905747384,-0.050227140075151964,-0.009959657387164974,-0.033962359277017615,-0.032558263627444725,-0.01590113949788374,-0.02427603091897935,-0.05545358436236988,-0.017036180315136956,-0.014364491801274306,-0.04921553283259967,-0.01770819430290682,-0.018565618998763668,-0.14582711214530378,-0.1259137256253319,-0.07899912889874589,0.03769582090925608,-0.2672706128769158,-0.025924807188128642,0.2749174880091574,-0.013626244614132721,-0.18701844317078356,0.10939448683706382,-0.18546472456217342,-0.07250229785642819,-0.21679299297326604,-0.006823719323843438,0.07897335808900818,-0.4111893312349468,-0.06204214662649105,-0.032871350049611614,-0.19888109814405355,0.0027980302075557954,0.12205473276714955,0.34901676889643424,-0.0200325804238185,0.022832931552395203,0.36059342221759005,0.2241436072483397,-0.013822134568799731,-0.0417387122623924,-0.09439263375757184,-0.2161969734109124,-0.6142460320380266,-0.20569915216662682,-0.19343600493466334,-0.2522205484241532,0.04658894781595201,-0.06330980655552516,0.06595237331802424,-0.057766955326899065,-0.26940042496513733,0.13140130438661157,-0.05972898043956116,-0.22458317636603076,-0.047515744011801725,-0.15558299552561733,-0.3308419711839831,-0.4164502238266151],[-0.006522210794833648,0.0021082351262816227,0.0032121436463510063,0.06221216323685946,-0.01022371812300726,0.0007816572104899114,0.09043499743869121,-0.023166179227491607,-0.007416118726486824,0.09088415075065118,-0.011499658301631384,0.0016696093872723523,0.09196379162870784,-0.0054277569424334236,-0.0008922799150662021,0.3114764163539771,-0.2064133745727446,-0.05182691054101877,0.29048221893506043,-0.09512774770525188,-0.09177618086457716,0.07437540565440859,0.04844320248351213,-0.06634148112411253,0.02622883718092678,-0.03590472952882415,-0.0950070136403502,0.14163698301116018,-0.07374606959215887,-0.2931765117350693,-0.0019856879151787703,0.09660798783138587,0.0571349170087467,-0.0040727042941842125,0.019381638826104382,-0.04265628314443841,0.047559831618505896,0.013873238404222669,-0.22946105200180444,0.01458875162220432,-0.04542190005801502,-0.08661206242880709,-0.06972263398011233,-0.05637662434640843,0.0008213318241358804,-0.1653990154234986,-0.17278815416118337,-0.24589187707368973,0.055082919506534316,-0.12839125749134414,-0.2491455322172099,0.06607923233551535,-0.08886775045241727,-0.1279340682101666,-0.00736224082888832,0.10234630814981123,-0.03464658192569762,-0.17791245874737338,-0.041715911225900834,-0.1761551204950164],[-0.024533508457517963,-0.024573325213089085,-0.015254822765086858,-0.008671502403226075,0.010987702010102265,-0.010391586876542956,0.030919387888087242,-0.0098011245468583,-0.011105633005845045,0.04401939498056105,-0.008219080831023715,-0.0028203272091979173,0.0021552214480259763,-0.0061576915218931145,-0.010287739318836446,-0.04337304925609248,-0.26423085906936217,-0.17806973540720814,0.011612587872298498,-0.11932462486286947,-0.2175132499678941,0.2216636459196287,-0.11236996854372724,-0.25174424728269695,-0.014161264797904234,-0.2826647624518094,-0.27539829459959514,-0.07078681884331477,0.32232197531494555,-0.07975620168559507,-0.14001954896757737,-0.16893778798778733,0.12021012707842971,-0.11915443527243871,-0.07508163486741035,0.1403337281681041,-0.2006398667835055,-0.02467644466283036,-0.271451133715573,0.02096987824482446,-0.18128142944378675,-0.3351391667343184,-0.05390267939120941,0.08904146895537901,0.3694185093400876,-0.22878721861681953,0.29919091613709214,0.24340497999412639,-0.0006762861222154889,-0.27272611359542104,-0.09659703020652251,-0.03311856944089039,-0.13153141608437546,-0.17955452114500178,0.39055365295629535,0.18240664000214407,-0.10977842937785386,0.09377483350294276,0.09156603970674966,-0.0626642350680791],[-0.010197918455737465,0.04251580241778883,0.059297575998546556,-0.02584961560851076,-0.034475148091122565,-0.034074712028427344,-0.047930327169758744,-0.012701379072820727,-0.00301106470266457,-0.002251621798540037,0.0028991308518596555,-0.041195171442691934,0.016508555730980024,0.00474456419447781,-0.08040535379864125,-0.23273933098774846,-0.061477020387375264,-0.21993490647933273,0.06233453801153207,-0.13071918131181431,-0.047815901341160635,-0.0026455925114718913,-0.005043711373214012,-0.20074740121888088,0.05319936871955264,-0.13357174211760955,-0.29449715245220626,0.28282858612445055,-0.2404212673874748,-0.30147137923199996,-0.14850050493314487,0.02212815012383324,0.04307755988721252,-0.004305551295040642,0.06980451518546778,0.10702679398091762,-0.06843433930550441,-0.03702979808114811,0.32229274739170766,-0.20813351122531973,0.33522278753632706,0.18410982206758036,-0.06486448977091266,0.11270007317577836,-0.44738135350653907,-0.08766570870729187,-0.10754061237052803,0.16712648188698892,-0.07987900812677567,-0.16887836391386815,0.11122509061848432,-0.04845189055140614,-0.16145663798703402,0.01634380620313185,-0.17098752285287572,-0.36916348633671553,-0.1940880767873467,0.1063164332722096,-0.19647956618282103,-0.12835430444279125]]]}],"OutputSize":{"X":22,"Y":1,"Z":1}}]},"Parameters":{"LearningRate":0.01,"Momentum":0.6,"WeightDecay":0.001}}