{"Network":{"Layers":[{"LayerType":"conv","InputSize":{"X":10,"Y":15,"Z":1},"Parameters":{"Stride":1,"KernelSize":5},"Weights":[{"TDSize":{"X":5,"Y":5,"Z":1},"Data":[[[0.6049152116638519,1.1299674932607369,1.193722657038456,0.523485374821757,0.9081884891873663],[0.40282160042896026,1.7411788309898728,0.7853436298146014,1.4531042203218407,1.155511881896441],[0.3894667597541679,0.8462567680111881,1.467910148394974,0.14226443641303152,0.6009142133095721],[0.3699426843016633,-0.013615604935454804,0.01562349580976595,-0.2612082160308747,0.07501726132917659],[-1.3838592958655336,-0.6812899323559047,-0.512423263590417,0.09932864432731708,-2.3123724445680334]]]},{"TDSize":{"X":5,"Y":5,"Z":1},"Data":[[[-0.3676525340539722,-0.9764900024220016,-0.48728059798016155,0.37218766188949665,-0.9318332448171353],[-0.5311956632652185,-0.9928968441738653,0.5910420842631108,0.8729146382676857,0.20303369155727993],[0.03491447418391119,0.2198810281293924,0.2083039160377891,-0.6688736063374905,-0.5424053313991092],[0.1835307809822339,1.3364081931146106,-0.3674811636396309,-0.6672542690460057,-0.7745638870989462],[0.971371044637548,0.2781455290139429,-0.4497661638147563,-0.6431764469378023,0.8598178160170342]]]},{"TDSize":{"X":5,"Y":5,"Z":1},"Data":[[[0.1521153253924568,0.5771827883590123,-0.9627646178885302,-1.1332268809328385,0.49703626925260097],[1.741107429165346,1.5792542405649985,0.9897403537444159,-1.1218801356069734,-1.8219486700674818],[1.242460001939526,0.5454055405094734,1.839103456551225,-1.4087735912278287,-2.7827702583590033],[-0.0892592040265774,0.7891723442246578,-0.13631271264690373,0.2610764071335729,-1.5878144900628397],[-0.5658782596140588,-0.49780895886131926,2.477932595227275,1.512894644382788,-2.0596377688456813]]]},{"TDSize":{"X":5,"Y":5,"Z":1},"Data":[[[-2.008446767741276,-1.7202688476727108,0.07368250343426255,0.14016637635336324,0.3468816209014152],[-1.94299234355484,-0.5975293169778627,0.3436533222888141,2.3544577406973333,1.49655688595505],[-1.5615203159414668,-0.7377209136802316,0.40695641895815493,2.0477174941887117,1.9873446524871632],[-1.489363880048302,-0.50980444604852,0.6156046719170815,1.0631902490878555,1.1079821949719146],[-0.9388523131814331,-1.3339103541639525,-0.9064138152973623,0.3237183556090837,1.0866663226510793]]]}],"OutputSize":{"X":0,"Y":0,"Z":0}},{"LayerType":"relu","InputSize":{"X":6,"Y":11,"Z":4},"Parameters":{"Stride":0,"KernelSize":0},"OutputSize":{"X":0,"Y":0,"Z":0}},{"LayerType":"pool","InputSize":{"X":6,"Y":11,"Z":4},"Parameters":{"Stride":2,"KernelSize":2},"OutputSize":{"X":0,"Y":0,"Z":0}},{"LayerType":"fc","InputSize":{"X":3,"Y":5,"Z":4},"Parameters":{"Stride":0,"KernelSize":0},"Weights":[{"TDSize":{"X":60,"Y":22,"Z":1},"Data":[[[0.1660172169748776,-0.8312771286726724,-0.3600428709467843,0.31839508773024666,-0.16051122918058952,-0.10363934486541147,-0.3043182038674175,-0.20249088521172873,-0.048786636354984744,0.4351742286656487,0.747336651266572,0.6037239396205184,0.9851239180096225,0.8214036286900076,0.6707510102973626,-0.1919733641144893,-0.0018894358346182947,0.45106760732726797,0.20593066658097472,-0.15797133150264805,-0.255162067825483,0.13505452744155663,0.14380330915241601,0.11746580352967928,0.13588569931715694,0.04906509771791758,0.38149904064788337,0.2528976234295503,-0.25747592585512435,-0.37764779683417965,0.2320883613250676,0.478008822092241,-0.46393041776705746,-0.6261755961213106,0.44534479002400246,0.028143580989393516,0.24358344256048453,0.3401942190138393,0.1461863191841346,0.32695351811658496,-0.04648811014076718,0.2575413177109469,-0.3983249142327627,-0.3388371191927981,-0.030031762318291747,-0.5147673702619419,0.18930011928167134,0.9024145815938511,-0.06587944459272521,0.08244613140064823,-0.21298015457522085,-0.03363465256778975,-0.2520539880720512,-0.5141113118636391,-0.12462100077778301,0.20633401601308696,-0.06210727506585029,-0.11678398032047696,0.03256051452959544,-0.15505084473678724],[0.3615943112443527,0.19316787000142785,-0.17250267227379162,-0.2911982035841258,-0.5240417000688661,-0.5902123064747401,0.791535057115982,-0.042882174677264344,-0.5279096165616506,1.4043262384600907,0.47209834606270773,0.3376735975339041,-0.2875263704169359,-0.37139438259774366,0.09006615512503066,-0.19925118194257838,0.062057478660991004,-0.0520309393817624,-0.22048355068878817,0.13513432669830575,0.013366776372087183,-0.3657322173657699,-0.23747813222413675,-0.027208916883035752,0.25268781596124673,0.18984800800256585,-0.4087197233156213,-0.1851827121906784,-0.047757281523680056,0.2547099861123555,-0.19700492518331897,0.05343844547227646,0.6118974183054103,-0.05174579628475055,0.3229136200814012,-0.30327739102474177,0.0761614703056247,-0.15315953157853904,-0.1793266503711294,0.414157441486467,-0.050049910532475296,0.3854880671222813,0.45283623347678315,0.04965775005868745,0.0827586319748928,-0.03249103410021763,-0.06829777808330226,0.29161410810248056,-0.10233930636533867,0.08146192400339983,-0.14488984139557465,-0.13859126367594787,-0.5031224542476547,-0.022439897062772066,0.7863694288823331,0.3349360041470812,-0.5419605248449534,-0.644346096803924,0.1838888662825522,0.19927998374296998],[0.36084443994504334,-0.04233844022182024,0.02146196150808839,0.27839319614785435,0.26635993732744984,-0.36120997703343366,-0.17433220220322532,0.1889053204523297,-0.12861317470504396,0.4085853796231858,0.3579241888444476,0.10676416485022781,0.47285822054837157,0.45216286208079487,0.09238173450181843,-0.33949344194908754,-0.2564320049120026,-0.08077186281339575,0.08073618322553351,0.17860589060968063,0.4749968864921692,-0.2622269894156053,-0.06106257287304688,0.017533757284793637,0.142906924055922,0.353517808954526,0.19967496572161403,-0.053827984056701556,-0.1942623388758852,0.005351518838303522,0.26707906538851467,0.43577449189570616,-0.3546390205085142,-0.12288216587436995,0.1181217891393611,0.39000368878486863,-0.3736516367711523,-0.07900919049127228,-0.24125276568910525,0.3894781197071628,-0.36905611556528484,0.43245319196778775,0.3154430833260417,0.4136680635571975,0.010588423705537475,-0.028789098605736748,-0.37085141115437104,0.012818497521764897,-0.1027564106669644,-0.1973133876753562,0.31056484172342375,0.036274300104031265,-0.23428415306392417,-0.2190291916869112,0.47302327328936905,0.05991053955753461,0.1631929267588609,-0.3816000535365469,0.344830204395286,-0.07509515514921067],[0.8259282254842498,-0.341494758728374,0.9515549628224315,0.19376148932700665,-0.26542977779649085,0.4373942036280283,0.35770517715090566,-0.244109097599608,0.278033740357504,-0.7134619627096903,-0.5831873860190904,0.4517078331506488,-0.27257655244295514,-0.4221031109643147,-0.4497847213765542,-0.18575948527730127,-0.05163020568117835,0.14144544208979087,-0.17832490895024344,-0.14700895766439925,-0.3387099289249751,-0.13004789411858944,0.26725717418144335,0.11128078659231,0.18206365330843124,0.5623545829038192,-0.2573944554320883,-0.04507734020916997,0.5818202255090715,0.4317038643316946,0.17119824397579197,-0.2976701954429501,0.10674503744288227,0.14033800888576772,-0.10517679489612144,0.4228061586500747,-0.035244333525581824,0.6253556630547984,0.25401841222801097,0.5544431498482987,-0.39508514132010975,-0.29246479761628175,0.38320192517105467,0.13447551252395012,0.18473792145934098,0.18167010957713045,0.0500099579040161,0.260635033365852,-0.08864636097757937,-0.18934385106101698,-0.09377025229964203,-0.5263205721103095,0.16835923312378756,-0.048397711647351634,0.12067584917877029,0.1731385301664954,-0.3861734223546618,0.1554329311026861,-0.1906170367070498,-0.5912541372730862],[0.10230508376841675,0.24505289507503258,0.4249697517012271,-0.15220561660265494,0.21354984731174395,-0.4058199167099622,-0.28111302978877706,-0.7253345586342138,-0.9584969042530165,1.242035279478384,-0.4207949259400324,0.06405894526480291,-0.07191750050604878,-0.002836301108181063,0.5076843966872951,-0.1837332654040342,-0.6210493973521755,-0.3446303459190777,0.1625176250005582,-0.22280968027143494,0.12346215378634086,0.5028739140575702,0.3126225804439733,-0.08018877957500352,0.20145023902546388,-0.014639598219073036,0.2765601464010755,-0.09743943619643047,0.35380732064678144,-0.46347948246415055,-0.25855288280633204,0.19133424427560025,-0.31834655007678264,-0.15260483222089494,-0.26598441636906944,0.021000436897381358,0.3828912522901522,0.3058007362228496,0.3467149117432284,0.20271427413754184,-0.12968095581371583,0.3803241297924344,0.10913639386101179,0.231560878995626,0.46531840654002804,0.5247002330605764,0.5032276646027899,0.33341386129902967,-0.6083855275026104,-0.06918242860649369,-0.030462840413488866,-0.18048689494729198,-0.5131421332920484,0.05497725620661494,-0.2596148007523218,0.43279145693866583,0.3027008980527224,-0.26432041698972686,-0.2314810048860557,-1.2704850882737782],[0.23061470367501527,0.6725603187794792,0.14950757078753635,0.1986305170199983,-0.4931850574418516,0.23576203022487993,-0.23672725012022258,-0.2247063271940951,0.32974753674686014,-0.8613800290369087,0.5871419496956849,0.579103614616079,-0.1394468685584308,-0.3435712248885175,-0.2997647129787499,-0.0014219654498541395,0.29922711400716706,-0.39663717057228415,0.2932471185966032,0.5932617320487537,0.31827416318138274,-0.47978399963816115,-0.11803546664626038,0.36996784118196224,0.11649374493004515,-0.24547189940644168,0.02019995884404358,0.222803392674481,0.29673042024380814,-0.05350204800234244,-0.000924536601498413,-0.2260855287716156,0.18570608009630316,0.7641599139320665,-0.08901977123772323,-0.13468873896170147,0.01742555367555383,0.007361256235680602,-0.628733001757317,-0.7270510715154218,-0.15035301000496684,-0.7250955124859731,-0.13555615647986832,-0.3062000913409643,-0.44288312226284926,0.4835118015814585,0.064857742547049,-0.27339409804330417,-0.2596235748487146,0.29564594569130304,0.705650732334819,-0.19875347506110952,0.2317868643953062,-0.3526025216687032,-0.007619481700744444,0.6950188401245917,0.4578015281208501,1.2573557247026135,-0.6532298652010383,0.24245330696045536],[0.2667123788967554,-0.020756575705242766,-0.1575413764414017,-0.29499515664717973,0.432310558832583,0.14005057887566905,-0.3298477193879336,-0.011316558555350055,0.19461359302948106,-0.7269477335926655,-0.8951695842193862,-0.8556896958131324,0.1655484950002799,0.3452897700856727,0.20977572211227882,0.15324437735367122,-0.4244048906467556,-0.13369535193715382,0.16757124201368065,0.03764605897456738,0.25133918994804666,0.12435651634505579,-0.14393391490801763,-0.16657248435568656,-0.15452882877097598,-0.3305019076027053,0.38992951282595895,-0.17285603254512197,0.2123539965411444,-0.19354863949927437,0.03933908116370774,0.4202953658550757,-0.12296946145904734,-0.3472968644906054,0.31198519276860515,-0.2864016195498566,-0.3503531791936067,-0.38431485820657607,-0.03828377171669531,0.654485061920446,-0.1192937944645479,-0.42339352611279446,0.2255294744246741,0.14162541886085778,0.18023501399672,0.14360576014179022,-0.26442919056055386,-0.24859057437771537,0.4948539372099819,0.6019653225731326,-0.10534464101812152,-0.3309379037637456,-0.3076754630224058,-0.04050852139909803,-0.2735440245203556,-0.14607156165108146,0.20139837421919493,0.162615853828602,0.4695323872745206,0.1239214064397381],[-0.01073609695199537,-0.7082878284770568,0.3624726790685893,0.014317473858767618,-0.09662814363958915,0.28399769351546506,-0.39267751537062623,-0.023692429016858252,0.39974861162008474,-0.16052394888226357,-0.42680210465964696,0.8843577307387815,-0.17048639392814152,-0.042574506604154155,-0.3525023387715955,-0.2616738832335358,-0.3274851770254451,-0.1690740516048209,-0.20214067068911568,-0.1419551771374226,0.007248367631896404,-0.040400999855244486,0.32923681556901024,0.29582306437191586,-0.305929713691086,-0.18400214603421142,0.43030167551841475,0.18307642661068307,-0.2588479363233697,0.051531605265076746,0.3722419029442273,0.39943216007272847,0.1241882278749877,0.23961777478974372,0.052740569403163656,0.4246022974505489,-0.2612219847790037,-0.031159083997886895,-0.6189357510388612,0.3919475753595212,-0.8780535809963836,0.23915488935446377,0.45366560813428364,0.2784032339874097,0.2732700704961082,-0.7562712101523464,0.29264793774411807,1.1437224830317254,0.5831808403212693,0.1443501953854681,0.1217070242315282,-0.003833716877977577,-0.11122963189360469,-0.40356376108037395,0.4418342452358336,0.16266973830492087,-0.9180578827891861,-0.5357643254540638,-0.36140730989086506,-0.7827475311415513],[-0.4870505176294494,-1.062328906848695,0.25356000568658205,0.31776650680651586,-0.029524827447442094,0.14019605214588288,-0.09176578921282826,-0.13806373406645242,-0.31009094283028665,0.5360430292667688,-0.39894011153045245,-0.48816044047165735,-0.0021792313044625504,0.940385741367311,-0.22141974634339628,0.2526477297602988,0.37537539307757106,0.10512526168490358,-0.24150995094417396,-0.34477496643344646,0.09996325120958392,-0.04757979358200734,0.1374790210775435,-0.421032877675111,-0.2625595240810152,0.16610869854843896,-0.8954224058079163,0.04314466285826619,-0.06099550470160572,-0.2615576324257871,-0.8665851696452909,-0.011394311141075966,-0.7325449603938555,0.19086576605789551,0.03905877640976928,0.3259425271432046,-0.18017526687595006,0.7260667882285206,-0.293470559512701,0.46567544528587984,0.14072256572201292,0.06744141331519651,0.6515817009444755,-0.38117517977820764,0.056195462571151204,-0.5785694869002016,0.1665541306766344,-0.15773159556786245,-0.4516661778344172,0.023459054377491743,0.5378090459647127,0.33020838289390647,0.29631855195001106,0.40198706398252443,-0.14427448431559012,0.8732170996074617,-0.32957791548845466,1.2447170391011704,-0.2716905777786148,-0.5001914595598207],[-0.21591446933806616,-0.12842785432972956,-0.11793746119093625,-0.5181097331106083,0.6719623452505831,-0.43549970501794005,-0.8441195348118435,0.18222990914694143,-1.29541176446004,0.6147218263170803,0.3465103085443903,-0.054334320089697026,-0.5227551611179414,-0.02849502407999902,1.0909623559000086,0.3075353240766624,-0.1093299215026189,0.615734701437507,-0.6919374958244976,0.25170441615489175,0.007723790365325936,0.29422811465197457,-0.0654436015814029,0.39824604635541044,0.14799486614528004,-0.5984022501207976,-0.45956403417302766,0.16076111182984085,0.2528637836018082,0.34731284982226157,0.804635438967144,0.6226375214795368,0.8885754780229232,-0.095127343886914,0.20449656022952828,0.21399010122336165,-0.23259112692498496,0.10480159226439188,0.520271664727312,0.7033724707965731,0.7544558247744458,-0.6030002823437961,-0.12105757920265482,-0.3519530539794569,-0.2676136795666961,-1.2645402353948707,-0.23831104557234886,0.0684068248806645,0.7027248983921681,0.5018113199805422,-0.1359015064831088,-0.24116961582535712,-0.510563038142716,-1.231164778268898,0.24822570995396182,-0.19202930248974057,-0.4064569722479869,0.8082304735778776,-0.9045741057128597,0.9471583665316499],[0.5949483354877747,0.30437171771096355,-0.9699131261441306,-0.5565054947331929,0.07790244813832745,0.8664221548788792,-1.0471278745486643,-0.6134816384434102,-0.316213253547828,0.31048708847612494,-0.34243031354010117,0.5121846294709788,-0.3196109372976325,0.7481700108797981,0.8073953846436226,-0.635167202038266,-0.18218055915978523,0.2007641210833774,0.10845810605042495,-0.4516649617426333,0.2205424669894678,0.7306975188734898,0.2230499439869592,-0.3491666331740308,-0.27922063977505995,0.17342800352910118,-0.7221915784864876,-0.03235964535842696,0.2525192574287934,-0.21460147829814735,0.38754735458945444,-0.031241821253834633,-0.2336879754094541,-0.45564957654653676,0.5899624269432753,-1.4435308771740147,0.410755512408176,0.4888706132412393,-0.9305238270050871,0.5774458903664778,0.5935512780942114,-0.5140080648543087,0.13779988983627964,-0.13717725739500752,0.7383250016792472,0.21816116837723987,-0.044009878112023205,-0.6192078553327117,-0.09171408201037506,0.1790670665610952,0.07104290534262075,0.14445617351078838,-0.4383732733374664,-0.028852249180202346,-0.35763607522493013,-0.18024953838993768,-0.16658816708145946,1.00164298833928,-0.14304924229629468,0.1921929914773586],[0.18506936159267431,-0.3658849304573595,0.2644887250766425,-0.12260917268536602,0.12106893352400196,-0.5256995136219165,0.7969625759322218,1.0618249140671012,-0.06630357986550783,0.0004375653943168693,0.2545830748865351,-0.1505182738980283,-0.10665623846395832,-0.48352983377965686,0.10806057379765491,0.1659001468940255,0.22775600436615653,0.42525276078377744,-0.09783238500933059,0.32173182102797915,-0.31839463959463354,0.05013346404234298,-0.2739391503402003,0.21687821803781052,0.09528689002319662,0.004125036216733466,-0.18838758709385364,-0.17629522544707088,0.16848593882704757,0.31505895210406804,0.27774636369323746,0.6022808757942701,0.44845451468012937,0.3478838343825108,0.06314178394936938,0.06554809302181676,0.2114959683666081,0.20932249042787557,0.5094074135112825,-0.6196426630867149,-0.35911035342917325,-0.2419301808905947,-0.21699764429506888,0.2555965622399782,-0.6421028735299267,0.2735352054129546,0.13792022251604324,0.14183837922587664,-0.0779275720922548,-0.34043794360354146,-0.2352177102391134,0.23925156739278866,-0.1238501226198975,-0.16476294949682754,0.18724647515408752,0.6893522154942097,-0.07331788853574205,-0.25878670367436307,-0.1298960211155475,-0.648205091492422],[-0.4452755238140189,2.0863016601237105,-0.20882565679667328,-0.41035863767243097,1.4292913922380872,-0.1581529983841119,-0.21552723695985607,0.47534051286156176,-1.4694449390300002,0.8373847779168355,-0.22104983614694254,-0.25123111641144985,1.3788509358918233,0.2409472277020835,-0.3886230000546827,-0.2800686917158777,-0.287532346772354,0.8026871627512902,0.3965672289574964,-0.38944564080617855,0.5296798682288818,-0.04313054646419739,0.00878393410893472,0.4238270417438705,0.05966746425692929,0.168093102085178,-0.0064919388888349016,0.6374497586433846,0.2861594462272926,-0.23851381547441022,-0.41545770984716396,-0.5379871064347651,-0.6988580951866429,-0.699760815919901,1.0715424652061054,-0.5698453866268611,-0.3244969763326762,-0.4643660319270226,0.31105693954349894,0.17956820795474213,-0.41335199916002574,1.073713685753029,0.12236183343380365,-0.06509400104112355,2.432079633497393,-0.3374859447292081,-0.08366971445581847,-0.9630930152539824,-0.6453103569816769,0.18861330019747793,-1.1607534078303021,0.5219431184770154,0.7178206667226275,0.36415090562753705,-0.5413786671493795,-0.6355694002586538,0.7310883777416598,-0.5819205476387844,-0.4445248355719899,-0.0748519845250244],[-0.2659971845181054,-0.3520660808683648,0.5421087956563517,-0.3650340304527035,0.19662183736882546,-0.5674500832592935,-0.25824495765971067,-0.14274851297035324,-0.9776033250231817,0.7940779248567436,-0.03704467984647573,0.12422187331065619,0.32809309452912067,0.03273846125946179,-0.5255800296105331,0.10022818915814695,0.029410582205704146,0.35015455612923474,-0.3597878535451396,0.048504753196563,-0.27291936982977066,0.03917592157300578,-0.02432004134754621,-0.005032678721451984,0.09556149491733867,-0.2865866888697093,0.508903735392764,0.4193434976772294,-0.2544732374505525,-0.3441573017286423,-0.014897241770290847,-0.15105809450719213,0.01685964000433534,0.08468441583932673,0.47252072906820025,0.13683562885900705,0.7039418503188761,0.21244574225542115,0.9725171477341672,0.6079122694840181,0.48447384022599643,0.4026036211667789,0.17649205533108,-0.0038605408720767988,0.09194927103407834,0.9825699504656321,0.06710338338912837,0.22233752059825987,0.5484177147338057,0.4280366226751353,0.022434233011882743,-0.1911260124923184,-0.1337083101797503,-0.16936251438465721,-0.6063213380279178,0.04555237675571701,0.6736991800471693,0.21115856286822154,-0.07327513871524174,1.0903900386589616],[0.03072834321860503,-0.7409225023310565,0.11555520713040918,0.1968783086158389,-0.007700775915610281,-0.8399190034336724,0.6126892426554748,-0.7079503399718875,-0.39151782666769325,1.0114808036848468,0.564585307540142,-0.14123747067545006,-0.10509185496569298,0.1216949063894745,-0.46026604252199005,-0.11713126436285837,-0.28803283345441355,0.09874780302367533,-0.23717212934637688,0.07842447768151958,0.36625937514913337,-0.07824430031021407,-0.3261098871580983,-0.13042291628573915,-0.34442381613405854,-0.6034195191892223,0.06234403893786645,-0.28419475809293326,0.13278505037332383,-0.20579391646764544,-0.866999245653641,0.030975664455850226,0.07013129859509303,0.13907182374988258,0.2241926505188295,-0.13874999632089785,-0.09499274908588243,-0.14270384719354995,-0.07076517021861121,0.10029314620483477,0.7604092386719711,0.13645686878544794,-0.08863691780445734,0.18678570584394574,0.6903188097035998,0.30696298802665245,-0.3649525351675975,-0.10251175076771385,-0.9815524515247952,-0.36129261619521924,-0.03373444073005003,0.031072233352607982,-0.15261624268718826,0.5181455161290734,-0.12826852065099148,0.8492381356154893,0.6720762926619076,-0.26354209294916076,-0.6246806741673062,-0.8771136109989731],[0.47886499694319185,-0.19058848007527812,-0.3831558369614051,-0.15479694826510404,0.6022791027024318,-0.34167315409850574,-0.397204810655155,0.0038325447261664584,-0.46306640359408363,-0.02483245545716768,-0.36985786235483753,0.2181638117223743,-0.5156249466146507,0.2942151084781098,0.24121000524752237,0.19625537118946262,-0.369325016609119,0.4616987422595398,-0.002238233733416856,-0.24423601034464873,-0.0943416278239575,-0.47785386663124896,-0.06012023436351448,-0.04897426879215041,0.1545473523932482,0.3336391057214029,-0.06723899195834764,-0.3752217876828031,0.3049805577948277,0.24294808735966467,-0.0392426095630705,-0.12360923001873939,-0.3446239542335372,0.13595008806743186,0.37700381674190936,0.35981927667830677,0.28968177907739545,0.01425887175909659,-0.30703243581210343,-0.5035520279164022,0.2298920727821316,-0.005358781361905042,0.18208928444044106,-0.4495074157718366,-0.3616157737988757,-0.07850935139957428,-0.153509052374469,-0.19435764080489568,-0.37538715553500196,-0.3870969485607994,-0.2662514062920157,0.4590940190017764,0.018530068005740426,-0.2854070116187051,0.2888051905948002,0.4664094045727642,0.21308565879133326,-0.236558235122193,0.368580181856214,0.14579917259881423],[-1.4501307331383666,-0.8539954751588786,0.7092983025738877,-0.0021151761252061452,-1.3645601521740944,-1.3879808017465354,1.7547171315050718,0.8166585862261075,1.433735478984238,-0.09916584931960627,-2.6032261092932645,0.5244945812756707,0.04378611383442785,0.875305252216722,1.7594404709725024,-0.23511810721123197,1.5455237625387515,0.05174670452435653,-0.38192926562622936,0.5367218589493401,-0.8342728539662294,0.2938824212288266,0.3451157354530458,0.4042083474360708,-0.019001252411017636,0.22395229648127293,-0.35560602714698847,0.1864433486863596,-0.6456989311175515,-1.4118378737664539,-0.6683770817018395,1.5648701743412468,0.59104428716059,0.5878553501069322,-0.7695226108677465,1.0449252731345802,-0.01848599303125689,0.4264753167329788,0.07413828865657233,-0.30180666811779344,-0.7346881881533752,-0.01851767278271892,-0.044961234438189675,0.5137298117517324,-1.856478949710541,-0.9661117889494957,-0.381334061663113,-0.46394074074996244,-0.07274012965248272,-0.29220000960352643,-0.810436297568742,-1.2109815205218921,-1.0903319531476119,-0.12493027548925865,-0.5118163533090345,-0.7299163694551453,1.3634681540315945,0.2704072910314798,1.442308537712048,1.5519950893343517],[0.045183152691565705,0.6163673540884997,-0.8733456436637905,-0.3137169628742372,-0.4321986745438793,0.3971926955855896,-0.4347382727530911,-0.3136974270463832,0.2827068846000403,-0.34998400770049737,0.3845662610900214,0.6219670949443576,-0.264658534381717,0.4917247721797887,0.5960366611827346,0.086936087733004,-0.03797922212576168,0.05441120083415464,-0.07154339569995528,0.4463021876839935,-0.44070517892276684,0.25100907122749133,0.6311621947186525,0.2912052104667582,-0.10288148257534484,0.32706624868762946,-0.016233053375109736,0.21318930502039363,0.044228424025723384,0.16950913364327244,0.09812449790584618,0.340399664221792,0.26536620089043195,0.5502269264381088,-0.4724995360545339,-0.7739936440938183,-0.19662311136241142,-0.05717633217409062,-0.15127235738960487,0.005393030139017485,0.39326829064548036,-0.44008254179731143,-0.32675416892254394,0.15753202855827064,0.002319722401418905,0.5779720564116921,0.2473680536506796,-0.4079567323007893,0.13687165183634298,-0.08619255407144978,0.1895101136233873,-0.0451870279699896,0.4097060532312541,-0.5630637252349193,-0.42733174118962025,-0.47798611573752353,0.40154758865412776,-0.4653286185054776,-0.0861794303075286,0.38089916972609855],[-0.42464578611362735,-0.24993835919663146,0.6882750432393655,0.006119353284560702,-0.5363231689799994,-0.11261008492996216,0.3920213446737354,0.3373183010955975,-0.3675021226238669,1.1554201607202037,-0.615997871588894,0.18980865113944298,0.07284296847411598,0.5925256001258516,0.3534116289258547,0.09208900806851021,0.3729090988443827,0.0082442896681,0.07571713345108284,-0.04586040570746727,0.3757178314907683,-0.05897549879564619,0.08335431078532637,0.02847256705390696,0.21759002783790057,0.49793073670710475,0.057999119806251546,-0.15051866753455528,-0.3137135276377631,-0.18916290618395948,0.44233298806636223,-0.38439403143493744,0.23713524823051546,-0.009650894874239337,0.059858792089589836,0.2039837959260043,0.27628210265419945,0.20833227878853858,0.2667895158085382,0.269312488482039,0.013982446300482955,-0.11384930950005108,0.06593708380138258,-0.14546528793250274,-0.3053496842709522,-0.19446236549809376,-0.018364617364808954,-0.006073644770610988,0.22766174992368884,0.5274421431425446,-0.2665314748729402,0.009509743351540817,-0.3565987311648099,0.07975274508232807,-0.18894203452688726,-0.241812863226212,-0.43913143113038355,-0.18080031788208553,0.7046888411583987,0.16901850186442424],[0.19983936229808053,-0.7521554586883398,-0.45504828517729984,0.7923218567894444,0.0789513718969353,-0.22033886210677803,0.05103779184647864,0.48209256114706195,-0.53043106668513,-1.0632416437030816,-0.5528074815956906,0.08197503421893593,0.32367196448757624,0.38837707210046835,-1.052147620120566,-0.12365123977789841,0.055946030237778666,0.35348020768360755,0.08468637182748265,0.1958131660927828,0.031754198402528765,-0.1833216020687938,0.4387693622682313,0.15418667774766376,-0.47658960017024693,-0.2075192621414435,-0.4316223575814618,0.2165441241415979,0.03994688610220061,-0.2850306384413058,0.3339115829705807,-0.07629432516053627,0.03144883022359065,-0.3162651230888633,-0.12511836623246916,0.5734210988538585,-0.015582198924362784,1.1015037255632374,-0.5212706620822847,-0.15283050918057411,0.06582345620485322,0.10368343290864364,0.20922426683807258,0.438807716199496,0.820938019217531,-0.3729083502756119,0.11586381466231598,-0.17862299486530486,-0.48317808149994373,-0.1681748240915093,0.25092801851800434,-0.05267862252211231,0.5840659150247722,0.48104182800773954,0.4583596672579945,0.2451896647487797,0.4699047712393395,-0.2633365453902782,0.0043046461585022535,-0.3042914466144903],[-0.10267797490503458,-0.492989963920886,0.15087221080739574,0.4101655478469624,0.5790846039922924,0.7656458143595185,0.06453795845554282,0.6227152197697821,1.1844472622209896,0.34600238953907225,0.5568372209875001,-0.17028034066140907,-0.007341444874535201,-0.6409956993655037,-0.7009177891604953,-0.39485832137604054,-0.5186537549670901,-0.04095392086863133,-0.3824745910533932,-0.15812449122422906,-0.28996128560849227,0.24467773580961819,-0.391638606767953,0.11379310173335393,0.02269982786363456,-0.22223394284048822,0.12628023448825204,0.004898433816790826,-0.09494680625066011,0.2190620337617964,-0.3226363733249585,-0.3672243909909087,-0.4417712829612097,-0.27320720324113396,0.23811325066243594,-0.5113084798061164,-0.4613091411623622,-0.28434021790560576,-0.11756635563287142,-0.9355032699402317,0.5866147800941747,-0.2665154065932914,-0.04821088164375866,0.23024471420309117,-0.9557076048617611,-0.6799555693368118,0.2673314270189139,0.5523140718461195,-0.2255905509752755,0.16255473605775975,0.8769670738767779,-0.47476680468515825,0.1482995405750787,0.7594047730925073,0.2840278610054729,-0.1589026455710673,0.7611800992254881,-0.982688534728699,-0.7111060833451542,-0.0024935506780702004],[-0.16514220566354104,0.18752653917414486,0.307055178021574,0.1086261151786159,0.23717403140430704,-0.4103896811726071,0.18453928558896443,0.13282982801885057,-0.5925996918659847,-0.12402694089325675,-0.4984221983566568,-0.14984545916620584,-0.2839625763719477,-0.4820895046367118,-0.6132459503004102,-0.4318982134813712,-0.059600562630131554,0.31387741453163037,0.44626044084415617,-0.3421939575279231,-0.3622489890644845,-0.44503468302491433,-0.46120950264375077,-0.24051619688827022,-0.09661956281560403,-0.04141665581508527,-0.08735940183306991,0.2226271721784288,0.24816199103537606,-0.3803739653181328,0.019096202445392202,-0.19304896436024097,-0.06630133188631787,-0.5150397122896836,0.35408701645624197,0.3750116593399268,0.24417261171876822,0.143904630676357,-0.17466906096881463,-0.41732980337581255,-0.089887134553826,0.23503493100092962,0.33909457757200984,0.08979273501372474,-0.1923515957549024,0.2894939392245139,0.4229645745243641,0.31196482406061393,-0.4059546098866403,-0.44620470551605357,0.1345553114026407,0.11159866312507594,0.07820402407791902,0.22685771367275395,-0.3805633596251374,-0.602178618470036,0.1409025214575546,0.5740044096137893,0.45454527634712105,-0.19067333202332357]]]}],"OutputSize":{"X":22,"Y":1,"Z":1}},{"LayerType":"fc","InputSize":{"X":22,"Y":1,"Z":1},"Parameters":{"Stride":0,"KernelSize":0},"Weights":[{"TDSize":{"X":22,"Y":44,"Z":1},"Data":[[[-0.37930293924502695,-0.3436072966982274,0.1669355796238565,0.98802135842958,0.26592441260036126,0.6043602495962049,1.5252473312254393,-0.879850170066634,-1.2705793272223145,0.07180030644028237,0.8012995174714006,1.3778091023075947,0.14350747869915684,-0.729311121689057,-0.6408029156762468,0.3662273497041016,0.3426068772435787,0.35465065940588136,0.09002146827895681,-0.43390495394301765,-0.673969730097212,0.4467871966711635],[0.10652747883483342,-0.49878393467453624,0.11288697627315543,0.2557808586876597,0.37938627932597296,0.5309740127134485,0.3652793517266572,-0.3838510124917771,-0.10127115504723344,0.44789864763388065,1.2861994528496692,-0.13427826308547536,0.8898711949425724,-0.2970640495014709,-0.1584797757300658,0.3883435388269434,-0.6827419818940653,0.693726249059446,0.1697769395758086,-0.4102391043877946,0.42441173861044423,0.017693897592533547],[-1.181781057241019,0.4109346479598723,-0.5382780627792642,0.11337888844156138,-0.04884431399695046,1.6745921915445605,-0.48212646189029773,-0.6726507913845592,0.6798590043814466,1.8389774173093005,1.800293574908644,-0.07203080889043037,-0.12738133950818412,0.07934265092649867,1.7921547690584905,-0.6568401948188018,-0.5116201132339526,-0.4124222573380486,0.13366869354160307,0.7499220828671529,-1.583004565603552,-0.20207070871206448],[1.1437818638972714,-0.8682261132270733,-0.21510367080308457,0.2193929005167368,-0.791065982183257,-0.9872826000793569,0.6933086582427475,-0.5639820148765812,1.2863165012839588,0.36286442087985793,0.04271079056918154,0.7390288102876013,0.43717541319659947,0.046657186508153155,-0.9412292804579077,0.5307857438802078,0.8290689743910454,-2.00409800365678,0.7274349566449116,-0.5969976769525639,-0.21091987817563587,-0.01690375509783956],[-0.30456086794006826,0.15760288370879516,-0.14061432225639722,0.05736934411056439,1.204954065438235,1.2153587769721759,-0.020599050639906216,-0.5231253738425998,-0.36275605404539313,-0.23571233902952163,0.2031766151462547,-0.48179431266163936,-0.8762893668952703,0.13304331873280437,0.6503788609420328,-0.5034952903130545,-0.7258713941155632,-0.33676859730038483,0.9280561523728553,0.14857247354283454,-0.032160245368577034,-0.35610054380153583],[-0.14305430385118065,-0.6679981424027068,0.255885254494457,0.6499120861996482,-0.5076848541242535,1.1565056160749418,0.461648949212461,0.7879459233433705,0.3333537028431776,-0.4469868337494,0.4853585447043349,-0.29642455019924463,1.3812694791066589,-0.5436287048313023,-0.8103075040957014,0.49888978203084583,-1.827243458204117,0.0798113568224845,0.11471570873672964,-0.8926642429657106,0.8254817491121942,0.09130770653623824],[-0.8880706775658365,-0.6629924314523482,0.6463019884168923,0.16141761053939413,0.3142087750772093,-0.1889976485563186,1.0625598833543026,-0.692050926655093,-1.5425662822707562,0.6962845886744999,0.7405111903326942,-0.1103608089006687,0.521535805463412,1.1126605769921647,-2.2375501826364403,0.5160928682572604,0.5211911022319369,-0.15725596651984436,-0.017397101077897673,-1.7338111391148594,1.4941692898943093,-0.5680542051593647],[0.7911404534507169,-0.15857337225509743,0.40298943021303707,-0.9976331261430581,-1.3245545473401235,0.06229794053188992,0.37388182285812266,-0.29965720456173744,-0.847398048860551,1.368234073941105,-0.034462314679878175,-0.09775916657846553,-1.4078550833059835,0.1862375548135825,0.5939489538551893,-0.21291715291217497,0.4311463746690704,1.8123004999188717,-0.5815580407709716,0.12283369844681476,1.7092851782328156,-0.43573690242339386],[0.054020443849448256,0.015947064068758673,0.06303134719309424,1.1485305001644768,-1.198237140575907,0.5628313663617255,-0.14307902297361447,0.28109764405686594,-0.5102840203327733,-0.4385182291608747,-1.6410499827349685,0.9324570636229282,1.1606009275568157,-0.8709183190128796,0.5872776168454543,-0.14571789022647416,-1.6889537065195535,-1.152930401898118,-0.06529808707063553,1.1476898117281487,0.25894139058166477,-0.09106471176475832],[-0.45464859743116864,-0.4973518104981572,-0.21811220417588495,-0.29527233952126314,-0.2123790121007106,-0.1314651596452506,-0.32677252652756605,-0.47062462636711094,0.2652169130228961,-0.35828146974780906,-0.23110660248640114,-0.2898473241346609,-0.06633640983466765,-0.5294197093105784,-0.18521518569729767,0.17042729838368323,-0.01805502603365246,0.24611204519394633,-0.09969805611498267,-0.45633866073173496,0.3231673919501282,-0.34717572042975575],[0.5875926273949932,-0.027369940694943792,-0.2520220601400159,0.07486238518504114,1.581880790165548,-0.025576357761908478,-0.22152463527978614,0.969950396379172,0.9719858042417197,-0.43315050185504045,2.359211506229311,-1.4850703828375071,-0.6066992026853839,-0.5642272820421724,-0.40966746252505487,-0.4355659708212449,-0.2966932686353794,0.5675969176376559,-0.7073353913826924,0.6069737619140323,-0.7716364777835371,0.17170946417528726],[0.7864293014495791,0.9325555836766314,0.11550186992047218,-0.9219600692400486,0.3325744566907173,1.340307824086738,-2.0010522132822275,0.38619329214779063,-0.778029141514452,-0.5162833703078467,0.000311555690389552,0.2614188922448495,0.44016293558320274,-0.07789732740474835,-0.24978722348734556,0.38340788744102,-1.8217681950818583,0.6378917789752472,0.15893924530579542,-0.06766919560633543,-0.4368964044438829,-0.10555376153623829],[-0.5417938925773994,1.2366639921019862,0.30880483696889055,0.5854228261268652,0.2750692582526837,-1.1312455405849318,0.34533361078515384,1.0758807891065811,-0.6567115348525011,-0.0710575710428476,-1.157275686143501,0.11863466913275747,0.8065279260847713,0.35757503500469434,-0.35157376134162266,-0.44987348468135785,0.8632913025158994,-1.047463021089533,-0.3545157174935579,0.5590153362372605,-0.6190355103951516,0.18632283162864846],[-0.48675924244680535,-0.11466321888211348,0.5730859445352041,1.0816752178208198,0.9119881012119943,0.6216127722041761,0.29346928309658105,0.8646681369195339,-0.08018629463738038,-0.5193838415711639,-1.0393889764302853,-0.8929115218548452,-0.9808739038977757,0.8566115442470882,-0.6105338529476046,-0.3741959876724454,-0.2351607880216286,-0.7729331477215372,1.0787098274220068,-1.3873069036245238,0.23604265779853753,0.09296730110950858],[-0.4336378159832281,0.6078890953811443,0.5436209666293845,-0.736228931281688,-0.7770165320538664,0.9958006614664978,-0.4962743459102031,-1.6086330947778238,0.6669039690676587,-0.21264607338140082,-1.3401662698220602,0.5150499544960329,-0.8639287800138513,1.6283606670680932,0.1421049929336045,0.1609990939819809,0.29714272382582413,-1.0565684356651464,-0.07820620427612246,-0.8982225206877028,0.9888927554217177,-0.38966135874734914],[-0.054471956052676636,0.9848294966240234,-0.3400650262755786,0.2577525387268375,1.3379414345132106,-0.6301993484642975,-0.5042481377013406,-0.12107408388227918,0.5380611414485266,-0.5044349343592838,-1.08133097641104,0.07118377642502355,-1.8835754511717107,-0.31392208618921996,1.2701787810710052,-0.36691480417106737,1.8892930330341693,0.4904707928053675,0.606986384189281,-0.16454032093426102,-0.20387408726674625,0.47675459458169656],[-0.2199282964355904,0.5037366913817978,-0.6634111536049292,0.4488997002114572,0.1932430774258098,-1.7369675185717475,-0.5951383404331381,0.5754511020430708,-1.4511502893768695,2.1125825577383677,-0.8245084522669972,-0.3517616440915972,0.9471120811138037,1.1924894091802918,-0.6785025690937249,-0.10058034345073823,-0.9100993213632205,-0.08735763120444169,0.4518974062033995,0.20650628552451591,-0.023452268842390742,-0.41060072755375676],[0.6069994011436777,0.5932233407155748,0.3322539648513298,-1.1322107739556906,-0.8228644104625551,-0.06943881616811107,0.7203199597452242,0.0693819532317535,1.0698828521318142,0.9607681976227491,1.6903498236411,-1.1183088772630514,-0.7077132218857394,-0.48095170158961825,-1.5321620978710522,-0.35585991048210697,0.2615917878770936,0.6637007941691395,0.3086919561840613,-0.6595440383027127,-1.0942069837215622,0.4784362590651254],[-0.6016886760842262,0.22999106381222048,0.6331912910923699,0.0853035634482929,-0.4964765145877239,0.4391735673102085,-0.6770991162599611,0.3169773930070637,-1.6554629144005182,0.6472448912555389,-0.2322810569713356,-0.2801939650786361,0.7139914054062126,0.9364533754589869,-0.13266826972701784,0.2868251252294662,-1.6414190574528795,1.73724167417037,-0.5430597829786754,0.2474605594841514,0.9857645376582462,-0.32785663252921704],[0.39556334294609413,-0.010132961706963685,0.44350965786284646,0.3148487851141497,-0.5131022563661637,1.1135199717375206,0.5429274725907461,0.5033873658243505,-0.8395305099778678,1.3682366714372658,0.15036721877010503,0.5680151946679886,-0.24838868033644126,-0.3635837755309933,-2.051532219389651,0.03918652872006352,0.10131758715293936,-0.09955503310975915,0.7505308720351896,-0.6636065281688622,-1.454486766542289,-0.34185655395539305],[0.718634404988852,0.030201139228783404,0.08955398524328978,0.05853129461108025,-1.2749829249537759,0.7692346241635718,0.3609076066959794,-1.1492812992128918,-0.0588850334345043,-1.3300804097895593,0.2643189023381508,-0.6507322920214275,-0.9085301436254816,-1.1866608158446805,-0.5843369033551321,-0.38588566016474746,0.08649734376840419,0.5932754304184112,-1.6492080860519875,0.5920429342293998,1.756548633957071,0.12770806431132095],[1.298818068758583,-0.4533898302558128,-0.2532839153549116,-0.4852646107706169,0.48319972561684177,-0.39699001599422273,-0.23967826316210605,0.27603179173350606,0.3592154604820436,0.0359976493188615,-0.19771464922920862,-0.33889546400275367,0.48164984780082315,-0.7678141907195263,0.7064589895942991,0.1004707418814282,-0.6311361021313819,0.19364059095862968,0.28374081762473763,-0.5454857156864754,1.7221787264914192,0.1276764505195021],[-1.148714440579955,-1.0590305384742151,-0.03657889760766569,0.5130087179092225,0.1816648317034836,-1.1319459069486413,0.9074696963625388,0.6910832730841783,0.11623419208233385,-0.3411873082739872,0.35850025088536674,0.0878283662308997,-0.13018278453650303,0.6134335371371642,1.8668112214334474,-0.4487396829457171,-0.34120161819982703,-0.02801993402441571,-0.26452651750382467,0.5287935131904661,1.1125980169079293,0.3056949696607058],[0.3156016546216615,0.13068336664728447,0.14783436968581867,0.7479457284659249,-0.44881096080075106,0.8349920193733759,-0.14850822884739223,1.579724612335849,-0.04755845041265577,-0.5800402297082831,-1.161712349759334,0.21275236602191938,-2.393143831846086,-0.4069395782363443,0.26057076370954424,0.2547327269909482,1.3028876944138965,0.6906681265185896,-0.3374756127813581,0.6141750025003302,1.6198504700867176,0.1802522017329063],[-0.5627352550386409,-0.7174978732910632,0.5039046782941794,-0.8872092208021294,-0.13996604833368587,0.5620894633072802,0.6397750224219453,-2.1732001375476506,-1.298050454213467,-0.4451682984241988,1.593799039403463,-0.36969981369473537,0.8476742792607381,1.4335469772955132,-0.2766094952563835,0.3605470738443524,0.2970029044822337,0.8373576984874402,0.5733187801644579,-0.6724730347835981,0.6650750833917883,0.18983606509047024],[-1.0093338541936694,-0.45631141075509307,-0.1583111269815658,0.050270924400914886,-0.8435653262590035,-1.258981753393608,1.3925367482146804,-1.5525702588898493,1.641469717391008,-0.5907847777056748,0.4269418662110873,0.5597393167936979,-0.7905990120185198,1.8375487107862678,-0.04917536274492199,-0.04378224757031016,2.8458068124224107,-1.2879052711526795,-0.2143493279183888,-0.09883773746609112,-0.8631939412966143,0.40255205138816946],[-1.394202845258091,0.7331980642574881,0.6625499532984823,-0.4682954585320541,0.19371992288673573,-0.4713251010858123,0.4252210374579354,-1.6864183006555291,0.07053926865416868,-2.3539526953274725,-0.17660772705608643,0.5447797865834402,0.7633934873972338,0.23140631515524765,1.3604206043296116,-0.5364605320339217,1.781314061551645,0.6772002606700676,-0.7097282818241193,0.5417516077986763,0.19642417966479137,-0.039573624443932545],[-0.10957930903777287,-0.6678633917826272,-0.010065659699291312,0.8513060406291887,1.2565556556113735,1.5808154841788236,0.5228326656179216,-1.0647802381552671,-0.2870022645794114,-0.6581033544782399,1.1470989208315798,0.8637748399023478,-0.7892841432512124,-0.467362865047548,0.724870794061098,-0.5064332419372544,-0.142787812386395,-0.4735383022544311,0.1470228198994466,0.6529722381357178,-0.9459583154872762,-0.3338141115449545],[0.3254505718627349,-0.4744174434550264,-0.4137178484485349,-0.037276570531469176,-0.6860716926275964,0.24392391758904478,-0.2500008734450559,1.462396964550827,0.37902392843866184,0.25222743576062223,-0.6556854048520667,0.528628400002707,0.08372666874782031,0.49849507150828787,0.26414394126085755,0.4220005803980193,-1.0810613074778714,-0.40410453012421405,0.859759817237743,0.7710468223162577,-0.9679287729389161,-0.16870287777137474],[1.0704067785353937,1.1524768808617414,0.33499916212777137,-0.5204788589836132,1.7688878803163741,-0.5579204786415917,0.01564968828515773,-0.48182851581156355,-0.9844135340529945,-1.0823345008655365,0.6281885880111002,0.22669783954800682,0.22440920368789097,-1.1591305118399766,-1.5746281842930026,0.6457560294325674,1.4306531082211171,0.5605564403416023,0.1253917512749889,-1.9195259830159002,-0.002174208487121598,-0.5923376694578968],[1.0252187188052968,-1.1895262257979482,-0.620034498019863,-0.4528495600563902,0.47058154028239585,-1.5447928140197502,0.26411084169262383,-0.1565080737879499,-0.4043415577700924,0.9395765789794688,0.5219973377606337,-0.8163499146865753,2.008048785589596,0.7561222362871948,0.48843736814911226,0.3724816565961159,-1.3859176954657493,-0.20346447169718154,-0.8661558038610919,1.4236798797109231,0.5106193102129292,0.07152068306074917],[0.09390215381777277,0.499757896553739,0.24122599354503968,0.5833670197354952,-0.35777274335449666,0.09540261275514003,-0.4987983100018204,-1.2491046561135564,-0.7092944360282458,-1.7101633192383927,-1.4068207655533425,1.2962430120020871,0.9202379846932514,-0.8177459017784545,0.7825835205954532,0.31278438537770153,0.56202905723692,-1.1230539547821852,0.29920277727916056,0.5527822522730057,1.256919104724004,-0.4932492224113504],[0.8313126094859545,-0.8742019080118191,0.0893483087489783,-0.4165759197263308,-1.12169344706529,-0.43085196613533866,0.3203844375574226,-1.261361173860518,-0.5503099170919676,2.5258989052633862,-0.3783867454318561,-0.09491333128254939,1.566641368166073,0.22720848837952642,-0.6372585939445861,-0.051878689560456596,-0.96936873071039,1.2013554831385926,-1.9638410486183322,1.545597121866559,0.056537157981212637,0.414696803934196],[0.8182010936683065,1.1163778266728577,0.16318159156071485,-1.1033128741056848,-0.4905524319075333,0.8075453337628287,0.28346335834542274,-1.4592760974477967,-0.9151675930554333,0.8250366308006972,0.6184369939105484,-0.1950097136250245,-1.3545138919458477,-0.030303793738601505,-1.4984719661438448,-0.035425217752921095,0.8848625289460551,1.1076511310617507,-0.7407375767900798,-0.23342528343411986,0.720573296319397,0.22555279869543837],[1.2067825253108122,-0.13482334680671954,-0.19106171719263912,-0.9620680139024288,-1.0099982278962827,-0.04522865334422072,0.24594933435335453,0.44680862505020164,0.9070636616303879,0.15558953588059868,-1.332459323473059,0.1473052219710913,-1.6424442241556814,0.6520949668443425,-1.3229853235468436,-0.08398675852529919,0.3198653818549947,0.6295958308098327,0.47660294225295075,-0.11250074707664612,0.7710421174669778,0.061133562638751505],[-0.5484012052534677,-0.7957742836244462,-0.42756740919221886,0.9364012144267316,1.0802001219605692,0.22857764561125124,-0.19866955370544762,0.3223563782724169,-0.1871152166442227,0.16127912597374308,-0.4764840680257452,0.6036917729504157,-0.052905638970134616,1.46201245264223,-0.16820496263603002,0.15092712293446914,-0.0029237016778690243,-1.6363252152475183,1.0479568862730453,-0.2468333978890008,-1.078940168292657,-0.27145379035960865],[0.898982564907779,-0.6500990644739998,-0.14135006288307025,-0.4531184244906379,0.6531395513901912,-0.6281878948908047,-0.123553037205768,0.9880062203747905,1.932704060192574,-0.10001246835920322,0.6867482312081735,-0.5424439275979887,-0.8997585621879183,-0.2010800928658028,0.9725694916890399,0.16533596619608895,-0.3929646237662321,-0.36940393315791575,0.47117321939307466,0.3593344371121885,-1.2981738617586205,0.1054634734447631],[-0.13423048727695336,1.4167924612658436,-0.3053294534309539,-0.9369521804441456,0.04501509135249985,-1.378654548286963,-1.9525543634704614,0.6735459610969273,-0.6729725869362615,0.07947644678806916,-1.1313034815710374,0.2515616337018889,0.7571811784569306,0.7489112433535621,1.2991233747984794,0.5115752978436984,-0.3538066816403819,0.8661536296929583,-0.6448011231487001,0.9255891609714721,2.264961872909258,-0.06677073616550808],[-1.0304879950262242,0.8594179426306363,0.13292870969944878,-0.3166424495377809,-0.2862294446828012,-1.2265635272341286,-0.1359410834318484,1.601739460334132,1.2697616049175764,-0.7779610560462487,1.1321929990409771,-0.726825903779078,0.85049137946841,-0.24912374186217595,0.6603648241260631,-0.5356810158287544,0.13267520175443492,-0.6763092692516216,0.8912916947353453,0.16030042300706446,-2.3569244540395653,-0.06322671318936406],[1.1012319685096132,0.24600194476930135,0.6383740287222158,-0.19780266453923145,-0.19203707538427467,-0.6533168573756558,-0.23369953357660195,0.8798518458720446,0.6304907016069395,-1.5474422654363196,-0.721470828584592,0.9035493281226358,-0.8438522977377335,-2.2911732669758145,-0.13092622288575145,-0.24773652766342874,0.3952245581800799,-0.5117562120955114,-0.15716253468370897,0.03400661182081236,0.10121437044081999,0.4799576280721266],[-0.09499628139296334,1.1410306462511524,-0.09662943809966308,-0.784404680286841,-0.17841536940947847,-0.0812518967940114,-1.575898310751397,-0.1216828607346056,0.3448906388138793,1.2807608939088562,0.14794641387869562,1.0704516105453785,0.45314400562261703,0.2813731515410639,0.03930472893002511,-0.21022928693268741,-0.004671137513662602,-0.7040974960352339,-0.24718898332787528,-0.3344104265639253,-0.6062833143559754,0.19348271015412838],[-0.23682161399509333,-1.1718751838365917,0.1237040712526402,1.5926628775490856,-1.2141666645126525,0.5235601492661285,1.2910517468496427,0.8861028342151079,-1.4446812504752244,-0.49738974060706,-0.3869662249134084,0.451103781938159,0.9188671541653671,-1.1619379534688776,-0.7610524005753073,-0.181666428409503,-0.8531491704866065,-0.37355344026480863,-1.4185574662338891,1.1474412199853592,0.3855179257940985,0.12387554575300265],[1.4871992231834879,-0.4409052883270865,0.361397316930546,-0.31773544467946563,0.35582442052718355,-0.20496602136664555,0.5997053321775354,0.9566601251068317,0.5061118270936856,-2.4278352277780106,0.08584513486166913,-0.6043217442866068,0.11016100583620508,-1.5719267778406933,-0.15438003484050994,0.05840730488400182,-0.4483350101764745,-0.39190155527474546,-0.07664792666355641,0.6566030232922228,0.7242392469311651,0.18980834748761355],[0.5365324569762127,0.8761437594566182,0.08605407204705945,-0.2990695117628886,0.6421395621302812,-0.7416071314070865,-0.19757895041875162,-0.15677176545285598,-0.545759943409291,-0.5013697783451357,-0.5501185207238185,0.260743751213108,-1.0055881563892508,-0.8229627315668386,0.1043973556879245,0.06458647553613715,2.2855776886789774,1.642179196959492,0.23370543635074767,0.033435817332911094,-0.4628150971965009,0.425114750396521]]]}],"OutputSize":{"X":44,"Y":1,"Z":1}},{"LayerType":"fc","InputSize":{"X":44,"Y":1,"Z":1},"Parameters":{"Stride":0,"KernelSize":0},"Weights":[{"TDSize":{"X":44,"Y":22,"Z":1},"Data":[[[-1.5554693733404992,-0.39703257150511645,-0.051854988326995775,0.36370094481263615,-0.9596654100115478,0.8165688027017989,-0.8302153401620274,-1.7788572932013218,1.165550506218716,0.27008363169357696,-1.198199762900254,1.89411735213774,0.17743974272304816,-0.6726802556159902,-0.14950810771687137,-1.8774666701267018,0.9676774857273543,0.2545672095306295,0.10954696993494126,-0.05545125676084908,-0.25839032569907117,0.1445556563682704,-1.7677768569411736,-2.7268639299915476,-1.3810706305809521,-1.62934022656518,-1.562322392484559,-1.6955734604851747,-0.26252385721120075,-1.1486341046152675,0.4653360837944373,-0.27864818554296283,1.2009945155901276,-1.1509962076085967,0.6776338460602228,0.1968734940771656,0.044945388722910644,1.1149841680674255,0.8948138539956527,-0.7352131151785051,1.3747392162340895,-1.2734982261465901,-0.5882862718743868,-2.0328697973884897],[-0.1020570383179693,-0.10222772681377928,0.6993992241159408,-2.3485101442450644,-0.05026599588432494,-1.5616423845538583,-1.6882072172474976,0.8482861283221058,-0.3974545282018625,-0.0020138247830913175,0.030485974021912114,1.0287010414092588,-0.3985146357432015,-2.142117701151417,-2.3219371454762197,-0.14521416151237918,1.2106618000420812,-0.6409670205675746,0.7603819991983415,-0.5623364824265789,-1.2051928483720349,-0.43871312043197735,0.25508803578090716,-1.3971008911647516,0.13291273169960113,-2.0604577738568564,0.10412625497293578,-0.10154314627543169,-0.16785862847632502,-0.693987788821098,0.7529863337077398,-1.3036631343739604,0.9503037253243377,-0.49276731990247385,-1.1028705474847542,-0.3688468279201296,0.09390272114811732,1.324329178382334,0.6017552729447176,-0.8790479017163472,0.2589138678592604,-0.5887376467273941,-1.2402188750976881,0.30453266105468585],[-0.4971487167126235,-0.3531766869867542,-2.535753138484601,0.6362548326115858,-1.4349831272316873,-1.1867260206110968,2.121054069117345,0.21392436008442373,-0.8137135768759113,-0.3600996638501949,-0.811550779678055,-0.3127090234825066,0.3374574411513631,-1.0012834356721076,0.5314318796828293,-0.41040861142160084,0.9159476514324293,-0.2959315773227764,-0.35135529281212946,-0.07880963473568507,-0.06762100478461781,-0.5223404225083995,-1.6994647850308076,-1.1671804435465056,0.4305080819955108,-0.021452241849461838,0.17529416369838766,-1.836052711796324,-1.4431840365316253,1.5306655814438308,-0.011631208564472507,0.7520025588779238,0.5269714214092468,1.7939456565527923,0.26248355175631105,-0.5260610657248167,-2.3234787376903396,0.17710696912543727,-1.515330326418791,-0.5010490269689734,0.7585895558983786,-0.7551178761072089,-0.9536376765463489,-0.047699823801619815],[-0.6597351405116657,-0.7096337844011985,0.4035122551751917,0.5779315878129284,0.07089954919218447,-1.613966558208859,-1.2610585824061107,-1.5927771774456798,-1.6666496914525468,-0.2922410612590488,0.7488590978396125,-0.4031665930456938,-0.11684510896044462,-1.3797684244489004,-0.33831432488861074,0.4442544185266595,-1.3322981270099044,-0.9240141504479089,-2.4404272372257596,-1.65357989196616,-1.3649011908320101,-0.1602909564017418,-0.2722734829147692,-1.8094334494415036,-0.013652738245851838,1.1418060092531133,0.856762567311973,1.2361716501470386,-0.9155158791259499,0.6768687625624609,0.6154040611829708,0.502344652065947,-1.2179536314291861,-0.59545841957397,-1.9758874783996887,0.38400489186556963,0.5119395272159023,0.7106067507061046,1.0098791021020712,0.128217343339634,0.41697898165011077,-0.735066220385197,0.5157141790123613,-0.09780827250564156],[-0.3372137547838286,-1.1705897192442463,-1.0860499944526072,-1.559801721274461,-0.7795499723420167,-0.08453035264515363,-1.2276591504599124,0.1791952892819386,0.44611470965653305,0.351217135690241,-0.49504512650213567,0.9880878067790919,0.39193269635339034,-1.2110925012899667,-0.4386992712402972,-0.15388532117217432,-0.8176360423314482,-0.7415957685463764,0.6289289498424336,-0.19960867571254423,1.673102682566007,-0.24399200963345696,-0.9257094520739628,0.35454004739805056,-1.7828099593757707,-1.5554051305082985,-1.1425113601865955,-0.13174442354615976,-0.18437099723809433,0.109230758140969,-0.43735283462779506,0.5904254784407158,0.1798065184817657,0.36573079935307823,-0.2098505430338572,-1.823084814620362,-1.5176874571552539,0.6400680657332755,-1.7880592872801635,1.2421815402129035,-0.04964550866815704,1.6688953741208359,0.7726757413431181,0.26800345595826025],[-1.5230835063513488,-0.7136895199232953,-2.131168670311842,-0.676537226170375,-1.0618790437691963,1.136635961806336,0.6097394922434065,0.04797257978306038,-1.5935719497973286,0.4261710947297525,0.9251973953488962,-0.33122394234183467,-0.6122279606972795,-0.33387579370564474,-0.49077529298154376,-0.8533708392030889,-0.3788728577615657,0.8413735212952972,0.6728758190689811,-1.4439384040401544,-0.8597191876712625,1.1340236842074758,0.571255642699941,-0.4927263306494805,0.8093687124625122,-0.3932919851104195,-0.5116474825622025,-1.9988529971561242,0.09054627648270563,0.09896557226114412,1.1337757161409847,-1.7092138455357953,-0.09385824695679261,-0.6746429916348673,0.500236630476801,-1.3857431601676236,0.6224135696296047,0.2536672694785964,0.6704139460817332,-0.9013987721812681,-1.2983010430730832,-0.857656869974182,1.3057893985609264,-0.936980414448349],[-0.5394984121047582,0.23873839809433428,0.12709345838723488,0.28142665001566425,0.36574300289423667,0.4889787590867218,-0.9963498255280582,-0.4587384903738777,0.6070596572060715,0.3145969237328826,1.2558205392914505,-0.6530300373310004,-0.9960594641244235,0.8209825789187283,-0.7949773296052439,-1.37705173382842,-1.3296235010679807,0.5120390874337784,-0.9910888927187081,0.32898586765175597,1.0954613294927438,0.21870753063835388,0.00490475424114338,0.7606714625940493,-0.7180454548044048,-2.2643084105558056,-2.0059452520891896,0.06396006103415522,-0.43750998429613497,-1.1348715797938074,-0.48453847777736936,-0.9649390864831014,-1.6455570586687387,-0.7660983965271165,-0.6431705729020086,-0.4937811631741247,0.3421223840735965,-2.044328336087585,-0.003984449277584951,0.5932063159122849,-1.6629675184209098,1.6992604322233202,0.6670018912203556,-1.7878883046779226],[-1.6222513682811435,-1.1289167017826018,0.5306478772167716,0.24262332404547224,-1.0210265671821945,-1.3565335706986048,-1.8596938864844514,1.3842039321461945,0.48579438780656214,0.29565620440177115,-2.036075233214737,-1.3138206104400862,0.07407271819644479,-1.6864077023359856,0.8840558931982115,0.8810713337322335,0.5379882337105674,-1.1756643450748445,-1.0867083721724853,-2.252653504353263,-0.36425487717291216,0.5553615174240027,0.7158034250014977,0.10244294441506353,-1.1777886374043622,0.7802262716260027,1.1094787102386505,-1.4058085743355317,-0.407254232550733,-2.521304887564512,0.7393296171819898,0.7004852848957575,1.0416197806634857,-0.20360094210647045,-0.6069218946635082,-1.3140903380927333,-0.506807280968966,0.9266576514685189,-0.07602436138977665,-0.10086055346970861,0.43341785227997814,-0.29316691906369374,-0.9223778107328909,-0.4732603807197057],[0.3551674372012919,0.1584752258497422,1.2272597120240332,0.7948407493214368,-1.558575485072673,-0.2536080241752785,0.004564620634232632,-1.4810619451975058,-0.6968098347808088,-0.4580311191564501,0.46869490591498475,-1.8174227914983958,0.24800433205642167,-1.5573753796552314,-1.9796762865574482,-1.8675531467052278,0.5608274676148577,0.8456995394961355,-1.3395093153840054,0.07533537790325112,-0.725491652075184,-1.0665192366621117,0.6643563219595431,-1.3903861613231099,-0.8389966218365372,1.456143723422368,-2.0811318635224807,-0.3138174143826859,0.3215839126523343,-1.5549931132682928,1.316826371409916,-2.1171962623140965,0.8394355875393034,-1.67879368008739,-0.7616309516747038,0.21717771999472008,0.49922596447425827,-2.0189291870084727,1.2042673911526058,-1.4810241370102912,0.5666098991328863,0.11771158783665286,-0.5211593937007843,-1.1066065845206323],[-0.30384326310038995,-0.7648561635735748,-2.031511365263874,0.2947480043888945,-0.8311162522616089,-0.2720627784571869,0.8895072717731622,0.18480027842195204,0.07587036537924227,0.28255507112927514,-1.9156811362209907,-0.9582331203045602,0.20225869587761625,-0.1285001855345816,-1.3432965289039978,-0.9519110256522783,1.7232426153956149,-1.8824977444864415,0.16595642157249785,-0.05948599677538197,-0.8496586272755611,0.421756177255243,0.6689129075702539,0.3904140246220659,-0.5900538897055163,-1.4892955897815152,-1.948930464968917,-1.1417173740612296,0.08291217863496696,-1.4235491084479734,1.3210130298136007,-0.0005200363714299015,0.9020754914914212,-0.6574076589492757,0.4975186853650826,0.018320151065701114,-1.4362482277325606,1.183796632555356,-1.5805279339689324,-0.5438760813007146,-0.8619046709029237,1.3536810735224307,-0.2074609098709914,-1.0889994675337082],[-1.116129065907838,-0.7355445834128378,-0.43870154590694993,-1.2439865844152176,1.3304251762440182,0.01085900160188905,-1.540080043458732,-1.8032215724862484,0.8734138811804492,0.2261914115499622,0.264789596523859,0.782584460771049,0.007980533988114885,1.2606991349585073,-0.34102068958151927,1.3077587693111294,-0.0194460518585117,-1.6487658209654135,-0.03176635427772811,-1.0253679250899768,-1.1791534777889272,0.1800019076564983,0.510415579072735,0.617076677244551,-2.096003331011014,-1.8761080877833929,-0.9064858976221106,0.7307522605899661,0.6717086646364581,-1.1332161099045692,-0.3441123555712754,0.30689730715736185,-2.38986286132623,-2.024087930063826,-0.03824857886807252,0.8523408039327504,0.589931119044464,0.5295729560688583,-0.6764261156164882,-0.1140905869583967,-0.40427009717221163,-1.805316835186331,0.5445012446328719,-1.0042877376610722],[0.4141827328278866,-1.0837250575206159,-2.4582661814840288,1.1341923034322468,-1.3249281575546084,-0.36797745559758566,-1.5299085400938288,-1.7501837508832943,1.106899583221157,-0.38965694254847555,-1.2086894202063205,-1.5304505788960883,0.5819600224935791,-0.3601091261395894,-0.8887020575953433,0.3120378980056271,-0.863151319056721,-0.9591370879445789,-1.6789745656562234,-0.3539856134176048,-0.7709718735605116,-0.7754429580426698,-0.28219954104059924,0.5466331265467809,-1.5946301420300921,1.359153748334864,0.8702519006056695,-0.501436840819045,-0.17622388397633448,-0.057330959097763395,-0.713875136354086,0.7353717475900303,-1.0415853099196313,-1.5556289080288659,0.43335941531532374,0.1952479449625569,0.3454461596197114,-1.767864670549394,0.6370277044758961,1.6793671433159045,-1.3431179359267598,1.0401497232353663,1.5386000829481818,0.8227862043077268],[0.04500277740494897,0.29122864293406403,1.356029289460779,-0.6759596948016763,-0.8070709818703488,-0.1582045158936702,-1.064391554878788,0.030055079672937256,-1.05211326906598,-0.07060822584575205,1.1556150250473862,0.9031819828154911,-1.1614707210455424,-1.254333398037667,-1.2626518883256987,0.249396814935703,-1.4898421682924714,0.9187591118696057,-0.6840097272073435,0.8398181517003135,-1.09936693369178,-0.22103161573135352,-1.351830077635229,0.4476584477653784,-1.7240249082643198,-1.7102810062921379,-1.2709434428853175,-0.5516205707725644,-0.37775012807706043,0.8246701983033564,-1.7642224177105994,-1.2110379386599586,-0.6916406332994526,0.9481699800941232,0.15494736725197744,-1.6004374041190401,0.07839151146346236,-0.775500076246967,0.3692213038926998,0.5192072581533148,0.9954689196971501,-0.5447270150910818,-0.47310415159220104,0.06009585822314294],[0.4071217161495485,-0.3506041850906584,-1.1179749393524732,0.36685821413327396,-0.9172041702164906,0.26814263982217307,0.48626576670675414,0.018262428446519763,-0.9413537665319083,0.6421713460886066,-0.6058859697684574,-1.348932752020665,-1.1873446738812643,-0.5804393203527455,0.34259946967999816,-0.5461108545727806,-1.3151809123734415,0.13572223458888766,-1.975700129108308,0.00424658946265077,1.67905008904956,0.5098990843017044,-0.5474729176120811,-0.46319172294722233,1.0477388214190049,0.3993401761673931,-0.1111267445588658,-0.0800905699122228,-1.8538771363205861,1.6032885859827855,-1.1399634682445314,-0.07139387841251685,-1.993777995214762,0.5459186815529725,0.6111922872306287,-1.4599170677473619,-0.5966165943924184,-1.7027176571179063,-1.4928141945805544,1.1113685455724083,-1.3875201295287338,-1.0080502756718437,1.4602322583621885,-0.12878663829102044],[0.6989348441910687,-0.6909226546962979,0.005910370531677562,-0.16985377000776752,-0.20635657028171533,1.0185306171372233,0.5832842108209647,-1.7990427197688368,1.3304517083654472,0.16193353457267973,-1.9208617113235924,0.5344689466911855,0.07439699357316656,0.18584963211790376,1.1258151233725613,-1.7923450469815132,-0.3896269795910251,-1.303122075391941,0.2921654275757408,0.5978942276145264,-0.9246370774970712,-1.435211636205485,-0.17322442408991282,-1.037524651551701,0.8333736089294365,0.2312554348077999,-0.0922872074881259,-0.11886640194160533,0.8303139640899668,-0.6010255932219932,-1.4374226846235083,0.8304677744575584,-1.6567923529457447,-1.4278331550951366,-1.5187247820082337,0.4341419467538684,-1.733828814185868,-1.302410309581664,0.1765433954104721,-0.5647555316217192,0.2797347554797437,1.0847185126971626,-0.7951097929864666,-1.7724003045539236],[0.27012736974236273,-0.34300793954721726,-0.6539134663922265,-1.77947447481209,-0.8647801190617266,0.6381657214987092,0.41429253708468466,0.08047644941925643,-0.4983131333132922,0.43427509865332664,0.40071292858794927,-1.2336670355336983,-0.6808670826360386,-0.7045790747374865,-0.13372514713161693,-1.0821456101350129,-0.8895357072728997,-0.6192831101618632,0.29218968765645364,-1.0681489621337374,1.4887559458480526,-1.015291843275139,1.0951310620916979,0.5708384633553613,1.130275192327914,-0.2697546723838419,1.1121552058276285,0.17257958702023998,-1.5116049351247691,-1.0009214755011167,0.5172456380657947,-0.6868857939245477,1.050809265737446,0.10768375550568386,-0.9910077408031841,-1.4024935127327876,-1.3488856518204764,-0.5408134042622628,-1.962490160879503,-1.3879674561373503,-0.841138916797151,1.6263732544177427,-0.0674089950899914,-1.086552016703686],[0.4279203639966522,-0.5969223558722148,0.22646099586190463,-0.6252865503691334,0.19467005840366458,0.306106392551674,0.3573182516151806,-0.6970082186835522,-0.8495675409638999,-0.023285200798855283,0.23923702369122213,0.14327334900947578,-1.3260086996729132,0.575275448347276,-0.8075348580752506,-1.077280575038538,0.7998051335886746,0.34841797686421744,0.6446806428907851,0.3911189367805953,-1.095618317336378,-0.11926825571121642,-0.8622421003664729,-1.4829095942838313,0.44254162356543,-2.2319108147443565,-2.7041646996354407,0.7071695653043171,-0.44201814085980035,0.6405554831779351,1.080158271202622,-1.1638869614565786,1.324337296341612,-0.2733868974348627,-0.7041798201168109,0.24749987567431753,-0.38091997526875004,-2.2704074516069968,-1.7767408949725434,-1.2039252052626706,-0.6462450631164346,-0.2992788163281446,-0.9618109013408179,-0.44181530181814865],[-1.6696437765052168,-2.085193577202172,-0.9416530782003343,0.2829681102031555,-1.0728393566429946,-2.325882119673824,-0.31415394084284154,0.18298570700874414,-1.7049066265829234,0.177586038598224,-0.7962297403244503,-0.5239665872800987,0.8979285192073944,0.9695184050249123,0.9221547074244513,1.3968130744287441,1.1490115563718604,0.6021199055439174,-1.864635933457879,0.3501529441042016,-0.17573593118619876,-0.7835809763520031,-0.4697572737324067,0.6078332851765188,-2.0527978119264207,1.6813130960805052,-1.270426239591967,-1.7934336395907737,-0.30024139071085554,0.10305387184307684,-2.6163610184878325,-1.6965565196975563,-2.0403958627578316,-0.24785835263085051,0.32097457665428164,0.49505365342654295,0.1791955010484297,0.7823201767592655,1.027166540099109,0.583222671218121,0.16911864062670343,-0.4325026796529535,-1.3635296590081027,0.35797399220556636],[0.27502525250988236,-1.0206211767119198,1.1296449215598037,0.6830283182064133,-0.0643265172161601,-0.9991866201634746,0.030663689048682545,0.859654569328791,-0.7565229584552559,0.3473534199460232,-1.4542500065355068,-1.013093901020117,-1.2277501918316782,-0.17543625995905632,1.876200202513308,-0.3032508733766202,-2.0013893751101515,-0.018117399085569703,-0.9978544416849071,0.4826082824635229,-0.983368274713181,-1.1516827870613169,-0.8442576925807054,-0.15751796140824603,0.6268451400211984,1.4065522838760516,-0.8178031309853666,0.5351175971833195,0.07139982041051207,-1.505416175029045,-1.2046066828085933,-1.149958936593832,0.7305623900487342,1.1552395089084244,1.341459371753612,0.8163217917623128,0.01489416550409907,-1.945829906924506,-1.4948924790470461,-1.647963563022657,-0.14485448811720267,-1.162402993219231,-2.0826122927878092,-0.8484209184726259],[-2.1693836158657986,-0.751169225383275,0.20971938903088944,-1.9124080187794121,-0.20253352435245242,-1.2688454566890361,-1.9223234509614537,0.368406579201713,-1.259092738726002,-0.02631876074837756,0.25006844797097194,0.6088158068943039,-1.6733054775545089,-1.2484250509127583,0.7927138824960601,-0.04444153362106998,-1.3692455231250544,0.9664845066866294,0.09858695099774104,-1.6549117840319747,1.159178660200381,-0.6018108946616809,-0.7075858405069242,0.5353549382217144,0.9221609089153803,0.16116203562862438,0.8681954260307517,-0.12027618881412896,-0.7114498794956395,-0.926531006475017,-1.129394993653953,0.11734737726777279,-0.9748206682304172,1.1207762213242856,0.8088421323769959,-1.338796640611377,-0.0684044836979526,0.9920405321076636,-0.4445560063183298,-1.0536013299488711,-0.37326119422178283,-0.7889530318935295,0.061993344032537145,0.30485326551780595],[0.06425589509308212,-0.5731787310389044,-0.2696561835218041,-1.7134719137579948,0.2641397262148143,-0.01524635620265616,0.6958904534969814,-0.18433351884887678,-0.8614962248193407,0.4607212493239615,-1.366009560911451,-0.39298997173210704,-0.753483638789105,0.32047603999651575,0.3518149172650495,0.43641533027075197,-0.408607613133842,-2.2084765953266237,0.5552913027682082,-2.1221024522215126,-0.8637930707990154,-0.3904186459638262,0.8516364372635704,0.7064216777634919,0.9253390805287116,-1.0239747781969923,0.8982821274971612,0.21516835198076642,-1.5559609908078118,1.235017774052095,-1.2548655895051277,1.1494002176321207,-1.6366910514559294,-0.8074178054545509,-1.7609301810385893,-0.027990474328658515,-1.5237857427875454,1.5245751105363372,-1.5082211336828202,-1.2342272575730726,-0.2603061135155108,-0.9973357050737488,-1.3603139626067164,0.7917065383607015],[0.35997940423135466,-0.3226469786251683,0.44289407734477,-1.832672605974251,0.06482937017448484,-0.6416277071268582,0.3951324624661336,-1.5007394366004017,-1.613216498219749,-0.2954475191352122,0.089516786194513,-1.5786406575089411,1.2019624929160555,0.13724847869731274,-0.936355241160663,0.42706138569463986,0.011640686354987302,0.8594949787627414,-0.41921559578497675,0.9689213077030928,-0.9928986535211578,-2.3003119922294224,-0.44249139538483107,-1.1539139218713848,-0.12665387522040164,0.8563321662805351,1.2530401769223662,-0.2591896587750314,-1.4211014404880733,0.6813752674024227,-1.1344938810122502,-0.8500705523001381,-0.47250354243828996,0.5789124754349424,-0.9489625434483916,-0.39923551405993385,-1.424585597118284,-1.9933201982780475,0.869585456071298,-0.582268942142461,-0.8520039443520614,-0.801740363209051,-0.9801411080849926,0.9867122038880013]]]}],"OutputSize":{"X":22,"Y":1,"Z":1}}]},"Parameters":{"LearningRate":0.01,"Momentum":0.6,"WeightDecay":0.001}}