{"Network":{"Layers":[{"LayerType":"conv","InputSize":{"X":10,"Y":15,"Z":1},"Parameters":{"Stride":1,"KernelSize":5},"Weights":[{"TDSize":{"X":5,"Y":5,"Z":1},"Data":[[[-2.102229463625178,-2.0883984217363882,-0.6360239604426515,0.698821836743225,1.1661559323663477],[-1.6174105330456352,-0.5171069554360571,0.10764592068381987,0.724318623389712,0.09438130054018042],[-0.10601759633186407,0.30264716149720566,0.6153366749507266,0.188188733846345,0.6760185599185419],[1.469623233555682,0.33033428911290563,0.27296283817817957,-0.2724492151415795,0.686426353563727],[3.0238835864976465,0.8239083413636791,0.1705469867962817,-0.444289848253957,0.20328171560787675]]]},{"TDSize":{"X":5,"Y":5,"Z":1},"Data":[[[0.7078193559129581,-0.2303371668847331,0.05228724316779461,0.3856221129991522,0.1458338394397007],[-0.1206456788016264,-0.054846842776354,-0.7104443216085604,-0.00037859049064951444,1.7125471029785637],[-0.9102757729078095,-0.7667501727423385,-0.1981409704094296,0.5286239335806652,1.5800482315061022],[-1.1809148195909205,-0.35760480855270826,0.14447986424218576,0.9405085482323964,2.0790183877041946],[-1.1927770060211096,-0.537617483201663,0.7296150293847982,1.8748795905796216,2.5914883421489647]]]},{"TDSize":{"X":5,"Y":5,"Z":1},"Data":[[[-0.5969306635348172,-0.1946711730889917,0.7862163227507885,0.5841443284964435,-0.5214776416880491],[-0.18785137616892125,-0.18272280509426306,0.32329766679178257,0.21334213394012094,-0.397597937499034],[-0.3117376335677167,0.3049300275866487,0.41345488972189753,-0.18680694585148908,-0.39746983636106653],[-0.09369558191117143,0.05125646926441384,-0.5197324734374772,-0.23464385552799394,0.1192281214547636],[0.2422719807870467,0.15400319286024092,-0.24041290685332792,-0.07994281820949563,-0.37523019059823215]]]},{"TDSize":{"X":5,"Y":5,"Z":1},"Data":[[[-0.3568836225208989,-0.5528350739555544,0.5821514335785707,0.9090273261650407,1.7910839555611766],[0.18404013470738173,0.9857030784968625,1.6594929188840715,1.6404822007385875,1.8576784005564162],[-0.7090647012857207,-0.4015018483471277,1.1441952017450616,0.5686605653667043,0.012131008663568065],[-1.1018999323909955,-1.0849167064263376,-0.10797626851544123,-0.20437372033332155,-1.7781550892847058],[0.5452390295173198,0.3494877634077855,0.1340808753891368,-0.15014687482169212,-1.2777350930585343]]]}],"OutputSize":{"X":0,"Y":0,"Z":0}},{"LayerType":"relu","InputSize":{"X":6,"Y":11,"Z":4},"Parameters":{"Stride":0,"KernelSize":0},"OutputSize":{"X":0,"Y":0,"Z":0}},{"LayerType":"pool","InputSize":{"X":6,"Y":11,"Z":4},"Parameters":{"Stride":2,"KernelSize":2},"OutputSize":{"X":0,"Y":0,"Z":0}},{"LayerType":"fc","InputSize":{"X":3,"Y":5,"Z":4},"Parameters":{"Stride":0,"KernelSize":0},"Weights":[{"TDSize":{"X":60,"Y":22,"Z":1},"Data":[[[0.23949539535037875,-0.315504922612194,-0.10090048676843512,-0.2505173084412347,0.34295582432742533,0.21083832193106444,-0.13080009949408883,-0.02269580597348309,0.41167646760547744,-0.3646170260121595,-0.3548701167242744,-0.3594644061318287,0.008579516662822528,0.21271574132282664,0.24764472287968875,0.021171314199776664,-0.03169684364016747,0.033579785419475,-0.3898452209104636,0.024342839051895847,-0.6407740319877232,-0.4851815630201763,0.27075388681333795,0.04626720696330531,-0.015921216680296085,-0.5863615750213125,-0.32545890072273914,0.004759768085694492,-0.1072355051154411,0.20778005545408337,0.23288432323526154,-0.3946969652222641,-0.36761297605604487,0.10154347735280422,-0.2732488957052828,0.027417657053555963,-0.023746120555658154,0.18830766772614008,-0.33524635648419165,-0.03570001767651795,-0.23106946957867774,0.38061099932065606,-0.01960901879037801,0.11099135700504553,0.16688538278306617,-0.027182817894637976,-0.10489606666095551,-0.5758885704360512,-0.26075285808951426,-0.29231062296244603,0.35218621246895443,-0.3412837052811053,-0.3701043665084321,-0.17629623301043737,0.09648002697290745,0.3993543686491457,-0.3350061486590229,0.2777465389417541,-0.3264763139622931,0.18458350260886947],[-0.477553817695434,-0.5602725377218727,-0.23710253255085995,-0.16611696832213546,-0.14573607144872397,0.13847184679430305,0.2546250585248155,0.48739364588171746,-0.29317740922905816,0.6191417017133621,0.08637821195416664,0.47046900235378697,0.5148340177705254,-0.13657030459394812,-0.20711695117833623,-0.13399373681620078,-0.6929499903680728,0.031377060254777274,0.14386921820941034,-0.06992047713501195,-0.31961790301067294,-0.04373512781111892,-0.003872242535068269,-0.043168110801587174,-0.016983121394425316,-0.3311681063884539,0.025992585370941797,0.34523022401178416,-0.1745618515517238,-0.777466751463855,0.39909751581627867,0.10082508745187212,-0.07129797611546111,-0.2532470362864093,0.4504359372985321,-0.2657068607196375,0.3632531427599811,-0.4915660899509322,0.098940961065037,0.1470021192302597,0.29356153690391734,0.1964254151373634,-0.39309011852459297,0.030067683763614884,-0.06936103350837187,0.27407159825630456,0.15853666198467534,0.004274948900357806,-0.03266722313202642,0.1445094801396941,-0.2577019746553129,-0.5603651549980129,-0.23249055474106722,-0.526941845904523,0.28663818725309126,-0.019635864397556678,-0.12835582073701376,0.3067982499742309,-0.037730930842934496,-0.30586246471845335],[-0.19354293445712786,-0.17260303106030384,0.5405774854508113,-0.16703492564315578,0.32192285822912864,-0.21351808727457566,-0.11155072969199155,-0.32446519402057034,0.4052246380174657,0.17937241266963613,-0.5015081400680982,-0.34262149584449497,-0.5150444017635353,-0.4283432570241108,0.06690696633357882,0.3193082490753966,-0.6636987709271616,0.16369475790038207,0.45172354455185276,0.34997113242793504,-1.143136192483949,-0.027004851482506014,-0.4475514529209365,0.22392900289965031,-0.741440853636331,0.8631166300107991,0.3685955725016783,-0.391526057433913,0.018967670294338528,-0.4660317446645616,0.49799629838435944,-0.0553791956116679,0.18447854611180087,0.24533332791824145,-0.17127904943974087,-0.26127804541250266,-0.438523802438562,-0.47851249561527726,-0.45067082886027915,-0.04026349438011573,0.0015562911982133097,0.1464715358281606,0.10238844027776503,-0.06318429354466731,-0.36442838810906675,-0.04480830524054334,-0.46541258866273894,1.078146865686253,-0.5257857871464938,-0.11019789584210693,0.2724067230350631,0.12579805788722037,0.18912990377059138,0.038894196806196955,0.8736255132696235,-0.4012038193073761,-0.7786403318630198,-0.9133607510519278,0.19361072599547866,-0.259915081374206],[0.11139385620248439,-0.16334938068624877,-0.27002127850545715,-0.34285169538784843,0.2957755608116889,0.23668561368367266,-0.2358064486503536,0.1620061437009271,-0.0655152796410298,-0.2955164700980628,0.1020636252022729,0.14985790842889168,0.013984036104499517,-0.26237962480037025,0.22852977539101407,-0.028664475703394417,-0.19127283542151058,0.13639775497447829,-0.1953271931291111,0.1804611978323383,-0.3077729773590035,0.18703688541491278,-0.3943560327933413,-0.5357725461022119,-0.3947494076231536,0.1888500543994073,-0.049380635396847755,-0.43138348388035325,-0.13293628772549518,0.1855059081073362,-0.37378587306345434,0.4058810921823187,0.05606964453999542,-0.0857017270759746,0.0275247657302595,-0.05697676659859995,0.4120997343269078,0.12509088388505984,0.33675349831180457,0.3136377268522068,-0.0574177080694726,-0.1949436730689997,-0.39821665293693126,-0.2543843569337219,0.43105723107926874,0.1534828937429154,-0.5724810115608591,0.3037175335366054,0.4151416442223167,-0.18952512294108298,-0.23107857828502953,-0.4582552712211887,-0.3890038969540885,-0.44172418978242256,0.10873338520054945,0.3644522856715854,-0.15406260227381544,-0.1249517347308869,-0.14504265309013287,0.1324079643090713],[0.06509752105861359,0.0687966865714264,-0.48489543170480187,0.3067475438833537,-0.428177029163107,-0.5019694124240295,-0.4743738015184468,-0.17203147657322826,0.13095609850959739,0.407032264181047,0.6130692547997473,-0.028099327393367717,0.8189698648142765,0.35906957860917954,-0.3555768068176014,-0.37889781958118823,0.3340599679798097,0.6962009665833794,-0.07421439303241469,0.16509860740602883,0.2302893363462058,-0.6198485798148797,0.34367338506758033,-0.47173738669365073,-0.2752301126075997,-0.09730738511515331,-1.0199674241875378,-0.35994143230841913,-0.10747524942026028,-0.20899690935712942,0.17172405540410346,0.37548901417118175,0.1434813397356843,-0.22074009621041835,0.3999329604402582,0.11460455826329849,0.0016393291176337603,0.22178666958164572,-0.4244146424662764,-0.3078598813840643,0.3499180715598369,0.21073287588465003,0.025426784271461583,0.3717220117107947,-0.3920744310256275,-0.2891802193811477,-0.26017941045620646,-0.1567166517614367,-0.1964558323808551,-0.12268637643142968,0.543986172336623,-0.3288959981992455,-0.2536915579538791,-0.11913737025219778,0.36149629366203767,0.552829088741974,0.4489383814894256,-0.6404793280489135,-0.14416102734452454,-0.6250668044247649],[0.23320368815690184,-0.23550678294788185,-0.4398032125685314,0.18490290356525177,-0.2436783916859705,-0.11468508385482254,0.13624503767986162,-0.46854046657060194,0.0073979648826564305,-0.06655310768817888,-0.2256433592184719,0.2904739359352477,0.43481822670436354,0.2959389368565821,-0.5017370795397676,0.16032809441751344,-0.054300750753211266,-0.207950519260192,0.19793833818715872,-0.5830065846775088,-0.415717316108905,-0.33325911303791766,-0.29103975156905887,-0.5193482928280152,-0.5011924944609882,-0.01652291691572391,-0.38246393846491356,0.0013145581040531035,0.03389932921405531,-0.1271416776594773,-0.024439772709871944,0.2582818257948584,0.2909425049091492,-0.44748050875888856,0.046162018977663866,-0.4257948101659518,-0.3939847392852639,-0.481878430747429,0.31667435535239885,-0.014344296349415177,-0.3955229439192005,-0.12685598482640603,0.042452699689308905,0.07091703124029343,0.21328430655922936,-0.15894011415757656,0.053850263928406826,-0.06595726106895652,0.26913765230053444,0.28517836217332426,-0.3442490893369307,-0.27320901385386015,0.3381164108652412,-0.2054739476200576,-0.3449866099157885,-0.5196651749804634,-0.5035109317199605,-0.5046243291433777,0.059444984569810885,0.21225408958482908],[0.0730336172515013,0.37466291763739873,0.43229260885111087,-0.04770241288190348,-0.09477266196825784,-0.19954265052216819,0.13675126572492868,0.2751151419582078,-0.2285434675721961,0.41500876501970513,0.4438967519265443,-0.4228894208200312,0.036184758714554406,-0.046510547637755854,-0.15438379916912545,0.025850187946860392,-0.5797324285847906,-0.5886931840175109,-0.023565368389186457,-0.3641913157900572,0.11398592230073397,-0.5853634671892866,-0.21095033116545214,-0.3430454464349207,-0.6369522199029697,-0.12706877299363073,0.01669954474763961,0.2649681207730738,0.11114930201991778,-0.15889977449567302,0.08634354658615688,0.4352304133818339,-0.07071243962196135,0.14120928124767984,-0.027695293551428926,-0.13041146715103488,0.40640244295109706,-0.03948354664545965,-0.3454433878163517,0.0032828633952021683,0.3316423410256009,0.42009763486442975,0.39466561951179174,-0.10110053512597614,0.4033077562383871,0.03840325318146501,0.16289428456656338,0.42999690003848057,-0.23861166441565598,-0.5184508063294286,-0.45282896500130665,0.0859931079996489,-0.3823730293592873,-0.3210117357552245,-0.036484288098655664,-0.36409349908980015,-0.4840914644348648,0.18589875562028155,-0.25046094728580576,0.29250641702743396],[0.06443319654687778,0.5427026309608001,0.24057445802447405,-0.43681681848718307,0.19661288132449634,0.39095029114451224,0.06571688396682915,-0.6641008465725291,-0.43762204369870816,0.3673456247704879,0.1264123565215791,-0.4736390510930623,0.6589770263799543,0.4707518118361842,-0.27725786766702587,-0.6390608654468313,-0.3402897589593168,-1.3497828697499823,-0.11592197433981945,-0.6633492047073752,0.01941490274558473,0.5274291223179148,-0.23349599320808953,0.1063141194370813,0.0043292198694542885,-0.26013889710525656,0.09395103216432078,0.008326768066855186,0.3040747205826461,0.6041761669637176,-0.21453801117008908,0.0886145235036297,-0.2639642191905884,-0.1208434902984602,-0.42940059242577755,-0.22895429008952137,0.1622168142222864,0.13519741082824566,-0.16071313841478815,0.346339091392483,-0.3732143450120636,0.2581751045164832,0.14975653961461438,-0.003665799438486276,-0.10978800811542676,-0.3953589557413705,-0.16365112859534967,-0.43717087071095395,-0.2224506249126053,0.19767924416531804,-0.20581989490240038,-0.07916201329289917,-0.3162728099370053,-0.3629176785820557,0.08018741400755246,-0.10998277351337242,-0.006888336589176772,0.15221990253526066,0.06192079577376651,-0.07048318498604775],[-1.4386795818662739,-0.35649375939917943,0.3526440374638675,0.9481487734074475,-0.23915382292894918,0.25114751101446425,0.3578847742839175,-0.30633335503193804,-0.5863422526714765,-1.3250591087420265,0.874169067105325,0.2788133508786839,0.819934733318701,0.06522850161041294,-0.3963562645266641,0.2576550498075481,-0.47821799679446686,0.02277260592403462,-0.02772347215336535,-0.4850807219423087,0.34699588775079854,0.1311783240399332,-0.0016588714536988638,0.15648737269265134,0.14472578212667764,0.2844027866541009,-0.5734170780330873,0.5574337197102028,-0.37698806052542133,-0.5725868438161915,0.27604239038821965,-0.09447863668127117,0.24639499779766394,-0.10220998425430815,-0.2633841530202938,-0.020653059845560175,0.3791303223469827,0.18850132679697904,0.13828152595211954,0.3693913920529128,-0.36109761046184186,0.032255191793272235,0.2749962534941816,0.19666957705448954,0.07824203015674482,-0.6644975464564423,-0.3135473923379819,-0.03560933569012064,0.06399885323765583,0.5041747474326533,-0.25613887834296123,-0.6478795195144732,-0.17245380342039496,-0.5389391337863472,-0.645425720164063,-0.46583070668128684,-0.10975847723250128,0.3547506654515896,-0.546793889665249,0.01538567410780019],[-0.13519490482465196,-0.13607816195829228,0.33487404140990473,0.16309219336229844,-0.4286475875393423,0.36732399429246765,-0.08513658018670453,0.16307305855704068,0.23114142678966768,0.06830937507954202,-0.2544231219026672,0.30707842125626683,0.11127126094772403,0.18000709400296433,0.45671447506227814,0.46843259400567444,0.04705044196284368,-0.13811046547412067,0.2976634510514657,0.01670297699732447,-0.6526620917973905,-0.9708180901846355,-0.2510743185480527,-0.42958599915334983,-0.673631288019331,-0.1829882653601832,-0.7139890743946241,-0.09211557799527473,-1.2530203661375037,0.32973097524650796,-0.3474175527009654,-0.4504613491538721,0.4576154285036064,-0.21669811270540915,0.07200792312076616,-0.11909021174479602,-0.42763992237741383,0.3407907517134867,-0.4837185328431969,-0.3796228425594913,0.347163272926496,0.11406016452014761,-0.2712596304007857,0.36425299265478617,0.3788835921690126,-0.6752757777882128,-0.04657015847723095,0.08401899260166493,-0.06781437295017209,-0.07707988210613402,0.17659265090275417,0.3576340544149333,0.6177719380735026,0.2945028915606841,0.3199204541443146,0.13526395906188007,-0.21958867076141755,-0.17835461083964968,0.06170394314960506,-0.2525994963387973],[-0.43898052895636985,0.27912004727693124,0.18889630112420883,-0.23477186793921115,0.014578854136663695,0.6007131781243135,0.04574484249912763,-0.5382244299754574,-0.09715825711808695,-0.4307666549250605,-0.5755367454107047,-0.07125827689742137,-0.8026807398264133,-0.009815993918935144,0.34223564794485023,-0.3886100404081559,-0.14525627918982797,0.8322104403360144,-0.10476863496087675,-0.411025411839951,-0.32595035327201244,0.18171767856506285,0.3170240983142689,0.00547354093190088,-0.674218956500023,-0.489105437793718,-0.9354140666098798,0.23412490404846126,0.21762915097058047,0.1614891959826965,0.29162716683609463,-0.20537964469483327,0.3226086988901315,0.4194048628794884,0.06990837055617122,0.008096265580487814,-0.14697198162728917,-0.3461590399925868,-0.05050496096123286,0.323117505355867,-0.07822007873091248,0.06622042358822171,-0.022146530784941144,0.006863238892338576,0.35718037719236506,-0.27406921116881505,0.47825529075260903,0.38334431223938187,-0.2640004653791199,-0.19330859231039568,0.23909359196055227,-0.29445905821369445,0.0012280431107959484,-0.573161514596658,-0.6588043681764318,0.49994882126317025,-0.16411056013342942,0.3462116870134172,0.5664548203996811,0.5356297781194964],[-0.17384377662360534,-0.14571846346318815,-0.10964543837017336,0.2981753223163105,0.23081804201469433,0.11612697795789075,-0.13755017132979477,-0.06928318667279672,-0.05968743284270123,-0.2527201416836425,0.2707012248489809,0.02524410471827384,-0.35370722821684447,-0.11315264439113024,0.26620645070792387,0.20935879464784035,-0.3256436272676512,-0.32843085504507946,-0.30866309063688707,-0.10710079220187967,-0.46896453892430545,-0.1843673337420012,0.11177047598675673,-0.2404421720856422,-0.2815371722825534,-0.6145130467454921,-0.6557553419311072,-0.08127795194247966,-0.13521736825776723,0.0191202158752039,-0.16443858190960742,0.009973784493576235,0.38963118798517965,0.34440869258356693,-0.11714744137151302,0.2119481787846809,-0.1182873688794513,0.09684236706576183,0.020891916931557303,-0.27234985379679594,-0.17190042320632523,-0.21872257647698573,-0.50122756195652,0.2609609748422762,-0.262708009631832,-0.10217322891256168,0.00326394549016679,0.32527528973517283,0.1105059213686405,-0.5693452490713785,-0.05340567214334192,-0.1271478697247051,0.2645662645082505,0.059755926154047144,-0.15739777975657934,0.2819920103961869,0.21687862317897583,-0.021231168791615945,-0.35821033792752033,-0.5629965136040699],[-0.14147710959407575,-0.2117290154837888,0.3907537772922384,0.23667961630534745,-0.2032586226557305,0.145406973855488,0.03466169298921727,0.22811586810960446,0.09975725787659946,0.0987530962188708,0.20140400540354308,-0.41525126570401566,-0.3402989690831864,-0.31174409278309956,0.32668537004755094,-0.3604890676398813,-0.24412130207640662,-0.0864499807011181,0.21703113248715508,-0.49928908083100565,0.02390875430833572,-0.5387529725608625,-0.36112432260559874,0.23480443324665484,-0.3346969789274818,0.19932857428470452,-0.15414957371394392,-0.3315088963301195,-0.23364232145391847,-0.04132692874813594,0.1918793769918757,0.39909035741125026,0.0033272134455450976,0.22997096887518415,-0.34284282347390793,0.4456759100421331,0.42389579015803946,0.2979800044517413,-0.1341922955994495,-0.3093223336458613,-0.1538736370496978,-0.0773381983700934,-0.08308983692208399,0.4811972272437721,0.14443793741581842,-0.13255936443167418,-0.11722753255171321,0.2543644222895142,-0.2563812540560635,-0.16736949473072477,0.030065443342417935,0.07924428038666005,-0.4439061534245945,-0.5066498699623816,0.09300218830280502,-0.3122412780669393,-0.11365030575552447,0.1594595485131136,-0.01495307412729841,-0.5073035804683388],[0.08666033482832326,-0.4147109690069655,0.14559225234044146,0.34373029373803543,-0.039721600486345966,-0.40612310436310384,0.07438597439320908,0.404371702465939,0.3205662987041379,-0.3448267889874321,0.3684865293893865,-0.058600871015481115,0.10744701782739112,-0.09029267715704219,-0.2892699969280687,-0.3425991231959665,0.37856683484647874,-0.2752462278020386,-0.4183522492195131,0.3290010043768104,-0.138197043013542,-0.3211007810901632,0.049251182271314656,-0.10026450830262945,-0.2560935831378161,0.2962298940711751,-0.047187959844207907,0.3171235442087706,-0.2205645062908489,-0.12341155235976566,-0.40782057935438204,0.17929574602225962,-0.3618960946291421,0.0580425082193735,0.30584113857107464,-0.25225482524849996,0.33967549480098325,-0.06557722070082159,0.1264365491594723,0.41483899739259567,-0.24835595099239663,-0.05745326004235054,0.29854147466921627,0.45787428800783914,0.049293120010360326,-0.16867791565200072,-0.22645387367949235,-0.17738631082358597,-0.2611357323001522,0.170506447947152,-0.14616733804313403,-0.12367761599062302,-0.47219041650389815,-0.2885903171863072,-0.509036964512985,-0.07671680930974345,-0.4828759760384655,0.06406618026723013,-0.43278188839460596,-0.26285290947679174],[0.435672326985016,0.3801406361333284,-0.5510497868996405,-0.08782486338810683,-0.20076881381329337,-0.3905285756770186,-0.741122248935474,-0.7246268027519168,0.22895486408169496,-0.3499760056534563,0.08121143514768017,-0.45977521881293126,-0.38649895786512656,-0.37827300846405926,-0.36419620168212424,0.8118315486255091,0.6439362092512084,-0.008680338743670373,0.48265817352091417,0.14427220858532144,0.17042725299760725,0.182245134694746,-0.9992760237303105,-0.1579726682192105,-0.37468051128598967,-0.17202911756870218,-0.5575964746127157,0.18120029289741385,0.16361198649651945,-0.35056904395688704,0.3050976346419401,-0.07043664309377043,-0.20297293579713568,-0.2509342432576686,-0.563939601431689,0.3186166797945531,-0.15292678082442684,-0.39987783752823763,0.18412899371396418,-0.007854609964913162,0.08453002307943565,-0.3282819002942841,-0.3667791559737936,0.307400570626405,-0.11928173045161128,0.6161937296881428,0.683744773899337,-0.11416843559588186,-0.2471042090700617,-0.6048262114358761,0.14036976579499533,0.5838496300845518,0.11495925118535115,-0.028365658243359425,-0.3041819978435549,0.21975215072544435,-0.8459222226034679,-0.1784058212286542,0.11096851195138911,-0.23001118842392707],[-0.08588810796109768,0.3816869896076813,0.2952602972232999,0.22444043367932262,-0.10938506154258329,-0.1105841588690841,0.4066451673286973,-0.20079855982555359,0.25785332955173035,-0.11079344335853245,0.33896497138191867,0.16455973603926016,-0.32696462973918267,-0.46110413573501186,0.03676027652125815,-0.7437706575361782,0.17558569561591736,-0.5126284742938892,-0.2226399703204983,0.2165901878599492,-0.14103654172670388,-0.1876494775360416,-0.24915740534603906,-0.3815970125633007,-0.047222681028838136,-0.009929157151075774,-0.3481473850029171,-0.48159253292292625,-0.6422739014491862,0.25098349216512583,-0.4104841420133616,0.4868667858444659,0.07393356544304136,0.16619615032467824,-0.3306643635508336,-0.28369183831953637,-0.07146190480643881,-0.2664150308845739,-0.07424627153639228,-0.2946358888817666,0.04353818674340796,-0.459345252105005,-0.13723624266660245,0.4420047659669672,0.11315395925740329,-0.538249156693586,0.3523472293289842,0.3211782813830533,-0.21978598037933628,0.3036595102542174,0.3489901151673278,-0.47739009699199714,-0.5144838568386019,0.3223693669685709,-0.5031760357304562,0.16079256276783277,-0.21664203099300364,0.03742237096086435,-0.24699332276795324,0.3836199599274334],[-0.5640597275503847,0.041300227302699985,0.03023416069355007,-0.055756803005610596,0.07596342482364563,-0.2726817816581602,0.1353962885133798,0.7325561902850667,-0.10560709137249856,-0.3001959132074476,-0.36091894026955773,0.41660256722719374,0.04087666233832012,-0.49653501022992774,-0.4508383006516293,0.028534740433954667,0.4818234878849842,-1.5937976440592325,-0.39073997153731194,-0.7334223201072254,-0.9271757321778313,-0.453737240496526,0.2436069491194097,-0.29509121481045986,0.5765027272795373,0.014347301648534979,0.25578026707676466,0.2594124186286187,0.15062680951686708,-0.17145172172529494,0.409655581372822,-0.22807951473333402,0.0280321166854674,-0.45505671953827626,-0.13681382639427983,0.17146496118663246,-0.27468353613045166,0.5238163411232093,0.10220343405749133,0.48691925783039014,-0.10914423576955329,-0.3808862542444732,0.48335737204137,0.14286560693188247,0.11243540473163117,0.040185858052319785,0.6891361216664724,0.40381494918942556,-0.18386231756430396,0.19129021753009623,-0.49998232029051465,-0.13178100690216465,-0.5533651175948874,-0.5694627271733332,-0.4280967104209138,-0.07164726693010184,0.5523745498439151,-0.2337191520373906,-0.1312270509180989,0.19890085315377898],[0.1810027845579156,-0.4756820627926458,0.36458236380990106,0.2380020224634556,0.1188882296341182,0.2919296763012809,0.07175269685214743,-0.3354758370253373,0.41594029651254083,0.11462841947405716,0.27965645850247983,-0.4535604213197599,-0.4128229564610239,-0.3895305606075713,-0.023372385880234128,-0.11774020716604304,-0.0543580642433695,-0.2515772855267742,-0.11905001597610548,-0.34322432639433315,0.05095818446186113,-0.32307282688519195,-0.31597025142830093,-0.2776356518364303,-0.1099601836192571,-0.5386593171245261,-0.017929049314495023,-0.2729021454286863,0.009876017591158009,0.10527550260857205,0.17418150841302593,0.22707608642199129,-0.17701999387581135,-0.41740204666123093,-0.22653483090533588,-0.31971470802815755,-0.3291571731021903,0.2576070018836712,0.18666240033832648,0.3289009330785976,-0.1857673924470417,0.40173207803728217,-0.05674997318988925,0.04936320399331459,-0.39512019264838033,0.34060087051703897,-0.3543153238789159,-0.26549634391469834,0.3618680373069147,-0.042154976764541614,0.10986729402353493,-0.11888501886018205,-0.07958235335240038,-0.6680446365597437,0.12363384588637413,-0.5821447574159988,-0.5168854648704809,-0.5065773576488926,-0.39039988127973874,0.0914996337773547],[0.09053612799346807,0.231566315126323,0.2014403666175816,0.19894997591081365,-0.10944305452003403,0.21519754745560696,-0.1895891301289223,0.4471422779809069,-0.16893531720415592,-0.2948642722252179,-0.4156587364397293,-0.08541404071231586,0.309992133785759,0.22467737702172716,-0.48127105588030317,0.2105133381242296,-0.4946858914326727,-0.15046520163611488,0.29944363081435743,0.08663364671775028,-0.24052862354176463,-0.05980973849441734,-0.2344273195624558,-0.43134113973075155,-0.09535889740854196,-0.03158904943759127,0.12351875623425711,-0.5288102179636098,-0.4848076170421965,-0.43413004088926505,-0.14966857235647452,-0.24575448923081436,-0.26343301812092335,-0.37579467054115906,0.2758679984276101,0.18728985493151093,-0.25758684504703233,-0.22936217593936603,0.30512567131766466,0.2787173983814675,0.13900384361322476,-0.26124049976715835,0.2818771672968701,0.15261934607667782,-0.49348562512172883,0.2537878187549465,-0.5405924506534073,-0.31669343840689684,-0.20392140732547095,0.03135633062905821,0.008122395888319398,-0.5126494143195787,0.23158839432541461,-0.43996111102324204,0.4141375792517078,-0.030963069967189862,0.10237649351550213,-0.2222299104033588,-0.262250638946239,-0.11691572112792131],[0.523174819842977,-0.30082790976924856,-0.23181466826573463,0.4829692007720628,-0.027164158816887992,0.16088907891111467,0.07340622874718483,0.33705716009884584,-0.11650940251633742,0.46705913658211556,-0.5082527870198743,-0.48827523171997694,-0.32287046235932226,0.41829237599839353,-0.7660366902607272,-1.0908100483941205,-0.4683833600168127,-0.02644035380677039,-0.6557839099069284,0.2152871027156,0.2376568307584147,-0.6448985412205367,0.23465102396255666,0.11386248091886565,0.05764107080846353,0.3925151879076109,0.3600138675394281,-0.2572697937737576,-0.41609788747548004,0.35374547957727015,-0.15763811735261635,-0.4154077796789132,-0.13703061197476232,-0.02988209972994589,0.1002550425614337,-0.42648761938386737,-0.11762724614531024,0.08570161764447327,-0.014518295259608422,0.42134264698981255,0.14439291754190658,-0.11438539909062637,0.32351887183013345,0.4521483355277566,0.06156806643576833,-0.3960985049830031,-0.5187218100764434,-0.5659491891179063,-0.0910460894069157,-0.8602571362291248,0.5244513649340674,0.17536614360269423,0.09180054184572228,-0.02388171173595862,0.5567143617253907,-0.522283849284775,-0.08853176085141921,0.21003757348864274,-0.25348295208811356,-0.4846199784873837],[0.9631238533421496,-0.5468316865733779,-0.4518843829270368,0.06149791269905362,0.2600150397203786,-0.3802514461795564,-0.2772543924092241,0.10484034779561215,0.18632298830326777,0.20769275227617728,-0.035293890689953394,0.38130909170587113,-0.5955658017254962,-0.1356778284844507,0.08478488932099824,-0.03951434628248656,0.020434534354035735,-0.2777733771634454,-0.6148686707916469,-0.3196644157475667,0.33884690896122627,-0.8788850676737929,0.14725635059295522,0.4256190786191444,-1.2683355197034345,-0.2847388805328463,-0.29415439263537196,0.3633235946040587,-1.1004305193569788,-0.5447261016434547,0.054231298161383425,-0.05300983370751588,-0.3458820492486507,-0.33430220026992447,-0.2987339159783724,-0.43074270710520984,-0.10455607013972264,-0.11116939128414377,0.36037630152976624,-0.0022710711676618,0.4198894029681615,-0.29097997901915695,0.37922983782947134,-0.040715697052517666,-0.33280201795191156,-0.06247313997840809,0.7262719447757393,-0.28720809741402226,0.18113623099435514,-0.12939396360476307,-0.32961997714399666,-0.3597684134295166,-0.13408382267302957,-0.030534055227604523,0.45030551930668966,0.11754986352065493,0.17658271210266932,-0.8712130067299702,0.481499357873649,0.3929796937359203],[0.14099701100371553,-0.4854041291736915,0.01830459854271423,0.17601174168243242,-0.3023850673351941,-0.592167939842996,0.3730969935256672,0.14209174715607165,-0.4744938184936317,0.00033132143967903855,0.2889262519513759,0.17570788113255686,0.10225933474765243,0.3050565818506386,0.03822206836920574,0.08724313867093414,0.42156487794805153,-0.32477934835323136,-0.1708265059690255,0.045357838857154616,-0.1685692380145756,-1.2467187188888176,-0.4554348172913966,-0.10628768027609072,-0.6587643869357452,-0.08602767507765985,-0.4122020238993786,-0.38377821964135655,0.493624175736818,0.9823045042912556,0.4729483824339973,-0.45952229158045155,0.29741944743472726,0.22172885800340283,0.3832180845260553,0.013522917424306969,0.06302729323201997,0.6350563650344069,-0.16034897760742178,-0.006344444221248483,-0.4641454259630803,-0.17538211455449448,-0.15073679243837537,-0.2950279944746156,0.18839206884938875,0.23785048333310893,0.1648312596649303,-0.403480094882195,-0.7960899321099554,0.10372061015249143,-0.503280163478103,-0.0913395663784148,0.15785992979894364,-0.18640916912869365,-0.8302141455931964,-0.8790135362840732,-0.1777612927414453,-0.38819662549346673,-0.036326178640339796,0.1554088515514805]]]}],"OutputSize":{"X":22,"Y":1,"Z":1}}]},"Parameters":{"LearningRate":0.01,"Momentum":0.6,"WeightDecay":0.001}}